%YAML:1.0
---
opencv_ml_svm:
   format: 3
   svmType: C_SVC
   kernel:
      type: RBF
      gamma: 5.3830000000000000e+00
   C: 2.6699999999999999e+00
   term_criteria: { epsilon:1.1920928955078125e-07, iterations:1000 }
   var_count: 64
   class_count: 2
   class_labels: !!opencv-matrix
      rows: 2
      cols: 1
      dt: i
      data: [ 0, 1 ]
   sv_total: 966
   support_vectors:
      - [ 2.01454923e-01, 1.95126861e-01, 8.21994692e-02, 1.99378625e-01,
          2.01432511e-01, 1.27588406e-01, 1.13576531e-01, 1.57876670e-01,
          2.11261019e-01, 2.28578135e-01, 2.97541499e-01, 1.79675043e-01,
          2.73131371e-01, 1.22946754e-01, 1.75460786e-01, 7.85848796e-02,
          1.40121907e-01, 1.69136807e-01, 2.02630937e-01, 6.82890713e-02,
          1.92255661e-01, 2.64052540e-01, 1.45576030e-01, 1.76972389e-01,
          1.43893361e-01, 8.84497687e-02, 9.23129395e-02, 6.23919144e-02,
          1.41425058e-01, 6.94925040e-02, 7.06352964e-02, 0.,
          9.49658528e-02, 8.90708342e-02, 0., 0., 3.83079387e-02, 0., 0.,
          0., 0., 0., 0., 5.87826259e-02, 1.96389526e-01, 5.98587468e-02,
          0., 0., 9.80082676e-02, 1.22010589e-01, 6.33794665e-02, 0.,
          1.14717670e-01, 0., 0., 0., 0., 0., 0., 0., 6.04751334e-02,
          5.00425287e-02, 0., 0. ]
      - [ 2.56824106e-01, 1.02048516e-01, 3.31919305e-02, 5.49616218e-02,
          9.44101363e-02, 4.03878912e-02, 8.13918859e-02, 2.41425514e-01,
          2.44820789e-01, 1.13543063e-01, 1.27031669e-01, 9.25567448e-02,
          1.38175875e-01, 1.22135617e-01, 1.26159176e-01, 2.99891561e-01,
          1.75148129e-01, 6.46175966e-02, 0., 2.16142431e-01,
          2.49526858e-01, 1.05656467e-01, 1.16355389e-01, 2.43942231e-01,
          2.65233368e-01, 4.29448858e-02, 6.99873343e-02, 1.90569595e-01,
          2.98269331e-01, 1.31014809e-01, 1.04147963e-01, 2.09329978e-01,
          0., 4.25413102e-02, 4.10001241e-02, 0., 6.73573241e-02,
          5.01411296e-02, 0., 0., 2.28801463e-02, 0., 0., 0.,
          4.34120260e-02, 3.51304784e-02, 4.59481031e-02, 3.76459546e-02,
          5.60446829e-02, 7.85264894e-02, 2.60314588e-02, 1.17315352e-01,
          1.25875473e-01, 0., 0., 0., 0., 0., 0., 0., 2.15047628e-01,
          2.92989463e-02, 0., 0. ]
      - [ 2.23299667e-01, 1.26279011e-01, 8.49734396e-02, 9.52576175e-02,
          8.93513039e-02, 1.12106457e-01, 6.38660342e-02, 1.46510348e-01,
          1.94758385e-01, 2.15170905e-01, 2.31512770e-01, 1.71784818e-01,
          1.58227772e-01, 1.32173374e-01, 1.62535608e-01, 2.69464642e-01,
          3.38972986e-01, 8.31934512e-02, 9.63500068e-02, 1.18693367e-01,
          1.42829254e-01, 1.65235847e-01, 1.62623182e-01, 2.01547638e-01,
          2.80659527e-01, 0., 7.36301467e-02, 0., 1.16251737e-01,
          7.02408254e-02, 1.93192691e-01, 1.35406077e-01, 1.60891622e-01,
          6.58899397e-02, 0., 0., 9.77486968e-02, 0., 0., 0.,
          5.37935086e-02, 5.16238250e-02, 0., 3.74024995e-02,
          9.60046574e-02, 4.90801111e-02, 0., 0., 2.01672032e-01,
          9.74601582e-02, 0., 0., 8.06056410e-02, 0., 0., 0., 0., 0., 0.,
          0., 6.31325543e-02, 0., 0., 1.60141930e-01 ]
      - [ 1.37638390e-01, 1.58190861e-01, 1.13459550e-01, 1.90842792e-01,
          4.62383568e-01, 1.49627894e-01, 1.02965198e-01, 0.,
          1.60623103e-01, 1.68991983e-01, 0., 3.23735148e-01,
          3.79860014e-01, 0., 8.40707347e-02, 0., 1.51312247e-01,
          1.18893974e-01, 0., 6.28575385e-02, 1.24091767e-01,
          7.47506246e-02, 1.63680539e-01, 1.08872443e-01, 1.59355804e-01,
          1.11215122e-01, 0., 8.88939798e-02, 1.91942617e-01,
          1.05713353e-01, 9.39939395e-02, 8.88939798e-02, 8.03115517e-02,
          8.40707347e-02, 0., 1.06367961e-01, 1.41389564e-01, 0.,
          5.94469868e-02, 0., 0., 7.28073865e-02, 0., 0., 1.62606746e-01,
          9.75470990e-02, 0., 0., 6.28575385e-02, 5.94469868e-02, 0., 0.,
          1.22446947e-01, 0., 0., 0., 4.99887578e-02, 4.20353673e-02,
          7.47506246e-02, 0., 1.28239810e-01, 0., 0., 0. ]
      - [ 1.93702221e-01, 2.39484295e-01, 6.64935336e-02, 8.60159546e-02,
          2.01445892e-01, 1.53559610e-01, 1.98421523e-01, 2.18697608e-01,
          1.98485017e-01, 1.55538753e-01, 1.45149499e-01, 1.60098612e-01,
          2.23510697e-01, 1.17892690e-01, 1.52714580e-01, 1.79586321e-01,
          1.79901540e-01, 1.54431522e-01, 1.42095074e-01, 1.05126813e-01,
          1.54839814e-01, 1.08864941e-01, 1.09584473e-01, 3.73949856e-01,
          2.74734974e-01, 1.37077242e-01, 0., 1.11623056e-01,
          3.67085710e-02, 1.19141385e-01, 8.87476876e-02, 1.51366234e-01,
          1.05438858e-01, 0., 0., 6.05403520e-02, 8.11114311e-02,
          5.80312982e-02, 0., 6.03590198e-02, 0., 0., 0., 5.53748012e-02,
          6.83862865e-02, 0., 0., 1.05904475e-01, 1.11555278e-01,
          7.38577247e-02, 0., 0., 8.25642869e-02, 0., 0., 0., 0., 0., 0.,
          0., 6.33206889e-02, 0., 3.21007110e-02, 8.33729804e-02 ]
      - [ 2.96887279e-01, 1.23338290e-01, 0., 0., 5.93720041e-02,
          7.84516111e-02, 2.61706293e-01, 2.95510411e-01, 1.99645162e-01,
          2.19507337e-01, 1.54172912e-01, 9.20542181e-02, 2.30666518e-01,
          1.34598225e-01, 2.23957643e-01, 1.63134903e-01, 3.33186835e-01,
          7.24093914e-02, 1.02127373e-01, 3.57705802e-02, 8.18743184e-02,
          1.23964779e-01, 1.47529885e-01, 3.02614659e-01, 2.42488950e-01,
          3.67751233e-02, 1.68844461e-02, 0., 3.99240367e-02, 0.,
          6.33357912e-02, 2.18052745e-01, 1.97645575e-01, 0., 0., 0.,
          7.81014860e-02, 0., 0., 0., 0., 0., 0., 0., 7.48959482e-02,
          8.10482949e-02, 3.29233259e-02, 9.00286585e-02, 3.18045877e-02,
          0., 0., 3.43890339e-02, 7.06848875e-02, 6.14456162e-02, 0., 0.,
          0., 3.38206217e-02, 0., 4.27491441e-02, 7.30335265e-02, 0., 0.,
          0. ]
      - [ 1.93436652e-01, 1.23249859e-01, 1.88517988e-01, 2.29052156e-01,
          2.97712386e-01, 3.53334248e-02, 4.73503768e-02, 3.60573120e-02,
          4.41658139e-01, 6.41115531e-02, 0., 0., 2.10727975e-01,
          1.24078199e-01, 1.57158211e-01, 1.87773660e-01, 4.35717739e-02,
          3.50390896e-02, 3.57529782e-02, 2.62975451e-02, 0., 0., 0.,
          1.54014099e-02, 3.62628788e-01, 2.38646343e-02, 0., 0.,
          2.71515638e-01, 1.96046874e-01, 1.65426686e-01, 1.71274059e-02,
          2.93760821e-02, 0., 1.69602893e-02, 0., 2.85524875e-01,
          5.00041731e-02, 0., 0., 0., 0., 0., 0., 1.31705090e-01, 0., 0.,
          1.71274059e-02, 0., 0., 0., 0., 2.00676844e-02, 1.83154661e-02,
          0., 0., 7.58487219e-03, 1.60400514e-02, 0., 1.00387573e-01,
          2.36368731e-01, 0., 0., 0. ]
      - [ 1.77532747e-01, 1.17143556e-01, 1.21986158e-01, 1.23033091e-01,
          1.58442497e-01, 0., 1.11360304e-01, 2.71578461e-01,
          2.49518022e-01, 2.33472854e-01, 5.07965647e-02, 8.79731998e-02,
          1.54458806e-01, 1.44895062e-01, 1.54050380e-01, 2.58613020e-01,
          2.61906326e-01, 1.05723158e-01, 1.40189394e-01, 1.58421278e-01,
          1.45125777e-01, 1.36724636e-01, 1.24569684e-01, 1.34086281e-01,
          2.33078405e-01, 1.17111571e-01, 1.28416717e-01, 1.28862545e-01,
          1.53172299e-01, 1.20927408e-01, 2.27655739e-01, 1.57961205e-01,
          8.62220153e-02, 0., 7.03750625e-02, 0., 1.06230423e-01, 0., 0.,
          0., 0., 0., 0., 0., 6.12807609e-02, 0., 6.42542392e-02,
          1.17982574e-01, 0., 0., 5.04597761e-02, 0., 1.74011067e-01, 0.,
          0., 0., 5.98718189e-02, 0., 0., 0., 1.17585920e-01, 0., 0.,
          2.03569233e-01 ]
      - [ 6.39733896e-02, 1.68777883e-01, 1.70019358e-01, 1.12109087e-01,
          1.35314062e-01, 9.21949744e-02, 1.40660807e-01, 3.46096195e-02,
          1.66974649e-01, 8.83111805e-02, 5.25146872e-02, 1.14572711e-01,
          1.17929846e-01, 0., 5.63158877e-02, 6.81530982e-02,
          1.93615675e-01, 2.48653844e-01, 1.89693421e-01, 1.68377802e-01,
          2.02897117e-01, 1.88885957e-01, 2.53591985e-01, 1.99773550e-01,
          1.94942594e-01, 2.73636997e-01, 2.14220881e-01, 0.,
          3.00833285e-01, 1.94960460e-01, 2.56070942e-01, 1.61720678e-01,
          9.36199501e-02, 5.38134612e-02, 0., 0., 4.04239483e-02, 0., 0.,
          0., 0., 0., 0., 0., 1.15786225e-01, 3.24911624e-02,
          9.22455713e-02, 3.75927910e-02, 9.44100097e-02, 0.,
          1.07361987e-01, 0., 1.24892704e-01, 0., 0., 2.47488283e-02, 0.,
          1.02490801e-02, 5.25912493e-02, 0., 6.28015921e-02, 0., 0., 0. ]
      - [ 6.96382448e-02, 9.95494798e-02, 0., 1.26205593e-01,
          1.31893143e-01, 6.54267073e-02, 0., 2.05334187e-01,
          1.17904194e-01, 3.21146488e-01, 1.86345130e-01, 2.28371933e-01,
          2.29560077e-01, 2.64841884e-01, 1.30421549e-01, 5.82778715e-02,
          2.38700151e-01, 1.53595135e-01, 1.30664214e-01, 2.32148901e-01,
          1.64790809e-01, 1.42680421e-01, 1.93812102e-01, 3.35175097e-01,
          1.81333169e-01, 0., 0., 0., 0., 0., 0., 1.78693533e-01,
          3.36365141e-02, 0., 4.21158746e-02, 0., 1.85162909e-02, 0., 0.,
          0., 0., 0., 0., 0., 1.44379586e-01, 1.12522446e-01,
          9.51193124e-02, 1.91022187e-01, 0., 0., 0., 0., 1.68876886e-01,
          9.38165486e-02, 0., 1.08544037e-01, 1.04676664e-01, 0., 0., 0.,
          4.68429215e-02, 0., 0., 0. ]
      - [ 2.57026911e-01, 1.35561988e-01, 1.50503948e-01, 9.36637223e-02,
          1.75870165e-01, 1.85088307e-01, 1.28458962e-01, 1.72502026e-01,
          2.73228467e-01, 2.37797052e-01, 1.38371974e-01, 1.27661183e-01,
          2.10787088e-01, 1.61816821e-01, 1.19215988e-01, 1.40550092e-01,
          1.08787030e-01, 1.25167102e-01, 1.34280413e-01, 1.43007010e-01,
          1.67657524e-01, 3.36691886e-02, 2.34097630e-01, 2.58414894e-01,
          1.43999293e-01, 4.25049290e-02, 1.07574694e-01, 1.72794104e-01,
          9.24498141e-02, 1.80007473e-01, 1.17461078e-01, 2.72496521e-01,
          4.35886085e-02, 1.05965994e-01, 8.80734399e-02, 0.,
          1.12404302e-01, 0., 0., 0., 3.85941155e-02, 0., 0., 0.,
          8.39754641e-02, 0., 1.16369694e-01, 1.08953439e-01,
          4.67990860e-02, 8.74662325e-02, 0., 0., 4.42151129e-02, 0., 0.,
          0., 0., 0., 0., 0., 4.42052335e-02, 3.91259864e-02,
          6.16750829e-02, 7.15687051e-02 ]
      - [ 3.01687449e-01, 3.90579961e-02, 2.96020452e-02, 3.36905792e-02,
          7.82174021e-02, 0., 3.06392461e-02, 3.98653261e-02,
          5.61339378e-01, 1.23424448e-01, 0., 0., 1.17778800e-01,
          5.39638549e-02, 1.44813329e-01, 2.16679871e-01, 2.34974593e-01,
          1.17831387e-01, 3.78098451e-02, 3.50256152e-02, 1.03400543e-01,
          0., 7.90363923e-02, 2.22602800e-01, 4.33056414e-01,
          1.51406020e-01, 0., 4.62701954e-02, 7.42304400e-02,
          7.84997642e-02, 9.46769416e-02, 1.22741483e-01, 2.01274291e-01,
          0., 0., 0., 4.76283282e-02, 0., 0., 0., 0., 0., 0., 0.,
          8.12351555e-02, 0., 7.86762238e-02, 1.06664859e-01,
          1.03893563e-01, 6.47158101e-02, 0., 0., 4.83445860e-02, 0., 0.,
          0., 0., 0., 0., 0., 5.43679073e-02, 0., 8.17203373e-02,
          3.62394489e-02 ]
      - [ 1.97297022e-01, 7.71026909e-02, 1.20064735e-01, 9.26262513e-02,
          1.67129964e-01, 1.18383348e-01, 1.17820591e-01, 2.35312372e-01,
          1.58195660e-01, 1.46542490e-01, 1.88361824e-01, 2.75882453e-01,
          2.42714792e-01, 2.26072684e-01, 1.46043286e-01, 1.58078641e-01,
          2.23022997e-01, 1.04593873e-01, 1.17887460e-01, 6.61333799e-02,
          1.52836457e-01, 1.24345124e-01, 2.70844311e-01, 3.24474037e-01,
          1.30878165e-01, 0., 2.10694708e-02, 0., 0., 0., 6.64322451e-02,
          2.35010475e-01, 1.40179470e-01, 8.76287147e-02, 0., 0.,
          8.98796394e-02, 0., 0., 0., 2.64221318e-02, 0., 0.,
          3.10465116e-02, 9.15289447e-02, 5.89303821e-02, 1.11689232e-01,
          7.94233531e-02, 0., 0., 0., 6.38317838e-02, 1.25270739e-01, 0.,
          0., 0., 2.49665678e-02, 0., 0., 0., 1.18057810e-01, 0.,
          1.47501528e-01, 9.53412801e-02 ]
      - [ 1.58833057e-01, 4.62109894e-02, 2.96220966e-02, 2.24158876e-02,
          6.55219257e-02, 0., 3.24804559e-02, 4.71110910e-01,
          2.35431373e-01, 4.57954109e-02, 1.30176038e-01, 8.44796449e-02,
          1.60789371e-01, 0., 1.54843792e-01, 4.37768728e-01,
          2.22909346e-01, 4.63847145e-02, 1.07007094e-01, 1.13679536e-01,
          8.98299143e-02, 5.59715517e-02, 3.12005952e-02, 2.99557209e-01,
          2.73091793e-01, 0., 0., 2.65883990e-02, 9.90006402e-02,
          6.99467361e-02, 8.23166594e-02, 3.37819666e-01, 1.92859154e-02,
          0., 0., 2.15623081e-02, 4.50967140e-02, 0., 0., 0.,
          4.47161794e-02, 1.44195845e-02, 1.85180381e-02, 0.,
          7.60752782e-02, 0., 4.69467640e-02, 4.00042832e-02,
          7.66876154e-03, 0., 0., 8.24403316e-02, 9.83807892e-02,
          1.83103271e-02, 0., 0., 0., 0., 0., 0., 0., 0., 0., 0. ]
      - [ 3.02720964e-01, 1.64797530e-01, 9.44612399e-02, 8.34584981e-02,
          9.58992168e-02, 1.38207391e-01, 6.84067160e-02, 2.42659479e-01,
          2.63998717e-01, 1.70817405e-01, 1.94315702e-01, 1.94243103e-01,
          2.09755585e-01, 1.80938661e-01, 8.89954418e-02, 4.04466800e-02,
          2.41579086e-01, 2.34627783e-01, 1.41787291e-01, 1.74109355e-01,
          1.83619678e-01, 1.73675194e-01, 7.60635734e-02, 1.34095982e-01,
          1.26733094e-01, 1.32961899e-01, 1.43668592e-01, 1.74567953e-01,
          1.89738780e-01, 1.29073590e-01, 9.93918404e-02, 1.03000872e-01,
          1.50517881e-01, 7.50781372e-02, 0., 0., 7.74475783e-02, 0., 0.,
          0., 0., 5.01322076e-02, 5.87417893e-02, 0., 1.08188160e-01, 0.,
          7.23144338e-02, 0., 3.70752029e-02, 7.97149315e-02,
          8.34435746e-02, 5.28544374e-02, 1.24144487e-01, 0., 0.,
          4.30872440e-02, 0., 0., 4.03677858e-02, 0., 8.29026774e-02, 0.,
          0., 5.36092483e-02 ]
      - [ 1.29171610e-01, 1.36350170e-01, 6.01889193e-02, 9.37970579e-02,
          2.03290820e-01, 8.46957192e-02, 1.18510537e-01, 1.27955332e-01,
          2.27329925e-01, 1.73960999e-01, 9.92421880e-02, 1.12843096e-01,
          1.53101191e-01, 1.20515943e-01, 9.67251509e-02, 1.26952142e-01,
          2.45486602e-01, 1.89883456e-01, 1.72441646e-01, 1.48693234e-01,
          2.20690161e-01, 1.88910529e-01, 1.61414787e-01, 2.33043104e-01,
          2.74983823e-01, 1.32577807e-01, 1.17505543e-01, 2.15348646e-01,
          1.76601693e-01, 1.74844474e-01, 1.92438096e-01, 2.36621961e-01,
          1.08597644e-01, 1.06527083e-01, 6.79470003e-02, 0.,
          1.16567656e-01, 0., 0., 0., 0., 0., 2.94144321e-02, 0.,
          3.06602605e-02, 2.81924978e-02, 0., 0., 1.31979227e-01, 0., 0.,
          0., 6.33765236e-02, 0., 0., 0., 2.26441044e-02, 0.,
          5.04749864e-02, 0., 8.81861150e-02, 0., 5.52350171e-02,
          7.12562874e-02 ]
      - [ 2.70200431e-01, 5.81856966e-02, 0., 0., 1.32124811e-01,
          6.70302212e-02, 7.52653554e-02, 3.20189565e-01, 3.85081768e-01,
          8.17846954e-02, 0., 1.73457906e-01, 1.82556242e-01,
          1.11432813e-01, 1.95404023e-01, 2.38927543e-01, 3.79762501e-01,
          8.15010369e-02, 0., 0., 1.28716692e-01, 1.20413832e-01,
          2.20369115e-01, 2.99306512e-01, 1.81853190e-01, 6.10492565e-02,
          0., 4.49982733e-02, 6.64685518e-02, 0., 4.79712002e-02,
          1.99543536e-01, 0., 0., 0., 0., 7.11139962e-02, 0., 0.,
          5.70289381e-02, 6.28615245e-02, 4.00179140e-02, 0.,
          2.17813551e-02, 6.12651557e-02, 0., 0., 0., 0., 0., 0.,
          6.21891208e-02, 1.42444327e-01, 0., 1.10871159e-01, 0.,
          6.26671463e-02, 0., 2.76742801e-02, 0., 4.38483506e-02, 0., 0.,
          2.82853916e-02 ]
      - [ 3.92916173e-01, 7.76360184e-02, 8.86493325e-02, 6.52838498e-02,
          1.57152921e-01, 0., 1.23483300e-01, 1.17439598e-01,
          4.56133664e-01, 1.15508050e-01, 0., 9.23253000e-02,
          9.76221189e-02, 1.27638400e-01, 9.85840335e-02, 0.,
          2.97086358e-01, 7.56177679e-02, 1.01312429e-01, 9.76221189e-02,
          9.76221189e-02, 1.01312429e-01, 7.56177679e-02, 1.13074936e-01,
          4.18913126e-01, 2.08706379e-01, 1.93573803e-01, 0.,
          1.94260612e-01, 7.76360184e-02, 0., 1.13074936e-01, 0., 0., 0.,
          0., 0., 0., 0., 0., 0., 0., 0., 0., 0., 0., 0., 0., 0., 0., 0.,
          0., 0., 0., 0., 0., 0., 0., 0., 0., 2.07673326e-01, 0., 0., 0. ]
      - [ 4.65065747e-01, 8.41003284e-02, 7.40995780e-02, 3.74437980e-02,
          1.21086068e-01, 1.95458636e-01, 1.54303789e-01, 2.67367035e-01,
          3.58842373e-01, 5.77594973e-02, 1.07370824e-01, 2.76841410e-02,
          1.13698170e-01, 2.08507441e-02, 2.54821014e-02, 6.27117977e-02,
          3.87973845e-01, 1.26984641e-01, 6.96636289e-02, 0.,
          6.82049096e-02, 2.87208445e-02, 8.79391357e-02, 2.02505752e-01,
          3.63535881e-01, 1.35938525e-01, 5.44402525e-02, 7.50468224e-02,
          4.86218594e-02, 0., 0., 1.58380330e-01, 6.82281777e-02,
          7.31811598e-02, 3.35555859e-02, 0., 7.88417310e-02, 0., 0.,
          3.07130944e-02, 0., 1.46866655e-02, 0., 0., 7.37633035e-02, 0.,
          4.12945971e-02, 0., 4.45284322e-02, 0., 4.73592430e-02,
          3.39710973e-02, 5.72644323e-02, 0., 0., 0., 6.30948618e-02,
          2.85661742e-02, 4.76977862e-02, 3.85690890e-02, 6.29727095e-02,
          0., 0., 0. ]
      - [ 3.16290915e-01, 2.11974874e-01, 1.38765678e-01, 4.85105701e-02,
          1.51623443e-01, 1.69385776e-01, 1.42006695e-01, 2.71657050e-01,
          3.18181068e-01, 1.12783611e-01, 7.12886527e-02, 0.,
          3.16337585e-01, 0., 1.82118062e-02, 0., 3.61248970e-01,
          1.49230540e-01, 9.15220156e-02, 4.15426493e-02, 9.34809223e-02,
          5.49970530e-02, 9.79895815e-02, 2.22108677e-01, 3.14679623e-01,
          9.88849550e-02, 0., 4.06013727e-02, 9.56137031e-02,
          5.48005737e-02, 1.75169371e-02, 1.24212354e-01, 2.15624087e-02,
          0., 3.41581330e-02, 1.43786788e-01, 1.43569604e-01, 0., 0., 0.,
          0., 0., 0., 3.75824124e-02, 1.92973316e-01, 0., 0., 0.,
          4.43874747e-02, 4.61426638e-02, 3.54966223e-02, 0.,
          4.91698571e-02, 3.15933973e-02, 0., 3.49722691e-02,
          3.47683392e-02, 4.08924893e-02, 0., 0., 3.19822207e-02,
          3.09413131e-02, 0., 0. ]
      - [ 2.66209155e-01, 8.89182240e-02, 4.88102771e-02, 7.59061426e-02,
          7.63385668e-02, 6.55477867e-02, 1.43630832e-01, 2.11933240e-01,
          2.78687477e-01, 1.21640183e-01, 1.16788246e-01, 1.66554540e-01,
          1.75783932e-01, 1.99806735e-01, 1.19120002e-01, 2.53546596e-01,
          1.44948140e-01, 1.75534248e-01, 5.91094010e-02, 1.57679021e-01,
          1.48830354e-01, 1.56724125e-01, 1.57949045e-01, 2.25645527e-01,
          2.46710166e-01, 2.05136448e-01, 5.23633435e-02, 1.15185648e-01,
          1.58927560e-01, 1.29606768e-01, 1.23123825e-01, 2.56018549e-01,
          0., 0., 7.34526739e-02, 0., 1.00235693e-01, 0., 0.,
          9.80093479e-02, 9.41606387e-02, 0., 9.75918919e-02,
          4.40147780e-02, 1.03141680e-01, 0., 0., 0., 7.29321763e-02, 0.,
          5.64166084e-02, 0., 6.87611178e-02, 0., 0., 0., 0., 0., 0.,
          3.44079323e-02, 1.12578481e-01, 0., 1.17393561e-01,
          1.13643549e-01 ]
      - [ 2.07804278e-01, 1.41024053e-01, 1.89715400e-01, 1.85073897e-01,
          1.70534596e-01, 1.69082135e-01, 1.19712166e-01, 7.61401653e-02,
          2.41926521e-01, 1.32328421e-01, 1.71716183e-01, 1.54142618e-01,
          2.44735748e-01, 1.62582487e-01, 1.65980637e-01, 1.73942968e-01,
          2.32530087e-01, 1.51729062e-01, 1.65579036e-01, 1.96427599e-01,
          2.12352797e-01, 0., 7.79654086e-02, 1.93359494e-01,
          2.35051602e-01, 1.56208783e-01, 8.17396119e-02, 1.71714962e-01,
          2.24470049e-01, 6.40786514e-02, 0., 1.00772202e-01,
          5.18505201e-02, 7.81797767e-02, 0., 0., 8.54059383e-02,
          4.00393866e-02, 0., 0., 5.25999591e-02, 0., 0., 0.,
          9.38259810e-02, 9.72706079e-02, 0., 4.49011400e-02,
          7.60594159e-02, 0., 7.89180472e-02, 0., 1.41568929e-01,
          3.27234119e-02, 0., 0., 0., 0., 0., 7.30452910e-02,
          1.05795957e-01, 5.52814007e-02, 0., 9.94589329e-02 ]
      - [ 2.13170275e-01, 2.10741907e-01, 1.51734143e-01, 0.,
          2.07561210e-01, 1.99806273e-01, 1.91799402e-01, 3.27420712e-01,
          9.89688188e-02, 0., 1.83330029e-01, 2.23802820e-01,
          1.50057003e-01, 1.21941738e-01, 0., 3.11806858e-01,
          2.19227016e-01, 0., 0., 0., 9.25494134e-02, 5.77433445e-02,
          1.58897266e-01, 3.45350623e-01, 1.76499069e-01, 4.68149893e-02,
          3.17780599e-02, 0., 7.23497197e-02, 3.24198864e-02,
          8.22631419e-02, 3.48575920e-01, 8.53429809e-02, 2.75529679e-02,
          6.86090663e-02, 5.56442179e-02, 1.04788184e-01, 3.53631638e-02,
          3.08767688e-02, 2.63914783e-02, 0., 0., 0., 0., 3.98272127e-02,
          0., 6.93563595e-02, 0., 5.82272857e-02, 4.78330813e-02, 0., 0.,
          3.72549444e-02, 0., 0., 0., 0., 0., 0., 0., 6.95552304e-02,
          5.08866906e-02, 7.74429142e-02, 4.49755751e-02 ]
      - [ 2.12298915e-01, 9.48502272e-02, 4.34645005e-02, 6.64602146e-02,
          7.17904717e-02, 0., 6.71716407e-02, 1.51229441e-01,
          2.53215462e-01, 1.31522015e-01, 1.15032569e-01, 1.75519213e-01,
          1.70768842e-01, 1.30313069e-01, 1.00038521e-01, 1.24802709e-01,
          4.61253613e-01, 1.22243203e-01, 2.06991524e-01, 0.,
          1.07312664e-01, 1.12253755e-01, 1.96183354e-01, 2.50799686e-01,
          2.76827753e-01, 1.77203536e-01, 6.62296861e-02, 7.43926689e-02,
          1.14017792e-01, 1.03371747e-01, 8.51770043e-02, 1.92518130e-01,
          1.77414030e-01, 6.94809407e-02, 0., 6.41972125e-02,
          1.34728238e-01, 0., 2.78516337e-02, 2.83193849e-02, 0., 0., 0.,
          0., 2.03399584e-02, 0., 0., 2.69414894e-02, 2.35944346e-01,
          3.96910012e-02, 0., 0., 9.12468731e-02, 0., 0., 0., 0., 0., 0.,
          0., 3.21602970e-02, 0., 0., 0. ]
      - [ 2.44372994e-01, 0., 0., 0., 9.08493698e-02, 4.12255898e-02,
          9.51236412e-02, 2.90797681e-01, 2.63815373e-01, 3.02735597e-01,
          1.69403434e-01, 1.71536624e-01, 7.73519427e-02, 1.56139925e-01,
          2.23432019e-01, 1.60891876e-01, 2.34539911e-01, 3.72455597e-01,
          5.65797910e-02, 8.44324380e-02, 6.25595450e-02, 0.,
          9.82108116e-02, 3.80547076e-01, 1.56712547e-01, 4.81766164e-02,
          5.74995503e-02, 3.27761136e-02, 6.32335246e-02, 2.83862799e-02,
          4.52024639e-02, 2.38513481e-02, 1.50921851e-01, 1.45379916e-01,
          0., 0., 1.29051208e-01, 0., 0., 0., 8.56542960e-03, 0., 0., 0.,
          1.69510454e-01, 7.68071711e-02, 0., 0., 3.97243164e-02,
          5.73991463e-02, 0., 2.87682600e-02, 3.97162624e-02,
          3.39307301e-02, 0., 4.98208329e-02, 5.40695600e-02, 0., 0., 0.,
          3.08830962e-02, 0., 0., 0. ]
      - [ 3.43933791e-01, 2.05315769e-01, 1.43646061e-01, 0.,
          1.05103076e-01, 1.22571945e-01, 1.97446674e-01, 2.54196137e-01,
          3.55025053e-01, 1.12324066e-01, 7.75186867e-02, 8.05390850e-02,
          2.55437315e-01, 3.65613960e-02, 0., 0., 4.33015794e-01,
          6.14909045e-02, 1.54467924e-02, 7.55672827e-02, 0.,
          5.88961765e-02, 0., 1.61359757e-01, 3.97530407e-01,
          4.53516245e-02, 0., 3.71661559e-02, 5.63471317e-02, 0., 0., 0.,
          3.41191031e-02, 0., 1.97879225e-02, 1.42830074e-01,
          1.41935527e-01, 0., 0., 0., 0., 0., 0., 0., 1.59857720e-01, 0.,
          0., 1.36172818e-02, 0., 0., 0., 0., 0., 0., 0., 0.,
          9.71219167e-02, 1.95847526e-02, 0., 1.08953947e-02,
          4.84802090e-02, 0., 0., 0. ]
      - [ 2.73680300e-01, 2.93504506e-01, 2.21882593e-02, 3.08604315e-02,
          5.19426279e-02, 4.12468091e-02, 3.08980960e-02, 2.98628565e-02,
          2.42771104e-01, 4.15164500e-01, 0., 1.44433111e-01,
          9.83975455e-02, 6.73529729e-02, 1.34754300e-01, 1.22996837e-01,
          2.41036192e-01, 0., 8.31613541e-02, 1.79139361e-01,
          1.52678311e-01, 1.91905618e-01, 1.83683157e-01, 2.34816507e-01,
          2.56692886e-01, 1.85521245e-01, 9.34166089e-02, 1.37642371e-02,
          1.21122152e-01, 7.63147995e-02, 1.04500711e-01, 1.62056193e-01,
          0., 1.18564218e-02, 0., 1.77113675e-02, 4.84563969e-02, 0.,
          2.17411276e-02, 0., 1.50732575e-02, 1.78192593e-02, 0., 0.,
          9.13778320e-02, 6.93710074e-02, 8.51802379e-02, 9.96033400e-02,
          1.57171220e-01, 1.22806408e-01, 0., 0., 9.01249722e-02, 0., 0.,
          0., 0., 0., 0., 0., 5.35578094e-02, 0., 0., 1.83411166e-01 ]
      - [ 2.65082777e-01, 8.49746466e-02, 0., 7.76229426e-02,
          1.76796764e-01, 2.09888354e-01, 2.46327370e-01, 2.86179155e-01,
          2.69976765e-01, 1.03832975e-01, 8.24205279e-02, 8.44609588e-02,
          1.06656104e-01, 0., 3.07062604e-02, 1.60348043e-01,
          2.19224542e-01, 2.94418007e-01, 2.00800210e-01, 6.32561892e-02,
          9.70269442e-02, 1.20793708e-01, 1.04632296e-01, 3.06358248e-01,
          3.62971395e-01, 5.35503589e-02, 1.23653293e-01, 5.60792163e-02,
          1.14532545e-01, 5.10254540e-02, 4.85508591e-02, 9.96503383e-02,
          7.32477531e-02, 8.92000645e-02, 5.92837334e-02, 0.,
          1.00339390e-01, 0., 0., 0., 0., 0., 0., 0., 8.48022625e-02,
          5.94878122e-02, 5.60306832e-02, 6.10494763e-02, 3.23423147e-02,
          0., 0., 0., 1.61711574e-02, 0., 2.17126049e-02, 0., 0., 0., 0.,
          4.59165685e-02, 1.36360034e-01, 6.24646880e-02, 5.61925061e-02,
          0. ]
      - [ 4.37864810e-01, 2.22875014e-01, 1.14914186e-01, 5.85936345e-02,
          9.87898856e-02, 0., 0., 0., 3.94063324e-01, 1.63717449e-01, 0.,
          5.91602363e-02, 1.13748759e-01, 1.08815134e-01, 1.61119893e-01,
          3.01787764e-01, 4.53615159e-01, 1.36775047e-01, 1.34544671e-01,
          7.61524141e-02, 2.89892070e-02, 0., 0., 1.84456229e-01,
          2.22980797e-01, 1.80026770e-01, 1.18341796e-01, 6.09335229e-02,
          3.04041374e-02, 7.12833181e-02, 0., 1.25320539e-01, 0., 0., 0.,
          0., 0., 0., 0., 0., 0., 0., 0., 0., 0., 0., 0., 0., 0., 0., 0.,
          0., 0., 0., 0., 0., 0., 0., 0., 0., 0., 0., 0., 0. ]
      - [ 1.31423511e-02, 7.73618519e-02, 0., 1.88699309e-02,
          4.83063638e-01, 1.51210666e-01, 1.13615505e-01, 1.09973408e-01,
          1.88919336e-01, 2.32901141e-01, 3.55255716e-02, 4.28656079e-02,
          3.78817543e-02, 1.61516275e-02, 9.82619915e-03, 0.,
          1.41089126e-01, 4.07773465e-01, 2.69400049e-02, 0.,
          6.57117553e-03, 1.78542733e-02, 0., 1.04923174e-02,
          1.19516566e-01, 5.56758523e-01, 5.25634140e-02, 0.,
          1.66757733e-01, 0., 0., 3.70461717e-02, 0., 0., 1.09854907e-01,
          2.50297263e-02, 1.18645661e-01, 0., 0., 0., 2.27632187e-02,
          6.52902350e-02, 0., 0., 4.96112853e-02, 0., 0., 0., 0., 0.,
          1.25382602e-01, 0., 1.10858023e-01, 0., 0., 0., 1.46935955e-02,
          5.41770421e-02, 5.98478056e-02, 0., 7.13812336e-02, 0., 0., 0. ]
      - [ 3.09834927e-01, 2.34325692e-01, 1.09308362e-02, 2.79691145e-02,
          5.78019731e-02, 0., 7.26319849e-02, 4.10448350e-02,
          2.19122395e-01, 3.99166733e-01, 9.70907286e-02, 2.00691238e-01,
          1.31777197e-01, 6.86784908e-02, 1.04839951e-01, 1.15448207e-01,
          2.08775148e-01, 1.09266087e-01, 0., 9.64884311e-02,
          2.83512980e-01, 1.32258356e-01, 2.08107829e-01, 1.73449561e-01,
          2.17486918e-01, 2.11693898e-01, 1.29556924e-01, 1.18928358e-01,
          6.49803802e-02, 1.20385937e-01, 0., 1.61408737e-01,
          9.12895519e-03, 0., 0., 0., 5.39211109e-02, 0., 0., 0., 0.,
          1.59799214e-02, 0., 0., 9.73279625e-02, 1.23435296e-01,
          3.69685031e-02, 1.09285481e-01, 2.46455669e-01, 7.96058103e-02,
          0., 0., 9.51632410e-02, 0., 0., 0., 0., 0., 0., 0.,
          3.16236280e-02, 0., 0., 1.10111304e-01 ]
      - [ 6.85319304e-02, 0., 2.62710005e-01, 1.82170838e-01,
          5.35570458e-02, 8.21210667e-02, 8.99082124e-02, 1.69047326e-01,
          1.75108075e-01, 9.20923725e-02, 2.61172026e-01, 2.23983303e-01,
          2.07211927e-01, 9.58712474e-02, 1.69333190e-01, 2.08412766e-01,
          1.96889654e-01, 1.06662802e-01, 1.01727955e-01, 1.18213452e-01,
          1.58495039e-01, 3.11737992e-02, 1.12098888e-01, 3.20748150e-01,
          1.87719762e-01, 2.82214731e-02, 6.36751205e-02, 1.03568546e-01,
          6.08823560e-02, 1.95213314e-02, 2.15425506e-01, 3.23449761e-01,
          0., 0., 7.89390132e-02, 1.18633740e-01, 1.75637081e-01, 0., 0.,
          1.95956379e-01, 1.35170132e-01, 4.94588800e-02, 0., 0., 0., 0.,
          0., 0., 0., 0., 0., 0., 2.18446944e-02, 1.72662213e-02, 0.,
          1.73779819e-02, 7.28097260e-02, 0., 1.13203861e-01, 0.,
          1.16910666e-01, 0., 0., 0. ]
      - [ 1.65087983e-01, 1.90441072e-01, 1.89417824e-01, 0.,
          1.39973283e-01, 1.40919268e-01, 1.65192932e-01, 1.63973033e-01,
          2.77416736e-01, 1.31120324e-01, 2.70742625e-01, 2.22011611e-01,
          1.48517847e-01, 1.88555419e-01, 9.26709026e-02, 3.67117114e-02,
          1.12027608e-01, 1.65626794e-01, 2.66369253e-01, 1.01062946e-01,
          1.55453637e-01, 8.79614800e-02, 0., 9.81925428e-02,
          2.35956550e-01, 2.44132191e-01, 1.49447799e-01, 1.32976025e-01,
          2.38790259e-01, 1.16785653e-01, 9.26646888e-02, 7.81716779e-02,
          9.54962671e-02, 1.40190929e-01, 0., 0., 9.11626369e-02, 0., 0.,
          0., 2.70982292e-02, 0., 0., 0., 1.11124448e-01, 0.,
          1.22541718e-01, 1.36374474e-01, 8.23543295e-02, 0.,
          6.34583309e-02, 0., 2.63163857e-02, 0., 4.04817648e-02, 0.,
          5.53893112e-02, 0., 0., 0., 5.59323281e-02, 4.62643765e-02,
          8.32327083e-02, 8.45718756e-02 ]
      - [ 1.64418086e-01, 1.05187006e-01, 9.78653878e-02, 1.29149020e-01,
          2.55726725e-01, 2.29032218e-01, 1.95832938e-01, 1.93599835e-01,
          1.69531360e-01, 1.43254086e-01, 7.13807642e-02, 1.38520122e-01,
          1.09287292e-01, 2.16886252e-01, 2.40474045e-01, 1.46232665e-01,
          8.60387906e-02, 8.23718011e-02, 1.01933643e-01, 6.82454258e-02,
          1.68889418e-01, 2.48886883e-01, 1.05505399e-01, 2.20157012e-01,
          1.59678400e-01, 1.46020457e-01, 1.21551163e-01, 2.61760414e-01,
          2.77739495e-01, 1.02454722e-01, 7.11124241e-02, 6.75241575e-02,
          5.60153760e-02, 5.34353629e-02, 0., 5.52832186e-02,
          1.42372176e-01, 1.04082383e-01, 5.63419126e-02, 0.,
          6.17593415e-02, 0., 0., 0., 1.33874983e-01, 8.31366777e-02,
          6.51017204e-02, 0., 7.25605115e-02, 9.74289328e-02, 0., 0.,
          4.04309779e-02, 0., 0., 0., 0., 0., 0., 0., 1.09621294e-01, 0.,
          7.13317320e-02, 1.17647395e-01 ]
      - [ 2.13544890e-01, 1.28913835e-01, 1.44863024e-01, 1.91582114e-01,
          2.19712630e-01, 1.91344425e-01, 1.40226722e-01, 2.92994738e-01,
          1.66935399e-01, 1.36443675e-01, 1.61791161e-01, 2.98726916e-01,
          1.97989896e-01, 3.70263010e-02, 9.48984921e-02, 2.49560252e-01,
          2.74598718e-01, 7.96400979e-02, 1.06274180e-01, 6.54071271e-02,
          1.17009245e-01, 5.56211397e-02, 1.38940573e-01, 2.99345821e-01,
          1.91297024e-01, 5.81817031e-02, 0., 2.94067916e-02,
          6.35272413e-02, 3.36941406e-02, 8.12215731e-02, 2.11730748e-01,
          6.44031018e-02, 3.13675404e-02, 1.00814022e-01, 1.08826280e-01,
          1.29309297e-01, 0., 0., 0., 0., 0., 0., 0., 1.35875821e-01,
          1.04045801e-01, 8.81442949e-02, 0., 5.02938628e-02, 0., 0., 0.,
          5.17106280e-02, 5.10776788e-02, 0., 0., 2.44905576e-02, 0., 0.,
          3.38687375e-02, 5.96050806e-02, 3.81066017e-02, 0., 0. ]
      - [ 2.65662283e-01, 6.42131716e-02, 9.34422314e-02, 0.,
          1.32870376e-01, 1.54301748e-01, 2.11032540e-01, 3.15598696e-01,
          2.37403393e-01, 1.36538297e-01, 8.20211545e-02, 0.,
          1.16370082e-01, 6.19281791e-02, 1.78914592e-01, 3.37891459e-01,
          2.53590494e-01, 2.74833739e-02, 7.39574134e-02, 3.71082053e-02,
          1.61414564e-01, 6.96670637e-02, 2.18379050e-01, 2.39447147e-01,
          2.23487347e-01, 1.00036882e-01, 8.62259641e-02, 0.,
          1.03932098e-01, 7.63254985e-02, 6.60206154e-02, 3.42121303e-01,
          4.07854728e-02, 6.39148131e-02, 0., 6.95638135e-02,
          1.22728236e-01, 0., 0., 0., 2.01375596e-02, 0., 6.53317124e-02,
          2.08674762e-02, 8.74005929e-02, 0., 0., 0., 2.05365177e-02, 0.,
          1.05583586e-01, 0., 8.09090436e-02, 0., 0., 0., 2.52437666e-02,
          0., 0., 4.38832119e-02, 1.03650264e-01, 0., 5.09314947e-02, 0. ]
      - [ 4.83942181e-02, 9.57830474e-02, 7.02131912e-02, 8.14202055e-02,
          1.33463547e-01, 7.66374320e-02, 7.40157962e-02, 2.02533931e-01,
          2.41897449e-01, 3.24862957e-01, 1.68747395e-01, 1.38361737e-01,
          1.89506531e-01, 1.48669466e-01, 2.94660896e-01, 6.72080591e-02,
          2.75293469e-01, 1.18860714e-01, 1.31932229e-01, 1.37315422e-01,
          2.28502199e-01, 1.45523459e-01, 1.74384296e-01, 3.31085384e-01,
          2.36760750e-01, 5.01289666e-02, 6.43340871e-02, 0.,
          5.90456314e-02, 0., 5.20068705e-02, 1.40784815e-01,
          1.37371555e-01, 0., 0., 0., 4.37742174e-02, 0., 0., 0.,
          1.15355188e-02, 0., 8.22045282e-02, 9.55047756e-02,
          1.29485875e-01, 6.33400083e-02, 0., 1.09025173e-01,
          9.90772769e-02, 0., 7.15510100e-02, 9.08044055e-02,
          1.17526501e-01, 0., 0., 0., 0., 0., 0., 0., 6.78539574e-02, 0.,
          7.96133280e-02, 0. ]
      - [ 3.72946680e-01, 2.15919688e-02, 2.99339257e-02, 3.88151072e-02,
          5.80174737e-02, 4.16144915e-02, 3.25481966e-02, 1.01498432e-01,
          4.15857911e-01, 1.58559740e-01, 1.67871103e-01, 1.75204620e-01,
          1.31186619e-01, 9.82496962e-02, 1.15075491e-01, 1.38358563e-01,
          3.81766297e-02, 0., 0., 2.11551592e-01, 3.03991944e-01,
          2.19036341e-01, 1.82926849e-01, 1.22714460e-01, 2.62054563e-01,
          1.58294365e-01, 1.07525744e-01, 1.18973143e-01, 1.67860046e-01,
          1.45481497e-01, 4.22593616e-02, 1.05032519e-01, 0., 0., 0., 0.,
          1.66616477e-02, 0., 0., 3.26394849e-02, 3.85962613e-02,
          4.26605046e-02, 3.33110839e-02, 0., 1.65028825e-01, 0.,
          8.47355351e-02, 7.95033574e-02, 7.29294643e-02, 0.,
          6.62732944e-02, 1.09364301e-01, 1.22153856e-01, 0., 0., 0., 0.,
          0., 0., 0., 8.47535953e-02, 0., 8.13138559e-02, 1.08470850e-01 ]
      - [ 1.47064611e-01, 9.52596217e-02, 1.25118449e-01, 1.02593303e-01,
          1.96454316e-01, 9.73784104e-02, 2.03394488e-01, 2.14706942e-01,
          1.61507353e-01, 2.31844887e-01, 2.23744720e-01, 2.61238903e-01,
          2.59988368e-01, 1.48669004e-01, 1.59474939e-01, 1.27954125e-01,
          1.30242974e-01, 1.97368935e-01, 1.99733973e-01, 1.51292503e-01,
          2.04943091e-01, 2.23464027e-01, 1.04082465e-01, 1.46514446e-01,
          1.47459313e-01, 7.14476258e-02, 3.01218152e-01, 0.,
          6.81693479e-02, 0., 0., 0., 0., 0., 0., 0., 1.34797571e-02, 0.,
          0., 0., 1.52846081e-02, 0., 0., 4.99206744e-02, 1.19810700e-01,
          5.00299931e-02, 1.44175440e-01, 1.39888421e-01, 7.65230134e-02,
          1.76158711e-01, 3.37364674e-02, 0., 1.20889127e-01, 0., 0., 0.,
          0., 0., 0., 0., 0., 0., 0., 0. ]
      - [ 3.54030848e-01, 7.18607232e-02, 0., 4.72455658e-02,
          7.33930841e-02, 2.83952542e-02, 5.02033681e-02, 1.36707589e-01,
          3.71534288e-01, 2.14177221e-01, 1.74239665e-01, 1.76681519e-01,
          1.87183797e-01, 1.37276828e-01, 1.27713650e-01, 8.10481682e-02,
          4.23735157e-02, 4.16761227e-02, 3.27841081e-02, 2.43851408e-01,
          2.53958106e-01, 1.82482526e-01, 2.11265028e-01, 2.01384068e-01,
          2.45902076e-01, 1.35419101e-01, 1.26360327e-01, 1.22336097e-01,
          1.33367971e-01, 1.07378490e-01, 7.55215734e-02, 1.07637614e-01,
          0., 0., 0., 3.06767933e-02, 3.86368148e-02, 0., 0., 0.,
          2.44643595e-02, 0., 2.38260888e-02, 2.64854301e-02,
          1.47234380e-01, 1.43720433e-01, 8.54372904e-02, 0.,
          6.60504177e-02, 0., 6.18938282e-02, 1.04762323e-01,
          1.61618158e-01, 0., 0., 0., 0., 0., 0., 0., 7.43462816e-02, 0.,
          9.72902477e-02, 0. ]
      - [ 8.32472891e-02, 1.59945399e-01, 1.35380507e-01, 0.,
          2.39470124e-01, 1.61666363e-01, 1.89847216e-01, 1.58880234e-01,
          1.63406163e-01, 1.83718100e-01, 2.00209975e-01, 1.40035838e-01,
          2.91295290e-01, 6.88889176e-02, 1.68838099e-01, 1.44908085e-01,
          1.30185172e-01, 1.35948941e-01, 9.51621160e-02, 1.20550543e-01,
          1.56094581e-01, 2.10737824e-01, 1.37697399e-01, 2.50767618e-01,
          1.61035568e-01, 1.58008426e-01, 1.18970253e-01, 1.20251879e-01,
          2.22440839e-01, 1.66840315e-01, 1.67887941e-01, 0., 0.,
          1.47020400e-01, 0., 0., 1.01546615e-01, 0., 0., 0.,
          2.67419163e-02, 0., 0., 5.70387989e-02, 1.45350248e-01, 0.,
          1.18625827e-01, 9.19277072e-02, 1.69631973e-01, 1.03219926e-01,
          0., 0., 8.81711766e-02, 0., 0., 0., 0., 0., 0., 0.,
          7.12398514e-02, 0., 9.86079276e-02, 9.45475474e-02 ]
      - [ 1.03872254e-01, 1.57495588e-01, 2.25710467e-01, 8.56567249e-02,
          8.75542238e-02, 0., 0., 0., 2.65748173e-01, 2.74912119e-01,
          2.04518527e-01, 1.89882562e-01, 2.09061146e-01, 1.64312437e-01,
          1.55985683e-01, 7.11161792e-02, 2.00089306e-01, 2.00202763e-01,
          1.05657488e-01, 1.03129178e-01, 1.20505027e-01, 1.27641961e-01,
          2.21768573e-01, 3.02271903e-01, 2.50468194e-01, 1.18571982e-01,
          1.18186280e-01, 1.32580802e-01, 8.20036903e-02, 9.15675089e-02,
          1.35348111e-01, 1.21608339e-01, 9.21900719e-02, 8.36415440e-02,
          6.14258572e-02, 0., 8.23393911e-02, 0., 0., 0., 1.13315852e-02,
          0., 0., 0., 1.13415450e-01, 0., 1.52175963e-01, 0.,
          1.48583353e-01, 1.13613114e-01, 0., 0., 8.38843510e-02, 0., 0.,
          0., 0., 0., 0., 0., 8.62987861e-02, 0., 1.07173145e-01,
          1.45923361e-01 ]
      - [ 1.91581368e-01, 1.56460986e-01, 1.14142060e-01, 1.32385999e-01,
          2.43480742e-01, 1.07639164e-01, 2.20630884e-01, 1.07525729e-01,
          1.21575654e-01, 2.28363916e-01, 1.20326214e-01, 1.65703386e-01,
          3.04377407e-01, 2.69621760e-01, 1.26557648e-01, 1.60150915e-01,
          9.06950161e-02, 8.00694674e-02, 1.00889504e-01, 9.78024304e-02,
          3.01665753e-01, 1.68365374e-01, 1.51729122e-01, 9.55429077e-02,
          1.99191660e-01, 1.96773767e-01, 1.61980942e-01, 1.00087628e-01,
          2.07087994e-01, 0., 8.04023892e-02, 2.09419709e-02,
          1.22400187e-02, 0., 0., 1.68419629e-02, 5.98982945e-02, 0.,
          2.15624124e-02, 0., 2.89992131e-02, 0., 2.76064295e-02,
          3.38654220e-02, 5.77714257e-02, 0., 1.09316967e-01, 0.,
          1.40205741e-01, 1.36802748e-01, 0., 0., 1.15883522e-01, 0., 0.,
          0., 0., 0., 0., 0., 1.09108940e-01, 0., 1.37267113e-01,
          7.67201185e-02 ]
      - [ 1.80331171e-01, 1.47673160e-01, 1.59512207e-01, 2.69718647e-01,
          6.64029717e-02, 0., 0., 2.43648455e-01, 1.72801167e-01,
          1.15365952e-01, 1.35304004e-01, 3.13145936e-01, 2.29298443e-01,
          1.64348364e-01, 1.80984005e-01, 6.27790466e-02, 1.51958019e-01,
          8.86022896e-02, 2.09835604e-01, 2.68621057e-01, 7.88990036e-02,
          4.89054099e-02, 8.63851830e-02, 3.14215809e-01, 1.46276176e-01,
          0., 0., 2.54583448e-01, 1.38832480e-01, 1.56890899e-01,
          1.16972111e-01, 0., 2.17812806e-02, 0., 7.59118274e-02,
          5.96103184e-02, 8.68042186e-02, 3.69695276e-02, 2.59080529e-02,
          0., 0., 0., 0., 0., 6.53438419e-02, 8.57526585e-02,
          2.62806118e-02, 7.96758160e-02, 4.78372127e-02, 0.,
          5.00311479e-02, 9.61472169e-02, 9.93940905e-02, 0., 0., 0., 0.,
          0., 0., 4.44234498e-02, 1.89018101e-01, 0., 0., 5.02151437e-02 ]
      - [ 2.59860247e-01, 1.16719857e-01, 1.13215350e-01, 1.03105739e-01,
          1.97508842e-01, 1.78914025e-01, 2.16467515e-01, 2.21752822e-01,
          1.72953084e-01, 9.57466811e-02, 1.61399573e-01, 2.40843490e-01,
          1.53028443e-01, 8.02545324e-02, 1.58880442e-01, 2.18742326e-01,
          1.67528212e-01, 1.13766499e-01, 5.02937287e-02, 6.40813783e-02,
          1.39132947e-01, 1.32490069e-01, 1.75242245e-01, 1.84971720e-01,
          2.34882459e-01, 1.03485040e-01, 2.00696439e-01, 1.04671218e-01,
          1.78588614e-01, 1.52090371e-01, 5.68516515e-02, 2.29488298e-01,
          1.41047776e-01, 8.65534469e-02, 0., 0., 7.88967013e-02, 0., 0.,
          0., 0., 0., 0., 0., 1.12065084e-01, 9.37775522e-02,
          7.51645789e-02, 1.30331531e-01, 1.23436458e-01, 0.,
          5.89772351e-02, 6.77293316e-02, 9.28827226e-02, 0., 0., 0.,
          1.47787053e-02, 0., 0., 0., 7.24005774e-02, 0., 6.60613775e-02,
          7.34348297e-02 ]
      - [ 3.68035316e-01, 8.01468864e-02, 0., 2.30076499e-02,
          9.19597223e-02, 6.17836788e-02, 3.39015871e-01, 1.86128393e-01,
          2.44824782e-01, 2.13765070e-01, 1.17376260e-01, 1.69976354e-01,
          1.93834141e-01, 1.63391367e-01, 2.08839580e-01, 1.63450405e-01,
          2.29815543e-01, 9.85597149e-02, 6.92923963e-02, 0.,
          1.24296010e-01, 3.23005021e-02, 1.51251644e-01, 3.61039877e-01,
          1.11710988e-01, 2.73608603e-02, 0., 1.53861428e-02,
          3.55333090e-02, 1.51437661e-02, 0., 3.11151594e-01,
          1.39248371e-01, 0., 4.41894270e-02, 4.03845459e-02,
          5.98523691e-02, 0., 0., 0., 0., 0., 0., 0., 3.90753709e-02, 0.,
          0., 1.08735844e-01, 9.40376520e-02, 0., 0., 3.33949178e-02,
          6.03409670e-02, 0., 0., 0., 0., 0., 0., 0., 7.72247761e-02, 0.,
          0., 6.74808919e-02 ]
      - [ 3.47036362e-01, 1.21893026e-01, 6.41331822e-02, 0.,
          8.72841701e-02, 4.32966985e-02, 7.12679178e-02, 2.93019146e-01,
          3.29300433e-01, 1.49056703e-01, 1.43604621e-01, 1.14927277e-01,
          1.33794233e-01, 6.24133684e-02, 1.65566266e-01, 2.84788638e-01,
          3.18697631e-01, 1.30887121e-01, 8.47675800e-02, 1.06214993e-01,
          7.68311545e-02, 1.13582149e-01, 1.66346520e-01, 2.23897815e-01,
          3.18771273e-01, 1.21939823e-01, 0., 8.21330994e-02,
          7.95269907e-02, 2.88914219e-02, 5.93655854e-02, 2.21256703e-01,
          0., 0., 0., 6.16746694e-02, 8.61363113e-02, 0., 0., 0., 0., 0.,
          0., 6.80553019e-02, 8.92774016e-02, 5.88051938e-02, 0., 0.,
          3.07954382e-02, 0., 0., 0., 4.46387008e-02, 4.35535498e-02,
          4.54987846e-02, 4.47045863e-02, 4.37718481e-02, 4.03905138e-02,
          5.41109554e-02, 0., 7.78214782e-02, 0., 0., 0. ]
      - [ 1.38280004e-01, 1.01048544e-01, 5.34944050e-02, 3.39490175e-02,
          5.70607409e-02, 4.25349399e-02, 5.91737181e-02, 4.28728580e-01,
          1.69372976e-01, 4.53694128e-02, 0., 0., 1.73820406e-01,
          5.91611117e-02, 1.59458637e-01, 4.27583635e-01, 2.01391757e-01,
          9.79335606e-02, 7.02925846e-02, 4.84327748e-02, 1.35606110e-01,
          1.58294022e-01, 2.16478303e-01, 2.73443222e-01, 1.54682651e-01,
          5.97879663e-02, 3.20776850e-02, 0., 6.00886308e-02, 0.,
          1.29291460e-01, 4.38281566e-01, 2.84141600e-02, 0.,
          3.22234631e-02, 0., 4.21990342e-02, 1.15208458e-02,
          2.91528050e-02, 0., 1.33445058e-02, 0., 0., 3.56222130e-02,
          7.83829466e-02, 0., 2.45144889e-02, 0., 0., 0., 0., 0.,
          7.85703212e-02, 3.61557454e-02, 4.11336944e-02, 1.23915426e-01,
          2.66890116e-02, 0., 0., 0., 7.70445401e-03, 0., 0., 0. ]
      - [ 1.66117191e-01, 1.22813612e-01, 1.36248261e-01, 4.05908190e-02,
          1.16806075e-01, 8.80322680e-02, 1.46513894e-01, 1.53896600e-01,
          3.66118044e-01, 1.91724315e-01, 1.71839043e-01, 2.01459974e-01,
          2.89949358e-01, 2.04204455e-01, 1.37892023e-01, 1.14563532e-01,
          3.01017404e-01, 1.48757592e-01, 2.32533678e-01, 2.70585328e-01,
          7.24178776e-02, 8.03199708e-02, 7.31410086e-02, 2.76206553e-01,
          1.69976324e-01, 2.80862283e-02, 0., 2.69923098e-02,
          3.54187489e-02, 0., 0., 1.75665189e-02, 8.70697722e-02,
          7.95853063e-02, 9.23583061e-02, 0., 1.11862004e-01, 0., 0., 0.,
          0., 0., 0., 0., 1.38052255e-01, 9.85707268e-02, 1.44430131e-01,
          0., 0., 6.73608854e-03, 8.55308771e-02, 5.55449538e-02,
          9.08064768e-02, 2.42693275e-02, 0., 1.94317866e-02,
          2.85737719e-02, 2.24442203e-02, 0., 0., 2.88826451e-02, 0., 0.,
          0. ]
      - [ 1.94033518e-01, 1.46774605e-01, 1.41062573e-01, 1.47342518e-01,
          1.54301107e-01, 1.77311137e-01, 1.41571373e-01, 0.,
          2.98071951e-01, 2.07776830e-01, 1.63984954e-01, 1.63183123e-01,
          2.24757388e-01, 1.39332384e-01, 1.00768052e-01, 2.00624958e-01,
          1.71745032e-01, 1.19211599e-01, 1.38664246e-01, 1.70390844e-01,
          2.30319455e-01, 1.29642859e-01, 1.07696131e-01, 2.43913814e-01,
          1.28287300e-01, 0., 0., 2.15916842e-01, 1.80882365e-01,
          1.49808273e-01, 1.40724584e-01, 2.04682276e-01, 4.85982075e-02,
          7.96160400e-02, 0., 1.12000614e-01, 1.11088611e-01, 0., 0., 0.,
          0., 0., 0., 0., 1.13505252e-01, 9.68453586e-02, 1.07908107e-01,
          8.63444358e-02, 3.74132730e-02, 6.92627281e-02, 6.57475293e-02,
          0., 6.48016930e-02, 2.27541979e-02, 0., 0., 0., 2.27887519e-02,
          0., 0., 7.75425285e-02, 6.23590462e-02, 0., 6.76755905e-02 ]
      - [ 2.00167328e-01, 8.97333398e-02, 7.94208497e-02, 1.03532873e-01,
          7.41921067e-02, 0., 9.12898779e-02, 9.13217440e-02,
          3.64915043e-01, 2.69609958e-01, 2.50283420e-01, 3.21318626e-01,
          2.94102460e-01, 2.71422148e-01, 1.15950055e-01, 7.93737844e-02,
          1.54715315e-01, 7.40461573e-02, 7.61307180e-02, 8.73647407e-02,
          9.81667563e-02, 9.85047370e-02, 1.55220121e-01, 1.56348690e-01,
          1.54964060e-01, 0., 0., 1.46923110e-01, 1.21719971e-01,
          9.70736817e-02, 9.38829035e-02, 1.48198962e-01, 1.23709060e-01,
          0., 0., 0., 1.19639989e-02, 0., 0., 0., 6.55295253e-02, 0., 0.,
          1.01506270e-01, 2.06114545e-01, 1.26310930e-01, 0.,
          1.28260180e-01, 0., 0., 0., 9.30486768e-02, 1.19344927e-01, 0.,
          4.34679911e-02, 0., 3.16537656e-02, 0., 0., 9.75190997e-02,
          9.71959904e-02, 0., 0., 0. ]
      - [ 2.54152507e-01, 5.36649413e-02, 5.17971404e-02, 3.89474742e-02,
          1.89309776e-01, 6.39721006e-02, 6.97123334e-02, 3.59474778e-01,
          3.09890866e-01, 1.06625348e-01, 8.76673386e-02, 7.50496387e-02,
          1.49131656e-01, 7.72485957e-02, 1.63559273e-01, 2.68645406e-01,
          1.60933569e-01, 1.93078026e-01, 7.43528828e-02, 1.48849368e-01,
          7.64762908e-02, 5.70088774e-02, 5.34723662e-02, 2.83358097e-01,
          3.53671670e-01, 2.05815230e-02, 4.37941365e-02, 9.51174349e-02,
          1.13349475e-01, 9.18944031e-02, 1.17369391e-01, 1.51267901e-01,
          9.64937136e-02, 8.53149146e-02, 7.65693784e-02, 0.,
          1.20528810e-01, 0., 0., 0., 0., 0., 0., 0., 1.14801176e-01, 0.,
          9.80044678e-02, 1.73249274e-01, 1.55375674e-01, 0., 0., 0.,
          6.92277178e-02, 0., 0., 0., 5.48264645e-02, 0., 0., 0.,
          6.11892343e-02, 4.05463502e-02, 0., 4.26845253e-02 ]
      - [ 2.48281419e-01, 1.58982024e-01, 9.58796218e-02, 7.00976029e-02,
          1.54329792e-01, 1.82106271e-01, 6.21636435e-02, 1.64596006e-01,
          2.47835875e-01, 2.30470225e-01, 1.78948417e-01, 1.63894728e-01,
          2.53984630e-01, 1.25373870e-01, 1.25202134e-01, 9.79925096e-02,
          1.75082222e-01, 1.05871290e-01, 1.33755505e-01, 1.11939274e-01,
          1.02885060e-01, 2.14412332e-01, 1.86027065e-01, 2.94929415e-01,
          2.02946231e-01, 1.05947159e-01, 1.25363082e-01, 0.,
          1.56466931e-01, 9.38446522e-02, 1.36445388e-01, 2.00067893e-01,
          8.07562321e-02, 0., 7.51033127e-02, 0., 8.07226077e-02, 0., 0.,
          0., 0., 0., 0., 0., 1.28940091e-01, 5.95078655e-02,
          1.39418930e-01, 0., 1.58624217e-01, 8.32651481e-02,
          5.70860170e-02, 0., 8.63496512e-02, 0., 0., 0., 1.34673137e-02,
          0., 0., 0., 4.75082174e-02, 0., 0., 1.34487629e-01 ]
      - [ 1.82015404e-01, 1.75337642e-01, 1.58083633e-01, 1.62603334e-01,
          2.18495652e-01, 0., 0., 7.10962266e-02, 4.30662006e-01,
          1.60087138e-01, 1.32350624e-01, 0., 3.05408627e-01,
          1.37014359e-01, 2.09669247e-01, 1.55716330e-01, 2.99390137e-01,
          2.48491526e-01, 1.48276508e-01, 1.38368234e-01, 1.56023264e-01,
          8.79448131e-02, 8.46064389e-02, 1.63368061e-01, 2.91110873e-01,
          4.67638671e-03, 0., 0., 6.85629845e-02, 0., 0., 0.,
          6.81647956e-02, 2.72913445e-02, 7.46899769e-02, 1.12778753e-01,
          1.23353221e-01, 0., 0., 0., 0., 0., 0., 0., 1.28841609e-01,
          7.68503621e-02, 4.36988883e-02, 5.44683710e-02, 0.,
          4.39319871e-02, 2.34192554e-02, 0., 0., 0., 0., 1.96696445e-02,
          7.03584999e-02, 0., 0., 0., 3.19466181e-02, 0., 0., 0. ]
      - [ 1.72143653e-01, 1.52766839e-01, 1.19662434e-01, 1.60849884e-01,
          1.45770267e-01, 1.55609876e-01, 1.67567551e-01, 2.24965975e-01,
          2.18508780e-01, 1.78562194e-01, 1.89149052e-01, 1.17436528e-01,
          1.26730800e-01, 2.98277766e-01, 1.85574323e-01, 1.33327320e-01,
          1.82643950e-01, 2.33275145e-01, 7.20490441e-02, 6.91633821e-02,
          9.30834338e-02, 1.79443151e-01, 2.46548012e-01, 1.56842202e-01,
          1.86180353e-01, 1.26216367e-01, 2.07850084e-01, 1.01318486e-01,
          1.76571786e-01, 1.57537252e-01, 1.01247653e-01, 9.33257043e-02,
          8.10417533e-02, 7.03950226e-02, 0., 0., 5.08288331e-02, 0., 0.,
          0., 1.96481738e-02, 0., 0., 0., 6.06714040e-02, 3.61099839e-02,
          1.06333226e-01, 8.05312023e-02, 9.27299038e-02, 7.95647800e-02,
          5.44676445e-02, 0., 5.76712713e-02, 0., 3.59686874e-02, 0.,
          4.62398864e-02, 0., 0., 0., 7.06325993e-02, 0., 8.83706361e-02,
          1.36020407e-01 ]
      - [ 2.10693732e-01, 4.88210358e-02, 3.76442671e-02, 5.56655936e-02,
          2.01044932e-01, 1.17463179e-01, 8.67779925e-02, 3.11125070e-01,
          3.69430244e-01, 2.07578376e-01, 1.29542351e-01, 9.74261090e-02,
          2.81061769e-01, 4.03248444e-02, 6.81955442e-02, 1.36430621e-01,
          2.92257726e-01, 7.92007521e-02, 1.46137685e-01, 8.88018534e-02,
          1.52283326e-01, 1.86222300e-01, 5.61808012e-02, 2.07422778e-01,
          2.34576002e-01, 0., 0., 8.92435536e-02, 2.17954323e-01,
          8.58180150e-02, 1.39287427e-01, 2.07512990e-01, 0.,
          2.68752780e-02, 3.05571053e-02, 7.56415948e-02, 9.11714062e-02,
          0., 0., 0., 2.67827623e-02, 0., 0., 5.90383895e-02,
          9.99161601e-02, 0., 0., 0., 0., 4.96159382e-02, 0.,
          4.55996059e-02, 4.63891067e-02, 0., 0., 0., 7.96008483e-02,
          7.42717534e-02, 1.01943493e-01, 0., 1.22306213e-01, 0., 0.,
          3.69203314e-02 ]
      - [ 1.24748565e-01, 1.40216604e-01, 1.60852540e-02, 3.35188396e-02,
          2.73542106e-01, 2.43377998e-01, 1.89772829e-01, 0.,
          1.36511773e-01, 3.16664129e-01, 1.55524075e-01, 1.55313164e-01,
          3.55695486e-01, 0., 0., 0., 1.17398269e-01, 3.90534788e-01,
          1.08873390e-01, 0., 9.42571610e-02, 0., 9.56942141e-02,
          1.09241739e-01, 1.87240392e-01, 3.50208223e-01, 0., 0.,
          2.93449052e-02, 0., 0., 0., 7.42590427e-02, 2.02648699e-01, 0.,
          0., 1.52480602e-01, 0., 0., 0., 8.47114436e-03, 0., 0., 0.,
          2.05000147e-01, 1.03757106e-01, 0., 0., 0., 8.24800953e-02, 0.,
          0., 3.38845775e-02, 0., 0., 1.81878693e-02, 4.03084941e-02, 0.,
          0., 0., 1.69422887e-02, 0., 0., 0. ]
      - [ 1.55553997e-01, 1.38031244e-01, 1.22625053e-01, 1.05160184e-01,
          1.06001094e-01, 6.80286065e-02, 1.20132431e-01, 1.15417883e-01,
          3.96343768e-01, 1.53326824e-01, 1.17813393e-01, 1.46323860e-01,
          2.30993867e-01, 1.72590196e-01, 1.53666571e-01, 1.47817671e-01,
          3.62255156e-01, 1.42808467e-01, 9.31299925e-02, 0.,
          1.35595724e-01, 4.62551415e-02, 1.22043356e-01, 3.05315375e-01,
          2.97337443e-01, 0., 0., 0., 6.96724728e-02, 0., 0.,
          2.27163166e-01, 1.38910368e-01, 9.00377259e-02, 0., 0.,
          1.02535859e-01, 0., 0., 0., 0., 0., 0., 0., 1.11815304e-01,
          8.60452205e-02, 1.12446554e-01, 6.41921908e-02, 9.52983648e-02,
          8.65103528e-02, 0., 0., 5.54824919e-02, 0., 0., 0., 0., 0., 0.,
          0., 5.17277382e-02, 0., 8.86727348e-02, 6.29973412e-02 ]
      - [ 9.93119329e-02, 0., 0., 2.28894092e-02, 2.41374429e-02, 0.,
          2.78470442e-02, 4.57787007e-01, 2.04776004e-01, 1.03272699e-01,
          0., 1.32181749e-01, 6.45100325e-03, 0., 1.90620050e-01,
          4.72721815e-01, 2.18998164e-01, 1.36573941e-01, 0.,
          9.22748893e-02, 0., 0., 1.92359030e-01, 4.08934504e-01,
          1.18072741e-01, 0., 0., 0., 2.88497619e-02, 0., 9.64649953e-03,
          3.82866859e-01, 0., 0., 0., 0., 2.95622107e-02, 0.,
          1.10149356e-02, 5.82527667e-02, 3.02578863e-02, 0., 0., 0., 0.,
          0., 0., 8.11170693e-03, 2.79044379e-02, 0., 0., 0.,
          9.12309624e-03, 0., 0., 0., 0., 0., 0., 0., 2.13955566e-02,
          2.06992067e-02, 0., 2.90452968e-02 ]
      - [ 3.56109381e-01, 8.31201896e-02, 4.30413149e-02, 0.,
          6.77330568e-02, 1.93467047e-02, 7.96270296e-02, 1.29493400e-01,
          3.11026692e-01, 2.80666977e-01, 1.86225578e-01, 1.45920873e-01,
          1.78309649e-01, 0., 1.38268068e-01, 9.40741003e-02,
          4.76594158e-02, 1.78476628e-02, 2.91092135e-02, 1.23219877e-01,
          3.44045013e-01, 1.63357526e-01, 2.34984174e-01, 1.11244231e-01,
          2.91537315e-01, 1.35889277e-01, 1.52046531e-01, 0.,
          1.48092151e-01, 1.44287199e-01, 7.68715888e-02, 1.12617671e-01,
          1.26679782e-02, 0., 0., 0., 7.10993633e-02, 0., 3.34028825e-02,
          0., 0., 0., 0., 3.64682451e-02, 1.40571758e-01, 8.79943743e-02,
          8.82607698e-02, 8.85521993e-02, 9.86121744e-02, 1.16837777e-01,
          8.53037909e-02, 0., 1.21638976e-01, 0., 0., 0., 0., 0., 0., 0.,
          9.84522775e-02, 0., 8.64703581e-02, 1.11830950e-01 ]
      - [ 1.11411721e-01, 9.40150544e-02, 2.90267747e-02, 9.63284299e-02,
          7.25301802e-02, 1.13194279e-01, 2.04813838e-01, 3.89716834e-01,
          4.08422500e-01, 2.18290403e-01, 3.52576375e-02, 1.07862860e-01,
          8.72351751e-02, 7.41336644e-02, 1.47779405e-01, 6.42560571e-02,
          1.26175478e-01, 6.03627190e-02, 5.57670146e-02, 7.86239579e-02,
          7.57739767e-02, 1.01241283e-01, 2.21498013e-01, 1.75682217e-01,
          3.90999973e-01, 1.86048776e-01, 1.50989950e-01, 8.39580297e-02,
          1.24421589e-01, 9.36359465e-02, 0., 6.51234835e-02,
          9.35205370e-02, 0., 6.85101971e-02, 0., 6.80761486e-02, 0., 0.,
          0., 0., 0., 0., 0., 1.10508688e-01, 9.08596516e-02,
          8.80507082e-02, 1.03695884e-01, 1.45086750e-01, 8.75304565e-02,
          6.88100979e-02, 0., 1.01035252e-01, 0., 0., 0., 0., 0., 0., 0.,
          5.86895086e-02, 0., 6.78841993e-02, 1.04668550e-01 ]
      - [ 1.25585079e-01, 4.76540998e-02, 0., 2.09391601e-02,
          9.25050452e-02, 3.82972471e-02, 3.77820656e-02, 3.87280524e-01,
          2.82448530e-01, 1.46770880e-01, 9.35501680e-02, 2.98332777e-02,
          1.35504991e-01, 1.07618660e-01, 1.21002324e-01, 3.48236799e-01,
          1.17642455e-01, 1.64567307e-01, 0., 0., 3.57486084e-02,
          1.77203387e-01, 1.23152114e-01, 3.39100838e-01, 2.26272270e-01,
          1.04369201e-01, 9.57429633e-02, 1.45983920e-01, 7.73929209e-02,
          1.12350263e-01, 1.08295470e-01, 2.56801367e-01, 1.05054751e-01,
          0., 0., 0., 3.09506450e-02, 0., 0., 0., 0., 0., 0., 0.,
          7.37912357e-02, 0., 9.62671638e-02, 2.35832110e-01,
          1.71194300e-01, 1.06633753e-01, 0., 0., 7.90685415e-02, 0., 0.,
          0., 0., 0., 0., 0., 3.65523957e-02, 0., 0., 1.41643524e-01 ]
      - [ 2.71665007e-01, 9.40608680e-02, 8.19982737e-02, 8.89646709e-02,
          1.74709439e-01, 9.21826437e-02, 1.89223573e-01, 3.66185665e-01,
          1.28540844e-01, 4.52617519e-02, 6.45055771e-02, 4.31083702e-02,
          5.40498868e-02, 5.68601005e-02, 1.85035333e-01, 3.51420909e-01,
          1.76414698e-01, 9.96093974e-02, 0., 4.73031700e-02,
          8.11188444e-02, 0., 1.79590076e-01, 3.56392473e-01,
          1.88678309e-01, 5.52436002e-02, 3.24307717e-02, 3.65182720e-02,
          6.74628690e-02, 0., 1.28700405e-01, 3.79362017e-01, 0., 0., 0.,
          0., 1.46276325e-01, 1.16330989e-01, 9.47118476e-02,
          3.63167636e-02, 1.41140327e-01, 5.45418374e-02, 0.,
          3.99847664e-02, 5.44361919e-02, 0., 0., 0., 2.28677746e-02, 0.,
          1.97426658e-02, 0., 6.01412356e-02, 0., 0., 7.90383965e-02, 0.,
          3.82739156e-02, 2.86138933e-02, 0., 5.71694374e-02,
          3.33320200e-02, 0., 0. ]
      - [ 2.64996231e-01, 9.95782539e-02, 5.63543774e-02, 0.,
          1.47297233e-01, 1.06480196e-01, 1.27036959e-01, 2.24414349e-01,
          3.73342842e-01, 1.02298811e-01, 8.04348215e-02, 9.41167399e-02,
          9.13511291e-02, 5.09748906e-02, 1.37014210e-01, 2.76465654e-01,
          1.96506992e-01, 8.97364095e-02, 1.45546839e-01, 2.04985842e-01,
          1.76186815e-01, 1.66412175e-01, 1.52652860e-01, 6.76253438e-02,
          2.66625762e-01, 2.35755771e-01, 1.96689621e-01, 5.58083877e-02,
          2.09677279e-01, 1.48264736e-01, 1.15913212e-01, 1.21642023e-01,
          5.65296672e-02, 3.85096408e-02, 0., 3.17452699e-02,
          7.61539787e-02, 3.88425626e-02, 6.21135905e-02, 0., 0., 0., 0.,
          0., 1.34672672e-01, 6.10936023e-02, 4.51440699e-02,
          4.33670506e-02, 6.34357408e-02, 0., 7.72520080e-02, 0.,
          7.61539787e-02, 0., 0., 0., 0., 0., 0., 3.52724083e-02,
          1.59207255e-01, 4.08351980e-02, 0., 0. ]
      - [ 7.14605227e-02, 8.21855012e-03, 1.59854218e-02, 0.,
          9.43793803e-02, 0., 4.50412557e-02, 4.13529962e-01,
          1.82031348e-01, 1.53778389e-01, 1.01214975e-01, 1.05866320e-01,
          9.34895948e-02, 1.49162814e-01, 1.54982626e-01, 3.84973466e-01,
          1.12076767e-01, 1.36419937e-01, 0., 4.34445702e-02,
          1.89264137e-02, 1.35196403e-01, 2.15807229e-01, 3.26598734e-01,
          2.17036366e-01, 1.10260658e-01, 9.64033976e-02, 1.06956318e-01,
          1.07533336e-01, 9.46362764e-02, 1.27878785e-01, 2.55976319e-01,
          0., 0., 0., 0., 1.82846542e-02, 0., 0., 0., 1.29292030e-02, 0.,
          0., 0., 7.53895566e-02, 0., 3.43876779e-02, 2.51282156e-01,
          1.46755055e-01, 1.20622680e-01, 0., 0., 9.31056514e-02, 0., 0.,
          0., 0., 0., 0., 0., 5.86413518e-02, 0., 0., 1.58575758e-01 ]
      - [ 3.45303625e-01, 2.04177842e-01, 1.33829743e-01, 5.18595017e-02,
          1.06129780e-01, 1.19127460e-01, 1.97274193e-01, 2.54687637e-01,
          3.57983500e-01, 1.00391246e-01, 7.58660734e-02, 8.01290944e-02,
          2.57890612e-01, 0., 0., 0., 4.29913819e-01, 6.83415085e-02,
          2.23474950e-02, 7.76874945e-02, 5.98515868e-02, 0., 0.,
          1.57939345e-01, 3.98635864e-01, 5.18251136e-02, 4.08108532e-02,
          0., 5.81120327e-02, 0., 0., 1.30880252e-02, 3.46168391e-02, 0.,
          2.05166154e-02, 6.80037662e-02, 1.89286470e-01, 0., 0., 0., 0.,
          0., 0., 0., 1.60377800e-01, 0., 0., 1.36208981e-02, 0., 0., 0.,
          0., 0., 0., 0., 0., 9.95747447e-02, 2.08978914e-02, 0.,
          1.17690936e-02, 4.98593524e-02, 0., 0., 0. ]
      - [ 2.07489312e-01, 2.25414187e-02, 1.67232290e-01, 9.07225832e-02,
          1.73163533e-01, 1.04306504e-01, 1.14574105e-01, 1.23085380e-01,
          1.20751165e-01, 2.51647457e-02, 0., 4.02538814e-02,
          9.60951447e-02, 4.85336073e-02, 1.08709589e-01, 3.85728300e-01,
          1.70729220e-01, 2.07801629e-02, 6.11509383e-02, 3.30110826e-02,
          2.11046353e-01, 1.96165696e-01, 1.04649320e-01, 3.77373844e-01,
          1.70946315e-01, 0., 1.33058041e-01, 1.47613809e-01,
          2.09299549e-01, 6.48255125e-02, 1.36724412e-01, 3.53921413e-01,
          5.32958955e-02, 0., 0., 1.25632077e-01, 1.21789925e-01, 0.,
          2.42879447e-02, 0., 0., 0., 2.86617707e-02, 1.66047402e-02,
          3.58841419e-02, 0., 0., 0., 0., 2.15010513e-02, 0.,
          8.90254751e-02, 1.91770911e-01, 4.86553423e-02, 0., 0.,
          1.23081598e-02, 0., 0., 0., 2.15602413e-01, 0., 0., 0. ]
      - [ 3.98997784e-01, 1.58350810e-01, 1.57970205e-01, 2.50598788e-01,
          1.79543003e-01, 1.19070612e-01, 1.31282821e-01, 3.06397200e-01,
          1.37036845e-01, 0., 9.45362449e-02, 1.58871979e-01,
          9.96297225e-02, 4.15433235e-02, 0., 2.33195182e-02,
          4.73085344e-01, 3.06546446e-02, 0., 0., 1.92898698e-02, 0., 0.,
          1.44173592e-01, 4.48654324e-01, 0., 0., 0., 1.28599126e-02, 0.,
          5.40692732e-03, 4.16770689e-02, 2.87556387e-02, 1.09789995e-02,
          4.76897731e-02, 1.56247064e-01, 1.56711638e-01, 0., 0., 0., 0.,
          0., 0., 0., 1.81866642e-02, 1.22093875e-02, 1.45940809e-02,
          1.20902574e-02, 2.45529544e-02, 3.46373096e-02, 1.09789995e-02,
          1.14342589e-02, 3.27864736e-02, 0., 0., 0., 0., 0., 0., 0., 0.,
          0., 0., 0. ]
      - [ 2.05734983e-01, 2.17765674e-01, 1.24069028e-01, 5.68440296e-02,
          1.38757154e-01, 1.48505658e-01, 1.74966201e-01, 2.59816259e-01,
          1.38671279e-01, 1.74713865e-01, 2.12225586e-01, 2.27625057e-01,
          2.62913704e-01, 1.55906007e-01, 1.72516614e-01, 2.20176652e-01,
          2.60100752e-01, 9.60404947e-02, 1.31179452e-01, 0.,
          8.93264636e-02, 9.14374366e-02, 1.67724490e-01, 3.15197498e-01,
          1.98057443e-01, 4.24713828e-02, 5.96757829e-02, 0.,
          7.08654076e-02, 2.43778154e-02, 1.07289322e-01, 2.23942325e-01,
          6.99601471e-02, 5.95904663e-02, 0., 0., 4.77774478e-02, 0.,
          1.97912753e-02, 0., 0., 2.57975031e-02, 0., 0., 9.86385494e-02,
          0., 9.24533829e-02, 7.29234740e-02, 1.33930624e-01,
          8.20558742e-02, 0., 0., 7.60447308e-02, 0., 0., 0., 0., 0., 0.,
          0., 6.97834268e-02, 0., 8.36636797e-02, 8.02903175e-02 ]
      - [ 2.69141465e-01, 1.07652642e-01, 0., 3.49887982e-02,
          7.21545443e-02, 0., 9.96146053e-02, 3.48382294e-01,
          2.71314710e-01, 2.30850175e-01, 1.72857478e-01, 1.39583245e-01,
          1.51972920e-01, 1.35673821e-01, 1.91962808e-01, 3.02669048e-01,
          3.86605680e-01, 1.00540392e-01, 0., 1.06504992e-01,
          9.00612995e-02, 4.72685918e-02, 1.87152401e-01, 3.32662463e-01,
          1.06432833e-01, 6.26277477e-02, 1.58258267e-02, 6.71772361e-02,
          4.86801229e-02, 0., 2.65918784e-02, 0., 1.93349466e-01,
          4.50105891e-02, 7.53111243e-02, 0., 7.97124058e-02, 0., 0., 0.,
          0., 0., 0., 0., 1.13700919e-01, 3.00505385e-02, 8.87935162e-02,
          0., 0., 0., 2.98796743e-02, 3.01623680e-02, 4.38982137e-02, 0.,
          0., 2.76748333e-02, 2.70028748e-02, 0., 2.99342871e-02, 0.,
          5.20412438e-02, 0., 0., 0. ]
      - [ 2.59463549e-01, 1.90137595e-01, 5.59247099e-02, 0.,
          6.83251098e-02, 0., 1.42506048e-01, 3.16385835e-01,
          2.63234437e-01, 1.95977762e-01, 1.00515589e-01, 1.47352755e-01,
          1.57947049e-01, 1.44109204e-01, 2.05128923e-01, 1.41473681e-01,
          1.62389800e-01, 1.72064096e-01, 1.77447289e-01, 0.,
          1.00201927e-01, 1.19142786e-01, 2.15223983e-01, 1.07371718e-01,
          3.11783940e-01, 2.14496434e-01, 0., 2.62790602e-02,
          6.89700320e-02, 2.52342690e-02, 1.07928917e-01, 3.06933969e-01,
          1.54528603e-01, 9.20974165e-02, 0., 0., 8.78932849e-02, 0., 0.,
          3.51297408e-02, 0., 0., 0., 0., 1.20942369e-01, 0.,
          8.25309232e-02, 0., 7.77681544e-02, 0., 0., 0., 3.40235680e-02,
          0., 4.68194075e-02, 0., 0., 3.35015357e-02, 0., 0.,
          7.87293911e-02, 0., 0., 1.29665956e-01 ]
      - [ 4.70480919e-01, 3.96016389e-02, 0., 0., 3.40351351e-02, 0., 0.,
          0., 4.80259567e-01, 1.86855003e-01, 0., 9.89877433e-02,
          9.27689672e-02, 0., 1.11991048e-01, 1.67663336e-01,
          4.46336001e-01, 1.20788679e-01, 0., 9.62735713e-02,
          7.88372308e-02, 0., 1.06660426e-01, 1.82541296e-01,
          4.04300898e-01, 3.61674279e-02, 0., 0., 3.75221074e-02, 0., 0.,
          0., 7.33839273e-02, 9.61813703e-03, 0., 0., 2.40664743e-02, 0.,
          0., 0., 0., 0., 0., 0., 6.43203594e-03, 0., 0., 0., 0., 0., 0.,
          0., 0., 0., 0., 0., 6.22290932e-02, 1.46379946e-02, 0., 0.,
          3.08469608e-02, 0., 0., 0. ]
      - [ 1.49267673e-01, 1.35636806e-01, 7.01974630e-02, 1.97497636e-01,
          2.31730238e-01, 1.44374728e-01, 1.65909424e-01, 1.56792864e-01,
          2.78865337e-01, 2.70652950e-01, 2.44602025e-01, 1.55078486e-01,
          2.74244666e-01, 1.42526120e-01, 9.02276784e-02, 8.65719169e-02,
          1.58112139e-01, 6.42122626e-02, 2.00222880e-01, 2.94671386e-01,
          1.78896815e-01, 1.29829496e-01, 1.62908778e-01, 1.25781238e-01,
          2.85049640e-02, 0., 1.00467773e-02, 8.81627873e-02,
          1.38286173e-01, 6.48932829e-02, 6.97656795e-02, 1.42594382e-01,
          6.88460320e-02, 1.52114391e-01, 0., 6.59371689e-02,
          1.47505343e-01, 0., 0., 0., 0., 0., 0., 0., 9.89724025e-02, 0.,
          7.11329058e-02, 1.53852895e-01, 7.90128335e-02, 0.,
          1.08939566e-01, 0., 1.54278502e-01, 0., 0., 0., 5.01351357e-02,
          0., 0., 0., 3.54608931e-02, 0., 0., 0. ]
      - [ 3.02556068e-01, 1.19565941e-01, 0., 0., 9.48816016e-02, 0.,
          3.28718692e-01, 1.48263410e-01, 2.09481284e-01, 1.67769477e-01,
          1.43248484e-01, 1.27280250e-01, 2.30004936e-01, 1.54120922e-01,
          2.00274810e-01, 1.85838684e-01, 2.43274227e-01, 1.00047328e-01,
          1.09962612e-01, 8.16278756e-02, 1.41347155e-01, 1.47764787e-01,
          1.91675007e-01, 1.26485825e-01, 3.63959074e-01, 1.30189225e-01,
          3.84966619e-02, 5.30213565e-02, 7.52708092e-02, 0.,
          2.49238998e-01, 5.82459904e-02, 6.79114312e-02, 4.04760353e-02,
          0., 0., 5.82562424e-02, 2.26792060e-02, 2.81082988e-02, 0., 0.,
          0., 0., 0., 5.03605455e-02, 0., 0., 9.84116420e-02,
          8.86375681e-02, 0., 0., 8.83341283e-02, 7.42649212e-02, 0., 0.,
          0., 0., 0., 0., 0., 1.10868841e-01, 2.69351266e-02,
          1.74141362e-01, 0. ]
      - [ 2.66739428e-01, 1.50196627e-01, 1.22690901e-01, 1.39160588e-01,
          1.37612611e-01, 1.21903107e-01, 1.97619095e-01, 1.65962875e-01,
          2.70502776e-01, 2.03739420e-01, 1.69310421e-01, 1.80275232e-01,
          1.87281191e-01, 1.48881182e-01, 5.12650609e-02, 1.16978675e-01,
          2.17477039e-01, 1.21343836e-01, 1.36700675e-01, 1.41474947e-01,
          1.68894842e-01, 9.91987810e-02, 2.30630532e-01, 1.67623818e-01,
          2.32423782e-01, 3.07160299e-02, 8.98880288e-02, 1.64356798e-01,
          1.67652324e-01, 1.66752070e-01, 1.59706637e-01, 1.76847011e-01,
          0., 9.16158780e-02, 1.20425068e-01, 0., 1.07877135e-01, 0., 0.,
          0., 2.71681119e-02, 0., 0., 0., 1.21474512e-01, 7.40368664e-02,
          9.33248773e-02, 9.01036412e-02, 6.36855960e-02, 2.77880393e-02,
          4.75575440e-02, 0., 6.78296611e-02, 4.01105173e-02, 0., 0., 0.,
          0., 3.57684828e-02, 0., 6.87304884e-02, 0., 8.55008215e-02, 0. ]
      - [ 5.25109887e-01, 1.13628013e-02, 0., 0., 4.77746949e-02, 0.,
          6.35148287e-02, 2.02977419e-01, 3.51458579e-01, 6.76266775e-02,
          0., 0., 9.95274261e-02, 1.08591862e-01, 1.39752880e-01,
          2.47484446e-01, 1.27476424e-01, 8.03471357e-03, 1.11458696e-01,
          2.96956003e-01, 3.18004876e-01, 1.09888710e-01, 9.84449834e-02,
          7.11989850e-02, 1.81050658e-01, 8.03471357e-03, 0., 0.,
          1.12969704e-01, 1.03839695e-01, 5.68140065e-03, 8.28683004e-02,
          0., 0., 0., 0., 6.72249496e-02, 0., 0., 1.40935689e-01,
          1.33590773e-01, 0., 0., 6.33731335e-02, 1.40979886e-01, 0., 0.,
          0., 9.38205197e-02, 0., 9.21390653e-02, 7.17104748e-02,
          9.18964595e-02, 0., 0., 0., 0., 0., 0., 0., 9.28846225e-02,
          1.03440359e-01, 0., 1.46768942e-01 ]
      - [ 1.66989952e-01, 1.27373889e-01, 5.19123822e-02, 4.04193103e-02,
          8.54480416e-02, 0., 7.87119120e-02, 7.57562220e-02,
          4.82500196e-01, 1.83910042e-01, 2.79451489e-01, 0.,
          3.43343228e-01, 0., 5.94792366e-02, 1.29043132e-01,
          9.11459252e-02, 1.22934528e-01, 1.17738992e-01, 8.93972516e-02,
          2.28246018e-01, 1.04628444e-01, 1.63100690e-01, 2.46905506e-01,
          3.88551980e-01, 2.39858981e-02, 6.05486967e-02, 4.23032828e-02,
          2.03337178e-01, 4.40865755e-02, 3.64929587e-02, 3.30123305e-02,
          9.02005583e-02, 7.39941821e-02, 0., 0., 5.61902858e-02, 0., 0.,
          0., 0., 0., 0., 0., 5.95987998e-02, 0., 5.19123822e-02,
          9.73404422e-02, 7.23530799e-02, 5.34276664e-02, 3.94976512e-02,
          0., 5.79196215e-02, 0., 0., 0., 0., 0., 0., 0., 2.43311077e-02,
          0., 0., 6.96018115e-02 ]
      - [ 8.10228661e-02, 1.88188136e-01, 1.11542501e-01, 1.99416026e-01,
          2.24203870e-01, 1.35052264e-01, 1.75968349e-01, 2.33938292e-01,
          1.95226699e-01, 9.92254987e-02, 1.96255922e-01, 2.29246303e-01,
          3.13777149e-01, 9.39288437e-02, 4.66759950e-02, 7.47364536e-02,
          2.37440720e-01, 2.79333055e-01, 1.30230695e-01, 6.68675527e-02,
          7.64456168e-02, 1.18211828e-01, 1.79814532e-01, 1.25857025e-01,
          2.34222129e-01, 1.23769328e-01, 7.53516778e-02, 4.84519899e-02,
          6.34683892e-02, 5.14053255e-02, 0., 1.42700613e-01,
          1.58699557e-01, 1.42756164e-01, 0., 0., 2.15041831e-01, 0., 0.,
          0., 0., 0., 5.44322878e-02, 1.39954895e-01, 1.55882701e-01, 0.,
          0., 0., 0., 0., 0., 5.29917926e-02, 1.03667684e-01,
          8.71120170e-02, 0., 2.93988157e-02, 7.37267658e-02, 0., 0., 0.,
          4.87219952e-02, 0., 0., 0. ]
      - [ 2.29103521e-01, 5.11789434e-02, 0., 1.07655479e-02,
          2.42156498e-02, 3.55269015e-02, 1.26623675e-01, 2.26324946e-01,
          2.68091887e-01, 2.91752249e-01, 1.02710605e-01, 1.21564090e-01,
          8.94853845e-02, 2.19513491e-01, 2.86096305e-01, 2.67112225e-01,
          2.10781664e-01, 1.78391159e-01, 1.81671783e-01, 1.83102116e-01,
          1.50762290e-01, 0., 1.72770888e-01, 1.73786595e-01,
          2.42630690e-01, 2.02017665e-01, 1.01117067e-01, 1.45876020e-01,
          1.42303616e-01, 1.22335367e-01, 1.88647881e-01, 1.66144460e-01,
          1.61300357e-02, 1.24696502e-02, 2.06927285e-02, 0.,
          2.96579935e-02, 0., 0., 0., 1.91441532e-02, 0., 0., 0.,
          1.21078249e-02, 1.28024668e-02, 0., 1.07655479e-02,
          6.20475411e-02, 4.66439277e-02, 0., 0., 5.41478395e-02, 0., 0.,
          0., 0., 0., 0., 8.83622989e-02, 9.10102651e-02, 0.,
          2.51107141e-02, 2.45854612e-02 ]
      - [ 1.51826367e-01, 1.16644338e-01, 1.01984031e-01, 2.13692993e-01,
          1.48006901e-01, 7.87466243e-02, 1.28653318e-01, 2.31780261e-01,
          3.15879911e-01, 2.29660049e-01, 1.62456319e-01, 3.15866292e-01,
          2.96629757e-01, 1.29630953e-01, 1.26937628e-01, 9.90421697e-02,
          1.61016494e-01, 1.09135710e-01, 1.24950521e-01, 8.30118060e-02,
          2.27702841e-01, 1.03649132e-01, 1.26358330e-01, 1.16663143e-01,
          1.73494771e-01, 8.07363838e-02, 5.63944504e-02, 1.82795718e-01,
          2.00138181e-01, 1.31841004e-01, 5.19685633e-02, 7.52574578e-02,
          9.06796306e-02, 0., 0., 0., 1.28228173e-01, 0., 0., 0., 0., 0.,
          0., 0., 1.43882543e-01, 0., 9.33327973e-02, 9.63107571e-02,
          5.49601540e-02, 0., 0., 0., 1.01175793e-01, 1.06774099e-01, 0.,
          0., 5.69106117e-02, 0., 0., 8.50755647e-02, 8.97495523e-02,
          3.77514064e-02, 0., 0. ]
      - [ 1.85484812e-01, 1.04200311e-01, 1.13117889e-01, 1.19809374e-01,
          1.41126767e-01, 1.04496099e-01, 8.34047273e-02, 1.74979165e-01,
          3.38431805e-01, 1.75558701e-01, 1.86815530e-01, 1.29753426e-01,
          2.15387076e-01, 1.15858875e-01, 1.21980429e-01, 2.01128945e-01,
          2.83505321e-01, 1.02140389e-01, 1.31461501e-01, 9.62136611e-02,
          1.60510957e-01, 0., 1.97942868e-01, 2.20407903e-01,
          3.12483937e-01, 1.23809256e-01, 0., 1.60723820e-01,
          1.37352064e-01, 9.31446031e-02, 7.04176649e-02, 1.28093064e-01,
          1.57931224e-01, 0., 0., 0., 5.18467128e-02, 0., 0., 0., 0., 0.,
          0., 0., 9.07616094e-02, 3.19233462e-02, 1.27145782e-01,
          1.31050423e-01, 2.23533645e-01, 6.03878126e-02, 0., 0.,
          6.71493858e-02, 0., 0., 0., 0., 0., 0., 0., 0., 0., 0., 0. ]
      - [ 9.41812620e-02, 1.49058044e-01, 1.62669227e-01, 2.86051393e-01,
          2.45098159e-01, 1.45789742e-01, 0., 6.91972151e-02,
          2.25291371e-01, 1.97584387e-02, 0., 2.80112565e-01,
          2.39936441e-01, 5.23367114e-02, 8.21411684e-02, 7.05991685e-02,
          2.43613183e-01, 4.26073134e-01, 1.11303695e-01, 1.27397001e-01,
          7.02697113e-02, 0., 4.02163453e-02, 0., 1.89622790e-01,
          2.57876396e-01, 6.18301481e-02, 1.66989285e-02, 1.13732092e-01,
          0., 0., 1.88972913e-02, 5.61682768e-02, 1.46761924e-01,
          1.48560137e-01, 0., 1.75834522e-01, 0., 0., 0., 0., 0., 0., 0.,
          1.62496582e-01, 0., 0., 4.33256514e-02, 0., 0., 4.25008349e-02,
          0., 0., 0., 0., 0., 1.03631362e-01, 1.89839870e-01, 0., 0.,
          1.49665013e-01, 0., 0., 0. ]
      - [ 2.31704533e-01, 1.28513545e-01, 5.86502627e-02, 1.19065411e-01,
          1.71807170e-01, 1.89952448e-01, 6.59669563e-02, 1.13584571e-01,
          2.40776613e-01, 1.80434391e-01, 1.79094464e-01, 2.87609577e-01,
          2.04069406e-01, 1.88352659e-01, 8.25783983e-02, 1.09030373e-01,
          1.76011935e-01, 1.30874410e-01, 9.38980207e-02, 8.60996544e-02,
          1.60721928e-01, 2.11908653e-01, 1.73790008e-01, 3.02711695e-01,
          1.71929628e-01, 9.16642919e-02, 9.19982940e-02, 8.74850824e-02,
          1.56494543e-01, 1.29097819e-01, 9.18977708e-02, 1.83654249e-01,
          1.98793374e-02, 6.91547841e-02, 5.13825305e-02, 8.60946402e-02,
          9.86483991e-02, 0., 0., 0., 0., 0., 0., 0., 1.70305625e-01,
          1.38159186e-01, 8.44160318e-02, 0., 1.06818691e-01,
          1.38637617e-01, 0., 0., 1.12454519e-01, 0., 0., 0., 0., 0., 0.,
          0., 3.65206748e-02, 0., 0., 9.52011570e-02 ]
      - [ 2.38434628e-01, 1.48800999e-01, 4.47820425e-02, 7.74023905e-02,
          1.23809151e-01, 0., 9.66035351e-02, 1.34659663e-01,
          4.08707708e-01, 2.09062129e-01, 1.50877759e-01, 9.40922275e-02,
          1.54067799e-01, 9.03232619e-02, 1.67347059e-01, 3.29802245e-01,
          1.89987093e-01, 2.12091833e-01, 1.11768067e-01, 1.61062598e-01,
          1.49839759e-01, 1.76711202e-01, 1.90937072e-01, 2.46893421e-01,
          1.28767833e-01, 0., 2.21067704e-02, 0., 0., 0., 0.,
          1.70130163e-01, 2.18737140e-01, 0., 0., 0., 5.72974980e-02, 0.,
          0., 0., 0., 0., 0., 0., 5.90185262e-02, 0., 8.56405348e-02,
          1.88964397e-01, 1.55897930e-01, 0., 0., 0., 9.12557840e-02,
          7.65406564e-02, 3.81284170e-02, 0., 2.89960206e-02, 0., 0., 0.,
          6.42166063e-02, 0., 0., 0. ]
      - [ 2.37788513e-01, 0., 4.57206592e-02, 1.62299260e-01,
          2.57267565e-01, 1.75776109e-01, 1.33666307e-01, 1.78311020e-01,
          2.50539362e-01, 2.23446429e-01, 1.38542622e-01, 2.03364506e-01,
          3.27570081e-01, 7.66665339e-02, 4.75141257e-02, 2.76155882e-02,
          2.90252745e-01, 2.64704287e-01, 1.37798041e-01, 0.,
          4.63821702e-02, 0., 1.03553161e-01, 1.08046181e-01,
          2.74946779e-01, 2.75378048e-01, 5.94698004e-02, 1.82482004e-02,
          6.30054250e-02, 2.86710411e-02, 2.80562341e-02, 0.,
          1.48899600e-01, 1.66096553e-01, 0., 0., 1.30379781e-01, 0., 0.,
          0., 4.71847728e-02, 0., 0., 7.07607195e-02, 1.58851445e-01, 0.,
          8.61436948e-02, 0., 7.00817555e-02, 0., 0., 4.45357151e-02,
          4.65427749e-02, 0., 0., 0., 0., 0., 0., 0., 3.55476290e-02, 0.,
          3.77731659e-02, 4.12710384e-02 ]
      - [ 1.61723986e-01, 1.54637963e-01, 1.30029202e-01, 1.01282164e-01,
          1.35740459e-01, 1.54519662e-01, 1.48801774e-01, 1.43786579e-01,
          3.47099096e-01, 1.71448946e-01, 1.13835685e-01, 1.91055551e-01,
          1.88399315e-01, 9.48258340e-02, 1.19108617e-01, 2.67784953e-01,
          2.63209671e-01, 1.14135340e-01, 8.32982510e-02, 1.02980159e-01,
          9.37928855e-02, 1.68939233e-01, 1.75261810e-01, 2.70023316e-01,
          1.96452767e-01, 6.25659004e-02, 1.58062056e-01, 9.97840539e-02,
          1.31251872e-01, 1.60079628e-01, 1.69709966e-01, 1.77420452e-01,
          1.10601470e-01, 9.49191377e-02, 5.86500913e-02, 0.,
          7.89064392e-02, 0., 0., 0., 0., 0., 0., 0., 7.40778074e-02, 0.,
          1.31196782e-01, 1.05349086e-01, 7.53105059e-02, 4.80686985e-02,
          0., 0., 1.62426345e-02, 0., 0., 0., 0., 0., 0., 0.,
          3.87787558e-02, 2.41041537e-02, 7.31687397e-02, 7.83854127e-02 ]
      - [ 1.82978973e-01, 0., 2.58933417e-02, 4.11537066e-02,
          1.75913006e-01, 2.34998856e-02, 6.68023527e-02, 3.32649976e-01,
          4.85828817e-02, 3.99505384e-02, 5.07405363e-02, 1.75292008e-02,
          5.31097874e-02, 7.66549110e-02, 4.28573757e-01, 3.50709110e-01,
          1.65780023e-01, 7.95467943e-02, 4.34398763e-02, 3.44871059e-02,
          4.65465970e-02, 2.96502225e-02, 1.93334639e-01, 4.07030046e-01,
          1.66235343e-01, 0., 0., 0., 4.24107872e-02, 4.25551794e-02,
          1.99453801e-01, 3.94028544e-01, 5.56665435e-02, 4.06924486e-02,
          0., 0., 4.74167019e-02, 1.21404799e-02, 0., 0., 0., 0., 0.,
          2.94314455e-02, 6.34585544e-02, 3.48628648e-02, 0.,
          3.86292972e-02, 1.91810001e-02, 3.20384353e-02, 0., 0.,
          3.55984308e-02, 0., 0., 3.54258567e-02, 4.03419919e-02,
          4.02365886e-02, 1.76444054e-02, 2.24681571e-02, 5.07481582e-02,
          0., 0., 2.75052227e-02 ]
      - [ 2.67193019e-01, 1.86914131e-01, 9.84662473e-02, 6.64241537e-02,
          1.56836718e-01, 1.01106569e-01, 1.58920929e-01, 1.54167905e-01,
          2.90116876e-01, 2.50355899e-01, 1.99383408e-01, 1.47268727e-01,
          1.21722370e-01, 1.28104582e-01, 1.19188987e-01, 1.41200438e-01,
          1.58966884e-01, 2.19110087e-01, 1.43653721e-01, 1.86869666e-01,
          8.37107822e-02, 9.32889506e-02, 2.88502406e-02, 1.78577602e-01,
          2.72081882e-01, 1.89873978e-01, 4.84915189e-02, 0.,
          6.23699203e-02, 6.05439916e-02, 9.81416702e-02, 2.06546381e-01,
          2.00969771e-01, 1.24167681e-01, 0., 0., 1.41251087e-01, 0., 0.,
          0., 1.02213047e-01, 0., 7.16359541e-02, 0., 1.58182010e-01, 0.,
          0., 5.42471521e-02, 3.43089141e-02, 0., 0., 1.23050354e-01,
          1.22266874e-01, 0., 0., 0., 0., 0., 0., 0., 1.08220011e-01,
          1.01142362e-01, 0., 0. ]
      - [ 9.76298004e-02, 0., 0., 0., 3.72643173e-02, 0., 5.11275008e-02,
          4.45756346e-01, 2.03165740e-01, 1.15431957e-01, 9.70330834e-02,
          0., 1.47370905e-01, 0., 1.95898890e-01, 4.60482448e-01,
          2.13545948e-01, 1.04991637e-01, 0., 8.15027356e-02,
          9.69578028e-02, 0., 1.88060924e-01, 4.07186717e-01,
          1.12610586e-01, 0., 0., 0., 3.21875922e-02, 0., 1.64604951e-02,
          3.89530391e-01, 0., 0., 0., 0., 3.46670970e-02, 0.,
          1.46504724e-02, 6.44516051e-02, 3.01946383e-02, 0., 0., 0., 0.,
          0., 9.62633546e-03, 0., 3.08732539e-02, 0., 0., 0., 0., 0., 0.,
          0., 0., 0., 0., 0., 2.49324031e-02, 0., 3.43059599e-02,
          5.22186719e-02 ]
      - [ 2.09324613e-01, 2.31127024e-01, 0., 5.02224751e-02,
          5.69610521e-02, 4.79467623e-02, 1.30790517e-01, 3.84995699e-01,
          2.03700289e-01, 2.45138302e-01, 1.82259455e-01, 9.52851027e-02,
          1.71086133e-01, 1.31934106e-01, 1.72448963e-01, 2.08972126e-01,
          3.66920471e-01, 1.15108542e-01, 1.09608665e-01, 4.03733850e-02,
          8.37925524e-02, 1.11640505e-01, 0., 2.78814346e-01,
          2.78355718e-01, 4.51042876e-02, 6.60008639e-02, 0.,
          5.32129444e-02, 0., 7.08861127e-02, 9.70582440e-02,
          1.70820579e-01, 1.28819257e-01, 5.46291992e-02, 0.,
          1.18863747e-01, 0., 0., 0., 1.08620469e-02, 1.89748444e-02, 0.,
          0., 1.43524826e-01, 8.99941772e-02, 0., 0., 2.60462724e-02, 0.,
          0., 0., 6.76635131e-02, 0., 2.96347551e-02, 2.91376691e-02,
          2.27612164e-02, 3.42192687e-02, 0., 0., 6.90491870e-02, 0., 0.,
          0. ]
      - [ 3.14112782e-01, 9.84341428e-02, 8.76517147e-02, 1.37061104e-01,
          1.84993893e-01, 1.07437991e-01, 6.33610487e-02, 2.04426721e-01,
          2.59035230e-01, 1.56644911e-01, 1.31456196e-01, 2.37179339e-01,
          1.92636624e-01, 7.21048564e-02, 1.34314701e-01, 1.90979138e-01,
          2.50502259e-01, 1.17771186e-01, 4.97877002e-02, 1.33569956e-01,
          1.78895682e-01, 0., 1.53781548e-01, 1.87027171e-01,
          2.89364368e-01, 1.05823644e-01, 7.33646303e-02, 1.20459691e-01,
          1.48999512e-01, 0., 4.62080762e-02, 2.44787276e-01,
          3.31789814e-02, 0., 0., 1.10216044e-01, 1.49891213e-01,
          5.72539680e-02, 0., 0., 0., 0., 7.54104033e-02, 0.,
          2.10075274e-01, 0., 2.70011686e-02, 0., 2.52012461e-02,
          3.49467844e-02, 0., 6.99440539e-02, 8.75418410e-02,
          4.37839404e-02, 2.58738697e-02, 0., 0., 0., 0., 7.18116015e-02,
          1.13320574e-01, 0., 2.04991307e-02, 0. ]
      - [ 1.68045253e-01, 8.90260115e-02, 0., 0., 1.41408369e-01,
          8.04708898e-02, 9.13974568e-02, 3.27559799e-01, 2.54230529e-01,
          1.91966310e-01, 2.18660206e-01, 1.91863984e-01, 1.93902373e-01,
          1.95413500e-01, 1.89473435e-01, 7.74939656e-02, 1.85988709e-01,
          1.37394771e-01, 1.19378015e-01, 5.79032451e-02, 1.09292462e-01,
          1.00503489e-01, 3.10281187e-01, 2.91146010e-01, 2.37979025e-01,
          1.18167214e-01, 7.01197311e-02, 0., 8.72706324e-02,
          1.60985515e-01, 1.57220125e-01, 1.53962463e-01, 0., 0., 0.,
          7.48444051e-02, 1.39710963e-01, 0., 6.14605024e-02, 0.,
          1.10755794e-01, 6.70800880e-02, 7.55209923e-02, 0.,
          9.26468596e-02, 0., 0., 0., 3.60627398e-02, 0., 0., 0.,
          3.39303240e-02, 0., 0., 0., 0., 4.39700335e-02, 0., 0.,
          1.07222505e-01, 7.91774243e-02, 5.07798493e-02, 4.00752462e-02 ]
      - [ 1.27610251e-01, 0., 0., 0., 3.44735272e-02, 5.52943014e-02,
          1.10983185e-01, 4.56850529e-01, 2.11960942e-01, 1.02615915e-01,
          9.09034610e-02, 4.76763174e-02, 5.91807105e-02, 5.09292856e-02,
          6.65497258e-02, 2.19843060e-01, 3.75666581e-02, 7.69524649e-02,
          4.82103750e-02, 4.42882389e-01, 2.25238025e-01, 4.38148454e-02,
          1.84742510e-01, 3.82981688e-01, 2.29331821e-01, 7.57140443e-02,
          0., 8.61363336e-02, 8.95906761e-02, 3.29052731e-02, 0., 0.,
          1.17854603e-01, 0., 0., 0., 1.72367636e-02, 0., 0.,
          3.35262232e-02, 3.10740191e-02, 0., 0., 0., 1.28410995e-01,
          2.70469747e-02, 5.21922857e-02, 2.22603217e-01, 0., 0., 0., 0.,
          4.47824262e-02, 0., 9.83466655e-02, 1.04683056e-01,
          1.04847141e-01, 0., 0., 0., 8.61838181e-03, 0., 0., 0. ]
      - [ 1.95841908e-01, 1.32254541e-01, 3.06421250e-01, 2.70669222e-01,
          1.47923648e-01, 8.96258056e-02, 6.91177323e-02, 1.02060810e-01,
          2.46409848e-01, 1.27968520e-01, 2.27981776e-01, 2.34691828e-01,
          2.78856635e-01, 2.93334454e-01, 1.53076813e-01, 1.06088273e-01,
          9.04891863e-02, 1.11602470e-01, 3.19614768e-01, 1.16542399e-01,
          1.18790306e-01, 1.00261547e-01, 5.69411516e-02, 1.83636434e-02,
          6.47242218e-02, 3.65081765e-02, 8.58539641e-02, 1.10471822e-01,
          7.14869872e-02, 8.41001049e-02, 7.08262771e-02, 2.06214562e-02,
          6.72707707e-02, 4.43433598e-02, 6.37020618e-02, 0.,
          1.10928074e-01, 0., 0., 0., 5.79515733e-02, 0., 0.,
          7.63639808e-02, 1.14578500e-01, 8.39305893e-02, 1.21125519e-01,
          7.33992457e-02, 3.22187245e-02, 1.56586811e-01, 0., 0.,
          1.09119207e-01, 0., 0., 0., 0., 0., 5.06775789e-02,
          6.28033802e-02, 1.10232696e-01, 0., 0., 1.18319958e-01 ]
      - [ 2.15881005e-01, 1.62973523e-01, 1.12812616e-01, 0.,
          1.81424320e-01, 1.77336663e-01, 1.35154128e-01, 1.42149448e-01,
          2.96545595e-01, 2.17892140e-01, 1.16408288e-01, 1.66727692e-01,
          2.34774783e-01, 9.99092907e-02, 1.24760382e-01, 1.92861199e-01,
          2.20476165e-01, 1.36964723e-01, 0., 1.75381646e-01,
          1.29906207e-01, 1.64620191e-01, 2.18568608e-01, 2.41767570e-01,
          1.75645828e-01, 0., 1.53590113e-01, 1.73121527e-01,
          3.83127518e-02, 1.99941918e-01, 1.27369940e-01, 1.99817955e-01,
          2.41347644e-02, 8.41727480e-02, 4.92555797e-02, 8.48415345e-02,
          9.80987698e-02, 0., 0., 0., 0., 0., 0., 0., 1.01595610e-01,
          5.30249514e-02, 1.49793237e-01, 0., 1.07725359e-01,
          6.34883195e-02, 0., 0., 4.96965237e-02, 0., 0., 0., 0., 0., 0.,
          0., 2.21198779e-02, 0., 7.23160505e-02, 0. ]
      - [ 1.52116105e-01, 0., 0., 3.59175205e-02, 8.25861692e-02, 0., 0.,
          3.07459712e-01, 2.91550875e-01, 1.29746407e-01, 2.03891531e-01,
          2.41624981e-01, 2.17392609e-01, 1.78924263e-01, 1.11139476e-01,
          2.45791301e-01, 2.57357240e-01, 9.42300484e-02, 1.59239218e-01,
          1.77904084e-01, 2.08331391e-01, 1.00849658e-01, 1.50472432e-01,
          3.14214826e-01, 2.95350909e-01, 0., 0., 0., 5.63271865e-02, 0.,
          3.27571221e-02, 1.89349547e-01, 7.17322305e-02, 3.34951133e-02,
          0., 0., 3.94655913e-02, 0., 0., 0., 2.46111192e-02, 0., 0., 0.,
          1.80279359e-01, 4.51215021e-02, 8.47098231e-02, 5.35175763e-02,
          5.07569164e-02, 0., 0., 0., 1.25837013e-01, 2.59490125e-02,
          8.98357630e-02, 0., 5.96044213e-02, 0., 0., 0., 4.77348156e-02,
          0., 0., 0. ]
      - [ 2.76740581e-01, 9.80818421e-02, 7.23247305e-02, 1.21974386e-01,
          9.09492597e-02, 7.89928138e-02, 1.66971058e-01, 3.29568177e-01,
          2.17723876e-01, 1.81196049e-01, 1.60634056e-01, 1.35152832e-01,
          2.11989164e-01, 1.08351417e-01, 1.28605977e-01, 1.39543742e-01,
          1.52659222e-01, 1.52680874e-01, 0., 3.79773639e-02,
          6.02659360e-02, 9.52080116e-02, 1.73536927e-01, 3.30729038e-01,
          2.22954169e-01, 1.13624685e-01, 1.15408227e-01, 0.,
          1.69858187e-01, 4.18583602e-02, 1.13207541e-01, 2.50974506e-01,
          1.39330551e-01, 0., 0., 0., 3.20589058e-02, 0., 0., 0.,
          1.87183674e-02, 0., 1.99186001e-02, 0., 7.79307783e-02,
          3.26723941e-02, 1.07520655e-01, 1.73920661e-01, 1.92868248e-01,
          8.79813731e-02, 0., 0., 8.07280466e-02, 0., 0., 0., 0., 0., 0.,
          0., 2.64717694e-02, 0., 0., 1.44189045e-01 ]
      - [ 2.81055689e-01, 0., 8.69923308e-02, 2.06065148e-01,
          2.27447420e-01, 1.94191173e-01, 1.35300681e-01, 2.92957220e-02,
          2.91442752e-01, 1.57507494e-01, 1.89795092e-01, 2.74223894e-01,
          2.62154073e-01, 1.06627382e-01, 2.33953446e-02, 1.72758654e-01,
          3.38992745e-01, 1.14271998e-01, 4.70360704e-02, 0.,
          8.01125690e-02, 1.17246784e-01, 0., 1.69745371e-01,
          3.51592273e-01, 4.84362468e-02, 0., 2.59359069e-02,
          7.70668760e-02, 0., 0., 1.88315496e-01, 2.12691516e-01, 0., 0.,
          0., 6.94991499e-02, 0., 0., 0., 0., 0., 0., 0., 5.56850582e-02,
          7.69849122e-02, 0., 1.16122931e-01, 5.72793484e-02,
          3.76590304e-02, 0., 0., 4.34700102e-02, 0., 0., 0., 0., 0., 0.,
          0., 4.82246727e-02, 3.51337641e-02, 0., 3.13540772e-02 ]
      - [ 5.38110435e-02, 1.41103104e-01, 1.75415322e-01, 2.44204655e-01,
          2.07286164e-01, 8.67985487e-02, 8.27313662e-02, 7.95513242e-02,
          2.88893372e-01, 1.47448406e-01, 1.07945159e-01, 2.63324589e-01,
          2.42859855e-01, 2.48495877e-01, 1.40511304e-01, 0.,
          9.05774832e-02, 6.48913085e-02, 1.00953124e-01, 1.83917537e-01,
          2.04779163e-01, 2.14403123e-01, 2.34155506e-01, 7.88516104e-02,
          1.61420792e-01, 1.57097593e-01, 1.30378842e-01, 1.69233486e-01,
          1.99458703e-01, 1.98038340e-01, 0., 3.69763449e-02,
          7.94783980e-02, 0., 9.06668901e-02, 0., 7.30259046e-02, 0., 0.,
          0., 0., 0., 0., 0., 1.44014210e-01, 1.33026034e-01,
          8.05072561e-02, 0., 4.73720618e-02, 6.10926896e-02,
          1.21748939e-01, 0., 1.24852449e-01, 2.82252263e-02, 0., 0.,
          4.22384664e-02, 2.61248201e-02, 0., 0., 7.67318606e-02,
          6.31921217e-02, 0., 0. ]
      - [ 2.59083003e-01, 6.73262253e-02, 5.71679659e-02, 9.98005420e-02,
          1.69251010e-01, 1.50120020e-01, 1.81937814e-01, 1.09256320e-01,
          2.98551470e-01, 2.09266573e-01, 1.45380676e-01, 1.38212457e-01,
          3.29071432e-01, 2.29296148e-01, 6.14662766e-02, 2.18797073e-01,
          1.67058900e-01, 1.23912498e-01, 6.98030218e-02, 1.12242617e-01,
          8.21188092e-02, 7.84645900e-02, 1.20720193e-01, 9.04967412e-02,
          2.05934301e-01, 4.64326404e-02, 1.36991635e-01, 1.59668848e-01,
          2.11962968e-01, 1.10978581e-01, 1.19343489e-01, 2.49731541e-01,
          4.14104462e-02, 7.87797198e-02, 4.69522290e-02, 5.23069948e-02,
          1.39939085e-01, 0., 0., 0., 0., 0., 0., 0., 1.76707059e-01,
          1.33360788e-01, 7.88655803e-02, 0., 4.73441221e-02, 0.,
          3.24152857e-02, 5.33821881e-02, 5.31708971e-02, 0., 0., 0., 0.,
          0., 0., 0., 9.73614678e-02, 7.26493150e-02, 5.23319319e-02, 0. ]
      - [ 2.84885138e-01, 1.52806208e-01, 0., 4.36051823e-02,
          1.13379076e-01, 9.71959904e-02, 3.16372305e-01, 1.32664904e-01,
          1.83591768e-01, 1.71454817e-01, 1.60405830e-01, 1.60665378e-01,
          2.36114964e-01, 1.68169037e-01, 1.66222587e-01, 1.80301577e-01,
          1.81215808e-01, 1.62416473e-01, 5.91614693e-02, 1.06736794e-01,
          1.65124327e-01, 1.06946968e-01, 1.80881441e-01, 9.40008685e-02,
          3.89827728e-01, 0., 6.79598004e-02, 5.63349202e-02,
          6.12914525e-02, 6.35878742e-02, 2.23859996e-01, 1.33145854e-01,
          1.39178947e-01, 0., 6.54478222e-02, 0., 7.59478286e-02, 0., 0.,
          0., 0., 0., 0., 0., 5.22803105e-02, 0., 6.70974702e-02,
          5.51359132e-02, 7.41807818e-02, 0., 0., 8.36360902e-02,
          7.71073997e-02, 0., 0., 0., 0., 0., 0., 0., 1.20268658e-01, 0.,
          1.80018187e-01, 0. ]
      - [ 1.43513516e-01, 1.10468671e-01, 6.08000904e-02, 4.43905145e-02,
          1.45852908e-01, 3.41615118e-02, 2.19632611e-01, 2.87087739e-01,
          2.31064036e-01, 1.75549626e-01, 9.33910459e-02, 2.23165173e-02,
          1.55616820e-01, 0., 3.64962406e-02, 1.04872867e-01,
          2.32771128e-01, 1.35309428e-01, 1.67208865e-01, 1.42206103e-01,
          1.16682082e-01, 1.70095533e-01, 2.96599895e-01, 3.36913913e-01,
          3.09100568e-01, 1.27141088e-01, 1.25976279e-01, 3.59757058e-02,
          1.42886505e-01, 2.21081544e-02, 8.84213746e-02, 1.97997183e-01,
          1.34374782e-01, 6.40532076e-02, 0., 0., 1.08458050e-01, 0.,
          3.91662084e-02, 0., 0., 0., 0., 0., 1.24276459e-01,
          3.22733894e-02, 7.18099922e-02, 1.66245967e-01, 6.15025871e-02,
          7.17252865e-02, 0., 0., 6.18358515e-02, 0., 0., 0., 0., 0., 0.,
          0., 8.93573016e-02, 0., 8.34209472e-02, 6.72869980e-02 ]
      - [ 6.42978549e-02, 0., 7.26444349e-02, 1.06499903e-01,
          1.37370154e-01, 7.81791657e-02, 6.18684627e-02, 9.32517573e-02,
          3.00533563e-01, 1.51459828e-01, 3.08017164e-01, 1.94848642e-01,
          2.02778742e-01, 1.42842054e-01, 3.21107209e-01, 5.53673059e-02,
          2.26614371e-01, 2.55097091e-01, 0., 1.49622455e-01,
          2.56934226e-01, 1.73807099e-01, 1.39200255e-01, 2.39101037e-01,
          2.68687636e-01, 0., 0., 0., 7.11396337e-02, 0., 0., 0.,
          6.26419857e-02, 6.20603524e-02, 0., 0., 5.33964597e-02, 0., 0.,
          0., 2.53281649e-02, 3.61263976e-02, 1.66033298e-01, 0.,
          1.71295553e-01, 0., 0., 5.52094765e-02, 1.85677350e-01,
          1.26573086e-01, 0., 0., 1.26781464e-01, 0., 0., 0., 0., 0., 0.,
          0., 0., 0., 0., 0. ]
      - [ 2.61059731e-01, 1.27068371e-01, 6.16940632e-02, 7.64440447e-02,
          6.30306527e-02, 1.17457069e-01, 1.25307307e-01, 2.14664415e-01,
          2.25288287e-01, 9.22572240e-02, 7.49299303e-02, 6.50291070e-02,
          9.09153298e-02, 1.59971669e-01, 1.92933753e-01, 2.57121652e-01,
          3.70893925e-01, 1.03080921e-01, 3.23679931e-02, 8.05124566e-02,
          3.50093693e-02, 4.35024649e-02, 3.01097542e-01, 3.36383373e-01,
          1.51908338e-01, 3.79074663e-02, 0., 0., 3.67756411e-02,
          5.35500608e-02, 1.48030236e-01, 2.68496841e-01, 1.81460500e-01,
          0., 0., 0., 7.66465664e-02, 0., 0., 0., 0., 0., 0., 0.,
          8.45139995e-02, 0., 0., 2.17850938e-01, 0., 0., 0., 0., 0., 0.,
          5.00269160e-02, 0., 6.36972785e-02, 0., 0., 0., 1.14647731e-01,
          0., 1.35905847e-01, 5.68649843e-02 ]
      - [ 6.72642887e-02, 5.21901473e-02, 6.17592223e-02, 3.41918953e-02,
          7.93733373e-02, 4.07025181e-02, 6.81524351e-02, 1.51616707e-01,
          4.38716859e-01, 1.79329738e-01, 1.43779308e-01, 3.07756942e-02,
          6.62824810e-02, 4.38955054e-02, 8.12551156e-02, 6.07687309e-02,
          1.50894701e-01, 2.27806598e-01, 9.66389626e-02, 0.,
          3.17264199e-02, 6.50653988e-02, 2.01688141e-01, 2.46705547e-01,
          3.28344256e-01, 1.79477304e-01, 1.65231466e-01, 1.57733381e-01,
          1.80830047e-01, 1.91343978e-01, 1.58132076e-01, 0.,
          2.62942314e-01, 0., 0., 0., 8.20583776e-02, 0., 0., 0., 0., 0.,
          0., 0., 1.43168271e-01, 9.00800377e-02, 8.27391148e-02, 0.,
          2.51976132e-01, 1.45687968e-01, 5.61345480e-02, 0.,
          1.13171026e-01, 0., 0., 0., 0., 0., 0., 0., 0., 0., 0., 0. ]
      - [ 9.89498645e-02, 2.43208066e-01, 7.65805170e-02, 1.61506608e-01,
          2.47094065e-01, 1.47097185e-01, 1.46936610e-01, 1.01699121e-01,
          1.93978503e-01, 2.65082508e-01, 1.34547412e-01, 3.23766559e-01,
          2.03346938e-01, 0., 5.38326986e-02, 0., 1.62492543e-01,
          1.95132881e-01, 1.19647883e-01, 1.45403489e-01, 1.48026332e-01,
          3.89275961e-02, 9.08574536e-02, 8.85874778e-02, 1.74909949e-01,
          3.19945782e-01, 4.34585251e-02, 2.18845874e-01, 1.61761224e-01,
          8.83405432e-02, 8.05930719e-02, 1.19581662e-01, 1.31734312e-01,
          1.63937196e-01, 0., 0., 1.14747651e-01, 0., 0., 0., 0., 0., 0.,
          3.59493047e-02, 1.37061030e-01, 9.27106142e-02, 0., 0.,
          6.70205951e-02, 8.27338323e-02, 0., 2.73669586e-02,
          6.48499876e-02, 0., 0., 0., 0., 0., 0., 0., 1.40659854e-01,
          9.43922251e-02, 3.71523090e-02, 0. ]
      - [ 5.14325909e-02, 7.51200840e-02, 9.02433842e-02, 7.27428347e-02,
          5.13887480e-02, 1.02055527e-01, 0., 5.53106330e-02,
          4.65378106e-01, 1.75457254e-01, 0., 1.47636563e-01,
          6.74382523e-02, 4.04047072e-02, 3.75812739e-01, 7.48805106e-02,
          3.24298769e-01, 1.49118811e-01, 1.11079708e-01, 6.55786991e-02,
          1.07333452e-01, 0., 3.39121521e-01, 1.69435799e-01,
          2.85105854e-01, 6.19280599e-02, 0., 8.12675953e-02,
          7.69147426e-02, 5.80847487e-02, 2.18482222e-02, 0.,
          1.40614614e-01, 0., 0., 0., 7.50153214e-02, 0., 0., 0.,
          5.23613915e-02, 5.93556575e-02, 9.65696499e-02, 8.08564946e-02,
          1.26459911e-01, 0., 3.55522931e-02, 0., 2.42929593e-01,
          8.11483860e-02, 0., 0., 9.39453095e-02, 0., 0., 0., 0., 0., 0.,
          0., 0., 0., 0., 0. ]
      - [ 2.42210582e-01, 1.52627602e-01, 5.24270982e-02, 4.60925885e-02,
          2.73310304e-01, 2.01233208e-01, 1.04349971e-01, 1.60848767e-01,
          3.10005873e-01, 2.77016945e-02, 1.76975027e-01, 2.66803294e-01,
          2.92272478e-01, 2.26594787e-02, 8.38663802e-02, 0.,
          3.48940760e-01, 1.58204362e-01, 1.14006571e-01, 5.95689975e-02,
          7.84522146e-02, 9.03863907e-02, 7.26393536e-02, 1.89215899e-01,
          3.18504632e-01, 1.25287473e-01, 2.98649166e-02, 3.55529375e-02,
          7.55446106e-02, 8.61262530e-02, 4.78524417e-02, 5.98290637e-02,
          2.49212459e-01, 6.49401322e-02, 0., 0., 9.53475609e-02, 0., 0.,
          0., 0., 0., 0., 0., 1.14376791e-01, 9.41603929e-02, 0., 0.,
          1.42361904e-02, 0., 3.02014221e-02, 4.50507216e-02,
          5.21685407e-02, 0., 0., 3.25095952e-02, 0., 3.67860161e-02,
          5.01906388e-02, 0., 6.06382452e-02, 0., 0., 0. ]
      - [ 1.07713774e-01, 1.83948487e-01, 1.69623211e-01, 1.06574498e-01,
          2.03170136e-01, 1.50703356e-01, 1.17540516e-01, 1.65913433e-01,
          1.74613655e-01, 2.31683433e-01, 2.97587097e-01, 1.96045548e-01,
          1.43450126e-01, 1.93638504e-01, 1.08981773e-01, 5.80534041e-02,
          1.52627602e-01, 0., 2.90599793e-01, 4.94820774e-02,
          8.40395987e-02, 7.25235119e-02, 9.64015871e-02, 1.32121637e-01,
          2.25916028e-01, 3.08697402e-01, 4.16440554e-02, 3.95423844e-02,
          2.32564241e-01, 1.45896077e-01, 1.41235113e-01, 7.21569583e-02,
          8.06223974e-02, 1.30548880e-01, 0., 0., 1.03325501e-01, 0., 0.,
          0., 0., 0., 0., 0., 1.20800897e-01, 0., 1.47141233e-01,
          1.22868858e-01, 6.97444305e-02, 0., 7.44141862e-02,
          3.90993096e-02, 5.62016666e-02, 0., 0., 0., 3.08595914e-02,
          3.70000228e-02, 0., 0., 1.08781137e-01, 7.46236369e-02, 0.,
          6.94726631e-02 ]
      - [ 2.59574175e-01, 1.49594426e-01, 1.22173347e-01, 0.,
          1.76645577e-01, 1.50840640e-01, 1.91698641e-01, 2.11818680e-01,
          2.86662072e-01, 1.48274913e-01, 1.37494564e-01, 2.12648109e-01,
          1.88508749e-01, 1.11551620e-01, 1.01247840e-01, 1.77047879e-01,
          1.96142003e-01, 9.19822380e-02, 1.54594734e-01, 1.29303157e-01,
          1.06791690e-01, 1.97082326e-01, 1.71560243e-01, 2.26269662e-01,
          2.06589520e-01, 9.77943242e-02, 1.05609991e-01, 1.50432914e-01,
          1.17055818e-01, 1.17303655e-01, 2.07773477e-01, 2.08311975e-01,
          9.62092131e-02, 3.73683833e-02, 9.12473798e-02, 0.,
          7.55996704e-02, 0., 0., 0., 0., 0., 0., 0., 7.60592446e-02, 0.,
          1.16628677e-01, 1.05329864e-01, 7.16806129e-02, 4.66666184e-02,
          0., 0., 7.58158490e-02, 3.36805284e-02, 0., 0., 0., 0., 0., 0.,
          5.55876307e-02, 0., 6.64226636e-02, 8.07888880e-02 ]
      - [ 2.17474371e-01, 2.20864564e-01, 9.25593004e-02, 2.45007977e-01,
          1.91336453e-01, 1.52909741e-01, 9.87017825e-02, 8.37383866e-02,
          2.77100146e-01, 1.86709464e-01, 1.02477871e-01, 3.44728857e-01,
          1.47269025e-01, 0., 8.13920125e-02, 7.19625652e-02,
          2.61928439e-01, 8.45613852e-02, 6.77390248e-02, 1.72233924e-01,
          8.56383219e-02, 0., 0., 9.71673131e-02, 3.34134787e-01,
          1.80994526e-01, 6.37345836e-02, 1.72513679e-01, 2.00958148e-01,
          6.43176809e-02, 1.18187383e-01, 7.94744417e-02, 1.59985974e-01,
          7.98268318e-02, 0., 4.23639268e-02, 9.29941833e-02, 0., 0., 0.,
          0., 0., 0., 0., 4.98927087e-02, 0., 7.60412589e-02,
          9.03337151e-02, 4.47346382e-02, 0., 0., 8.30242708e-02,
          9.18914378e-02, 3.12562250e-02, 0., 0., 0., 0., 4.20516804e-02,
          1.31350398e-01, 1.34567127e-01, 0., 0., 0. ]
      - [ 0., 3.44132185e-02, 0., 0., 0., 0., 0., 0., 4.47794080e-01,
          5.96054420e-02, 0., 0., 0., 0., 0., 0., 2.78400719e-01,
          1.11205228e-01, 0., 0., 3.49176556e-01, 0., 9.73352790e-02,
          1.71092317e-01, 2.38316715e-01, 0., 8.48742053e-02, 0.,
          1.61304280e-01, 0., 0., 8.70805681e-02, 2.77811289e-01,
          5.96054420e-02, 0., 0., 1.47555172e-01, 0., 0., 0., 0., 0., 0.,
          0., 1.15751803e-01, 0., 0., 1.85679749e-01, 3.52188021e-01,
          1.24806389e-01, 0., 0., 2.12649643e-01, 0., 0., 0., 0., 0., 0.,
          0., 1.91952661e-01, 0., 1.73089325e-01, 2.11138651e-01 ]
      - [ 2.85784632e-01, 7.70916417e-02, 5.45180291e-02, 7.77352825e-02,
          1.76984102e-01, 5.05154133e-02, 2.04159468e-01, 2.48927310e-01,
          2.05881178e-01, 3.40934731e-02, 8.42599720e-02, 8.08723122e-02,
          7.93261603e-02, 5.09816334e-02, 1.35634542e-01, 1.89969569e-01,
          2.08403707e-01, 5.71302809e-02, 8.32077935e-02, 1.74521312e-01,
          2.36383885e-01, 1.12963267e-01, 1.25332177e-01, 2.40869492e-01,
