%YAML:1.0
---
opencv_ml_svm:
   format: 3
   svmType: C_SVC
   kernel:
      type: RBF
      gamma: 5.3830000000000000e+00
   C: 2.6699999999999999e+00
   term_criteria: { epsilon:1.1920928955078125e-07, iterations:1000 }
   var_count: 64
   class_count: 2
   class_labels: !!opencv-matrix
      rows: 2
      cols: 1
      dt: i
      data: [ 0, 1 ]
   sv_total: 1067
   support_vectors:
      - [ 1.76361680e-01, 1.50356457e-01, 3.19425985e-02, 0.,
          3.87463942e-02, 3.75650376e-02, 3.20918001e-02, 3.21466744e-01,
          2.72266984e-01, 3.35556924e-01, 1.27499536e-01, 1.07714340e-01,
          7.34424591e-02, 1.21127069e-01, 2.06951678e-01, 2.88437039e-01,
          2.05008686e-01, 3.72067630e-01, 0., 3.98269854e-02,
          7.77511671e-02, 4.71034832e-02, 9.32546183e-02, 3.74053657e-01,
          1.51213542e-01, 3.08345072e-02, 0., 0., 7.18917027e-02,
          4.43177782e-02, 4.54880148e-02, 0., 1.85255572e-01,
          1.08481705e-01, 0., 0., 1.18939929e-01, 0., 0., 0.,
          2.34210547e-02, 0., 0., 9.70683172e-02, 1.45850182e-01, 0., 0.,
          7.85612985e-02, 3.63637954e-02, 4.27871272e-02, 2.55654268e-02,
          0., 2.63229925e-02, 0., 0., 0., 5.37315803e-03, 0., 0., 0.,
          2.52023451e-02, 0., 3.11184358e-02, 3.97988968e-02 ]
      - [ 2.55415142e-01, 1.33432955e-01, 1.96021110e-01, 9.54316035e-02,
          2.02146754e-01, 1.89566523e-01, 1.16761073e-01, 3.25465411e-01,
          1.83790162e-01, 8.21025223e-02, 8.74653086e-02, 3.17019552e-01,
          1.43311694e-01, 1.12607673e-01, 6.93517998e-02, 2.37944767e-01,
          2.16778472e-01, 9.33086798e-02, 3.88298519e-02, 2.57164799e-02,
          6.07729927e-02, 6.03225268e-02, 1.67327464e-01, 2.45536998e-01,
          2.93014497e-01, 3.14774290e-02, 0., 3.49460617e-02,
          4.29729968e-02, 0., 8.24200287e-02, 3.29510838e-01,
          1.19574316e-01, 9.65527743e-02, 7.69727156e-02, 0.,
          9.64192227e-02, 0., 0., 0., 4.71607260e-02, 3.97441238e-02, 0.,
          0., 7.54252002e-02, 0., 9.46045667e-02, 0., 3.45167406e-02, 0.,
          0., 0., 5.26309572e-02, 0., 5.66119514e-02, 2.28073467e-02, 0.,
          0., 3.25959921e-02, 2.75567565e-02, 4.43375558e-02, 0.,
          4.70848382e-02, 0. ]
      - [ 2.89374322e-01, 1.94160223e-01, 1.14934042e-01, 1.23616569e-01,
          1.32618129e-01, 1.54444963e-01, 1.80351436e-01, 2.60789186e-01,
          3.07578206e-01, 1.42823800e-01, 3.55561636e-02, 1.42553076e-01,
          2.68433064e-01, 0., 5.72715998e-02, 9.83729362e-02,
          3.86259824e-01, 1.09470204e-01, 3.50124948e-02, 4.80939858e-02,
          1.02159478e-01, 5.12003638e-02, 9.61529464e-02, 1.08416915e-01,
          3.87391359e-01, 8.09366629e-02, 4.06417325e-02, 3.14900354e-02,
          7.57467374e-02, 0., 3.78424786e-02, 9.09277573e-02,
          5.59651926e-02, 2.71198880e-02, 0., 1.44877449e-01,
          1.50973588e-01, 0., 4.23376188e-02, 0., 0., 7.49220848e-02, 0.,
          0., 1.75716013e-01, 9.17141214e-02, 0., 0., 1.67062338e-02, 0.,
          3.41392830e-02, 4.24810350e-02, 6.97761700e-02, 4.19245176e-02,
          3.61023694e-02, 0., 0., 0., 0., 3.69221680e-02, 7.82705322e-02,
          0., 0., 0. ]
      - [ 4.37212497e-01, 5.90293445e-02, 7.91017041e-02, 0.,
          4.57538143e-02, 7.36450478e-02, 3.21102478e-02, 3.31752114e-02,
          4.37785715e-01, 1.71720296e-01, 6.01800233e-02, 2.60402206e-02,
          7.22416341e-02, 9.01538953e-02, 5.56995496e-02, 1.99594676e-01,
          2.44936481e-01, 8.76320302e-02, 4.26413491e-02, 6.45027161e-02,
          2.21407175e-01, 7.74538890e-02, 9.11433548e-02, 1.92771792e-01,
          2.90114850e-01, 4.48242426e-02, 6.58717304e-02, 1.66753098e-01,
          2.45204508e-01, 1.58502325e-01, 1.59117237e-01, 2.08664462e-01,
          4.81247976e-02, 5.13055362e-02, 0., 3.16843279e-02,
          6.57459572e-02, 0., 0., 0., 1.29932100e-02, 0., 0., 0.,
          2.32429598e-02, 2.63832752e-02, 0., 4.35692854e-02,
          1.17961183e-01, 0., 0., 0., 3.38821448e-02, 0., 1.96208265e-02,
          0., 0., 0., 3.55754606e-02, 4.89074439e-02, 1.15458332e-01, 0.,
          8.35438892e-02, 9.03371274e-02 ]
      - [ 2.50432909e-01, 6.00638837e-02, 7.71145672e-02, 0.,
          1.05184630e-01, 0., 6.22395836e-02, 4.04607296e-01,
          3.82675111e-01, 2.02829704e-01, 1.52871519e-01, 1.61720976e-01,
          2.37383500e-01, 3.98323312e-02, 8.27647969e-02, 2.11618379e-01,
          2.13004649e-01, 1.40222654e-01, 1.46169782e-01, 1.11063428e-01,
          1.44348174e-01, 3.44169959e-02, 1.21409982e-01, 2.62624085e-01,
          2.22006768e-01, 8.65971297e-02, 6.30992875e-02, 0.,
          9.57307965e-02, 4.94589880e-02, 1.31248549e-01, 1.30734265e-01,
          1.07781000e-01, 2.55025867e-02, 0., 0., 1.20763741e-01, 0., 0.,
          0., 0., 0., 0., 0., 8.72808322e-02, 3.96059416e-02,
          6.38585761e-02, 8.45598578e-02, 1.46264657e-01, 0., 0., 0.,
          4.27586995e-02, 0., 0., 0., 0., 0., 0., 0., 7.54192621e-02,
          4.72348593e-02, 3.73435952e-02, 1.06990419e-01 ]
      - [ 1.62493616e-01, 1.12253942e-01, 9.28199366e-02, 1.32905141e-01,
          9.60703194e-02, 9.61010456e-02, 1.08230971e-01, 1.28948331e-01,
          1.30676880e-01, 1.44868970e-01, 1.53046697e-01, 2.37990692e-01,
          3.72002065e-01, 2.85798490e-01, 3.56369942e-01, 5.63213453e-02,
          1.59132093e-01, 1.00878552e-01, 1.50313631e-01, 1.19134195e-01,
          1.82257548e-01, 7.24803060e-02, 1.28607005e-01, 2.06087470e-01,
          1.51065961e-01, 9.00300071e-02, 4.45043817e-02, 5.07452488e-02,
          2.70160232e-02, 0., 0., 3.56884524e-02, 1.09029315e-01,
          5.76580279e-02, 0., 0., 5.90519682e-02, 0., 0., 0., 0., 0., 0.,
          0., 2.15752646e-01, 0., 2.65254498e-01, 1.46022797e-01,
          1.29555315e-01, 1.32356778e-01, 0., 0., 1.14264965e-01, 0., 0.,
          0., 0., 0., 0., 0., 6.73898011e-02, 0., 5.88028841e-02, 0. ]
      - [ 2.00998530e-01, 0., 1.19695075e-01, 1.07994415e-01,
          1.04117997e-01, 1.18908957e-01, 1.58100784e-01, 1.79278404e-01,
          2.10888684e-01, 2.53171891e-01, 1.65372431e-01, 2.09197924e-01,
          2.19066232e-01, 1.29574105e-01, 1.93154484e-01, 1.09085374e-01,
          1.91103324e-01, 1.93812877e-01, 1.23011775e-01, 1.69393584e-01,
          1.82381094e-01, 1.26749471e-01, 2.26966903e-01, 1.80684224e-01,
          1.98424071e-01, 2.02982277e-01, 1.05931371e-01, 9.98705924e-02,
          1.46160677e-01, 1.16188690e-01, 8.33496824e-02, 1.87273696e-01,
          1.19789243e-01, 1.33912787e-01, 0., 0., 9.21830833e-02, 0., 0.,
          0., 0., 0., 0., 0., 9.18278545e-02, 0., 1.45695046e-01,
          9.60296318e-02, 9.25021246e-02, 1.03392370e-01, 0., 0.,
          5.69786392e-02, 0., 0., 0., 0., 0., 0., 0., 6.41726330e-02, 0.,
          0., 1.46633700e-01 ]
      - [ 3.22220594e-01, 1.05679169e-01, 4.14838828e-02, 8.27907920e-02,
          9.05356035e-02, 3.32186408e-02, 9.91618410e-02, 2.08481640e-01,
          3.71599853e-01, 1.52221143e-01, 6.06662035e-02, 1.67752132e-01,
          2.78124839e-01, 8.19486976e-02, 7.30667263e-02, 2.71361440e-01,
          3.50539833e-01, 0., 1.14240251e-01, 1.13410264e-01,
          1.35923743e-01, 6.05170280e-02, 4.47088480e-02, 2.19858870e-01,
          3.34485531e-01, 9.71947461e-02, 6.30605817e-02, 6.93125427e-02,
          7.48182684e-02, 7.49382600e-02, 1.37224542e-02, 1.17454983e-01,
          5.06059080e-02, 0., 0., 6.21395521e-02, 8.96734595e-02,
          2.73846723e-02, 0., 0., 0., 0., 3.23115475e-02, 0.,
          1.87936649e-01, 6.43220842e-02, 4.05301265e-02, 0.,
          1.62366256e-02, 4.79594246e-02, 3.07516232e-02, 2.87621357e-02,
          1.00338444e-01, 0., 0., 0., 0., 0., 0., 4.51004505e-02,
          7.10393786e-02, 0., 3.30431312e-02, 3.46856676e-02 ]
      - [ 3.98083419e-01, 1.14239275e-01, 2.50125844e-02, 4.17825244e-02,
          9.46035236e-02, 5.08993715e-02, 2.74746194e-02, 1.82766452e-01,
          3.87585223e-01, 2.34252557e-01, 1.13121577e-01, 2.73742620e-02,
          1.35365516e-01, 1.27124563e-01, 1.62153617e-01, 1.94249347e-01,
          3.09135944e-01, 1.84986785e-01, 1.27154231e-01, 0.,
          1.27470508e-01, 1.71898548e-02, 1.52053982e-01, 2.16865927e-01,
          3.39751124e-01, 8.35417435e-02, 0., 3.94965485e-02,
          6.80371374e-02, 3.61067764e-02, 6.79712147e-02, 2.22552955e-01,
          0., 2.35552955e-02, 0., 6.77309558e-02, 1.10626824e-01, 0.,
          4.22916822e-02, 1.48725705e-02, 5.17415889e-02, 0., 0.,
          7.30570555e-02, 8.00123811e-02, 0., 0., 0., 1.96976867e-02, 0.,
          3.06012519e-02, 3.20683606e-02, 4.22468297e-02, 0., 0., 0., 0.,
          3.16434465e-02, 3.99380550e-02, 0., 5.28544374e-02, 0.,
          5.67356609e-02, 0. ]
      - [ 3.51354867e-01, 1.60434201e-01, 1.07947730e-01, 1.30373240e-01,
          1.43880397e-01, 1.75876737e-01, 1.90931961e-01, 2.19789162e-01,
          3.22813392e-01, 1.29141197e-01, 0., 1.20659292e-01,
          3.12242448e-01, 0., 3.53200473e-02, 3.49739753e-02,
          3.76654208e-01, 0., 1.12862274e-01, 3.79470252e-02,
          5.65915145e-02, 3.28878798e-02, 9.42866057e-02, 2.43403062e-01,
          3.07790071e-01, 3.35613526e-02, 4.03165780e-02, 0.,
          9.54844207e-02, 6.42461628e-02, 3.08323987e-02, 1.47910342e-01,
          4.49651778e-02, 0., 8.87130499e-02, 9.08415318e-02,
          1.40710056e-01, 3.46766636e-02, 3.06401942e-02, 0., 0.,
          3.72424312e-02, 2.64380760e-02, 0., 1.59385949e-01, 0.,
          8.45544860e-02, 0., 3.20247523e-02, 3.19723375e-02, 0.,
          4.62130532e-02, 6.00349717e-02, 0., 1.91613752e-02, 0., 0., 0.,
          0., 3.04176435e-02, 5.10677546e-02, 3.21901254e-02, 0.,
          2.96697281e-02 ]
      - [ 2.74905443e-01, 1.65822223e-01, 8.47415328e-02, 2.39519387e-01,
          2.05710307e-01, 1.58230990e-01, 8.68897811e-02, 1.44474715e-01,
          2.28736639e-01, 2.07299605e-01, 1.11131541e-01, 3.60564470e-01,
          1.44377083e-01, 0., 8.50846171e-02, 0., 2.94319570e-01, 0.,
          8.47176090e-02, 1.40452221e-01, 3.95985432e-02, 6.01295531e-02,
          0., 9.43304002e-02, 3.20704281e-01, 2.11877659e-01, 0.,
          2.09792361e-01, 1.44099712e-01, 4.29884829e-02, 1.22940123e-01,
          7.97897875e-02, 1.55022293e-01, 5.22300601e-02, 4.28867266e-02,
          0., 8.03831667e-02, 0., 0., 0., 0., 0., 0., 0., 5.18347584e-02,
          7.97633976e-02, 0., 8.88647959e-02, 6.04212061e-02, 0., 0.,
          8.97428989e-02, 9.48856026e-02, 0., 0., 0., 0., 0., 0.,
          1.30718544e-01, 1.31527528e-01, 0., 1.75299570e-02, 0. ]
      - [ 2.65568346e-01, 2.46164128e-01, 8.21191519e-02, 0.,
          5.76610416e-02, 4.06205654e-02, 0., 3.91211510e-02,
          3.62480849e-01, 2.15558410e-01, 2.60916591e-01, 1.07751727e-01,
          1.56936482e-01, 0., 1.50520861e-01, 1.24454677e-01,
          2.34689280e-01, 1.84789866e-01, 1.45561144e-01, 1.24461457e-01,
          1.04174368e-01, 1.64194643e-01, 2.42346823e-01, 1.83474496e-01,
          2.65010387e-01, 0., 0., 0., 8.77294838e-02, 0., 2.13733047e-01,
          2.56955057e-01, 0., 1.31210804e-01, 5.99135868e-02, 0.,
          1.21233679e-01, 1.33043053e-02, 0., 0., 4.36851196e-02, 0., 0.,
          7.39541873e-02, 1.43531159e-01, 0., 0., 7.21654072e-02,
          8.52652192e-02, 0., 2.97028217e-02, 0., 4.29673344e-02, 0., 0.,
          0., 0., 0., 0., 0., 4.12593335e-02, 0., 6.65079653e-02,
          6.75957203e-02 ]
      - [ 1.09730788e-01, 4.62593548e-02, 6.11078255e-02, 1.43013135e-01,
          2.79202074e-01, 1.51972875e-01, 1.54520974e-01, 1.61265373e-01,
          2.92058557e-01, 2.03521863e-01, 1.24704957e-01, 1.93574876e-01,
          2.27802008e-01, 1.61011979e-01, 8.08684230e-02, 1.30111977e-01,
          1.73542157e-01, 1.26942068e-01, 1.26552418e-01, 2.32725427e-01,
          2.97057003e-01, 1.55764222e-01, 9.27976072e-02, 1.30916446e-01,
          2.07509652e-01, 7.61722699e-02, 1.09086260e-01, 1.33581519e-01,
          1.52363300e-01, 1.65934250e-01, 1.45984337e-01, 1.51314512e-01,
          6.39324710e-02, 6.76322803e-02, 6.42919913e-02, 8.68012011e-02,
          1.35099187e-01, 0., 0., 0., 0., 0., 0., 0., 2.66616847e-02, 0.,
          4.27744128e-02, 5.66667542e-02, 1.12425327e-01, 3.78517471e-02,
          1.09031789e-01, 0., 1.18487120e-01, 0., 0., 0., 0., 0., 0., 0.,
          8.74161795e-02, 0., 9.73138213e-02, 0. ]
      - [ 9.42277610e-02, 2.33102322e-01, 0., 3.60152274e-02,
          2.95759410e-01, 1.59925774e-01, 1.13113411e-01, 8.12128186e-02,
          1.81988269e-01, 2.81374663e-01, 1.95075184e-01, 7.56105408e-02,
          3.22645456e-01, 2.28867587e-02, 2.95384750e-02, 6.98632374e-02,
          9.26945210e-02, 2.57682979e-01, 1.80569187e-01, 6.75165206e-02,
          1.68628454e-01, 1.10238649e-01, 0., 9.78782922e-02,
          1.63783535e-01, 2.38077685e-01, 1.98578134e-01, 2.21956391e-02,
          2.99509227e-01, 1.11059442e-01, 8.53315964e-02, 1.18818723e-01,
          0., 8.93229395e-02, 1.36337668e-01, 4.11947072e-02,
          1.47702113e-01, 0., 0., 0., 4.44329940e-02, 0., 0.,
          6.48287386e-02, 1.88902169e-01, 0., 0., 3.68905105e-02,
          8.11738595e-02, 0., 0., 0., 5.58211021e-02, 0., 0.,
          4.06787060e-02, 0., 4.77975681e-02, 0., 5.65209761e-02,
          8.01027194e-02, 6.83264509e-02, 1.80554967e-02, 7.65468627e-02 ]
      - [ 2.45372370e-01, 9.02290419e-02, 5.55619076e-02, 1.71580851e-01,
          2.79935509e-01, 1.64508164e-01, 1.38383463e-01, 1.39610127e-01,
          2.52315581e-01, 1.68787748e-01, 1.67501554e-01, 2.97303289e-01,
          3.07416856e-01, 0., 4.29208614e-02, 7.61114955e-02,
          3.35822165e-01, 1.48552075e-01, 1.16722777e-01, 0.,
          1.25708714e-01, 2.41858885e-02, 1.03498422e-01, 8.67166743e-02,
          3.32638443e-01, 1.68768495e-01, 0., 4.35736664e-02,
          6.14021607e-02, 1.77760199e-02, 0., 9.86426026e-02,
          2.28785008e-01, 0., 0., 0., 1.08890176e-01, 0., 0., 0., 0., 0.,
          0., 0., 1.32549986e-01, 9.31274816e-02, 0., 0., 0.,
          4.67699394e-02, 5.03881574e-02, 0., 4.94479723e-02, 0., 0., 0.,
          3.42390016e-02, 0., 0., 0., 6.18247986e-02, 0., 2.23143958e-02,
          5.72464950e-02 ]
      - [ 1.68167666e-01, 6.42101690e-02, 5.32731824e-02, 9.00828987e-02,
          9.75013897e-02, 6.61008060e-02, 6.94788173e-02, 1.75598159e-01,
          3.53835493e-01, 7.95629248e-02, 7.25230947e-02, 6.69504926e-02,
          2.02829525e-01, 1.43709168e-01, 1.00520313e-01, 1.51743382e-01,
          3.49769682e-01, 1.57175913e-01, 1.19922571e-01, 0.,
          2.25295722e-01, 2.17306346e-01, 1.63045689e-01, 2.36056060e-01,
          1.85949028e-01, 1.16945103e-01, 6.49784133e-02, 2.79416405e-02,
          2.72492647e-01, 2.82213330e-01, 1.52890950e-01, 4.20372821e-02,
          4.71940748e-02, 0., 0., 0., 0., 0., 0., 0., 0., 0., 0., 0.,
          9.98716354e-02, 0., 9.04290378e-02, 1.93680793e-01,
          1.36059776e-01, 0., 0., 0., 0., 0., 0., 0., 2.60358993e-02, 0.,
          0., 0., 6.30108714e-02, 1.47151966e-02, 0., 1.25045776e-01 ]
      - [ 3.45009148e-01, 1.69996530e-01, 4.32455018e-02, 0.,
          5.61504625e-02, 3.13006230e-02, 4.91445027e-02, 1.34386644e-01,
          4.01513189e-01, 2.46024713e-01, 1.08941406e-01, 0.,
          1.76573411e-01, 1.01654671e-01, 1.39995247e-01, 1.08105175e-01,
          1.37828827e-01, 5.99710643e-02, 4.59834747e-02, 2.13723376e-01,
          2.28300095e-01, 1.40606895e-01, 2.36734971e-01, 1.62153766e-01,
          2.99134851e-01, 1.34073064e-01, 1.22734599e-01, 8.08981210e-02,
          1.21137828e-01, 4.64905910e-02, 1.57251105e-01, 0.,
          1.86684560e-02, 0., 0., 3.97963375e-02, 4.80159968e-02, 0., 0.,
          3.71034481e-02, 2.08111871e-02, 1.98953170e-02, 4.09496613e-02,
          0., 9.40575600e-02, 5.83347678e-02, 8.59682336e-02,
          1.49359718e-01, 1.47196859e-01, 0., 7.85728097e-02, 0.,
          9.26214829e-02, 0., 0., 0., 0., 0., 0., 0., 1.00931920e-01, 0.,
          0., 1.65126577e-01 ]
      - [ 3.31251174e-01, 1.18763506e-01, 1.16153263e-01, 2.31586963e-01,
          2.93162078e-01, 1.61162391e-01, 1.72903150e-01, 2.88612008e-01,
          1.18871413e-01, 3.47819142e-02, 3.24615575e-02, 2.13870145e-02,
          1.75122749e-02, 1.86107364e-02, 1.71433892e-02, 1.86448172e-02,
          4.36268866e-01, 0., 0., 0., 1.75122749e-02, 0., 6.45842329e-02,
          2.80498207e-01, 4.77346599e-01, 4.26415876e-02, 0., 0.,
          1.14644747e-02, 0., 0., 4.66270149e-02, 0., 0., 0., 0.,
          2.07687676e-01, 4.85103503e-02, 3.14855315e-02, 0.,
          1.14644747e-02, 0., 0., 0., 0., 0., 0., 0., 0., 0., 0., 0.,
          4.28961366e-02, 0., 5.89791834e-02, 3.10619697e-02,
          4.13357541e-02, 5.89925870e-02, 0., 0., 4.72692437e-02, 0., 0.,
          0. ]
      - [ 3.64111960e-01, 1.21902801e-01, 6.75059035e-02, 6.35409802e-02,
          1.04727633e-01, 0., 7.99361169e-02, 2.62006968e-01,
          3.54500741e-01, 2.16562226e-01, 9.17794108e-02, 1.12965256e-01,
          8.69653225e-02, 4.55696248e-02, 1.14726394e-01, 2.80028552e-01,
          2.74514943e-01, 1.84408963e-01, 6.78500086e-02, 6.01297356e-02,
          1.11552857e-01, 3.75520475e-02, 9.49866325e-02, 2.58963436e-01,
          2.55330235e-01, 1.52957872e-01, 8.52786377e-02, 6.53912425e-02,
          9.72301885e-02, 1.27678692e-01, 6.77585155e-02, 2.11972535e-01,
          4.88333553e-02, 0., 0., 5.34902960e-02, 8.96418020e-02,
          3.74885947e-02, 5.16126603e-02, 0., 5.41354790e-02,
          3.59311253e-02, 0., 0., 1.01994656e-01, 5.72383180e-02, 0., 0.,
          1.09842755e-01, 5.96545488e-02, 6.16850443e-02, 0.,
          7.65591264e-02, 0., 0., 0., 0., 0., 0., 5.09921536e-02,
          6.07202314e-02, 4.98054735e-02, 0., 1.03633031e-01 ]
      - [ 3.17246467e-01, 8.80657285e-02, 5.64867556e-02, 0.,
          6.53637648e-02, 3.14360298e-02, 2.12063536e-01, 2.84359008e-01,
          2.10325152e-01, 1.89873248e-01, 1.32270187e-01, 1.73274666e-01,
          1.93225831e-01, 1.46230370e-01, 1.47256121e-01, 1.91347599e-01,
          1.93817735e-01, 1.72635511e-01, 8.14235359e-02, 1.06051683e-01,
          1.39916703e-01, 0., 1.72744602e-01, 1.97233438e-01,
          2.95770198e-01, 2.26230159e-01, 5.37733361e-02, 3.77132818e-02,
          5.03401682e-02, 4.34988551e-02, 1.77300498e-01, 2.38548040e-01,
          1.52900904e-01, 6.01452589e-02, 0., 0., 6.94042221e-02, 0., 0.,
          0., 4.72461656e-02, 0., 0., 0., 1.20079391e-01, 0.,
          8.86325464e-02, 0., 1.20482974e-01, 0., 0., 0., 5.41484505e-02,
          0., 0., 0., 5.06831110e-02, 0., 0., 0., 6.84929714e-02, 0., 0.,
          1.48855507e-01 ]
      - [ 1.58012748e-01, 1.57383859e-01, 1.41189307e-01, 1.13103293e-01,
          1.18735425e-01, 1.70200735e-01, 1.79554090e-01, 1.82491973e-01,
          2.13967830e-01, 2.03418881e-01, 2.30443731e-01, 1.93551853e-01,
          1.68524772e-01, 1.72377720e-01, 1.21723101e-01, 1.41209021e-01,
          1.81889728e-01, 1.71511441e-01, 1.56737790e-01, 9.18208361e-02,
          1.92032278e-01, 1.43740267e-01, 1.38231397e-01, 1.07375428e-01,
          1.71031877e-01, 1.74329236e-01, 1.42327383e-01, 2.47304127e-01,
          2.21479252e-01, 1.34539425e-01, 1.14389315e-01, 0.,
          1.00099958e-01, 1.74610332e-01, 0., 0., 1.07331343e-01, 0., 0.,
          0., 0., 0., 0., 0., 9.35555398e-02, 7.78375491e-02,
          9.47867036e-02, 1.26630992e-01, 8.71447176e-02, 0.,
          8.70047584e-02, 0., 5.49982637e-02, 0., 0., 0., 2.19944026e-02,
          0., 0., 0., 8.68847594e-02, 0., 1.23589307e-01, 0. ]
      - [ 1.98247105e-01, 1.81785196e-01, 9.74223763e-02, 1.25147656e-01,
          1.39468387e-01, 1.52444988e-01, 1.62909269e-01, 1.94593087e-01,
          2.69278020e-01, 1.84986144e-01, 1.37823030e-01, 1.83988824e-01,
          2.20565841e-01, 7.86621422e-02, 1.41238302e-01, 2.15505078e-01,
          2.25970507e-01, 1.38080999e-01, 1.38359353e-01, 1.51091114e-01,
          1.22790508e-01, 1.91525638e-01, 1.69816032e-01, 2.57942021e-01,
          1.67198718e-01, 6.50996417e-02, 9.99161601e-02, 1.55447066e-01,
          1.91404581e-01, 1.60241827e-01, 1.47127643e-01, 1.61923215e-01,
          1.00442275e-01, 7.48702288e-02, 0., 5.67562543e-02,
          7.09763169e-02, 0., 3.61020118e-02, 0., 0., 0., 3.89220193e-02,
          0., 7.63994604e-02, 0., 1.03029467e-01, 9.60939378e-02,
          8.79748911e-02, 0., 0., 0., 6.29673302e-02, 4.20241021e-02, 0.,
          0., 0., 0., 0., 0., 5.09065501e-02, 0., 5.83028905e-02,
          8.32286552e-02 ]
      - [ 1.62048429e-01, 9.08461139e-02, 2.02571779e-01, 5.49286008e-02,
          2.06040159e-01, 2.09141865e-01, 1.04186967e-01, 2.18317896e-01,
          2.25142315e-01, 1.40468866e-01, 1.47450626e-01, 1.93204686e-01,
          2.00106129e-01, 1.58965647e-01, 1.74473941e-01, 8.33455026e-02,
          1.89029753e-01, 1.72979906e-01, 8.51200819e-02, 8.01139474e-02,
          1.65497378e-01, 2.06144288e-01, 1.56554654e-01, 1.80788770e-01,
          2.37354144e-01, 1.55630961e-01, 9.93610099e-02, 9.93655324e-02,
          1.08364284e-01, 4.82770503e-02, 1.76122397e-01, 1.67924941e-01,
          6.52429089e-02, 1.33618474e-01, 1.09947652e-01, 6.58790767e-02,
          1.30740970e-01, 0., 0., 0., 0., 0., 0., 0., 1.79016098e-01,
          1.10069893e-01, 1.09446399e-01, 0., 1.03538685e-01,
          1.11439452e-01, 5.39361015e-02, 0., 1.03976369e-01, 0., 0., 0.,
          0., 0., 0., 0., 7.64449462e-02, 6.76364303e-02, 7.40996078e-02,
          0. ]
      - [ 1.57470033e-01, 1.80832610e-01, 6.88850582e-02, 1.47611186e-01,
          1.87939495e-01, 1.41654998e-01, 5.38450144e-02, 1.75718948e-01,
          2.51306295e-01, 1.88390478e-01, 1.80988878e-01, 1.49429396e-01,
          3.19388539e-01, 1.82430163e-01, 1.50437161e-01, 2.57938594e-01,
          2.82867819e-01, 1.88570738e-01, 1.03333548e-01, 1.10944629e-01,
          1.75695777e-01, 0., 1.67867497e-01, 2.24302545e-01,
          2.57873386e-01, 1.55004889e-01, 0., 2.69556157e-02,
          1.02808297e-01, 0., 1.00316726e-01, 2.64045954e-01,
          7.66497254e-02, 3.36314812e-02, 0., 0., 4.28740233e-02,
          1.85074303e-02, 0., 0., 0., 0., 0., 2.90856380e-02,
          3.50064933e-02, 2.80811619e-02, 0., 0., 2.76750624e-02,
          3.41554992e-02, 0., 0., 1.75032467e-02, 0., 0., 0.,
          1.75032467e-02, 0., 3.16054225e-02, 0., 4.63092364e-02, 0.,
          2.95672957e-02, 2.20091678e-02 ]
      - [ 2.47463211e-01, 1.45406798e-01, 5.77162541e-02, 0.,
          1.11038499e-01, 7.47687444e-02, 7.98689798e-02, 2.03240305e-01,
          3.26944292e-01, 2.41728038e-01, 1.32314727e-01, 1.36929870e-01,
          2.05045193e-01, 9.08537880e-02, 1.22844972e-01, 1.90259084e-01,
          2.63168305e-01, 2.49327391e-01, 1.63949698e-01, 4.27658260e-02,
          1.21585421e-01, 1.02738872e-01, 1.25882059e-01, 8.69848356e-02,
          3.57611507e-01, 2.19671026e-01, 7.61251226e-02, 6.73026219e-02,
          1.25088051e-01, 9.94810387e-02, 1.14467375e-01, 2.42215335e-01,
          4.37544324e-02, 0., 0., 5.28155044e-02, 1.03607640e-01, 0., 0.,
          0., 0., 0., 0., 3.45176756e-02, 1.14934817e-01, 5.77514619e-02,
          0., 7.54907355e-02, 7.08461404e-02, 3.05752885e-02,
          3.61743644e-02, 0., 4.75463457e-02, 2.20202878e-02, 0.,
          2.39365734e-02, 0., 2.75575053e-02, 0., 0., 2.56779622e-02, 0.,
          0., 4.44629230e-02 ]
      - [ 2.38084182e-01, 1.50963888e-01, 1.66453689e-01, 1.28288507e-01,
          9.61943567e-02, 1.47790134e-01, 1.23294182e-01, 1.58739656e-01,
          2.93605655e-01, 1.52244449e-01, 1.70085967e-01, 2.31958166e-01,
          2.38618731e-01, 8.90583172e-02, 7.65794367e-02, 2.58189946e-01,
          2.65847445e-01, 1.85220391e-01, 1.65665433e-01, 1.33771941e-01,
          1.67181700e-01, 1.00516222e-01, 0., 1.50292426e-01,
          1.75232366e-01, 1.27592415e-01, 6.99680373e-02, 7.47362226e-02,
          2.09256992e-01, 1.49143130e-01, 1.86066628e-01, 1.46987632e-01,
          1.20476812e-01, 5.30326180e-02, 1.12765491e-01, 0.,
          1.13374725e-01, 0., 0., 0., 0., 0., 0., 0., 6.08085245e-02, 0.,
          7.84433186e-02, 5.38700335e-02, 0., 0., 0., 0., 7.73916170e-02,
          0., 4.53667156e-02, 5.51846102e-02, 0., 2.43020505e-02,
          6.10696860e-02, 3.50404494e-02, 9.88555998e-02, 5.10027222e-02,
          0., 0. ]
      - [ 1.81783259e-01, 1.78852990e-01, 1.62478045e-01, 1.80032611e-01,
          2.46261805e-01, 1.39030844e-01, 1.25209287e-01, 8.17626491e-02,
          1.24615870e-01, 1.70722499e-01, 3.46119434e-01, 7.03599527e-02,
          2.16468573e-01, 2.02374473e-01, 8.82077590e-02, 1.55550927e-01,
          1.14596263e-01, 6.68446645e-02, 1.36303321e-01, 3.55788708e-01,
          1.22701317e-01, 0., 7.68680349e-02, 0., 1.80100948e-01,
          1.72896132e-01, 1.65437743e-01, 2.36922190e-01, 1.86494708e-01,
          7.54536986e-02, 4.17143553e-02, 0., 0., 0., 0., 0., 0., 0., 0.,
          0., 3.49272527e-02, 0., 0., 5.36019690e-02, 1.57105550e-01,
          1.38026744e-01, 5.97764142e-02, 0., 5.82824536e-02,
          1.51520118e-01, 0., 7.68770874e-02, 1.33841157e-01, 0., 0., 0.,
          0., 0., 0., 0., 7.03125671e-02, 6.25382513e-02, 4.89481650e-02,
          0. ]
      - [ 2.28510886e-01, 1.03823513e-01, 6.02325983e-02, 6.40730113e-02,
          7.97847360e-02, 2.03932039e-02, 1.38785422e-01, 3.06510687e-01,
          3.70463252e-01, 2.41345584e-01, 1.53185591e-01, 1.17863253e-01,
          9.86217633e-02, 7.40421712e-02, 1.26976565e-01, 2.42310554e-01,
          2.39216372e-01, 2.17114046e-01, 6.67654872e-02, 9.58287492e-02,
          6.38408214e-02, 8.03035349e-02, 1.29361063e-01, 3.26208055e-01,
          2.95362473e-01, 9.81040820e-02, 0., 4.24925983e-02,
          1.11698173e-02, 5.62097505e-02, 8.28288868e-02, 1.06131665e-01,
          1.21491328e-01, 1.22056231e-01, 0., 4.51774895e-02,
          1.26042530e-01, 0., 0., 0., 6.21909127e-02, 0., 5.46704978e-02,
          0., 5.58490865e-02, 0., 0., 8.72305930e-02, 1.25718340e-01,
          6.85969666e-02, 0., 0., 5.83972484e-02, 2.78134234e-02, 0., 0.,
          4.51422781e-02, 0., 0., 0., 7.73867667e-02, 0., 0.,
          1.29385531e-01 ]
      - [ 1.23403333e-01, 1.93401739e-01, 1.41544640e-01, 1.75259858e-01,
          1.20079011e-01, 1.38653263e-01, 1.61575258e-01, 1.80798024e-01,
          1.67443231e-01, 2.31965154e-01, 2.87067056e-01, 2.05709606e-01,
          1.65048748e-01, 1.89904124e-01, 7.31390193e-02, 4.63285707e-02,
          1.66972905e-01, 0., 2.92881876e-01, 0., 1.01535216e-01, 0.,
          9.01958942e-02, 1.23256907e-01, 2.04762816e-01, 2.75861472e-01,
          1.56662241e-01, 4.82939146e-02, 2.33267620e-01, 1.63048238e-01,
          1.47251725e-01, 9.18855891e-02, 8.48202556e-02, 1.29825369e-01,
          0., 0., 1.08390577e-01, 0., 0., 0., 1.22571122e-02, 0., 0., 0.,
          1.19844221e-01, 7.05493838e-02, 1.32436514e-01, 1.20033957e-01,
          6.27391711e-02, 0., 8.96976218e-02, 0., 5.72290272e-02, 0., 0.,
          2.94087287e-02, 0., 3.96462418e-02, 0., 5.66587970e-02,
          8.43873397e-02, 6.63916841e-02, 0., 6.17777258e-02 ]
      - [ 7.48603120e-02, 2.40019113e-01, 4.32577245e-02, 2.05604166e-01,
          2.14156017e-01, 1.65711552e-01, 1.46475047e-01, 1.07006446e-01,
          1.80972204e-01, 2.62214005e-01, 1.39781758e-01, 3.42614740e-01,
          1.85347632e-01, 0., 3.44251841e-02, 3.78336012e-02,
          9.95891243e-02, 2.66281277e-01, 5.50648943e-02, 1.23031750e-01,
          1.64606467e-01, 2.76398621e-02, 9.34402198e-02, 8.68479535e-02,
          1.94323957e-01, 3.02932233e-01, 4.91870046e-02, 2.14056477e-01,
          1.72853902e-01, 1.12233445e-01, 3.95058207e-02, 1.24460474e-01,
          1.22218154e-01, 1.50976688e-01, 4.60430160e-02, 0.,
          1.12008549e-01, 0., 0., 0., 0., 0., 0., 0., 1.45957395e-01,
          9.72597748e-02, 2.61712503e-02, 0., 6.61362335e-02,
          7.79851004e-02, 0., 0., 7.37522393e-02, 1.60289276e-02, 0., 0.,
          0., 5.37452325e-02, 0., 8.34195390e-02, 1.44039810e-01, 0., 0.,
          0. ]
      - [ 3.61207336e-01, 8.25436041e-02, 0., 5.64943142e-02,
          8.04758444e-02, 3.97867709e-02, 5.83238527e-02, 6.15298040e-02,
          4.08079892e-01, 2.16318071e-01, 1.50105998e-01, 0.,
          2.00725973e-01, 7.66393617e-02, 3.17888819e-02, 1.66105539e-01,
          2.80081853e-02, 0., 4.35873047e-02, 1.88337862e-01,
          2.16813281e-01, 2.02895552e-01, 2.24046841e-01, 1.83502570e-01,
          2.86912054e-01, 1.65621683e-01, 1.13963991e-01, 7.06433505e-02,
          1.28097028e-01, 4.04921733e-02, 1.38975725e-01, 1.46999165e-01,
          0., 0., 0., 0., 7.58350641e-02, 4.86991294e-02, 3.35699432e-02,
          0., 1.18356189e-02, 3.06884926e-02, 0., 0., 1.12963781e-01,
          9.02144611e-02, 1.06872268e-01, 1.10380933e-01, 1.55374169e-01,
          0., 8.70704576e-02, 0., 1.02499463e-01, 0., 0., 0., 0., 0., 0.,
          0., 1.00149199e-01, 0., 0., 1.72228143e-01 ]
      - [ 8.48948509e-02, 8.66755769e-02, 1.75609976e-01, 1.31155863e-01,
          2.77852744e-01, 1.97756007e-01, 2.65727133e-01, 1.51268348e-01,
          1.06498010e-01, 4.15121019e-02, 6.32978380e-02, 1.99318856e-01,
          3.45743299e-01, 3.16508591e-01, 1.44155949e-01, 4.90647852e-02,
          7.09205940e-02, 6.84203878e-02, 6.91483021e-02, 6.46834522e-02,
          9.55535248e-02, 1.01720199e-01, 1.41810983e-01, 2.71448314e-01,
          2.96118945e-01, 2.23482728e-01, 3.58797014e-02, 1.23987116e-01,
          8.50085840e-02, 0., 0., 0., 0., 0., 0., 0., 2.28723250e-02, 0.,
          0., 5.71983419e-02, 3.55564766e-02, 5.40316440e-02, 0.,
          6.93842173e-02, 1.83668286e-01, 9.60133895e-02, 9.09610838e-02,
          1.21646792e-01, 1.93337470e-01, 8.64656195e-02, 0., 0.,
          1.02501027e-01, 0., 0., 0., 0., 0., 0., 0., 9.33758728e-03, 0.,
          0., 0. ]
      - [ 2.91244388e-01, 1.19787663e-01, 1.98698752e-02, 6.83771372e-02,
          5.19704632e-02, 1.52020782e-01, 2.49403402e-01, 1.83556706e-01,
          1.28415570e-01, 1.16397828e-01, 8.15414712e-02, 1.51851222e-01,
          1.67445332e-01, 2.27248043e-01, 1.99314222e-01, 3.02267045e-01,
          2.72787392e-01, 1.83447495e-01, 0., 1.43313318e-01,
          2.88280267e-02, 2.05825895e-01, 1.46511525e-01, 1.64327025e-01,
          1.92361355e-01, 1.31099463e-01, 9.28163305e-02, 1.13265373e-01,
          1.84050113e-01, 1.56303227e-01, 1.55268371e-01, 2.89329678e-01,
          1.06604286e-01, 0., 0., 0., 2.63162665e-02, 0., 0., 0., 0., 0.,
          0., 0., 3.53069790e-02, 0., 0., 1.24192014e-01, 8.71631578e-02,
          3.89727093e-02, 0., 0., 1.17689930e-02, 0., 0., 0., 0., 0., 0.,
          0., 3.22307125e-02, 0., 2.44080015e-02, 4.34541479e-02 ]
      - [ 4.65077199e-02, 0., 0., 7.21269473e-02, 1.15505978e-01, 0., 0.,
          1.26133591e-01, 3.71078402e-01, 1.36764377e-01, 9.51628909e-02,
          1.58976182e-01, 1.43083706e-01, 8.91267955e-02, 2.91495118e-02,
          0., 1.21078968e-01, 6.11445345e-02, 0., 3.59752066e-02,
          8.57596174e-02, 8.36296380e-02, 8.16549286e-02, 1.77465513e-01,
          2.58789808e-01, 5.15131727e-02, 0., 1.71881169e-01,
          5.12255132e-01, 4.19412583e-01, 0., 5.97844794e-02, 0., 0., 0.,
          0., 5.80053180e-02, 0., 0., 1.45373583e-01, 2.41607159e-01, 0.,
          0., 0., 9.30154398e-02, 0., 0., 0., 9.03947577e-02, 0., 0., 0.,
          6.00412078e-02, 0., 3.91081758e-02, 2.91495118e-02,
          8.67677629e-02, 0., 0., 0., 7.75128677e-02, 9.91688073e-02,
          3.27839516e-02, 0. ]
      - [ 1.77935094e-01, 0., 2.99552288e-02, 2.38070730e-02,
          8.38401094e-02, 3.27237286e-02, 4.98322770e-02, 3.34965676e-01,
          3.47273052e-01, 1.27071902e-01, 7.59616941e-02, 1.06393829e-01,
          1.42663985e-01, 0., 8.28927308e-02, 3.30577642e-01,
          1.41021296e-01, 1.48931533e-01, 9.58325043e-02, 7.53274113e-02,
          3.35812084e-02, 1.01257160e-01, 1.60712391e-01, 3.09406132e-01,
          2.74881899e-01, 1.13634840e-01, 1.03375971e-01, 1.07979000e-01,
          6.72418177e-02, 1.17299974e-01, 9.38975662e-02, 2.63715059e-01,
          1.49344623e-01, 0., 0., 0., 1.66183896e-02, 0., 0., 0., 0., 0.,
          0., 0., 7.53957331e-02, 0., 1.01940401e-01, 2.27188259e-01,
          1.96011245e-01, 9.81360003e-02, 0., 0., 8.14131498e-02, 0., 0.,
          0., 0., 0., 0., 0., 3.28887403e-02, 0., 0., 1.01917677e-01 ]
      - [ 2.92927235e-01, 1.07245132e-01, 3.92312594e-02, 3.08014173e-02,
          9.93937254e-02, 7.30372444e-02, 3.15491617e-01, 1.72401235e-01,
          2.05545753e-01, 1.90928459e-01, 1.55377641e-01, 1.25290379e-01,
          1.84769168e-01, 7.85425901e-02, 2.54942775e-01, 2.27446347e-01,
          2.21864775e-01, 1.46838516e-01, 9.55499411e-02, 8.86179954e-02,
          1.01092152e-01, 1.44462541e-01, 2.07501143e-01, 1.18580282e-01,
          3.76854300e-01, 7.12826103e-02, 0., 4.72363457e-02,
          7.25645795e-02, 4.13143411e-02, 2.28548512e-01, 1.11901559e-01,
          7.87379593e-02, 4.80312370e-02, 3.97668071e-02, 0.,
          5.12381196e-02, 0., 0., 0., 2.37054192e-02, 1.75607838e-02, 0.,
          0., 3.29845548e-02, 0., 0., 6.95881993e-02, 7.28295296e-02, 0.,
          0., 8.45856071e-02, 7.87195042e-02, 0., 0., 0., 1.19126206e-02,
          0., 0., 0., 1.18828021e-01, 0., 1.75175995e-01, 0. ]
      - [ 1.07049875e-01, 1.81143701e-01, 0., 1.53296040e-02,
          2.76077688e-01, 1.87083766e-01, 1.77576810e-01, 1.24823049e-01,
          9.54789594e-02, 3.41723353e-01, 1.29600063e-01, 1.02444820e-01,
          3.53681892e-01, 0., 0., 0., 1.24833502e-01, 4.14674640e-01,
          4.24975827e-02, 9.84151214e-02, 0., 0., 1.14175744e-01,
          8.23159888e-02, 1.94518104e-01, 3.60013127e-01, 2.57354956e-02,
          0., 2.54083816e-02, 0., 0., 0., 6.93322495e-02, 2.14374736e-01,
          0., 0., 1.54553145e-01, 0., 0., 0., 8.03483557e-03, 0., 0., 0.,
          2.25265428e-01, 0., 0., 0., 0., 5.62627092e-02, 0., 0.,
          9.84062348e-03, 0., 0., 2.10093483e-02, 4.16946039e-02, 0., 0.,
          0., 1.96812470e-02, 0., 0., 0. ]
      - [ 1.80542558e-01, 0., 6.70108199e-02, 1.64822787e-01,
          1.37350172e-01, 1.04001090e-01, 4.73065712e-02, 1.76208407e-01,
          1.66355565e-01, 1.25075020e-02, 1.30835935e-01, 2.43807450e-01,
          4.23661739e-01, 4.12067585e-02, 8.18717405e-02, 0.,
          2.46821180e-01, 2.01836318e-01, 1.00016773e-01, 9.22637358e-02,
          1.33799002e-01, 8.95196050e-02, 1.49837092e-01, 3.76865983e-01,
          2.00319439e-01, 5.26715070e-02, 2.83947363e-02, 0.,
          8.24803784e-02, 3.42627168e-02, 0., 1.70473233e-01,
          5.87051213e-02, 0., 0., 0., 6.93677664e-02, 0., 3.39001641e-02,
          6.95485324e-02, 6.13271147e-02, 0., 0., 0., 2.39773273e-01,
          9.02699158e-02, 0., 0., 2.04510719e-01, 1.70860782e-01, 0., 0.,
          1.55467212e-01, 0., 0., 0., 0., 0., 0., 0., 0., 0., 0.,
          1.01725683e-01 ]
      - [ 2.22626492e-01, 1.47097528e-01, 1.28889546e-01, 1.27752542e-01,
          1.56189099e-01, 1.89833969e-01, 1.69570222e-01, 3.47386956e-01,
          1.05197094e-01, 1.17759205e-01, 1.66890115e-01, 1.75450653e-01,
          1.71679094e-01, 2.76842341e-02, 1.07061215e-01, 3.21367472e-01,
          2.90551424e-01, 8.40574354e-02, 4.03449535e-02, 0.,
          3.74929681e-02, 0., 3.20447460e-02, 4.04087812e-01,
          1.66188747e-01, 0., 0., 1.21835386e-02, 4.08902802e-02,
          4.90377508e-02, 7.56131634e-02, 3.20147932e-01, 1.15192205e-01,
          7.60471076e-02, 0., 5.76671213e-02, 7.68194571e-02, 0.,
          4.64857593e-02, 7.70088658e-02, 0., 0., 3.29523683e-02, 0.,
          4.79053482e-02, 0., 0., 8.64794776e-02, 5.72578423e-03, 0., 0.,
          0., 4.50848714e-02, 3.04941460e-02, 5.22881933e-02, 0., 0., 0.,
          0., 5.34068756e-02, 5.24776801e-02, 0., 0., 0. ]
      - [ 2.66681731e-01, 4.97395620e-02, 6.40935153e-02, 7.06843063e-02,
          1.30157426e-01, 7.86762908e-02, 9.87984687e-02, 1.90557495e-01,
          5.12831390e-01, 1.87526852e-01, 1.10165261e-01, 1.47902489e-01,
          1.28851399e-01, 9.86143798e-02, 6.42416701e-02, 3.14806759e-01,
          1.60488918e-01, 9.81986225e-02, 2.42156982e-02, 8.56731832e-02,
          1.16453774e-01, 1.02890559e-01, 8.28242749e-02, 2.73164392e-01,
          2.51770318e-01, 1.70221850e-01, 1.84231490e-01, 4.29677665e-02,
          1.23595439e-01, 1.26762718e-01, 8.00481662e-02, 1.21092491e-01,
          4.12867926e-02, 4.16186824e-02, 0., 5.41106798e-02,
          8.29696283e-02, 5.56697883e-02, 0., 0., 0., 0., 4.79025319e-02,
          4.09857742e-02, 9.71640721e-02, 6.48666620e-02, 4.74225730e-02,
          0., 0., 6.30777702e-02, 0., 5.06404229e-02, 6.00490049e-02, 0.,
          4.73606139e-02, 0., 5.37094623e-02, 0., 0., 0., 4.65137586e-02,
          4.83174808e-02, 2.91941706e-02, 0. ]
      - [ 2.80720502e-01, 2.62387209e-02, 3.98469791e-02, 2.03728065e-01,
          2.07277045e-01, 2.21375778e-01, 8.61663148e-02, 1.01799302e-01,
          3.01952690e-01, 1.53283164e-01, 1.38422236e-01, 2.97820807e-01,
          2.26201415e-01, 1.13253348e-01, 4.69875708e-02, 1.02097400e-01,
          3.88493896e-01, 8.24209377e-02, 8.93594101e-02, 6.19940907e-02,
          6.38795942e-02, 4.13603634e-02, 4.81790751e-02, 1.47793785e-01,
          3.80495906e-01, 6.76556453e-02, 4.43020836e-02, 0.,
          6.48475289e-02, 6.71625435e-02, 1.05155140e-01, 4.72270176e-02,
          2.01770827e-01, 9.35181379e-02, 0., 0., 8.82463008e-02, 0., 0.,
          0., 2.01232526e-02, 0., 0., 0., 1.06024273e-01, 0.,
          8.64935592e-02, 0., 7.81552196e-02, 0., 0., 3.37330960e-02,
          5.46842329e-02, 3.67605016e-02, 0., 0., 0., 0., 0., 0.,
          5.29477820e-02, 0., 4.17207517e-02, 5.63211106e-02 ]
      - [ 3.38716596e-01, 1.17655411e-01, 1.43839493e-01, 1.48760200e-01,
          1.89647108e-01, 1.48020729e-01, 1.70908988e-01, 2.60043681e-01,
          2.99194872e-01, 1.42550930e-01, 0., 1.51188090e-01,
          3.02870750e-01, 0., 4.24872935e-02, 3.39046381e-02,
          3.38275641e-01, 4.91542481e-02, 9.14683267e-02, 6.25099987e-02,
          8.04461613e-02, 0., 1.05368808e-01, 2.30159611e-01,
          3.07952434e-01, 6.86774328e-02, 6.36455640e-02, 7.73850232e-02,
          7.30190650e-02, 3.18313539e-02, 4.91768308e-02, 2.07305923e-01,
          4.97707166e-02, 9.39423665e-02, 0., 1.11692443e-01,
          1.26130641e-01, 0., 0., 1.80571191e-02, 0., 0., 0., 0.,
          1.05005823e-01, 1.04859203e-01, 8.95493925e-02, 2.78211851e-02,
          0., 0., 0., 5.32067791e-02, 6.07081316e-02, 0., 0., 0.,
          1.22900018e-02, 0., 0., 5.99763878e-02, 6.45663887e-02,
          1.61203649e-02, 0., 0. ]
      - [ 2.59524822e-01, 4.86984812e-02, 0., 1.82576701e-01,
          1.85031042e-01, 1.50997043e-01, 1.92085519e-01, 1.39006048e-01,
          2.44671091e-01, 8.31580535e-02, 1.32408187e-01, 2.95753032e-01,
          1.34192035e-01, 1.95248663e-01, 1.62630275e-01, 1.75953567e-01,
          9.82784480e-02, 3.74599583e-02, 1.35179237e-01, 1.28250688e-01,
          1.24961384e-01, 1.74064934e-01, 2.57635415e-01, 2.01316863e-01,
          2.10723683e-01, 1.71625718e-01, 1.29456609e-01, 1.56986848e-01,
          1.61083445e-01, 1.84444755e-01, 9.43509862e-02, 5.51749691e-02,
          0., 0., 0., 0., 5.27463220e-02, 2.47845445e-02, 0.,
          3.72760408e-02, 4.82782200e-02, 0., 2.09547486e-02, 0.,
          1.13351963e-01, 0., 1.65466264e-01, 0., 7.70517364e-02,
          1.44890130e-01, 0., 0., 1.29183963e-01, 0., 3.55222225e-02,
          3.66187803e-02, 0., 0., 0., 0., 9.31875855e-02, 0., 0.,
          9.94845554e-02 ]
      - [ 2.98846215e-01, 3.08199674e-01, 9.92010683e-02, 1.94952879e-02,
          6.23366460e-02, 5.63924871e-02, 5.43556474e-02, 1.47315025e-01,
          3.84618074e-01, 1.05850548e-01, 1.37687817e-01, 9.24377292e-02,
          1.24940798e-01, 1.11156225e-01, 1.52634919e-01, 2.66099900e-01,
          1.19506150e-01, 8.88934731e-02, 2.46398505e-02, 7.81721473e-02,
          3.81856799e-01, 1.37604147e-01, 2.01372921e-01, 3.07216972e-01,
          1.73731580e-01, 0., 0., 5.62543608e-02, 1.24219753e-01,
          9.90025401e-02, 0., 8.67498219e-02, 1.63165316e-01,
          9.20212865e-02, 0., 0., 7.65366033e-02, 0., 0., 0., 0.,
          2.74809375e-02, 3.20752412e-02, 0., 4.67747003e-02,
          2.64660548e-02, 3.44417170e-02, 8.93377662e-02, 7.77913481e-02,
          4.40587737e-02, 0., 0., 4.82599773e-02, 0., 0., 0., 0., 0., 0.,
          0., 3.25368717e-02, 0., 0., 6.47436902e-02 ]
      - [ 3.18587780e-01, 8.78144503e-02, 4.04606499e-02, 7.20045790e-02,
          9.73715410e-02, 5.66718765e-02, 1.21503241e-01, 2.81421155e-01,
          3.05622399e-01, 2.19465032e-01, 4.88138050e-02, 6.82036430e-02,
          1.55284241e-01, 1.23243541e-01, 8.86306614e-02, 3.33315164e-01,
          2.93580323e-01, 1.52451128e-01, 5.24283238e-02, 1.30031735e-01,
          1.06094636e-01, 6.20613620e-02, 1.49389312e-01, 2.97458142e-01,
          2.69315809e-01, 8.97204950e-02, 6.20280951e-02, 4.76774126e-02,
          9.29551721e-02, 3.60611379e-02, 0., 2.74352908e-01,
          1.77033730e-02, 0., 0., 1.33253345e-02, 8.45073983e-02, 0., 0.,
          0., 5.74397370e-02, 7.43334591e-02, 0., 5.49828485e-02,
          9.19894353e-02, 0., 0., 0., 1.95718165e-02, 6.26675487e-02,
          3.10348850e-02, 0., 7.73925260e-02, 4.68843877e-02, 0., 0., 0.,
          0., 0., 0., 3.06631420e-02, 2.94785276e-02, 0., 1.83008071e-02 ]
      - [ 2.35488087e-01, 7.00474754e-02, 8.78355131e-02, 5.87258674e-02,
          1.44725233e-01, 1.73029706e-01, 2.37262458e-01, 2.27839872e-01,
          2.69449294e-01, 1.50864825e-01, 9.95104760e-02, 1.13065109e-01,
          1.78735584e-01, 5.14014848e-02, 7.32627064e-02, 2.62265027e-01,
          2.56861061e-01, 1.37475595e-01, 5.41740768e-02, 9.24090669e-02,
          1.02594383e-01, 9.36352387e-02, 1.37427151e-01, 2.05292806e-01,
          3.44666988e-01, 1.78894296e-01, 5.37786186e-02, 5.31685576e-02,
          1.34849936e-01, 0., 1.20938987e-01, 2.51750290e-01,
          3.25272381e-02, 1.38910756e-01, 0., 0., 9.84811112e-02, 0., 0.,
          0., 0., 0., 0., 0., 1.18028022e-01, 1.17733076e-01, 0.,
          1.28824577e-01, 0., 2.52149086e-02, 0., 0., 2.96931714e-02, 0.,
          0., 3.73371877e-02, 2.65583787e-02, 0., 0., 1.19468838e-01,
          1.44517064e-01, 0., 0., 0. ]
      - [ 2.86370546e-01, 0., 8.41578841e-02, 1.79367870e-01,
          2.27038398e-01, 1.86378673e-01, 1.70171931e-01, 1.17465347e-01,
          3.05270791e-01, 1.14344276e-01, 1.42879009e-01, 3.32274050e-01,
          1.89190730e-01, 9.24181417e-02, 6.32307008e-02, 8.78161639e-02,
          4.09892917e-01, 0., 0., 5.83751276e-02, 0., 0., 4.31728885e-02,
          1.44855723e-01, 3.98792982e-01, 2.15029363e-02, 0., 0.,
          3.38820890e-02, 0., 1.05624394e-02, 6.22573420e-02,
          2.31204733e-01, 0., 0., 0., 9.25834849e-02, 0., 0., 0., 0., 0.,
          0., 0., 7.52558708e-02, 8.06171000e-02, 9.03131962e-02, 0.,
          1.15220614e-01, 0., 0., 0., 2.96669882e-02, 0., 0., 0., 0., 0.,
          0., 0., 2.55055074e-02, 2.26583183e-02, 0., 0. ]
      - [ 7.34361038e-02, 1.75149143e-01, 9.95587930e-02, 0.,
          2.06112415e-01, 2.40675867e-01, 1.34899631e-01, 1.87006384e-01,
          1.56252459e-01, 2.11236924e-01, 1.27004862e-01, 1.52151495e-01,
          3.00272703e-01, 6.45067692e-02, 1.86502650e-01, 1.50219858e-01,
          1.13010205e-01, 5.97855262e-02, 1.61374614e-01, 9.02649239e-02,
          2.29533017e-01, 2.10664630e-01, 2.16525540e-01, 1.23519361e-01,
          1.49279594e-01, 1.33460701e-01, 1.90439835e-01, 1.53472632e-01,
          2.02942133e-01, 1.55219004e-01, 1.47745624e-01, 5.31824641e-02,
          5.21033742e-02, 1.32932410e-01, 0., 0., 9.72122774e-02, 0., 0.,
          0., 0., 0., 0., 0., 1.25033498e-01, 1.12398408e-01,
          1.16297282e-01, 7.92421550e-02, 1.25322446e-01, 0.,
          1.18425205e-01, 0., 1.11203857e-01, 0., 0., 0., 0., 0., 0., 0.,
          8.53825212e-02, 0., 9.01569277e-02, 7.37255216e-02 ]
      - [ 3.04019868e-01, 2.03779578e-01, 9.43506956e-02, 1.10856667e-01,
          1.22115329e-01, 0., 1.67895928e-01, 3.63712072e-01,
          2.29648098e-01, 1.70141041e-01, 7.20166489e-02, 4.81918991e-01,
          2.51966298e-01, 0., 1.99760422e-02, 1.32018521e-01,
          2.09526211e-01, 1.37179017e-01, 2.32180189e-02, 0.,
          1.07286923e-01, 1.84329115e-02, 8.08297098e-02, 3.63885522e-01,
          1.33889973e-01, 2.98083778e-02, 0., 1.18778255e-02,
          8.55379477e-02, 0., 0., 0., 4.08494584e-02, 0., 1.61289703e-02,
          5.14849871e-02, 5.42636365e-02, 0., 0., 0., 4.99839894e-02, 0.,
          0., 7.91944340e-02, 7.64652938e-02, 0., 1.79365017e-02, 0., 0.,
          0., 0., 0., 3.53440195e-02, 0., 4.10858393e-02, 4.32082154e-02,
          3.13291252e-02, 1.37579916e-02, 0., 0., 1.63611025e-02, 0., 0.,
          0. ]
      - [ 9.77465957e-02, 0., 0., 0., 3.73088941e-02, 0., 4.69951108e-02,
          4.46769655e-01, 2.03243643e-01, 1.14794962e-01, 9.67255235e-02,
          0., 1.47856265e-01, 0., 1.83254346e-01, 4.64962989e-01,
          2.13195100e-01, 1.04439169e-01, 0., 8.12610760e-02,
          9.67009664e-02, 0., 1.28870115e-01, 4.29166883e-01,
          1.12929374e-01, 0., 0., 0., 3.28642987e-02, 0., 1.73280947e-02,
          3.90001953e-01, 0., 0., 0., 0., 3.53019200e-02, 0.,
          1.46679990e-02, 6.45615309e-02, 3.02307606e-02, 0., 0., 0., 0.,
          0., 9.63785127e-03, 0., 3.15749981e-02, 0., 0., 0., 0., 0., 0.,
          0., 0., 0., 0., 0., 2.49622278e-02, 0., 3.51886079e-02,
          5.41338623e-02 ]
      - [ 2.30787337e-01, 2.09959522e-01, 1.05788939e-01, 9.37138721e-02,
          1.72529832e-01, 1.67615727e-01, 1.47433057e-01, 1.67766228e-01,
          2.16500103e-01, 2.80586302e-01, 1.74132854e-01, 1.46890521e-01,
          2.42507547e-01, 1.50827587e-01, 1.69849187e-01, 1.08026326e-01,
          1.63910106e-01, 2.46314332e-01, 8.01344737e-02, 1.78759128e-01,
          3.71049047e-02, 7.85182640e-02, 3.88981104e-02, 1.42360345e-01,
          3.25406283e-01, 1.53524935e-01, 4.04899195e-02, 1.33164600e-01,
          2.05867350e-01, 0., 1.27140597e-01, 3.92278247e-02,
          1.57424167e-01, 0., 0., 0., 7.81059042e-02, 0., 0.,
          3.68098989e-02, 2.17887498e-02, 0., 0., 0., 6.23934828e-02,
          2.32881457e-02, 1.08717941e-01, 9.24511030e-02, 7.43938163e-02,
          0., 3.28254327e-02, 8.17101151e-02, 8.48083496e-02, 0., 0., 0.,
          0., 0., 0., 0., 1.73167303e-01, 5.67938983e-02, 0., 0. ]
      - [ 3.55459988e-01, 4.24260013e-02, 2.97316946e-02, 4.53055464e-02,
          6.75010756e-02, 1.03599811e-02, 0., 1.35136619e-01,
          4.46669668e-01, 2.00398892e-01, 9.84231830e-02, 4.80024256e-02,
          7.70234093e-02, 9.15035382e-02, 1.22698814e-01, 9.94788408e-02,
          2.93206334e-01, 2.03030646e-01, 1.15184590e-01, 1.31083354e-01,
          1.21791862e-01, 9.79909748e-02, 1.79563254e-01, 1.85304672e-01,
          2.80202597e-01, 1.80833533e-01, 1.03376351e-01, 1.20463796e-01,
          1.81697756e-01, 8.02093074e-02, 7.76481628e-02, 9.70875174e-02,
          1.67722508e-01, 0., 4.02228646e-02, 0., 1.04841731e-01, 0., 0.,
          0., 3.69861275e-02, 4.51549813e-02, 4.16577458e-02,
          1.12180270e-01, 1.18489370e-01, 0., 0., 0., 1.74937278e-01,
          6.46042749e-02, 4.01162282e-02, 0., 6.71707764e-02, 0., 0., 0.,
          2.39997692e-02, 2.36265734e-02, 0., 0., 2.34944541e-02, 0., 0.,
          0. ]
      - [ 1.31645098e-01, 2.05631897e-01, 0., 5.23468032e-02,
          2.10391879e-01, 1.65464312e-01, 1.71924844e-01, 1.71260893e-01,
          1.89173803e-01, 2.60010809e-01, 0., 1.67309582e-01,
          2.68136173e-01, 0., 1.58401310e-01, 1.65570617e-01,
          1.23993956e-01, 1.48365393e-01, 1.18157543e-01, 6.39139414e-02,
          1.59447700e-01, 1.28637478e-01, 2.31822610e-01, 1.90304056e-01,
          2.64536917e-01, 1.60237893e-01, 9.74802300e-02, 1.74115643e-01,
          1.09945551e-01, 2.07355246e-01, 1.47391155e-01, 0.,
          9.62952301e-02, 1.30200669e-01, 0., 0., 8.49032253e-02, 0., 0.,
          0., 0., 0., 0., 0., 1.04524978e-01, 6.96266666e-02,
          1.54821917e-01, 0., 1.77494660e-01, 8.94936025e-02,
          5.75790666e-02, 0., 9.22162980e-02, 0., 0., 0., 7.50445575e-03,
          0., 0., 0., 7.61619061e-02, 0., 1.04280852e-01, 1.02182642e-01 ]
      - [ 1.79405734e-01, 4.47189361e-02, 5.05315326e-02, 4.87272769e-01,
          1.75077334e-01, 5.23973107e-02, 0., 1.12054057e-01,
          2.23288208e-01, 3.56085151e-02, 9.56768319e-02, 3.66917819e-01,
          3.00633818e-01, 1.43258289e-01, 2.92735305e-02, 1.53290242e-01,
          1.31785095e-01, 7.76833892e-02, 2.99486872e-02, 4.23180982e-02,
          1.54527381e-01, 5.92384227e-02, 8.90291333e-02, 1.11678332e-01,
          1.35834545e-01, 3.09986789e-02, 3.76514234e-02, 2.31688857e-01,
          2.31420025e-01, 4.93568629e-02, 0., 6.80706427e-02, 0., 0., 0.,
          1.55975372e-01, 1.59719855e-01, 0., 3.87730859e-02, 0.,
          2.29640473e-02, 2.33574845e-02, 0., 1.00150995e-01,
          1.41830713e-01, 0., 0., 0., 1.36548638e-01, 7.55874217e-02, 0.,
          0., 8.51529688e-02, 0., 0., 0., 0., 0., 0., 0., 1.06443986e-01,
          0., 5.11067621e-02, 1.12166710e-01 ]
      - [ 6.49791881e-02, 0., 0., 0., 7.41777793e-02, 0., 3.59046124e-02,
          2.58035183e-01, 3.02018106e-01, 1.81710988e-01, 1.89343557e-01,
          2.64310867e-01, 2.01923758e-01, 1.74279243e-01, 1.62619382e-01,
          2.48046532e-01, 1.96760997e-01, 1.68243825e-01, 1.52341262e-01,
          2.12084383e-01, 1.86628178e-01, 1.17757306e-01, 1.94493771e-01,
          3.38252574e-01, 2.37604603e-01, 0., 0., 0., 6.36149198e-02, 0.,
          8.09417889e-02, 1.91427916e-01, 6.94829971e-02, 0., 0., 0.,
          2.98839472e-02, 0., 0., 0., 2.14692615e-02, 0., 0., 0.,
          1.85313493e-01, 8.07996839e-02, 6.66403100e-02, 7.14451671e-02,
          0., 0., 0., 4.42264788e-02, 1.01127975e-01, 9.88344476e-02, 0.,
          8.78181309e-02, 7.88981542e-02, 0., 0., 0., 3.17534655e-02, 0.,
          0., 0. ]
      - [ 1.98718354e-01, 2.44511038e-01, 2.09128186e-01, 1.42390475e-01,
          1.99420646e-01, 1.24400444e-01, 1.32486895e-01, 4.94750477e-02,
          2.64108658e-01, 1.79665059e-01, 1.90055326e-01, 2.27793738e-01,
          1.83068722e-01, 2.21680254e-01, 6.95434585e-02, 1.56781346e-01,
          2.17241302e-01, 1.66607141e-01, 1.98120683e-01, 1.09637126e-01,
          1.65493712e-01, 1.77767500e-01, 8.20980370e-02, 1.58452168e-02,
          1.18947804e-01, 1.72719792e-01, 1.29216805e-01, 1.62239149e-01,
          1.71705797e-01, 1.09272994e-01, 4.81490530e-02, 9.61729586e-02,
          8.03886354e-02, 6.15447834e-02, 0., 1.04269095e-01,
          1.26327008e-01, 0., 0., 0., 5.77461235e-02, 0., 5.14604039e-02,
          7.62197897e-02, 1.09129913e-01, 0., 7.84906149e-02,
          6.38733581e-02, 1.30963877e-01, 8.43703449e-02, 7.81060681e-02,
          0., 1.08399935e-01, 0., 0., 0., 0., 0., 0., 0., 5.77461235e-02,
          0., 0., 1.03348225e-01 ]
      - [ 4.24436808e-01, 0., 0., 0., 7.89943784e-02, 0., 0.,
          2.71483231e-02, 4.90970939e-01, 1.94968060e-01, 8.01461712e-02,
          9.71300751e-02, 1.90008879e-01, 1.25449836e-01, 1.16085500e-01,
          1.70896024e-01, 2.03970626e-01, 2.07609266e-01, 1.24821194e-01,
          0., 1.61498934e-01, 7.71567300e-02, 1.94389790e-01,
          2.33513489e-01, 2.78100789e-01, 0., 1.02928594e-01,
          1.09293856e-01, 0., 0., 2.17525419e-02, 0., 0., 2.09015459e-02,
          0., 0., 5.10401316e-02, 0., 0., 3.58493030e-02, 2.45654926e-01,
          0., 0., 0., 7.21816495e-02, 0., 0., 0., 3.85386199e-02,
          4.43336107e-02, 4.43966575e-02, 4.98501360e-02, 1.10105969e-01,
          4.70266864e-02, 0., 0., 3.73285823e-02, 0., 5.17795756e-02, 0.,
          4.73454706e-02, 0., 0., 0. ]
      - [ 2.40865469e-01, 1.05737768e-01, 8.32171440e-02, 8.97534192e-02,
          6.21804297e-02, 1.99178055e-01, 1.76546812e-01, 2.07786366e-01,
          2.30158597e-01, 1.66383192e-01, 1.74440190e-01, 1.46668598e-01,
          1.37086675e-01, 1.86852977e-01, 2.66956776e-01, 2.35293165e-01,
          2.50659496e-01, 2.32337400e-01, 1.20735608e-01, 8.98822099e-02,
          1.87685177e-01, 8.00338015e-02, 2.12168470e-01, 2.54213274e-01,
          2.41110042e-01, 7.49653131e-02, 5.27199358e-02, 7.46593252e-02,
          9.31738224e-03, 9.67129543e-02, 9.93347168e-02, 2.63065189e-01,
          0., 0., 0., 0., 6.50674924e-02, 5.85984476e-02, 0., 0.,
          3.60860638e-02, 0., 3.14615220e-02, 4.88885753e-02,
          4.75095138e-02, 0., 2.11400185e-02, 0., 3.95607725e-02, 0., 0.,
          0., 3.48624513e-02, 0., 0., 0., 5.96299991e-02, 0.,
          4.88243811e-02, 4.11512069e-02, 7.96077475e-02, 0.,
          4.29733768e-02, 0. ]
      - [ 1.82098478e-01, 9.62706506e-02, 1.38072729e-01, 1.20871410e-01,
          1.61945358e-01, 4.21670265e-02, 0., 2.49387398e-01,
          1.96923450e-01, 1.30217955e-01, 1.79305285e-01, 1.52598143e-01,
          1.77173719e-01, 1.50329784e-01, 1.47411957e-01, 1.92091793e-01,
          1.59352452e-01, 1.33515447e-01, 2.41070658e-01, 6.82607964e-02,
          1.70944318e-01, 2.44290940e-02, 4.20467407e-02, 3.06498617e-01,
          1.72481000e-01, 0., 1.08830325e-01, 2.58056104e-01,
          3.68899591e-02, 2.20117167e-01, 1.86405167e-01, 1.03056505e-01,
          1.36034489e-02, 0., 8.45808312e-02, 7.58791342e-02,
          1.13932431e-01, 0., 0., 0., 4.34082970e-02, 0., 6.77704737e-02,
          7.78634623e-02, 9.81364697e-02, 0., 0., 1.92381814e-02,
          3.23546380e-02, 0., 1.06209733e-01, 1.47936568e-01,
          1.76770046e-01, 0., 0., 0., 0., 0., 0., 1.75030574e-01,
          1.74084783e-01, 0., 0., 0. ]
      - [ 2.97674358e-01, 1.19516879e-01, 1.15198001e-01, 8.77500325e-02,
          1.19654201e-01, 6.66871667e-02, 0., 3.45554560e-01,
          2.95139939e-01, 1.24177337e-01, 0., 8.15257803e-02,
          2.43596315e-01, 1.69556811e-01, 1.93586543e-01, 3.71616393e-01,
          2.48105854e-01, 1.97970077e-01, 1.92566961e-01, 2.17790693e-01,
          1.57850698e-01, 1.02428995e-01, 1.46760181e-01, 2.50348061e-01,
          1.09837659e-01, 1.64092090e-02, 0., 0., 2.96045672e-02, 0., 0.,
          1.16804846e-01, 6.49933815e-02, 0., 0., 0., 1.37042515e-02, 0.,
          0., 0., 5.77828735e-02, 3.56033333e-02, 3.22785974e-02, 0.,
          4.81277518e-02, 3.79632749e-02, 5.27122132e-02, 9.22269970e-02,
          6.12943918e-02, 5.58371581e-02, 0., 0., 2.85276752e-02, 0., 0.,
          0., 0., 0., 0., 0., 2.44224127e-02, 0., 0., 0. ]
      - [ 1.61480263e-01, 1.29607603e-01, 1.33866966e-01, 3.17232348e-02,
          1.39767513e-01, 1.45030722e-01, 1.90249234e-01, 2.43992582e-01,
          2.21076295e-01, 2.35121176e-01, 2.23305941e-01, 1.22221857e-01,
          2.95428783e-01, 1.59868956e-01, 1.38488397e-01, 1.07905351e-01,
          1.49036095e-01, 1.79131314e-01, 1.90114230e-01, 1.42771065e-01,
          1.57728180e-01, 2.38072842e-01, 1.84101611e-01, 9.34043303e-02,
          1.40294567e-01, 1.61974460e-01, 2.33265772e-01, 1.20092675e-01,
          6.17429912e-02, 0., 3.50356959e-02, 0., 1.74894720e-01, 0., 0.,
          0., 3.54729891e-02, 0., 0., 0., 0., 0., 0., 0., 9.19008106e-02,
          0., 1.29075900e-01, 1.41383171e-01, 2.06263423e-01, 0., 0.,
          2.63510682e-02, 1.10824391e-01, 0., 0., 0., 7.99893867e-03, 0.,
          0., 0., 4.42961156e-02, 0., 0., 0. ]
      - [ 1.71214789e-01, 1.45763725e-01, 1.71375066e-01, 2.37253338e-01,
          2.09772080e-01, 1.60351932e-01, 1.66921958e-01, 8.95839185e-02,
          1.21595345e-01, 1.80618659e-01, 1.32876620e-01, 1.94674596e-01,
          3.00897002e-01, 2.07509130e-01, 9.06357020e-02, 9.76898000e-02,
          2.11768344e-01, 1.84752122e-01, 1.38403341e-01, 1.95364907e-01,
          1.28953233e-01, 1.46642372e-01, 1.76429957e-01, 0.,
          2.26229623e-01, 2.04907119e-01, 1.24376379e-01, 1.07299909e-01,
          1.62333786e-01, 8.45753029e-02, 1.40399128e-01, 7.12907761e-02,
          1.51972827e-02, 0., 7.68014640e-02, 4.28367294e-02,
          1.27515852e-01, 0., 3.72578613e-02, 0., 0., 0., 0., 0.,
          1.11158542e-01, 7.79736713e-02, 1.32458463e-01, 0.,
          6.79643154e-02, 0., 5.47336899e-02, 0., 1.12192601e-01,
          7.92535767e-02, 0., 5.31960316e-02, 0., 0., 0., 1.08989261e-01,
          1.30601481e-01, 0., 0., 0. ]
      - [ 2.31576696e-01, 1.10445999e-01, 9.80917364e-02, 1.62440047e-01,
          3.16508681e-01, 1.85522705e-01, 2.23053396e-01, 3.29145312e-01,
          2.14559898e-01, 1.23188280e-01, 7.08182305e-02, 1.46308661e-01,
          2.37850577e-01, 1.04548708e-01, 1.34278402e-01, 1.70258254e-01,
          6.83553442e-02, 6.50996491e-02, 6.86319619e-02, 9.75374132e-02,
          5.04837669e-02, 6.76568449e-02, 7.34728798e-02, 6.50536194e-02,
          3.35660160e-01, 2.44463116e-01, 3.91346961e-02, 8.05150345e-02,
          2.78489858e-01, 6.92957118e-02, 5.70452139e-02, 4.65392582e-02,
          6.35240152e-02, 4.58529890e-02, 6.78155869e-02, 0.,
          1.04899809e-01, 0., 0., 0., 0., 0., 0., 0., 1.71171397e-01,
          1.19770527e-01, 7.45969862e-02, 0., 5.04837669e-02,
          3.30653116e-02, 8.07490796e-02, 0., 7.84802064e-02, 0., 0., 0.,
          0., 0., 0., 0., 5.64425699e-02, 5.10155670e-02, 4.63814363e-02,
          0. ]
      - [ 1.37541339e-01, 8.15823451e-02, 1.00547187e-01, 4.85363901e-02,
          7.27090314e-02, 8.84212032e-02, 1.03871904e-01, 2.83542555e-02,
          3.15272897e-01, 2.91416168e-01, 1.57051191e-01, 1.01915732e-01,
          1.15588419e-01, 1.48648679e-01, 1.03374809e-01, 3.07492763e-01,
          1.76387891e-01, 1.29310250e-01, 1.81188166e-01, 1.01532482e-01,
          2.67065436e-01, 2.25056067e-01, 1.75993219e-01, 0.,
          2.18787298e-01, 2.54800260e-01, 5.42165264e-02, 1.04771182e-01,
          1.44666269e-01, 8.20685029e-02, 8.16649869e-02, 1.54870540e-01,
          1.11972310e-01, 0., 0., 0., 5.39552942e-02, 0., 0., 0., 0., 0.,
          0., 0., 7.20293745e-02, 0., 0., 2.32010648e-01, 2.00776562e-01,
          8.86798576e-02, 0., 0., 6.16822690e-02, 0., 0., 0., 0., 0., 0.,
          0., 4.89116609e-02, 0., 0., 1.39326721e-01 ]
      - [ 3.37857068e-01, 8.88843611e-02, 5.24437018e-02, 4.08179983e-02,
          8.56170654e-02, 0., 1.19494841e-01, 3.86771023e-01,
          2.55362809e-01, 5.64214922e-02, 3.80388834e-02, 4.50129695e-02,
          1.39974460e-01, 1.29312798e-01, 1.85203731e-01, 3.13907325e-01,
          2.26205572e-01, 1.32854521e-01, 0., 8.05679485e-02,
          1.40955493e-01, 9.43951681e-02, 1.49204209e-01, 2.84354508e-01,
          2.53937155e-01, 8.11012685e-02, 0., 0., 1.08973227e-01,
          2.61204112e-02, 1.71124861e-01, 2.89430678e-01, 9.24149752e-02,
          0., 0., 3.48652154e-02, 8.01444128e-02, 0., 0., 3.35451327e-02,
          3.59703675e-02, 0., 0., 0., 5.72789498e-02, 0., 7.26031810e-02,
          6.61359876e-02, 7.43714198e-02, 4.63692769e-02, 4.46480475e-02,
          0., 6.96563199e-02, 0., 0., 0., 3.11688967e-02, 0.,
          5.11293560e-02, 2.04559341e-02, 6.72943965e-02, 0., 0.,
          5.33805639e-02 ]
      - [ 4.82278228e-01, 0., 4.34559211e-02, 5.74110523e-02,
          8.80009532e-02, 6.57538101e-02, 4.59838025e-02, 3.05140972e-01,
          4.12440956e-01, 1.93089806e-02, 0., 0., 5.44767156e-02,
          3.63097042e-02, 5.08944914e-02, 1.71837553e-01, 4.16965425e-01,
          3.68724503e-02, 9.61721912e-02, 5.92201948e-02, 7.64716417e-02,
          5.02912365e-02, 7.06549734e-02, 3.12052727e-01, 2.85019755e-01,
          8.87477994e-02, 3.45057733e-02, 4.09218185e-02, 5.75102195e-02,
          6.10645264e-02, 4.62306105e-02, 8.46374482e-02, 0., 0., 0.,
          3.50452513e-02, 7.02650100e-02, 3.92884724e-02, 3.30772884e-02,
          5.04751354e-02, 3.85479555e-02, 4.31868918e-02, 0., 0.,
          7.84409568e-02, 4.42256294e-02, 0., 3.59874591e-02,
          7.19715431e-02, 3.49312574e-02, 3.28203589e-02, 0.,
          7.77151659e-02, 0., 2.60362234e-02, 0., 0., 2.01675724e-02, 0.,
          0., 4.79668416e-02, 0., 0., 0. ]
      - [ 2.22440943e-01, 1.64229900e-01, 1.68918133e-01, 1.39247477e-01,
          1.93372384e-01, 0., 6.49059042e-02, 2.61133462e-01,
          2.71052450e-01, 2.61537105e-01, 1.51393980e-01, 1.14156045e-01,
          2.38666132e-01, 2.05858782e-01, 1.09797545e-01, 1.07263647e-01,
          1.12358399e-01, 7.84617141e-02, 1.29221603e-01, 1.87477648e-01,
          1.37928173e-01, 1.21705249e-01, 5.27563691e-02, 1.49866506e-01,
          2.57402182e-01, 2.67333001e-01, 1.45019159e-01, 1.55213088e-01,
          1.89707696e-01, 7.59009719e-02, 0., 4.02221829e-02,
          2.91500073e-02, 4.09116112e-02, 4.59326915e-02, 1.00311451e-01,
          1.45800769e-01, 0., 0., 2.98867859e-02, 0., 0., 0., 0.,
          1.43498674e-01, 0., 0., 3.71920504e-02, 9.78434086e-02,
          5.90593442e-02, 0., 5.05452976e-02, 1.23308189e-01, 0., 0., 0.,
          0., 6.36205301e-02, 0., 6.01461977e-02, 1.08990863e-01, 0., 0.,
          0. ]
      - [ 2.06141695e-01, 4.68486510e-02, 3.71051133e-02, 3.77840959e-02,
          3.26065943e-02, 0., 0., 2.64880985e-01, 4.62276876e-01,
          1.46543279e-01, 7.45794624e-02, 7.26039857e-02, 1.34047404e-01,
          0., 1.03741325e-01, 3.25542569e-01, 1.88564032e-01,
          7.17971176e-02, 4.98604849e-02, 0., 5.71914650e-02,
          5.33548146e-02, 0., 4.57843930e-01, 2.19158262e-01,
          1.36563508e-02, 0., 3.23013552e-02, 1.58180427e-02,
          8.51540342e-02, 1.75182506e-01, 3.10683489e-01, 3.65658291e-02,
          3.60943787e-02, 0., 3.64047028e-02, 7.15794787e-02, 0., 0., 0.,
          1.82651039e-02, 0., 2.86605861e-02, 4.18743156e-02,
          8.00355002e-02, 0., 3.84129956e-02, 0., 3.65302078e-02, 0., 0.,
          0., 1.21066637e-01, 4.05321904e-02, 0., 0., 0., 0., 0., 0.,
          1.36558324e-01, 3.86259928e-02, 0., 0. ]
      - [ 2.87652373e-01, 9.89428535e-02, 1.20105773e-01, 7.52168521e-02,
          1.76347539e-01, 1.90408751e-01, 8.34873095e-02, 0.,
          3.60068053e-01, 1.88264370e-01, 1.59444854e-01, 1.97490454e-01,
          1.89093232e-01, 1.05836056e-01, 1.19540006e-01, 1.87141135e-01,
          1.91035986e-01, 1.57877356e-01, 7.49808699e-02, 0.,
          1.31642178e-01, 1.57290131e-01, 1.82008788e-01, 2.43325472e-01,
          2.17398360e-01, 4.31331992e-02, 1.31981805e-01, 1.42389491e-01,
          9.51341838e-02, 1.51001155e-01, 1.70264646e-01, 2.25394875e-01,
          9.42319632e-02, 0., 1.02376714e-01, 0., 7.69839734e-02, 0.,
          3.47034335e-02, 0., 3.22375931e-02, 0., 0., 0., 8.45904052e-02,
          8.20565298e-02, 9.38894004e-02, 1.00242317e-01, 4.92278598e-02,
          8.43934119e-02, 0., 0., 5.30382358e-02, 0., 0., 0., 0., 0., 0.,
          0., 5.25207780e-02, 0., 8.44077468e-02, 6.95672110e-02 ]
      - [ 3.06766152e-01, 4.52677980e-02, 0., 0., 0., 0., 5.38840471e-03,
          3.65092963e-01, 3.38227361e-01, 8.62273201e-02, 1.18241385e-01,
          0., 1.55264646e-01, 1.15514852e-01, 7.42946416e-02,
          3.86117607e-01, 2.62914360e-01, 8.83700177e-02, 1.24771416e-01,
          0., 1.42581210e-01, 0., 1.48747131e-01, 4.19309914e-01,
          1.09498747e-01, 0., 0., 2.03891303e-02, 0., 0., 0.,
          3.43491256e-01, 2.02636514e-02, 0., 0., 0., 0., 0., 0., 0., 0.,
          0., 0., 0., 9.06218030e-03, 0., 1.45831341e-02, 8.05754494e-03,
          2.12526973e-02, 1.33761419e-02, 0., 0., 9.06218030e-03, 0., 0.,
          0., 0., 0., 0., 0., 0., 0., 0., 0. ]
      - [ 2.72742510e-01, 1.46683464e-02, 6.40580803e-02, 2.93126777e-02,
          8.55120122e-02, 3.24862637e-02, 5.82654364e-02, 4.06981766e-01,
          2.56576657e-01, 1.75454319e-01, 0., 4.80525196e-02,
          1.27864748e-01, 9.86402854e-02, 1.24596968e-01, 3.89142781e-01,
          3.72994423e-01, 1.09886058e-01, 0., 3.46927382e-02,
          1.09595858e-01, 8.94435868e-02, 1.26404256e-01, 2.96523780e-01,
          2.94950843e-01, 5.96619099e-02, 3.79913114e-02, 9.69928596e-03,
          3.51137556e-02, 0., 0., 2.11441368e-01, 0., 3.31085511e-02, 0.,
          7.04696327e-02, 7.46448636e-02, 0., 0., 0., 4.76136655e-02,
          2.70378012e-02, 0., 0., 5.15439510e-02, 4.33452129e-02,
          4.78772148e-02, 0., 1.92092974e-02, 0., 3.12732495e-02, 0.,
          5.73030040e-02, 0., 0., 2.87890118e-02, 0., 1.79649834e-02, 0.,
          0., 8.21897835e-02, 4.47944589e-02, 0., 2.68287286e-02 ]
      - [ 1.82107657e-01, 1.37444556e-01, 1.48574844e-01, 2.09530890e-01,
          1.63026094e-01, 0., 3.60385515e-02, 3.02679837e-01,
          1.34652495e-01, 1.35112256e-01, 1.50339872e-01, 2.55653203e-01,
          2.10486785e-01, 1.38032600e-01, 2.04202592e-01, 2.01967254e-01,
          2.06671387e-01, 1.49775952e-01, 1.78006127e-01, 1.70762941e-01,
          9.28914174e-02, 0., 3.10071949e-02, 3.54480833e-01,
          1.92468733e-01, 0., 5.95952980e-02, 2.19885707e-01,
          1.43601418e-01, 1.03630707e-01, 1.50094241e-01, 1.18328482e-01,
          6.83857724e-02, 6.91836923e-02, 2.24586986e-02, 5.36553636e-02,
          8.24016929e-02, 3.89416851e-02, 0., 3.78315039e-02,
          2.64060926e-02, 0., 0., 0., 0., 0., 5.04340306e-02, 0.,
          4.44095731e-02, 3.49933542e-02, 6.75171018e-02, 0.,
          7.33574629e-02, 0., 2.53043491e-02, 0., 3.14789340e-02, 0., 0.,
          1.06169201e-01, 1.49473727e-01, 0., 0., 0. ]
      - [ 2.61468828e-01, 1.31894678e-01, 1.05569012e-01, 6.09473810e-02,
          2.05108732e-01, 1.81355342e-01, 1.30888641e-01, 1.51990101e-01,
          2.95405030e-01, 1.89908236e-01, 1.45817667e-01, 2.08168253e-01,
          1.91307306e-01, 1.17393598e-01, 8.89234245e-02, 1.70488819e-01,
          2.04043180e-01, 1.40583694e-01, 1.62420347e-01, 1.02670386e-01,
          1.16304986e-01, 1.45591781e-01, 2.04711214e-01, 2.05258280e-01,
          2.21781671e-01, 0., 4.21812125e-02, 1.85046494e-01,
          1.58590525e-01, 1.61791667e-01, 1.64266959e-01, 1.95216253e-01,
          8.87213200e-02, 0., 8.28466415e-02, 0., 1.26303598e-01,
          5.78582548e-02, 0., 0., 0., 0., 0., 0., 1.00480631e-01, 0.,
          1.40290588e-01, 9.90591422e-02, 5.47064915e-02, 0.,
          2.90799011e-02, 0., 4.18901294e-02, 0., 0., 0., 3.73498052e-02,
          0., 3.20248492e-02, 0., 5.20583801e-02, 0., 0., 7.64675736e-02 ]
      - [ 4.80204016e-01, 0., 4.94540781e-02, 0., 7.73675665e-02, 0.,
          6.03383221e-02, 1.87481388e-01, 5.31531155e-01, 3.05213541e-01,
          7.46918246e-02, 3.99976708e-02, 1.91727698e-01, 1.07461452e-01,
          2.05141217e-01, 2.19362527e-01, 1.02817915e-01, 9.66833606e-02,
          5.67078665e-02, 8.86774063e-02, 9.06123593e-02, 6.01644851e-02,
          1.11332305e-01, 2.00943917e-01, 1.79894030e-01, 5.73661067e-02,
          0., 2.03091651e-02, 1.00369781e-01, 3.92411090e-02,
          9.75199714e-02, 1.03469566e-01, 3.98913696e-02, 0., 0., 0.,
          1.28304111e-02, 0., 0., 4.59806472e-02, 7.18702599e-02, 0., 0.,
          0., 4.96919677e-02, 1.78875010e-02, 0., 3.61153707e-02,
          1.65639911e-02, 0., 0., 0., 4.12440039e-02, 0., 7.42451027e-02,
          5.61315715e-02, 6.52186051e-02, 0., 6.38520122e-02,
          4.51041125e-02, 5.64149171e-02, 0., 0., 0. ]
      - [ 2.01000094e-01, 5.47172911e-02, 9.82672423e-02, 1.41827807e-01,
          1.15381353e-01, 1.09485954e-01, 1.47272348e-01, 1.47816524e-01,
          2.24723622e-01, 1.99875206e-01, 1.62034333e-01, 1.21546015e-01,
          2.24685431e-01, 1.60043865e-01, 3.23628396e-01, 2.47293204e-01,
          1.68732107e-01, 2.21619934e-01, 1.84621453e-01, 1.76541835e-01,
          2.23326981e-01, 1.72596201e-01, 1.27480134e-01, 1.35572091e-01,
          1.76946372e-01, 5.25754653e-02, 9.62445363e-02, 4.52142395e-02,
          8.18454176e-02, 4.72864471e-02, 1.82954952e-01, 2.02395648e-01,
          8.78778473e-02, 0., 0., 0., 4.32110354e-02, 0., 0., 0.,
          1.67355612e-02, 0., 0., 0., 1.04736626e-01, 0., 9.60406289e-02,
          1.98905393e-01, 3.48378494e-02, 7.22496212e-02, 7.22626150e-02,
          5.21447547e-02, 8.82923156e-02, 0., 3.40445749e-02, 0., 0., 0.,
          0., 2.80598421e-02, 3.34711224e-02, 0., 0., 6.14685975e-02 ]
      - [ 3.22175592e-01, 0., 0., 0., 8.94029364e-02, 3.18963155e-02,
          1.77702352e-01, 2.86474824e-01, 3.32433075e-01, 1.96049020e-01,
          1.14920385e-01, 4.41281609e-02, 1.74053550e-01, 1.56153455e-01,
          3.10299009e-01, 1.86196849e-01, 4.11297977e-01, 9.79528278e-02,
          3.33356038e-02, 0., 5.08557148e-02, 2.66720224e-02,
          3.14773828e-01, 2.61099279e-01, 1.29020259e-01, 2.59648133e-02,
          1.80216916e-02, 6.05285913e-02, 5.24380691e-02, 2.00413354e-02,
          1.93298720e-02, 1.96952391e-02, 1.51366770e-01, 0., 0., 0.,
          3.29566561e-02, 0., 0., 0., 0., 0., 0., 0., 4.89395596e-02, 0.,
          5.10212854e-02, 1.04106963e-01, 0., 0., 3.19588706e-02,
          3.29620689e-02, 4.77878787e-02, 3.18878554e-02, 0.,
          3.48992087e-02, 3.21004912e-02, 0., 0., 1.68526862e-02,
          1.97458044e-02, 0., 0., 0. ]
      - [ 5.21323383e-02, 4.50079329e-02, 1.19451314e-01, 1.65792331e-01,
          2.83295423e-01, 1.61911592e-01, 1.42251804e-01, 1.59936890e-01,
          2.46480405e-01, 2.02527493e-01, 8.17421973e-02, 1.44252956e-01,
          1.57092109e-01, 4.08710949e-02, 4.99660149e-02, 0.,
          1.19682752e-01, 0., 2.39269331e-01, 2.73927271e-01,
          3.04094881e-01, 2.45847270e-01, 2.28486627e-01, 2.54680216e-01,
          1.67833090e-01, 2.09642798e-01, 1.00163929e-01, 6.01972416e-02,
          1.49483711e-01, 1.14943355e-01, 0., 0., 0., 4.67093252e-02, 0.,
          0., 9.57462043e-02, 4.54514138e-02, 8.77366140e-02, 0.,
          3.38513963e-02, 0., 0., 0., 2.39365511e-02, 0., 3.48629951e-02,
          3.82199325e-02, 9.57462043e-02, 8.24280232e-02, 1.62794426e-01,
          5.71690053e-02, 1.75897017e-01, 0., 0., 0., 0., 0., 0., 0.,
          2.39365511e-02, 0., 4.93037216e-02, 0. ]
      - [ 1.53082058e-01, 9.25179049e-02, 8.57794508e-02, 9.78546217e-02,
          2.48424247e-01, 2.71753948e-02, 0., 1.45914629e-01,
          3.31381947e-01, 1.10401571e-01, 1.55513644e-01, 0.,
          3.62979233e-01, 1.22716248e-01, 1.30117580e-01, 2.13985786e-01,
          1.64841130e-01, 1.53050378e-01, 1.66111484e-01, 2.42327213e-01,
          2.11793542e-01, 5.53925000e-02, 9.58397016e-02, 1.50566995e-01,
          2.53595084e-01, 6.50827959e-02, 0., 7.55030736e-02,
          2.87307084e-01, 1.33184791e-01, 1.16276905e-01, 9.49504077e-02,
          5.12207597e-02, 1.89323481e-02, 0., 1.26099974e-01,
          1.23092994e-01, 0., 0., 0., 2.00773943e-02, 0., 0., 0.,
          1.56757280e-01, 0., 0., 2.79666279e-02, 1.09792672e-01, 0., 0.,
          0., 3.47750671e-02, 0., 3.56862210e-02, 0., 0., 2.39379052e-02,
          0., 3.85758616e-02, 9.65717807e-02, 7.28770345e-02,
          8.25801566e-02, 0. ]
      - [ 2.09881693e-01, 1.21469721e-02, 6.06733561e-02, 6.98168352e-02,
          3.12987834e-01, 1.90088660e-01, 1.36964649e-01, 1.40163854e-01,
          2.84869045e-01, 1.68165460e-01, 1.37254581e-01, 2.25336090e-01,
          3.41284364e-01, 7.75776133e-02, 0., 0., 3.13102186e-01,
          2.58020848e-01, 9.51391011e-02, 0., 0., 8.63512307e-02, 0.,
          1.11476280e-01, 3.12031627e-01, 2.41235018e-01, 0., 0.,
          1.95589811e-02, 0., 0., 0., 5.89725468e-03, 2.19847903e-01, 0.,
          0., 1.39927834e-01, 0., 0., 0., 0., 0., 0., 0., 1.98869094e-01,
          0., 8.87453035e-02, 0., 0., 8.12942311e-02, 0., 0.,
          2.76605766e-02, 1.11978780e-02, 0., 0., 2.73550302e-02, 0., 0.,
          0., 1.02143455e-02, 0., 0., 0. ]
      - [ 4.26164061e-01, 1.50045872e-01, 6.34240359e-02, 4.06848378e-02,
          1.09921105e-01, 4.36928757e-02, 1.17118701e-01, 3.36241037e-01,
          3.35999101e-01, 1.37110904e-01, 4.36984114e-02, 0.,
          5.20420223e-02, 7.56525323e-02, 6.91624433e-02, 2.23431841e-01,
          3.56988668e-01, 6.01121075e-02, 9.15950611e-02, 3.06417458e-02,
          1.20368578e-01, 7.47936144e-02, 2.05767527e-02, 2.67331988e-01,
          3.03072304e-01, 6.50413111e-02, 2.51940526e-02, 6.81150183e-02,
          8.37100670e-02, 6.22894354e-02, 9.62349921e-02, 1.94719747e-01,
          0., 8.79300758e-02, 0., 0., 1.07818015e-01, 0., 3.87834497e-02,
          0., 9.27254371e-03, 0., 5.61133511e-02, 0., 9.98710468e-02, 0.,
          5.33292666e-02, 7.02686459e-02, 3.65060419e-02, 0., 0.,
          6.06334880e-02, 6.35693595e-02, 0., 0., 0., 1.60605162e-02, 0.,
          0., 0., 8.14120844e-02, 4.85742539e-02, 2.75784563e-02, 0. ]
      - [ 2.89862335e-01, 5.12843765e-02, 6.65161759e-02, 7.67793208e-02,
          1.48447961e-01, 0., 1.32034466e-01, 2.56644994e-01,
          2.49994516e-01, 1.27734855e-01, 1.67895198e-01, 5.20250835e-02,
          2.04788685e-01, 1.40778720e-01, 1.96166843e-01, 3.79885674e-01,
          2.72591025e-01, 1.11369334e-01, 5.46445251e-02, 8.08314160e-02,
          1.02647334e-01, 4.30004448e-02, 1.26846358e-01, 3.04995239e-01,
          2.49495327e-01, 0., 0., 0., 4.38459851e-02, 7.20812529e-02,
          9.20900702e-02, 2.63095200e-01, 0., 0., 0., 0., 6.31595254e-02,
          0., 6.01556525e-02, 7.12965205e-02, 1.52491972e-01,
          6.33443668e-02, 0., 5.17401621e-02, 8.08479935e-02, 0., 0., 0.,
          6.48538470e-02, 4.34078500e-02, 6.44046217e-02, 0.,
          7.75094852e-02, 0., 0., 0., 1.20077170e-02, 0., 0., 0.,
          8.02581310e-02, 0., 4.00066972e-02, 7.09798709e-02 ]
      - [ 2.33727619e-01, 7.29384422e-02, 0., 6.48980662e-02,
          4.69237715e-02, 5.68784587e-02, 1.19290389e-01, 2.33110115e-01,
          3.75138700e-01, 9.35343355e-02, 0., 4.77049053e-02,
          9.56503749e-02, 5.20664491e-02, 1.07798286e-01, 3.42963755e-01,
          3.31463009e-01, 1.19167358e-01, 0., 1.13305874e-01,
          1.53937235e-01, 1.80169284e-01, 1.46378115e-01, 2.59913117e-01,
          3.04468125e-01, 1.19584493e-01, 0., 1.11740530e-01,
          1.60234764e-01, 1.46795630e-01, 0., 2.44548813e-01,
          2.12995093e-02, 0., 0., 0., 0., 0., 0., 0., 3.94812785e-02, 0.,
          0., 7.14787766e-02, 1.43578261e-01, 4.69514206e-02, 0.,
          8.60198960e-02, 6.08684197e-02, 0., 0., 0., 4.34774421e-02, 0.,
          0., 7.51473457e-02, 8.88385326e-02, 0., 0., 2.46900711e-02,
          3.01220547e-02, 0., 0., 4.92011122e-02 ]
      - [ 2.47319549e-01, 1.27184346e-01, 1.20785668e-01, 0.,
          1.20028064e-01, 8.54803398e-02, 1.17324054e-01, 1.62999704e-01,
          3.76153857e-01, 1.75024152e-01, 1.69382930e-01, 1.46572068e-01,
          1.63702711e-01, 1.49640918e-01, 1.36401251e-01, 1.42773241e-01,
          2.83707559e-01, 1.84837446e-01, 0., 6.05557859e-02,
          4.02809493e-02, 9.76970717e-02, 1.86750680e-01, 2.13635013e-01,
          3.19157541e-01, 1.56269491e-01, 1.26371413e-01, 0.,
          1.27774283e-01, 4.38366383e-02, 1.19839914e-01, 1.22257382e-01,
          0., 0., 0., 0., 1.84130743e-02, 0., 0., 0., 9.84220207e-03, 0.,
          0., 0., 8.74794051e-02, 0., 1.27455026e-01, 2.23828942e-01,
          2.14932293e-01, 9.05400589e-02, 0., 0., 8.30777511e-02, 0., 0.,
          0., 0., 0., 0., 0., 0., 0., 0., 0. ]
      - [ 4.12276536e-01, 6.49612397e-02, 6.39837384e-02, 4.55681160e-02,
          6.08486608e-02, 5.63981347e-02, 5.33290841e-02, 1.08904630e-01,
          4.58755702e-01, 1.21091962e-01, 9.17251185e-02, 9.51780379e-02,
          5.39940558e-02, 9.86047238e-02, 1.44407615e-01, 1.89708784e-01,
          3.46615523e-01, 1.13366842e-01, 1.50929138e-01, 0.,
          4.77739051e-02, 9.79849175e-02, 0., 2.88666368e-01,
          3.56177747e-01, 3.58326882e-02, 0., 4.21528891e-02,
          6.30771890e-02, 5.43044508e-02, 3.25162522e-02, 2.37007767e-01,
          5.73581196e-02, 5.93599789e-02, 0., 5.33667766e-02,
          7.44502544e-02, 0., 0., 0., 0., 0., 0., 0., 4.86195274e-02, 0.,
          5.77310733e-02, 3.15235183e-02, 6.55688345e-02, 4.38926518e-02,
          0., 0., 4.28255536e-02, 0., 0., 0., 0., 0., 0., 0.,
          6.05644807e-02, 4.46090847e-02, 3.56140733e-02, 6.34700954e-02 ]
      - [ 1.55272618e-01, 1.30027920e-01, 1.13132656e-01, 1.30493224e-01,
          1.31570056e-01, 3.77370715e-02, 1.27748549e-01, 1.92523599e-01,
          2.24066645e-01, 2.83251911e-01, 1.46150336e-01, 1.71332136e-01,
          2.50858456e-01, 1.35998383e-01, 1.40909195e-01, 1.24280646e-01,
          2.11369514e-01, 1.96700141e-01, 1.28611773e-01, 1.76396549e-01,
          1.69196770e-01, 1.83683291e-01, 1.94480032e-01, 1.80719107e-01,
          2.14354411e-01, 1.58354834e-01, 1.36875227e-01, 8.84209871e-02,
          1.50972635e-01, 6.60089403e-02, 1.15734927e-01, 1.83868796e-01,
          1.53764382e-01, 9.07400176e-02, 0., 0., 9.30557102e-02, 0., 0.,
          0., 2.70963181e-02, 0., 0., 0., 8.43652934e-02, 0.,
          1.09066002e-01, 1.34454384e-01, 1.43696263e-01, 5.45570217e-02,
          0., 2.90394425e-02, 4.30943221e-02, 0., 0., 0., 2.27654614e-02,
          0., 0., 0., 5.76675087e-02, 0., 0., 1.21749036e-01 ]
      - [ 3.47884715e-01, 2.34181006e-02, 1.69129252e-01, 1.41570911e-01,
          1.88755095e-01, 1.46107092e-01, 1.56983480e-01, 1.68133095e-01,
          3.84641737e-01, 3.24114151e-02, 1.11365996e-01, 1.31320089e-01,
          3.08042079e-01, 0., 4.24094461e-02, 6.71071559e-02,
          3.39593381e-01, 1.83359012e-01, 2.80189756e-02, 3.24848890e-02,
          1.19049884e-01, 2.68192012e-02, 7.53210559e-02, 1.70532510e-01,
          3.49659830e-01, 6.35294840e-02, 4.84224372e-02, 2.23300587e-02,
          2.88556609e-02, 3.43655385e-02, 1.51093462e-02, 1.16404772e-01,
          0., 0., 7.08761662e-02, 9.37612876e-02, 1.61506221e-01,
          7.13607743e-02, 0., 0., 9.63179301e-03, 0., 0., 0.,
          1.91301599e-01, 4.05702963e-02, 0., 1.39849698e-02,
          2.54833307e-02, 0., 0., 4.17265594e-02, 4.55180779e-02, 0., 0.,
          0., 0., 0., 0., 3.27637233e-02, 5.75281829e-02, 0.,
          4.38185409e-02, 2.00353302e-02 ]
      - [ 4.92312312e-02, 8.58304799e-02, 9.27909166e-02, 5.82523830e-02,
          8.23653042e-02, 8.56222957e-02, 0., 3.03687781e-01,
          3.71085554e-01, 1.35714173e-01, 1.44162685e-01, 1.17054254e-01,
          8.30197781e-02, 1.41212210e-01, 3.20574999e-01, 1.22392945e-01,
          2.78214693e-01, 1.17195502e-01, 0., 0., 5.24050295e-02,
          1.09064355e-01, 3.48574787e-01, 1.85652509e-01, 3.01594615e-01,
          5.29861003e-02, 4.10436057e-02, 6.43268451e-02, 4.88084555e-02,
          3.62781435e-02, 4.29197140e-02, 1.98680729e-01, 1.41088575e-01,
          0., 0., 0., 4.18457501e-02, 0., 0., 0., 3.60987447e-02, 0., 0.,
          0., 1.60869628e-01, 0., 7.62173012e-02, 1.30853981e-01,
          1.68180913e-01, 0., 5.76116405e-02, 0., 1.25380889e-01, 0., 0.,
          0., 5.39597757e-02, 0., 0., 0., 4.39808816e-02, 0., 0.,
          7.98708946e-02 ]
      - [ 2.20265150e-01, 1.58063903e-01, 1.64987653e-01, 8.09326693e-02,
          1.69756815e-01, 1.99890673e-01, 7.37926811e-02, 2.22039863e-01,
          2.46887252e-01, 1.47023842e-01, 1.96912006e-01, 1.88478038e-01,
          1.46871537e-01, 1.23645306e-01, 1.70502096e-01, 2.49589846e-01,
          1.23242706e-01, 1.39328614e-01, 1.17945179e-01, 0.,
          1.11669920e-01, 1.25646636e-01, 2.24254817e-01, 3.02442551e-01,
          1.17140278e-01, 0., 2.98189055e-02, 1.91584587e-01,
          1.62468851e-01, 1.72958136e-01, 1.80973887e-01, 2.35089809e-01,
          1.25995889e-01, 6.22406192e-02, 2.64073517e-02, 0.,
          5.40680066e-02, 0., 0., 0., 3.82318534e-02, 0., 3.76931131e-02,
          0., 5.00572473e-02, 5.61827198e-02, 7.07577541e-02, 0.,
          3.74434851e-02, 9.96883288e-02, 0., 0., 4.79261652e-02, 0., 0.,
          3.55552658e-02, 4.38276082e-02, 0., 0., 0., 7.05819577e-02, 0.,
          6.99089989e-02, 7.95360655e-02 ]
      - [ 1.43472642e-01, 2.78115809e-01, 0., 3.84785347e-02, 0., 0., 0.,
          5.27580269e-02, 3.45796049e-01, 2.64615744e-01, 1.92921743e-01,
          1.54039234e-01, 2.08203793e-01, 1.04829185e-01, 1.14320353e-01,
          2.41399899e-01, 2.29359627e-01, 1.32375672e-01, 1.49057329e-01,
          1.19719200e-01, 1.75616518e-01, 1.91209212e-01, 2.41542250e-01,
          1.59421548e-01, 2.56958902e-01, 0., 0., 0., 5.90046532e-02, 0.,
          2.82061726e-01, 1.49750277e-01, 9.90820490e-03, 1.58171028e-01,
          0., 0., 1.02600627e-01, 0., 0., 0., 0., 0., 0., 0.,
          1.27340391e-01, 7.97095448e-02, 0., 0., 5.73554933e-02,
          7.76414499e-02, 0., 0., 3.70228142e-02, 0., 0., 0., 0., 0., 0.,
          0., 6.84671849e-02, 0., 1.07300766e-01, 8.45178887e-02 ]
      - [ 1.75055385e-01, 1.07605778e-01, 6.32685870e-02, 5.54785095e-02,
          1.06431469e-01, 5.51266260e-02, 4.14681025e-02, 8.66617188e-02,
          4.26373541e-01, 1.74568295e-01, 2.30883867e-01, 1.64526522e-01,
          2.22448319e-01, 2.32182756e-01, 2.27873057e-01, 2.22423360e-01,
          8.91649947e-02, 8.37013498e-02, 9.37388688e-02, 4.35478650e-02,
          4.00246494e-02, 6.95458651e-02, 6.97820261e-02, 2.45183364e-01,
          2.94677585e-01, 1.86890513e-01, 9.01728719e-02, 7.25158155e-02,
          1.41927063e-01, 3.09999809e-02, 0., 1.45613566e-01,
          2.58134231e-02, 0., 0., 0., 1.99949909e-02, 0., 0., 0., 0., 0.,
          0., 0., 1.30606741e-01, 0., 7.12917075e-02, 2.59735286e-01,
          5.83005175e-02, 0., 0., 0., 1.99949909e-02, 0., 0.,
          4.32491079e-02, 3.99899818e-02, 4.01281193e-02, 0., 0.,
          1.54017687e-01, 3.38585638e-02, 1.75286353e-01, 0. ]
      - [ 1.16738737e-01, 0., 0., 1.37115121e-01, 1.69531137e-01,
          2.62448043e-01, 8.63775015e-02, 1.62669390e-01, 2.00831577e-01,
          1.17213957e-01, 3.12133692e-02, 2.38823324e-01, 3.72378498e-01,
          1.82294592e-01, 6.66317195e-02, 1.33936763e-01, 1.64890945e-01,
          1.21826209e-01, 1.70260102e-01, 2.50106752e-01, 3.60055983e-01,
          1.89319015e-01, 0., 4.78634872e-02, 1.73605964e-01,
          1.23573273e-01, 9.32438746e-02, 3.23822275e-02, 7.73214251e-02,
          8.78493264e-02, 1.19733304e-01, 1.09316036e-01, 2.59699803e-02,
          0., 0., 0., 1.03879921e-01, 9.53620374e-02, 3.66605222e-02, 0.,
          3.25333923e-02, 0., 0., 0., 8.46970379e-02, 0., 1.19297169e-01,
          3.29221189e-02, 1.75240323e-01, 1.33935869e-01, 0., 0.,
          1.29139692e-01, 0., 0., 0., 2.21472736e-02, 0., 0., 0.,
          8.71939063e-02, 0., 0., 1.19668268e-01 ]
      - [ 1.88720807e-01, 1.61258399e-01, 1.74099684e-01, 1.75544232e-01,
          1.41285181e-01, 9.11740288e-02, 1.74173117e-01, 1.76957130e-01,
          2.26997316e-01, 2.01800659e-01, 2.75009453e-01, 1.34375051e-01,
          2.30549127e-01, 1.31938145e-01, 1.33531541e-01, 6.96021616e-02,
          7.32250512e-02, 1.83735549e-01, 2.30468705e-01, 1.34290576e-01,
          1.53097942e-01, 3.10859177e-02, 9.42620784e-02, 7.17949122e-02,
          2.25462779e-01, 2.73770034e-01, 1.19378947e-01, 1.80321738e-01,
          1.86459273e-01, 1.04908742e-01, 7.13867247e-02, 1.16500758e-01,
          9.93888378e-02, 1.29225165e-01, 0., 0., 9.34428871e-02, 0., 0.,
          0., 3.31591815e-02, 0., 0., 2.70097200e-02, 8.90722871e-02, 0.,
          1.58772826e-01, 9.43655446e-02, 1.11419387e-01, 0.,
          4.88396958e-02, 0., 4.17889245e-02, 2.63075680e-02, 0., 0., 0.,
          0., 3.36623378e-02, 0., 9.90998745e-02, 7.51406997e-02,
          9.70776826e-02, 0. ]
      - [ 3.07707608e-01, 9.90230441e-02, 4.77533527e-02, 6.52719811e-02,
          7.04230890e-02, 0., 5.09533621e-02, 1.90277115e-01,
          3.15731138e-01, 1.02156162e-01, 9.03628767e-02, 9.94491801e-02,
          2.03964084e-01, 4.61974479e-02, 1.25505909e-01, 2.47632682e-01,
          1.82823345e-01, 5.73784858e-02, 0., 1.80940345e-01,
          2.84305304e-01, 1.39302880e-01, 1.35038301e-01, 1.88373029e-01,
          2.60481030e-01, 0., 0., 4.32905331e-02, 3.53152663e-01,
          1.68713808e-01, 1.34554192e-01, 1.95405662e-01, 3.14999856e-02,
          1.86461993e-02, 0., 5.83933070e-02, 5.45595810e-02, 0., 0., 0.,
          2.04540715e-02, 0., 6.59559146e-02, 0., 6.85320869e-02,
          2.35778596e-02, 0., 0., 6.29999712e-02, 0., 1.09304130e-01, 0.,
          1.27179623e-01, 0., 2.66702883e-02, 0., 0., 0., 0., 0.,
          1.88413769e-01, 0., 8.69912952e-02, 0. ]
      - [ 3.33630532e-01, 8.69063064e-02, 6.54302314e-02, 3.82363535e-02,
          7.44262934e-02, 4.82902192e-02, 7.48429522e-02, 3.07738543e-01,
          3.23276222e-01, 1.22678638e-01, 1.35210574e-01, 1.55176267e-01,
          8.51965398e-02, 1.54597282e-01, 1.28588095e-01, 2.83166230e-01,
          2.90343285e-01, 1.49653941e-01, 6.81103989e-02, 9.41816866e-02,
          1.30332172e-01, 0., 1.74306005e-01, 2.81420052e-01,
          2.75733173e-01, 8.86913761e-02, 0., 5.06325290e-02,
          7.09669665e-02, 4.75452729e-02, 7.89274201e-02, 2.64343917e-01,
          7.72837549e-02, 6.86162561e-02, 0., 2.68087555e-02,
          8.53185505e-02, 0., 0., 0., 2.68087555e-02, 0., 1.39054768e-02,
          0., 9.21336412e-02, 0., 0., 6.09252788e-02, 6.59061596e-02, 0.,
          0., 2.74357349e-02, 2.96962578e-02, 0., 0., 0., 7.83599913e-02,
          0., 0., 0., 7.74821565e-02, 0., 6.47053123e-02, 8.17864463e-02 ]
      - [ 1.09402202e-01, 2.60532558e-01, 0., 4.29824106e-02,
          8.50106701e-02, 6.30489588e-02, 9.61575583e-02, 3.87597591e-01,
          2.00539708e-01, 2.56613463e-01, 1.21363908e-01, 1.05446219e-01,
          1.86546385e-01, 1.15716025e-01, 1.92986339e-01, 2.00218409e-01,
          3.73881400e-01, 1.84032157e-01, 2.47104205e-02, 4.05243896e-02,
          1.33602321e-01, 5.38118333e-02, 9.71504152e-02, 2.15184361e-01,
          3.18477541e-01, 7.78901428e-02, 5.06370552e-02, 4.18663919e-02,
          4.79629450e-02, 0., 0., 5.93153648e-02, 6.46273717e-02,
          1.93668142e-01, 0., 0., 1.44400343e-01, 0., 0., 0., 0., 0., 0.,
          1.15973353e-01, 1.59451425e-01, 0., 0., 0., 0., 0., 0., 0.,
          4.70315367e-02, 4.12883610e-02, 3.14867720e-02, 5.64683154e-02,
          7.34076276e-02, 4.53204252e-02, 0., 0., 5.66985272e-02, 0., 0.,
          0. ]
      - [ 2.15870544e-01, 6.04099892e-02, 6.63936362e-02, 9.33173597e-02,
          1.57186076e-01, 9.52460095e-02, 5.38052917e-02, 0.,
          3.87888700e-01, 3.67465228e-01, 2.51990974e-01, 2.49566868e-01,
          3.87589931e-01, 1.84375688e-01, 1.26903027e-01, 1.19322039e-01,
          2.18903031e-02, 6.24904335e-02, 6.61073253e-02, 1.15504302e-01,
          2.07137987e-01, 1.93272561e-01, 7.37328008e-02, 1.41932160e-01,
          1.17101893e-01, 3.92623730e-02, 1.25305757e-01, 1.01369545e-01,
          1.41685575e-01, 1.18976809e-01, 9.53089818e-02, 0., 0., 0.,
          6.01808503e-02, 3.59199941e-02, 7.73939043e-02, 0., 0., 0.,
          5.44737987e-02, 0., 4.89482060e-02, 0., 1.03834823e-01,
          8.73240903e-02, 5.47913052e-02, 0., 0., 0., 0., 0.,
          7.58302286e-02, 7.35917985e-02, 3.71864699e-02, 0.,
          2.18903031e-02, 0., 0., 4.17643487e-02, 8.61822069e-02,
          4.20567691e-02, 0., 0. ]
      - [ 3.12800199e-01, 7.36453310e-02, 5.53968027e-02, 0.,
          1.08005553e-01, 5.35301529e-02, 1.19482726e-01, 2.54030913e-01,
          2.98525363e-01, 1.53260559e-01, 1.03585526e-01, 1.44740090e-01,
          1.91507325e-01, 9.17455629e-02, 1.37905255e-01, 2.57324159e-01,
          3.12324733e-01, 3.24400105e-02, 5.09116016e-02, 7.63860121e-02,
          8.03805441e-02, 6.13785274e-02, 8.79791602e-02, 2.90855676e-01,
          3.11748952e-01, 3.13969627e-02, 0., 4.06203829e-02,
          9.99283269e-02, 8.98621753e-02, 7.55874589e-02, 2.64442593e-01,
          9.69306752e-02, 7.36617669e-02, 0., 0., 6.67626411e-02, 0., 0.,
          0., 3.87949161e-02, 0., 4.40387242e-02, 0., 1.51640981e-01, 0.,
          9.62243974e-02, 5.78762963e-02, 1.35495648e-01, 7.67634138e-02,
          0., 0., 9.41095874e-02, 0., 0., 0., 0., 0., 0., 0.,
          8.50634798e-02, 0., 0., 1.54670268e-01 ]
      - [ 2.37763196e-01, 1.65957436e-01, 2.33076960e-01, 2.52973169e-01,
          2.25252345e-01, 9.68926400e-02, 1.21135399e-01, 1.26637772e-01,
          3.57323676e-01, 2.43965164e-01, 1.98621184e-01, 1.21105559e-01,
          1.51299149e-01, 5.80788180e-02, 0., 1.18660733e-01,
          2.35199153e-01, 7.94780180e-02, 1.19308904e-01, 9.16160643e-02,
          4.72579114e-02, 4.99691591e-02, 0., 9.98847038e-02,
          3.47460717e-01, 1.70254573e-01, 1.34754285e-01, 1.90429419e-01,
          1.65610343e-01, 1.10782929e-01, 1.04666181e-01, 1.62871957e-01,
          8.74966830e-02, 6.67490661e-02, 0., 0., 5.78788854e-02, 0., 0.,
          0., 0., 0., 0., 0., 7.08868653e-02, 0., 6.34763613e-02,
          7.40951821e-02, 4.09265533e-02, 0., 0., 0., 0., 0., 0., 0., 0.,
          0., 3.53335328e-02, 4.20188867e-02, 1.00612327e-01, 0., 0., 0. ]
      - [ 1.71779215e-01, 2.03790113e-01, 3.64327691e-02, 1.53074544e-02,
          2.99742758e-01, 1.50260121e-01, 1.54470950e-01, 9.90448743e-02,
          2.07518429e-01, 1.81632921e-01, 9.82477590e-02, 3.19756627e-01,
          1.81604147e-01, 1.96500599e-01, 1.74660861e-01, 1.02353022e-01,
          1.03154495e-01, 7.15121329e-02, 1.03458241e-01, 1.40377432e-01,
          1.88800424e-01, 2.58655071e-01, 1.84293613e-01, 1.01201341e-01,
          1.89816162e-01, 1.50810838e-01, 1.46309674e-01, 1.94572255e-01,
          2.51927525e-01, 6.55719042e-02, 0., 0., 5.65240495e-02,
          7.09055886e-02, 0., 0., 4.38148491e-02, 0., 0., 0.,
          1.81410704e-02, 0., 0., 0., 1.34785011e-01, 1.40605763e-01, 0.,
          5.44010364e-02, 5.80797642e-02, 1.20054901e-01, 9.04627517e-02,
          2.03718822e-02, 1.26120672e-01, 0., 0., 0., 3.59731093e-02, 0.,
          0., 0., 5.73671013e-02, 3.05919517e-02, 0., 5.36071733e-02 ]
      - [ 2.17063144e-01, 7.26822168e-02, 1.24963664e-01, 1.91509679e-01,
          1.13162935e-01, 1.01660773e-01, 6.65510073e-02, 1.21056788e-01,
          1.47357211e-01, 1.48598000e-01, 1.90429926e-01, 2.81426966e-01,
          3.50280792e-01, 2.90907741e-01, 1.65389538e-01, 1.23821832e-01,
          1.78337231e-01, 1.51549220e-01, 1.96639001e-01, 1.53886691e-01,
          2.45164722e-01, 1.17077164e-01, 8.76611173e-02, 1.86980113e-01,
          1.94336206e-01, 2.12053396e-02, 0., 0., 6.17078394e-02, 0.,
          9.92631167e-02, 1.33116379e-01, 0., 9.16820243e-02, 0., 0.,
          1.20407753e-01, 0., 0., 2.13881657e-01, 1.41223118e-01, 0., 0.,
          0., 8.86901915e-02, 1.07391350e-01, 0., 8.87519345e-02, 0.,
          8.65063295e-02, 6.68839365e-02, 3.57446559e-02, 7.85453543e-02,
          0., 0., 3.20082344e-02, 1.75632760e-02, 3.49196903e-02, 0.,
          3.56629901e-02, 3.92726772e-02, 0., 0., 0. ]
      - [ 2.76845098e-01, 4.29356806e-02, 5.96335903e-02, 0.,
          8.48990381e-02, 7.77713060e-02, 7.93687701e-02, 2.32380167e-01,
          3.94980788e-01, 9.71574560e-02, 1.26583681e-01, 5.88596798e-02,
          1.42528966e-01, 1.03690140e-01, 1.21887952e-01, 3.49454165e-01,
          2.58837789e-01, 0., 1.28833771e-01, 5.75459562e-02,
          1.59673840e-01, 1.24493159e-01, 1.00420855e-01, 3.18071842e-01,
          2.59810865e-01, 5.94635494e-02, 4.63263541e-02, 4.55963314e-02,
          9.14536044e-02, 0., 0., 3.40539813e-01, 6.88869134e-02, 0., 0.,
          0., 7.81115815e-02, 4.34572734e-02, 5.32032810e-02,
          2.51328740e-02, 3.76448780e-02, 0., 5.22738062e-02, 0.,
          7.59905130e-02, 0., 5.96928447e-02, 4.47264761e-02, 0., 0., 0.,
          7.59390965e-02, 7.87467733e-02, 0., 0., 0., 3.66574004e-02, 0.,
          4.55963314e-02, 2.42109988e-02, 6.68364465e-02, 0.,
          2.33273208e-02, 0. ]
      - [ 2.04697475e-01, 0., 0., 0., 1.29268290e-02, 0., 1.08701242e-02,
          4.08781111e-01, 2.68066853e-01, 1.80956885e-01, 0., 0.,
          1.35013148e-01, 0., 1.19364530e-01, 4.59409922e-01,
          2.80599236e-01, 1.13308705e-01, 0., 0., 1.29988685e-01, 0.,
          1.12389386e-01, 4.28420484e-01, 1.22464232e-01, 0., 0., 0.,
          9.14064888e-03, 0., 5.43506211e-03, 3.48138064e-01,
          1.22312997e-02, 5.43506211e-03, 0., 0., 9.14064888e-03, 0., 0.,
          0., 1.52694518e-02, 5.43506211e-03, 0., 0., 9.14064888e-03, 0.,
          1.36684580e-02, 0., 1.93902440e-02, 1.36684580e-02, 0., 0.,
          9.14064888e-03, 0., 0., 0., 0., 0., 0., 0., 9.14064888e-03, 0.,
          9.41380393e-03, 0. ]
      - [ 3.79618257e-01, 1.13519959e-01, 8.00956115e-02, 0.,
          9.03998017e-02, 2.18430944e-02, 2.76585426e-02, 2.02898875e-01,
          4.12642449e-01, 1.89140722e-01, 1.10415667e-01, 5.30632362e-02,
          1.30957961e-01, 1.41503483e-01, 8.47508907e-02, 2.50809431e-01,
          3.76149088e-01, 1.23048104e-01, 1.04322746e-01, 0.,
          1.27135903e-01, 4.38674055e-02, 1.43005997e-01, 2.45608509e-01,
          3.12386870e-01, 8.78271461e-02, 3.81370224e-02, 0.,
          7.79154077e-02, 4.92383093e-02, 1.11828104e-01, 1.61474824e-01,
          3.18139270e-02, 6.37866184e-02, 0., 0., 6.20291047e-02, 0., 0.,
          0., 2.54713353e-02, 0., 0., 0., 5.09426706e-02, 0.,
          8.00113156e-02, 6.77032992e-02, 0., 0., 5.45875691e-02, 0.,
          5.00247106e-02, 0., 2.43611988e-02, 0., 2.35818736e-02,
          2.14460213e-02, 5.12649156e-02, 2.92319246e-02, 6.12675063e-02,
          0., 0., 0. ]
      - [ 3.75903696e-01, 9.82332975e-02, 4.91403453e-02, 4.89356034e-02,
          5.41644208e-02, 4.39828187e-02, 7.40039200e-02, 1.68114766e-01,
          4.41507190e-01, 1.99060112e-01, 1.50112450e-01, 1.20211609e-01,
          1.73304588e-01, 8.86247456e-02, 1.35535300e-01, 2.30569303e-01,
          3.67877424e-01, 1.15925014e-01, 3.72799523e-02, 4.32860516e-02,
          7.07830340e-02, 5.35450988e-02, 7.29736909e-02, 1.37740001e-01,
          3.69229585e-01, 7.47730583e-02, 0., 2.44091209e-02,
          4.49783914e-02, 1.06909774e-01, 8.31087008e-02, 9.28251371e-02,
          6.90552816e-02, 0., 5.42123429e-02, 4.53327484e-02,
          9.01866034e-02, 0., 0., 0., 0., 0., 0., 0., 9.57422704e-02, 0.,
          2.58095022e-02, 5.65753616e-02, 8.67179856e-02, 6.74505830e-02,
          0., 0., 9.56906080e-02, 0., 0., 0., 0., 0., 0., 0.,
          7.16232583e-02, 6.26361743e-02, 6.79714456e-02, 5.60083464e-02 ]
      - [ 1.82772309e-01, 9.00525451e-02, 8.15596208e-02, 1.14994302e-01,
          1.70612887e-01, 8.80370587e-02, 1.31800056e-01, 2.11862519e-01,
          2.01535568e-01, 2.19104201e-01, 1.98272586e-01, 2.08268553e-01,
          1.65299416e-01, 2.26611719e-01, 1.74491838e-01, 1.65983573e-01,
          1.84333146e-01, 8.83940235e-02, 1.81877673e-01, 1.67880595e-01,
          2.00515509e-01, 1.68868706e-01, 2.15462163e-01, 1.85565397e-01,
          2.17058137e-01, 1.16643965e-01, 1.27239510e-01, 1.01153784e-01,
          1.78391665e-01, 1.38764814e-01, 8.25915858e-02, 1.33937478e-01,
          1.16973646e-01, 7.84819499e-02, 0., 0., 6.16969727e-02, 0.,
          2.44420916e-02, 0., 2.09999718e-02, 0., 0., 0., 8.62765387e-02,
          0., 1.00298919e-01, 1.14623211e-01, 1.35861158e-01,
          7.39968270e-02, 6.68286532e-02, 0., 9.36672613e-02, 0., 0., 0.,
          0., 0., 0., 0., 9.34191346e-02, 0., 1.21070854e-01, 0. ]
      - [ 2.39124939e-01, 1.90084711e-01, 1.02844305e-01, 1.98884085e-01,
          1.90729335e-01, 1.22110702e-01, 1.29910335e-01, 1.10149167e-01,
          2.21100584e-01, 2.16671541e-01, 1.68951556e-01, 1.25623032e-01,
          1.88202992e-01, 1.68191105e-01, 1.32838801e-01, 8.82441252e-02,
          1.47433460e-01, 5.83831295e-02, 1.78386182e-01, 1.69553876e-01,
          1.66627809e-01, 1.94866955e-01, 1.05225123e-01, 1.17788114e-01,
          1.68323129e-01, 1.50969401e-01, 9.87674147e-02, 2.44713545e-01,
          2.65163720e-01, 1.93658844e-01, 1.57122657e-01, 4.71247397e-02,
          7.69893378e-02, 8.48133266e-02, 0., 0., 8.50070417e-02, 0., 0.,
          0., 0., 0., 0., 0., 1.01178609e-01, 0., 1.19160242e-01,
          7.90562406e-02, 4.38974462e-02, 0., 1.13376327e-01, 0.,
          1.03531919e-01, 6.66566938e-02, 0., 0., 0., 5.59584834e-02, 0.,
          0., 1.75960317e-01, 0., 0., 0. ]
      - [ 3.60661864e-01, 7.24928305e-02, 0., 8.51082057e-02,
          1.51933745e-01, 7.26468936e-02, 9.64819863e-02, 8.50022584e-02,
          4.19599831e-01, 2.65638739e-01, 3.61504294e-02, 9.39503908e-02,
          1.04326352e-01, 5.99729307e-02, 9.69818756e-02, 1.42958254e-01,
          5.95892109e-02, 2.57911123e-02, 9.89696011e-02, 3.28450143e-01,
          2.06165209e-01, 1.19129263e-01, 7.21865892e-02, 1.80314854e-01,
          3.20272237e-01, 1.09898664e-01, 5.19569702e-02, 2.05133855e-01,
          6.04071580e-02, 5.71664236e-02, 1.28410459e-01, 4.80509661e-02,
          6.58337548e-02, 4.56734188e-02, 0., 0., 4.07918915e-02, 0., 0.,
          0., 3.68021876e-02, 0., 5.06557487e-02, 3.34195718e-02,
          1.56325489e-01, 8.14141333e-02, 7.35126659e-02, 3.46309133e-02,
          0., 0., 0., 0., 1.69121385e-01, 3.68583910e-02, 0., 0.,
          4.93753180e-02, 5.87876253e-02, 0., 1.04865775e-01,
          1.11105353e-01, 0., 0., 0. ]
      - [ 4.19835269e-01, 6.79721385e-02, 0., 5.39380647e-02,
          7.90718794e-02, 4.27561179e-02, 7.37782344e-02, 1.16554417e-01,
          4.37421978e-01, 1.78435177e-01, 1.13717355e-01, 2.25669146e-02,
          4.02719341e-02, 1.36011302e-01, 1.08576089e-01, 2.16048971e-01,
          4.18032795e-01, 1.66525349e-01, 1.19216286e-01, 0.,
          4.21453454e-02, 0., 0., 2.12655067e-01, 3.99057448e-01, 0.,
          4.77739833e-02, 2.73424536e-02, 5.72860129e-02, 3.54411192e-02,
          4.23055738e-02, 1.04467899e-01, 0., 0., 0., 0., 7.27208182e-02,
          3.62598039e-02, 0., 8.40915740e-02, 3.37914526e-02, 0., 0., 0.,
          3.58079411e-02, 0., 0., 0., 0., 0., 0., 0., 3.67874727e-02, 0.,
          4.45061475e-02, 3.88752036e-02, 5.97292557e-02, 0.,
          5.55469021e-02, 0., 5.55630922e-02, 0., 0., 0. ]
      - [ 2.06853807e-01, 5.10029085e-02, 0., 0., 3.24650221e-02, 0.,
          2.84331124e-02, 1.29750341e-01, 3.96376461e-01, 1.14292443e-01,
          2.11599723e-01, 2.03688502e-01, 2.47888029e-01, 1.63645163e-01,
          1.33708283e-01, 1.93147004e-01, 2.75692284e-01, 1.42304510e-01,
          1.50827035e-01, 1.07126169e-01, 2.67991871e-01, 1.42172173e-01,
          1.14128709e-01, 2.54535228e-01, 3.61874819e-01, 0.,
          4.11724448e-02, 0., 7.31964484e-02, 0., 0., 1.38680026e-01, 0.,
          0., 0., 0., 5.41083701e-03, 0., 0., 0., 4.59903702e-02,
          6.78564683e-02, 6.77783638e-02, 1.07810609e-01, 1.37098268e-01,
          4.92726937e-02, 6.10336699e-02, 0., 8.42131525e-02,
          5.94622120e-02, 8.82223397e-02, 0., 8.77490342e-02, 0., 0., 0.,
          0., 0., 0., 0., 1.08216740e-02, 0., 0., 6.59646094e-02 ]
      - [ 2.77473539e-01, 9.07920673e-02, 0., 0., 9.50418189e-02, 0.,
          7.62673095e-02, 7.58775100e-02, 4.45859820e-01, 2.81492680e-01,
          1.53913841e-01, 0., 1.61718741e-01, 1.23149619e-01,
          9.78820026e-02, 1.86855212e-01, 8.89034793e-02, 4.89410013e-02,
          0., 4.22527269e-02, 3.36023569e-02, 5.02472445e-02,
          8.59900415e-02, 1.41977862e-01, 2.76731640e-01, 2.77075529e-01,
          8.58079940e-02, 1.40603349e-01, 1.32638425e-01, 9.55021754e-02,
          1.16923958e-01, 0., 0., 0., 0., 0., 0., 0., 0., 0.,
          1.15683153e-01, 1.48802772e-01, 0., 0., 1.30141363e-01, 0., 0.,
          0., 3.85378212e-01, 5.73752336e-02, 0., 0., 1.87090009e-01, 0.,
          5.65121993e-02, 0., 0., 0., 0., 0., 0., 0., 0., 0. ]
      - [ 1.62233636e-01, 1.31484494e-01, 1.92360103e-01, 2.11262405e-01,
          1.41945750e-01, 6.36396036e-02, 0., 2.99608856e-01,
          8.94166827e-02, 9.54784453e-02, 1.06350936e-01, 2.86471635e-01,
          2.73344308e-01, 1.37943596e-01, 1.65256962e-01, 1.90151498e-01,
          1.34254828e-01, 1.37908354e-01, 1.23276681e-01, 2.65805781e-01,
          8.05113167e-02, 5.25616109e-02, 9.89633352e-02, 3.11471462e-01,
          1.82461977e-01, 0., 8.07986632e-02, 2.49407470e-01,
          4.27885763e-02, 1.38384908e-01, 1.01886019e-01, 1.79854676e-01,
          8.72109681e-02, 5.77179044e-02, 0., 0., 6.96985498e-02,
          5.82429357e-02, 0., 0., 0., 0., 0., 0., 4.36359569e-02, 0.,
