%YAML:1.0
---
opencv_ml_svm:
   format: 3
   svmType: C_SVC
   kernel:
      type: RBF
      gamma: 5.3830000000000000e+00
   C: 2.6699999999999999e+00
   term_criteria: { epsilon:1.1920928955078125e-07, iterations:1000 }
   var_count: 64
   class_count: 32
   class_labels: !!opencv-matrix
      rows: 32
      cols: 1
      dt: i
      data: [ 0, 1, 2, 3, 4, 5, 6, 7, 8, 9, 10, 11, 12, 13, 14, 15, 16,
          17, 18, 19, 20, 21, 22, 23, 24, 25, 26, 27, 28, 29, 30, 31 ]
   sv_total: 2600
   support_vectors:
      - [ 1.24681585e-01, 1.49177648e-02, 4.47614193e-02, 0.,
          6.54391199e-02, 5.30353449e-02, 1.64514020e-01, 3.27476263e-01,
          3.14841300e-01, 1.35291472e-01, 1.11604191e-01, 7.54019693e-02,
          1.60460576e-01, 1.04567491e-01, 1.89421609e-01, 4.24229652e-01,
          1.91381961e-01, 1.34837508e-01, 2.39265282e-02, 7.48337656e-02,
          1.19793057e-01, 1.35322452e-01, 1.18567295e-01, 3.91904622e-01,
          1.15033172e-01, 0., 4.44599502e-02, 2.70947069e-02,
          6.93456680e-02, 2.51345839e-02, 7.91733041e-02, 3.65056306e-01,
          3.93048041e-02, 2.07998324e-02, 0., 0., 4.86440696e-02,
          3.30588333e-02, 0., 0., 3.65483761e-02, 2.38059871e-02, 0.,
          2.68063769e-02, 4.28010747e-02, 1.40166916e-02, 0.,
          4.66608852e-02, 0., 4.21792604e-02, 0., 0., 5.76764867e-02, 0.,
          2.27064770e-02, 4.88406010e-02, 4.54947390e-02, 0., 0., 0.,
          5.49095124e-02, 0., 4.74900492e-02, 5.38987480e-02 ]
      - [ 5.94199821e-02, 2.57156752e-02, 2.72026286e-02, 7.86642134e-02,
          1.07420281e-01, 0., 0., 3.15556973e-01, 2.52193153e-01,
          2.19558164e-01, 1.38613820e-01, 1.89943865e-01, 1.75623327e-01,
          3.12857568e-01, 1.95933834e-01, 0., 2.19091237e-01,
          8.13003331e-02, 1.15115337e-01, 8.40626210e-02, 1.10856943e-01,
          2.31697008e-01, 2.81556308e-01, 3.17891866e-01, 1.70095742e-01,
          4.95198183e-02, 0., 0., 2.87288558e-02, 4.44360599e-02, 0.,
          2.48339593e-01, 2.81918216e-02, 0., 0., 0., 0., 0., 0., 0., 0.,
          0., 0., 0., 1.57836601e-01, 0., 9.11130607e-02, 1.88308939e-01,
          6.02317750e-02, 0., 0., 6.12684339e-02, 1.55750960e-01,
          1.12198234e-01, 0., 0., 3.31732258e-02, 0., 0., 0.,
          3.49676497e-02, 0., 0., 1.02189086e-01 ]
      - [ 2.03717530e-01, 1.20945491e-01, 1.89893201e-01, 1.05917893e-01,
          1.53831959e-01, 1.84410274e-01, 5.40901944e-02, 2.11054891e-01,
          2.75530219e-01, 1.31541893e-01, 2.24357814e-01, 1.38397902e-01,
          1.87757343e-01, 1.82266504e-01, 9.86730978e-02, 2.34721541e-01,
          1.81175068e-01, 1.06102012e-01, 1.55673012e-01, 1.05931692e-01,
          1.46859765e-01, 1.60418838e-01, 2.00362399e-01, 2.82913446e-01,
          1.47764742e-01, 5.66829182e-02, 9.75726098e-02, 1.63251176e-01,
          1.87814683e-01, 1.43480957e-01, 1.22437894e-01, 2.13215500e-01,
          8.61279741e-02, 8.11866596e-02, 0., 0., 4.98673506e-02, 0., 0.,
          0., 2.63094828e-02, 0., 0., 4.50560153e-02, 7.85630271e-02,
          6.45818859e-02, 0., 1.22980066e-01, 7.79888257e-02, 0.,
          5.76586314e-02, 0., 5.48854470e-02, 0., 0., 0., 0.,
          2.59362031e-02, 0., 0., 3.12120449e-02, 0., 7.74228424e-02,
          7.83230290e-02 ]
      - [ 2.80023634e-01, 1.25231057e-01, 1.16787374e-01, 1.25196027e-02,
          1.20998092e-01, 7.58996755e-02, 1.21308789e-01, 1.79480046e-01,
          3.68512571e-01, 1.65233076e-01, 1.87186033e-01, 1.15228437e-01,
          1.68437630e-01, 1.57475978e-01, 1.42487720e-01, 2.11078189e-02,
          2.76547551e-01, 1.32815868e-01, 1.14030622e-01, 0.,
          4.85472269e-02, 0., 2.11551666e-01, 2.39281967e-01,
          3.06132406e-01, 1.59183323e-01, 5.73511980e-02, 1.14377327e-01,
          1.14900783e-01, 6.83038980e-02, 9.12352353e-02, 1.59153804e-01,
          1.47402987e-01, 0., 0., 0., 3.76650058e-02, 0., 0., 0.,
          6.65829517e-03, 0., 0., 0., 8.27612951e-02, 0., 1.21291392e-01,
          1.71730518e-01, 2.27162018e-01, 1.00731716e-01, 0., 0.,
          7.07786456e-02, 0., 0., 0., 0., 0., 0., 0., 0., 0., 0., 0. ]
      - [ 1.39629349e-01, 1.24598727e-01, 2.12245718e-01, 1.34338275e-01,
          6.69941166e-03, 4.67345230e-02, 0., 2.92222612e-02,
          2.65180618e-01, 2.35552907e-01, 2.45550290e-01, 1.91304460e-01,
          1.71692640e-01, 2.32504413e-01, 8.63663852e-02, 1.06627688e-01,
          1.91901460e-01, 1.70819193e-01, 1.60733566e-01, 5.72022535e-02,
          1.29646584e-01, 1.45864353e-01, 2.36735135e-01, 3.16173166e-01,
          2.39042908e-01, 1.06042422e-01, 1.33337989e-01, 0.,
          1.28686577e-01, 1.25646904e-01, 1.14682660e-01, 1.15786053e-01,
          9.50935259e-02, 9.15277898e-02, 0., 0., 3.78975943e-02, 0., 0.,
          0., 0., 0., 0., 0., 7.92685077e-02, 0., 1.37094364e-01,
          8.39047283e-02, 1.49246484e-01, 1.31145388e-01, 0., 0.,
          1.12402469e-01, 0., 0., 0., 0., 0., 0., 0., 9.13677886e-02, 0.,
          1.02896191e-01, 1.32064149e-01 ]
      - [ 1.86833724e-01, 8.79686400e-02, 1.35593727e-01, 1.38678804e-01,
          1.47632748e-01, 1.13680311e-01, 2.15331480e-01, 2.42211580e-01,
          2.93024153e-01, 1.23845428e-01, 4.29057404e-02, 1.41846105e-01,
          2.61234313e-01, 2.11745545e-01, 8.48545656e-02, 2.22178772e-01,
          2.36283034e-01, 1.06584013e-01, 2.13256076e-01, 2.11263537e-01,
          1.08606257e-01, 0., 7.80261233e-02, 1.92835644e-01,
          2.89846420e-01, 7.56202191e-02, 1.25342280e-01, 1.74390763e-01,
          1.36671796e-01, 7.33448118e-02, 8.16177800e-02, 9.73276570e-02,
          4.73603234e-02, 0., 0., 1.63608417e-02, 2.90891156e-02, 0., 0.,
          0., 0., 0., 0., 3.17000411e-02, 1.25826910e-01, 1.01937637e-01,
          9.74722579e-02, 1.04709066e-01, 4.32798415e-02, 1.48988083e-01,
          5.81442043e-02, 0., 1.23685010e-01, 0., 0., 1.63749773e-02,
          2.26309411e-02, 0., 0., 0., 2.05691103e-02, 0., 0.,
          6.13333248e-02 ]
      - [ 1.85704991e-01, 3.54443677e-02, 1.18955143e-01, 1.31728888e-01,
          1.33097947e-01, 1.37842417e-01, 1.53282806e-01, 2.03602329e-01,
          1.71045318e-01, 1.91999480e-01, 1.75817132e-01, 2.37312451e-01,
          1.96090758e-01, 1.82325274e-01, 1.98972955e-01, 2.27290869e-01,
          1.59779996e-01, 1.16602413e-01, 1.98429212e-01, 1.24882340e-01,
          1.83354214e-01, 1.95357203e-01, 2.01440871e-01, 1.46786302e-01,
          2.96911955e-01, 0., 1.21510446e-01, 1.44873574e-01,
          1.60781577e-01, 9.63615999e-02, 7.03703836e-02, 1.42821193e-01,
          6.44955635e-02, 0., 0., 0., 4.12500761e-02, 2.18000412e-02, 0.,
          2.46699490e-02, 2.44265012e-02, 0., 0., 0., 6.03839271e-02, 0.,
          9.51771438e-02, 1.32835478e-01, 8.86204988e-02, 9.40825790e-02,
          7.71884844e-02, 0., 1.05114922e-01, 0., 0., 0., 0., 0., 0., 0.,
          9.04232785e-02, 0., 9.28332284e-02, 1.18307047e-01 ]
      - [ 2.99109221e-01, 1.61655486e-01, 4.54216152e-02, 0.,
          6.31267577e-02, 0., 1.16911903e-02, 2.57841825e-01,
          2.70575881e-01, 2.03130722e-01, 1.80422083e-01, 0.,
          1.66738182e-01, 1.58516139e-01, 2.05141768e-01, 2.51072943e-01,
          1.66845322e-01, 1.73424587e-01, 1.06288649e-01, 0.,
          1.37935504e-01, 1.80829048e-01, 2.77029514e-01, 3.10594112e-01,
          1.62532941e-01, 0., 0., 0., 4.24848758e-02, 9.72646475e-02,
          2.36616388e-01, 2.00986952e-01, 7.07695335e-02, 4.03298661e-02,
          4.60514314e-02, 0., 6.06275648e-02, 0., 1.91353522e-02, 0., 0.,
          4.21067253e-02, 0., 0., 5.74908294e-02, 0., 5.95190376e-02, 0.,
          3.75028811e-02, 7.91255906e-02, 0., 9.13111195e-02,
          8.67444128e-02, 0., 0., 0., 0., 0., 3.28256898e-02,
          4.33931313e-02, 1.05742164e-01, 5.87375909e-02, 1.26108006e-01,
          0. ]
      - [ 2.51248330e-01, 4.04051952e-02, 4.47458886e-02, 6.64499030e-02,
          6.57372251e-02, 5.02837598e-02, 5.08324206e-02, 2.76917458e-01,
          3.43880534e-01, 1.57549143e-01, 1.19991899e-01, 3.26411091e-02,
          1.72633231e-01, 1.01566978e-01, 1.34241506e-01, 3.75493914e-01,
          3.15158427e-01, 1.34030968e-01, 1.27263814e-01, 7.81051591e-02,
          1.58094674e-01, 7.63629749e-02, 1.41450167e-01, 3.15493256e-01,
          2.37754419e-01, 4.14258912e-02, 4.80113328e-02, 9.28579569e-02,
          1.04117557e-01, 4.46872823e-02, 7.90383965e-02, 2.41969466e-01,
          0., 0., 0., 0., 6.13535158e-02, 6.32025674e-02, 0.,
          4.53091115e-02, 4.47438248e-02, 3.13199274e-02, 2.50486266e-02,
          4.91374694e-02, 7.14384988e-02, 0., 0., 0., 0., 0.,
          5.46574555e-02, 0., 7.36831874e-02, 0., 5.94150461e-02,
          5.54157794e-02, 6.89170286e-02, 0., 0., 5.06922044e-02,
          5.67567833e-02, 0., 0., 4.21309769e-02 ]
      - [ 2.14797005e-01, 3.34404856e-02, 0., 0., 4.23332900e-02, 0.,
          2.58897617e-02, 3.02750915e-01, 3.78446311e-01, 1.71760753e-01,
          1.24412388e-01, 1.28147658e-02, 1.30746722e-01, 1.05414920e-01,
          1.26122504e-01, 2.95565993e-01, 1.63946465e-01, 1.74155831e-01,
          4.86739315e-02, 0., 7.95035437e-02, 1.45468593e-01,
          1.86238483e-01, 3.08682650e-01, 2.16195151e-01, 1.15237899e-01,
          9.66951698e-02, 1.09000005e-01, 1.43646732e-01, 0.,
          8.25265720e-02, 2.40076259e-01, 1.08201921e-01, 0., 0., 0.,
          2.22528111e-02, 0., 0., 0., 0., 0., 0., 0., 7.66257793e-02,
          6.52623698e-02, 8.02953467e-02, 2.45825946e-01, 2.27169782e-01,
          9.78870541e-02, 0., 0., 7.08704218e-02, 0., 0., 0., 0., 0., 0.,
          0., 0., 0., 0., 0. ]
      - [ 2.03685150e-01, 6.53577968e-02, 1.22468427e-01, 1.35301143e-01,
          1.44864082e-01, 1.18619941e-01, 6.15117475e-02, 2.66333044e-01,
          2.43967414e-01, 1.58643931e-01, 1.75013483e-01, 1.82519704e-01,
          2.44226471e-01, 1.54737100e-01, 1.19717322e-01, 1.59254953e-01,
          1.53042808e-01, 6.85888007e-02, 2.03502461e-01, 2.24613532e-01,
          1.50539562e-01, 4.11636159e-02, 1.45489410e-01, 2.17369273e-01,
          2.92305917e-01, 1.03296883e-01, 1.22466780e-01, 1.27397358e-01,
          1.11155704e-01, 8.63285661e-02, 1.12554483e-01, 1.61206529e-01,
          1.35121852e-01, 0., 0., 0., 6.48552701e-02, 0., 0., 0., 0., 0.,
          0., 0., 9.74108949e-02, 0., 1.40706271e-01, 1.62727237e-01,
          1.57314405e-01, 1.23044603e-01, 4.69094589e-02, 0.,
          8.86241645e-02, 0., 0., 0., 2.36256123e-02, 0., 0., 0.,
          5.62992506e-02, 0., 0., 9.36764553e-02 ]
      - [ 1.78907529e-01, 8.37079585e-02, 1.18856065e-01, 1.32708997e-01,
          8.46771300e-02, 1.05603263e-01, 1.12008974e-01, 9.29230452e-02,
          3.60877275e-01, 2.01460704e-01, 1.70963198e-01, 1.38951302e-01,
          2.65215456e-01, 1.76409677e-01, 1.14868909e-01, 1.11128762e-01,
          1.74443647e-01, 1.48889944e-01, 2.41525248e-01, 1.32414654e-01,
          1.75763935e-01, 1.72519997e-01, 1.44156694e-01, 1.91678211e-01,
          2.43036717e-01, 1.17991693e-01, 1.08702712e-01, 8.92245471e-02,
          1.41118333e-01, 8.04762542e-02, 1.36553094e-01, 1.30937710e-01,
          1.54259592e-01, 0., 0., 0., 8.82252306e-02, 0., 0., 0., 0., 0.,
          0., 0., 1.14281565e-01, 8.12186375e-02, 1.36308655e-01,
          1.23494908e-01, 1.17022000e-01, 7.96507895e-02, 6.83848336e-02,
          4.68007885e-02, 9.30497870e-02, 0., 0., 0., 2.69964822e-02, 0.,
          0., 0., 6.31971434e-02, 0., 0., 1.28210485e-01 ]
      - [ 1.34379705e-02, 6.37326539e-02, 8.42951983e-02, 7.71514252e-02,
          4.47932351e-03, 8.82916451e-02, 0., 2.61862390e-02,
          4.73944068e-01, 1.58773735e-01, 1.10665195e-01, 1.21053211e-01,
          5.52996099e-02, 1.55332938e-01, 3.48926276e-01, 0.,
          3.52094620e-01, 9.95840505e-02, 3.99266407e-02, 2.22610105e-02,
          2.49398164e-02, 1.19042300e-01, 3.57238650e-01, 1.27123922e-01,
          3.35264504e-01, 6.01494536e-02, 0., 7.30720684e-02,
          3.87920775e-02, 4.33058701e-02, 0., 0., 6.33471971e-03, 0., 0.,
          0., 3.55535261e-02, 0., 0., 0., 0., 0., 0., 0., 1.60689428e-01,
          0., 7.13295341e-02, 1.88615575e-01, 1.82185754e-01,
          7.70372525e-02, 0., 7.85607919e-02, 8.98101553e-02, 0., 0., 0.,
          1.34379705e-02, 0., 0., 0., 0., 0., 0., 8.89133215e-02 ]
      - [ 5.83449639e-02, 3.11336536e-02, 7.49752074e-02, 1.55600354e-01,
          7.28538856e-02, 9.13985297e-02, 8.00607279e-02, 1.19512193e-01,
          2.33246207e-01, 3.18626553e-01, 2.06108540e-01, 1.80309236e-01,
          2.10804552e-01, 2.91490793e-01, 1.60385191e-01, 3.72892693e-02,
          2.29406759e-01, 1.33538440e-01, 1.42766118e-01, 1.94648728e-01,
          2.26108044e-01, 1.46381393e-01, 1.98729649e-01, 3.17735046e-01,
          1.77998990e-01, 0., 0., 0., 3.02302651e-02, 0., 2.90694777e-02,
          1.88463643e-01, 4.63041812e-02, 0., 3.99243124e-02, 0.,
          1.32568479e-02, 0., 0., 0., 0., 0., 0., 0., 1.45825326e-01,
          1.15050077e-01, 8.81660506e-02, 1.85247973e-01, 0., 0., 0., 0.,
          1.74828768e-01, 8.57562050e-02, 0., 1.02873228e-01,
          5.54139689e-02, 0., 0., 0., 3.50743234e-02, 0., 0., 0. ]
      - [ 1.36908814e-01, 9.94653106e-02, 1.37251675e-01, 2.58553833e-01,
          1.80398107e-01, 0., 9.19615254e-02, 9.85178128e-02,
          3.07786644e-01, 1.56154886e-01, 9.48622674e-02, 1.20976254e-01,
          2.96010643e-01, 2.62381166e-01, 1.21028721e-01, 8.18783045e-02,
          9.67180952e-02, 8.15835074e-02, 9.96207669e-02, 1.72351182e-01,
          2.46469021e-01, 1.33598104e-01, 2.04366297e-01, 2.02238351e-01,
          2.17413932e-01, 1.23387687e-01, 6.10348210e-02, 1.82733521e-01,
          1.83473080e-01, 1.86641544e-01, 1.04865685e-01, 2.00633947e-02,
          9.02429745e-02, 8.70107189e-02, 0., 0., 3.48391831e-02, 0., 0.,
          0., 0., 0., 0., 0., 1.14639372e-01, 1.46854475e-01,
          7.42459446e-02, 0., 1.17530495e-01, 1.29289970e-01,
          7.70517886e-02, 0., 1.18056826e-01, 0., 0., 0., 0., 0., 0., 0.,
          6.53384849e-02, 0., 7.85429254e-02, 0. ]
      - [ 4.82852347e-02, 1.18469566e-01, 9.40381810e-02, 7.72437081e-02,
          7.04420432e-02, 9.34313983e-02, 1.22433849e-01, 2.25966051e-01,
          3.40479434e-01, 1.23280250e-01, 1.30009189e-01, 1.13994181e-01,
          1.62119240e-01, 8.53940099e-02, 1.99039891e-01, 3.46703172e-01,
          1.47267401e-01, 1.78464621e-01, 1.21341489e-01, 1.80487275e-01,
          1.74120545e-01, 1.48970991e-01, 1.76375613e-01, 2.08441824e-01,
          3.25930327e-01, 1.02801688e-01, 6.35761321e-02, 1.36051461e-01,
          9.83363092e-02, 1.38999701e-01, 2.09147781e-02, 1.23976633e-01,
          2.80449279e-02, 0., 3.26288454e-02, 0., 3.96615192e-02, 0., 0.,
          0., 0., 0., 0., 0., 8.74097273e-02, 0., 1.46441683e-01,
          9.14872214e-02, 0., 0., 0., 0., 1.90987632e-01, 0., 0., 0.,
          2.18524318e-02, 0., 0., 0., 1.15267240e-01, 0., 9.24295336e-02,
          1.51490301e-01 ]
      - [ 1.99422270e-01, 1.22373439e-01, 1.46557838e-01, 1.44134358e-01,
          1.68743625e-01, 1.82241783e-01, 1.27115235e-01, 2.50420034e-01,
          1.80749774e-01, 2.14178115e-01, 1.34619594e-01, 2.30638757e-01,
          1.61417216e-01, 1.67222127e-01, 1.02727279e-01, 2.41681173e-01,
          1.16002351e-01, 1.21768676e-01, 1.34901166e-01, 9.68122929e-02,
          1.18910454e-01, 2.53878981e-01, 1.11140497e-01, 2.82771438e-01,
          1.13377474e-01, 1.97564512e-02, 3.60358655e-02, 1.95147499e-01,
          1.95171118e-01, 1.09261200e-01, 1.54268175e-01, 2.36603588e-01,
          9.96481776e-02, 6.74852580e-02, 4.61036637e-02, 3.74094769e-02,
          7.47967139e-02, 0., 0., 0., 0., 0., 0., 0., 5.20211533e-02, 0.,
          8.12843442e-02, 1.05725154e-01, 0., 8.25051963e-02,
          5.33436202e-02, 0., 5.30121215e-02, 0., 0., 0., 2.33761482e-02,
          0., 0., 0., 7.08666593e-02, 9.69629437e-02, 0., 9.42376256e-02 ]
      - [ 2.71561950e-01, 1.14840955e-01, 1.09018192e-01, 9.42239389e-02,
          1.11280799e-01, 1.75050512e-01, 1.33456096e-01, 0.,
          2.89138645e-01, 2.07752377e-01, 1.75311372e-01, 2.02739060e-01,
          1.95362434e-01, 2.15503410e-01, 0., 0., 2.63666719e-01,
          1.58190340e-01, 9.67849791e-02, 1.29141256e-01, 1.52285844e-01,
          1.52101979e-01, 1.83594033e-01, 2.69247741e-01, 2.12336928e-01,
          5.26002832e-02, 1.10442765e-01, 1.35071173e-01, 1.55361116e-01,
          9.30223539e-02, 1.00397900e-01, 1.59028128e-01, 0.,
          3.39252762e-02, 0., 1.09921634e-01, 1.06714733e-01, 0., 0., 0.,
          2.51770318e-02, 2.99495999e-02, 0., 0., 1.15186043e-01,
          9.45961699e-02, 1.28673971e-01, 7.70157501e-02, 1.60684690e-01,
          7.57781342e-02, 0., 0., 7.04398528e-02, 0., 0., 0.,
          8.09778273e-03, 0., 0., 0., 5.33061326e-02, 0., 9.52671021e-02,
          9.65531319e-02 ]
      - [ 3.26787591e-01, 0., 0., 0., 3.88798974e-02, 5.21099642e-02,
          2.33003777e-02, 4.17261928e-01, 1.95466325e-01, 2.46191889e-01,
          1.50629312e-01, 1.77865699e-01, 1.15693346e-01, 1.85748056e-01,
          2.14996725e-01, 6.23420216e-02, 4.12698567e-01, 9.17298272e-02,
          0., 0., 9.20715258e-02, 7.72268474e-02, 9.17618349e-02,
          3.93372387e-01, 1.30312726e-01, 0., 1.15699871e-02, 0.,
          1.18582575e-02, 0., 0., 0., 2.13185176e-01, 6.80146962e-02, 0.,
          0., 1.16337903e-01, 0., 0., 0., 0., 0., 0., 0., 8.93313289e-02,
          7.98445493e-02, 8.16491768e-02, 0., 6.79062009e-02,
          1.34524796e-02, 0., 0., 1.02695515e-02, 0., 0., 0., 0., 0., 0.,
          0., 8.38505384e-03, 0., 0., 0. ]
      - [ 1.68872610e-01, 5.88627066e-03, 0., 0., 6.99999509e-03, 0., 0.,
          3.30315709e-01, 3.62771064e-01, 1.40499577e-01, 1.02144107e-01,
          0., 1.34542584e-01, 1.11918613e-01, 1.39462411e-01,
          4.54253256e-01, 3.15529346e-01, 1.37865230e-01, 0., 0.,
          1.28413647e-01, 0., 1.04444616e-01, 4.32147145e-01,
          1.21646948e-01, 0., 0., 0., 9.89948772e-03, 0., 5.88627066e-03,
          3.04953665e-01, 2.97685396e-02, 0., 0., 0., 9.89948772e-03, 0.,
          0., 0., 6.99999509e-03, 0., 0., 0., 6.99999509e-03, 0., 0.,
          8.80202837e-03, 2.80620959e-02, 0., 0., 0., 0., 0., 0., 0., 0.,
          0., 0., 0., 9.89948772e-03, 0., 0., 3.74443568e-02 ]
      - [ 5.64074814e-02, 9.72022191e-02, 1.13449335e-01, 1.69388056e-01,
          2.80339479e-01, 1.27136782e-01, 6.54514432e-02, 1.15103081e-01,
          2.71220058e-01, 1.56238705e-01, 1.33289233e-01, 1.37078360e-01,
          3.17878425e-01, 1.64434582e-01, 1.32828191e-01, 1.31730542e-01,
          1.08932599e-01, 8.60719681e-02, 1.32780239e-01, 1.30274579e-01,
          1.95614204e-01, 2.02986091e-01, 2.08649009e-01, 1.42505124e-01,
          1.90224275e-01, 1.92600697e-01, 1.29322752e-01, 1.45629510e-01,
          1.81246921e-01, 2.36272708e-01, 0., 0., 0., 8.74708816e-02,
          6.55360445e-02, 0., 7.89188668e-02, 0., 0., 0., 1.90706514e-02,
          0., 0., 0., 1.22445442e-01, 8.37400854e-02, 1.36564791e-01,
          8.66186693e-02, 1.24512702e-01, 1.51933074e-01, 0., 0.,
          1.05321117e-01, 0., 0., 0., 0., 0., 0., 0., 7.47778714e-02, 0.,
          0., 1.29879370e-01 ]
      - [ 1.81740209e-01, 9.05795693e-02, 1.15327232e-01, 1.01667427e-01,
          1.17566891e-01, 1.21891312e-01, 1.27616107e-01, 1.70323566e-01,
          2.61725694e-01, 2.21600473e-01, 1.91163003e-01, 1.56305909e-01,
          2.80420810e-01, 1.73492029e-01, 1.29211366e-01, 1.23669416e-01,
          1.98461071e-01, 1.29486680e-01, 1.83510035e-01, 1.70018271e-01,
          2.00410455e-01, 2.07479686e-01, 1.91643000e-01, 1.42506808e-01,
          1.97523162e-01, 1.42195746e-01, 1.07430451e-01, 1.46675512e-01,
          1.71246439e-01, 9.46050063e-02, 8.27043280e-02, 1.48645088e-01,
          1.75337866e-01, 0., 0., 0., 8.64365026e-02, 0., 0., 0., 0., 0.,
          0., 0., 9.02409256e-02, 6.52927682e-02, 1.19310424e-01,
          8.20464268e-02, 7.78001249e-02, 1.15558006e-01, 0., 0.,
          7.90962577e-02, 0., 0., 0., 0., 0., 0., 0., 7.60978237e-02, 0.,
          0., 1.42552376e-01 ]
      - [ 2.55145550e-01, 6.09081313e-02, 0., 0., 2.13371113e-01,
          2.00471282e-01, 1.71745241e-01, 1.67171642e-01, 3.31641793e-01,
          1.63975000e-01, 7.78207257e-02, 2.39376664e-01, 2.61555582e-01,
          7.51685053e-02, 6.33023977e-02, 0., 2.98263609e-01,
          3.16242635e-01, 0., 4.80625257e-02, 5.83705120e-02,
          2.75526959e-02, 8.90413895e-02, 1.17622942e-01, 2.90353507e-01,
          2.61561513e-01, 5.12063280e-02, 4.38142456e-02, 4.39762138e-02,
          2.71036923e-02, 4.57028039e-02, 3.42102759e-02, 1.84893534e-01,
          1.60812527e-01, 0., 0., 1.30877405e-01, 0., 0., 0.,
          5.87656861e-03, 0., 0., 0., 1.47068173e-01, 1.01361379e-01,
          9.56627578e-02, 0., 5.56226000e-02, 0., 0., 0., 1.55479396e-02,
          0., 0., 3.42102759e-02, 5.73070161e-02, 0., 0., 3.04937139e-02,
          4.84594256e-02, 0., 0., 0. ]
      - [ 1.49693906e-01, 1.63923413e-01, 8.30659866e-02, 1.98191684e-02,
          1.42746449e-01, 2.20166579e-01, 1.97067827e-01, 2.01039940e-01,
          1.64120138e-01, 2.26391524e-01, 1.32777497e-01, 1.31387711e-01,
          2.81819433e-01, 8.26057941e-02, 1.72484770e-01, 9.02034119e-02,
          1.25352040e-01, 5.95301725e-02, 1.90321818e-01, 5.87618873e-02,
          1.61707282e-01, 1.50902689e-01, 2.56371260e-01, 1.46189302e-01,
          1.90195367e-01, 1.53036162e-01, 1.59399331e-01, 1.67280212e-01,
          1.88621417e-01, 2.16259897e-01, 8.81154463e-02, 6.40963390e-02,
          1.17160857e-01, 1.29698798e-01, 0., 0., 1.06860004e-01, 0., 0.,
          0., 0., 0., 0., 0., 1.19639397e-01, 1.00975536e-01,
          1.49338514e-01, 0., 8.61403421e-02, 1.21708237e-01,
          6.81897476e-02, 0., 1.02297708e-01, 0., 0., 0., 0., 0., 0., 0.,
          9.05894861e-02, 0., 9.35239419e-02, 1.13470465e-01 ]
      - [ 1.91517770e-01, 0., 1.08876862e-01, 1.26493022e-01,
          1.06856398e-01, 1.01737320e-01, 2.03377008e-01, 2.03322381e-01,
          1.99314743e-01, 1.42437518e-01, 2.21159995e-01, 2.10711077e-01,
          2.12702572e-01, 1.86131209e-01, 2.13905111e-01, 1.94837257e-01,
          1.74426869e-01, 1.04649834e-01, 1.29312336e-01, 2.02243984e-01,
          1.34632438e-01, 1.74120024e-01, 2.09606066e-01, 2.18583211e-01,
          2.67937869e-01, 4.06295769e-02, 1.11755192e-01, 1.46197408e-01,
          1.36114314e-01, 1.20327488e-01, 7.56415278e-02, 1.45470291e-01,
          7.89097622e-02, 0., 2.56493315e-02, 0., 4.40710150e-02, 0., 0.,
          0., 0., 0., 0., 0., 7.24769980e-02, 2.26101857e-02,
          1.04740307e-01, 1.27777755e-01, 1.45457357e-01, 1.23546436e-01,
          0., 0., 9.24202576e-02, 0., 0., 0., 0., 0., 0., 0.,
          7.51677752e-02, 0., 9.28101763e-02, 8.12309980e-02 ]
      - [ 3.08051825e-01, 1.07251376e-01, 4.17759530e-02, 0.,
          7.01640844e-02, 9.12916064e-02, 1.93993375e-01, 3.22295815e-01,
          1.57183141e-01, 2.83176661e-01, 1.45781979e-01, 2.02752113e-01,
          1.44618109e-01, 1.30555987e-01, 1.80836916e-01, 1.92099884e-01,
          2.98532575e-01, 1.58892974e-01, 9.79148075e-02, 5.77605926e-02,
          1.13839641e-01, 1.07946210e-01, 1.44171014e-01, 3.00109118e-01,
          2.31811240e-01, 2.68610977e-02, 3.45116220e-02, 3.62378769e-02,
          5.84062040e-02, 1.65712629e-02, 0., 2.29548275e-01,
          1.99573278e-01, 3.19492780e-02, 0., 2.13716552e-02,
          9.15625393e-02, 0., 0., 0., 0., 0., 0., 0., 7.83741847e-02,
          8.82628337e-02, 0., 8.79426599e-02, 4.17720154e-02,
          3.64827327e-02, 0., 0., 6.03489019e-02, 0., 0., 0.,
          4.73411754e-02, 4.24744524e-02, 0., 0., 5.64086176e-02,
          1.27018290e-02, 0., 2.66714673e-02 ]
      - [ 3.41310382e-01, 1.00981243e-01, 7.13549629e-02, 5.90981990e-02,
          7.27600902e-02, 5.18719219e-02, 7.37623349e-02, 2.65982300e-01,
          3.80636275e-01, 7.21331984e-02, 1.18029647e-01, 1.54298618e-01,
          9.03376788e-02, 1.23074286e-01, 1.19247802e-01, 2.83350140e-01,
          3.15648496e-01, 1.53604418e-01, 6.82232752e-02, 1.15567431e-01,
          7.27078095e-02, 1.16208017e-01, 9.74591300e-02, 2.08585158e-01,
          3.59982461e-01, 6.83756322e-02, 0., 7.12510198e-02,
          7.27713034e-02, 6.07896559e-02, 0., 2.50034839e-01,
          6.49793223e-02, 5.32556698e-02, 6.18228987e-02, 0.,
          5.51004410e-02, 0., 0., 0., 3.33071984e-02, 0., 0.,
          4.47182171e-02, 7.96847418e-02, 3.80147435e-02, 3.26858573e-02,
          0., 8.72451365e-02, 0., 4.59024496e-02, 0., 7.51974657e-02, 0.,
          2.83813979e-02, 3.95569056e-02, 0., 0., 0., 0., 4.44233939e-02,
          0., 5.36552183e-02, 5.04364111e-02 ]
      - [ 2.59295911e-01, 0., 0., 0., 7.03003481e-02, 5.79412356e-02,
          3.24925072e-02, 3.43084663e-01, 2.94153124e-01, 2.38856345e-01,
          2.12152809e-01, 1.19500518e-01, 1.31471872e-01, 9.05666873e-02,
          1.81847885e-01, 3.00647885e-01, 3.65161657e-01, 1.50092691e-01,
          9.54319760e-02, 0., 7.87069425e-02, 9.66408476e-02,
          1.17343456e-01, 3.46292615e-01, 1.46393433e-01, 5.19771613e-02,
          4.75543886e-02, 7.75382817e-02, 8.39285031e-02, 1.43491458e-02,
          0., 4.98140939e-02, 2.07501113e-01, 0., 0., 0., 9.83823836e-02,
          0., 0., 3.33580300e-02, 0., 0., 0., 0., 1.33267850e-01,
          9.73489359e-02, 0., 8.35534111e-02, 0., 0., 0., 2.08543763e-02,
          6.69661090e-02, 0., 5.52079976e-02, 0., 2.08363757e-02,
          1.87251605e-02, 0., 0., 1.95723660e-02, 0., 0., 1.87251605e-02 ]
      - [ 7.48042762e-02, 1.19562715e-01, 8.87455195e-02, 6.16025291e-02,
          1.33508295e-01, 6.68001920e-02, 1.30874664e-01, 1.86010242e-01,
          2.34217048e-01, 2.69681692e-01, 2.15476304e-01, 8.30701292e-02,
          1.89371377e-01, 2.26634398e-01, 2.49243215e-01, 5.35904616e-02,
          1.86204314e-01, 1.53882936e-01, 8.16484541e-02, 1.62672833e-01,
          1.50013223e-01, 1.50492817e-01, 1.41239733e-01, 4.23517138e-01,
          1.47256806e-01, 0., 0., 0., 2.08141822e-02, 0., 0.,
          2.73720205e-01, 7.77301639e-02, 0., 0., 0., 0., 0., 0., 0., 0.,
          0., 0., 0., 1.18316315e-01, 7.74191469e-02, 8.97720754e-02,
          2.24016353e-01, 4.44611982e-02, 0., 0., 0., 1.44987628e-01,
          7.20368326e-02, 3.87804769e-02, 8.12819973e-02, 6.46310672e-02,
          0., 0., 0., 5.95573001e-02, 0., 0., 0. ]
      - [ 2.89645731e-01, 1.56847924e-01, 3.77661996e-02, 0.,
          6.58655018e-02, 0., 1.43067494e-01, 3.69035989e-01,
          2.48723418e-01, 2.14003861e-01, 1.73931986e-01, 1.06830962e-01,
          2.09920585e-01, 1.40333131e-01, 1.22167237e-01, 2.22951144e-01,
          3.56629729e-01, 6.37074560e-02, 4.11199257e-02, 4.88036238e-02,
          1.24595784e-01, 4.45011109e-02, 1.95330232e-01, 2.78838009e-01,
          2.14025572e-01, 3.47885564e-02, 4.45922203e-02, 2.98954807e-02,
          5.53322248e-02, 5.27538173e-02, 8.60622302e-02, 1.39478892e-01,
          1.67150915e-01, 1.23522967e-01, 3.52430269e-02, 4.88467664e-02,
          1.11572668e-01, 0., 0., 0., 0., 0., 0., 0., 1.37304783e-01, 0.,
          9.31800008e-02, 0., 0., 0., 0., 0., 5.31759374e-02, 0.,
          3.99703309e-02, 4.29482013e-02, 1.24354037e-02, 0., 0., 0.,
          6.45948276e-02, 0., 5.12745753e-02, 0. ]
      - [ 3.79418522e-01, 0., 0., 0., 9.53961536e-02, 5.04292957e-02,
          3.53103846e-01, 1.95249259e-01, 2.26239488e-01, 2.25938722e-01,
          7.88958818e-02, 1.39722422e-01, 1.81518704e-01, 1.45039037e-01,
          2.25075647e-01, 1.49156570e-01, 2.78892815e-01, 2.44006608e-02,
          6.10877872e-02, 3.59715186e-02, 7.16894716e-02, 0.,
          1.46056563e-01, 3.78733665e-01, 1.55342028e-01, 1.19643761e-02,
          0., 0., 5.85227124e-02, 0., 4.49758656e-02, 3.00097227e-01,
          1.67023793e-01, 0., 0., 0., 4.11879793e-02, 0., 0., 0., 0., 0.,
          0., 0., 2.99372263e-02, 0., 0., 9.28821415e-02, 4.21915352e-02,
          0., 2.96711773e-02, 2.77405139e-02, 4.63094860e-02, 0., 0., 0.,
          0., 0., 0., 0., 5.68582155e-02, 0., 7.55228847e-02, 0. ]
      - [ 1.91523105e-01, 1.96035758e-01, 1.52304828e-01, 1.80315420e-01,
          2.02829331e-01, 1.29795372e-01, 1.86945200e-01, 3.15176010e-01,
          1.11591816e-01, 5.51544689e-02, 1.38693228e-01, 3.26308578e-01,
          1.69545069e-01, 0., 1.21496692e-01, 2.90819764e-01,
          1.76607460e-01, 9.26801339e-02, 6.26421943e-02, 4.74897325e-02,
          1.15162984e-01, 2.26168726e-02, 9.20969471e-02, 3.48377854e-01,
          1.66054115e-01, 3.43623646e-02, 5.49480245e-02, 4.06505056e-02,
          7.72662163e-02, 5.65561429e-02, 8.34951028e-02, 3.26932818e-01,
          1.36404842e-01, 3.13948244e-02, 4.92534228e-02, 4.07461971e-02,
          6.03393726e-02, 0., 0., 0., 0., 2.05896143e-02, 0.,
          3.80451195e-02, 7.55912513e-02, 0., 0., 8.32396597e-02,
          5.68635128e-02, 4.69443351e-02, 0., 3.99378501e-02,
          7.27720186e-02, 0., 0., 2.17351336e-02, 0., 0., 0.,
          4.20780443e-02, 7.19607472e-02, 0., 0., 0. ]
      - [ 1.76194429e-01, 1.00245953e-01, 1.54704556e-01, 4.94025685e-02,
          1.33795097e-01, 9.59751979e-02, 1.98605135e-01, 2.48042122e-01,
          2.42160931e-01, 1.78749740e-01, 2.57140845e-01, 1.82952791e-01,
          2.16560215e-01, 2.16552928e-01, 1.30311534e-01, 9.98992473e-02,
          1.30872965e-01, 1.72967181e-01, 2.01020658e-01, 1.65237725e-01,
          2.25127354e-01, 1.54047877e-01, 1.51334092e-01, 1.26276970e-01,
          1.51252970e-01, 1.65890530e-01, 2.13923603e-01, 1.62493467e-01,
          5.17883524e-02, 0., 0., 0., 1.40613541e-01, 4.43455987e-02, 0.,
          0., 5.60306571e-02, 0., 0., 0., 0., 0., 0., 0., 1.04674898e-01,
          8.49427432e-02, 9.75542516e-02, 1.70533091e-01, 1.71800956e-01,
          1.26514852e-01, 0., 0., 9.47717950e-02, 0., 0., 0.,
          3.22420187e-02, 0., 0., 3.49708572e-02, 4.27738726e-02, 0., 0.,
          0. ]
      - [ 3.31112057e-01, 4.60319258e-02, 0., 1.43333469e-02,
          4.72055329e-03, 0., 0., 0., 4.77504402e-01, 1.52532369e-01,
          1.26379445e-01, 1.24587268e-01, 3.50085571e-02, 7.48499930e-02,
          1.04484878e-01, 1.43381938e-01, 2.85075665e-01, 1.31928205e-01,
          1.57021955e-01, 8.97750407e-02, 9.82758179e-02, 1.57447278e-01,
          1.45523295e-01, 2.07204327e-01, 3.05731416e-01, 1.37045890e-01,
          1.38735846e-01, 8.50000903e-02, 1.54445827e-01, 1.16128661e-01,
          1.05750412e-01, 1.21213451e-01, 2.06817985e-01, 0., 0., 0.,
          8.10781643e-02, 0., 0., 0., 8.17623734e-03, 0., 0., 0.,
          1.44555494e-01, 7.10544065e-02, 0., 6.72982931e-02,
          2.12575510e-01, 6.23017661e-02, 3.55264209e-02, 0.,
          6.95380867e-02, 0., 0., 0., 0., 0., 0., 0., 0., 0., 0., 0. ]
      - [ 2.70718038e-01, 1.92150697e-01, 1.50868088e-01, 5.22651412e-02,
          6.27370328e-02, 2.32734717e-02, 5.01346216e-02, 3.37925293e-02,
          3.71417224e-01, 2.63878018e-01, 2.13241398e-01, 1.25844762e-01,
          1.40268549e-01, 1.33936197e-01, 8.02140385e-02, 1.45252362e-01,
          2.75420487e-01, 1.63051769e-01, 1.26578286e-01, 1.04321480e-01,
          1.02582909e-01, 1.29427373e-01, 2.21552610e-01, 2.29130119e-01,
          2.57968754e-01, 0., 0., 3.09702978e-02, 8.51431265e-02, 0.,
          1.43474773e-01, 2.93935418e-01, 7.65116960e-02, 1.54979408e-01,
          0., 0., 1.14231497e-01, 0., 0., 0., 3.17104906e-02, 0., 0.,
          1.09510385e-01, 1.06387705e-01, 0., 0., 6.28836155e-02,
          6.24549240e-02, 0., 0., 0., 2.55886726e-02, 0., 0., 0., 0., 0.,
          0., 0., 3.38506326e-02, 0., 3.73862423e-02, 6.23459481e-02 ]
      - [ 2.84685582e-01, 6.04040474e-02, 7.05693215e-02, 7.22439140e-02,
          3.61229181e-02, 4.96297292e-02, 0., 2.48563319e-01,
          3.18741739e-01, 1.34407982e-01, 1.21864282e-01, 8.01092088e-02,
          1.25559404e-01, 1.09238625e-01, 1.17517419e-01, 2.94339120e-01,
          1.25170052e-01, 8.62208232e-02, 6.57562390e-02, 1.89691335e-01,
          2.36805469e-01, 1.24638870e-01, 9.23213586e-02, 2.92548567e-01,
          2.35991478e-01, 5.69804534e-02, 4.31243889e-02, 2.25033462e-01,
          2.16966748e-01, 1.36832938e-01, 1.21361069e-01, 2.50601023e-01,
          0., 0., 3.34669985e-02, 4.20145579e-02, 6.70854226e-02,
          4.83817905e-02, 0., 2.48125680e-02, 7.29793170e-03,
          2.53789555e-02, 4.74407487e-02, 5.04134595e-02, 6.72836080e-02,
          0., 0., 0., 6.76782355e-02, 0., 1.07065931e-01, 0.,
          8.49511847e-02, 0., 3.19232531e-02, 0., 0., 0., 0., 0.,
          1.39946103e-01, 1.14249744e-01, 0., 9.64913890e-02 ]
      - [ 1.59358054e-01, 1.35490790e-01, 6.21233061e-02, 9.28332731e-02,
          1.15152955e-01, 7.92140812e-02, 1.11270182e-01, 2.84216166e-01,
          2.73304760e-01, 1.52990565e-01, 1.59607515e-01, 1.34110987e-01,
          2.33503714e-01, 1.50122046e-01, 1.35405242e-01, 2.06915826e-01,
          3.17993164e-01, 1.50012091e-01, 7.73332864e-02, 9.56007838e-02,
          2.35728342e-02, 6.53150454e-02, 2.18279779e-01, 4.06462938e-01,
          1.49021119e-01, 0., 0., 0., 1.17864171e-02, 0., 0.,
          1.96665958e-01, 1.68570057e-01, 8.22232366e-02, 0., 0.,
          7.91910887e-02, 0., 0., 0., 0., 0., 0., 0., 8.32234100e-02,
          3.68709117e-02, 1.05723284e-01, 1.35658696e-01, 1.05383888e-01,
          6.24589771e-02, 0., 0., 3.27363051e-02, 0., 0., 0., 0., 0., 0.,
          0., 7.74169862e-02, 0., 0., 1.80196196e-01 ]
      - [ 1.82941988e-01, 7.07297474e-02, 1.76740319e-01, 2.27923915e-01,
          1.36363134e-01, 0., 5.65756857e-02, 2.96589285e-01,
          8.63544270e-02, 1.44406870e-01, 1.00439154e-01, 3.22630733e-01,
          1.77279070e-01, 1.88720122e-01, 1.54425114e-01, 1.83956429e-01,
          1.30778000e-01, 1.17669739e-01, 1.76228285e-01, 2.38363728e-01,
          1.34442866e-01, 0., 9.35485139e-02, 3.19832504e-01,
          1.82109177e-01, 2.85657533e-02, 0., 2.42052644e-01,
          1.29139885e-01, 1.03296712e-01, 1.15394227e-01, 1.60254374e-01,
          9.82941091e-02, 7.67261311e-02, 6.26063272e-02, 0.,
          6.90564662e-02, 3.40314172e-02, 0., 3.54941785e-02, 0., 0.,
          2.68705394e-02, 0., 3.98697704e-02, 0., 7.90153593e-02, 0.,
          4.97785471e-02, 0., 5.25668189e-02, 8.94443840e-02,
          1.05485499e-01, 0., 0., 0., 0., 0., 0., 8.33964944e-02,
          1.60937667e-01, 0., 3.49165648e-02, 2.92116497e-02 ]
      - [ 8.97178501e-02, 0., 1.20058976e-01, 3.12091690e-02,
          9.53431055e-02, 1.26275927e-01, 7.80030712e-02, 1.63068980e-01,
          2.76177496e-01, 3.11044335e-01, 1.83490157e-01, 6.28589690e-02,
          1.89461112e-01, 1.82720095e-01, 2.94821531e-01, 7.30346814e-02,
          2.52138883e-01, 1.34565935e-01, 1.94022015e-01, 9.42322835e-02,
          1.27189919e-01, 2.42996365e-01, 1.24986693e-01, 3.33119422e-01,
          2.28488028e-01, 0., 0., 2.94981375e-02, 5.54473586e-02, 0., 0.,
          1.92042023e-01, 1.10311218e-01, 0., 0., 0., 5.01028709e-02, 0.,
          0., 0., 0., 0., 1.19437672e-01, 8.37082565e-02, 1.39100805e-01,
          0., 0., 1.20192498e-01, 1.73167855e-01, 0., 9.04944465e-02, 0.,
          1.07274793e-01, 0., 0., 0., 0., 0., 0., 0., 1.06217870e-02, 0.,
          0., 6.38429895e-02 ]
      - [ 1.96957111e-01, 1.75949648e-01, 5.78170046e-02, 1.40820757e-01,
          1.98926643e-01, 1.95995539e-01, 1.42979458e-01, 1.57657206e-01,
          1.87118351e-01, 1.92734390e-01, 1.48272395e-01, 2.36214027e-01,
          2.22920254e-01, 1.70223594e-01, 1.75276339e-01, 6.03055321e-02,
          1.02536902e-01, 7.52398372e-02, 1.46030933e-01, 8.33139494e-02,
          2.32968181e-01, 1.84699789e-01, 1.48542434e-01, 2.14792550e-01,
          2.16691792e-01, 1.57910213e-01, 8.55424181e-02, 1.62804723e-01,
          2.11101726e-01, 1.96119055e-01, 5.47736138e-02, 0.,
          7.86382854e-02, 0., 6.28768429e-02, 0., 4.93288860e-02, 0., 0.,
          0., 0., 0., 0., 0., 1.06749095e-01, 7.00899959e-02,
          1.44134805e-01, 2.70639751e-02, 1.61617249e-01, 1.29893705e-01,
          0., 0., 1.11710496e-01, 0., 0., 0., 0., 0., 0., 0.,
          7.38045201e-02, 0., 9.67945084e-02, 8.58880579e-02 ]
      - [ 2.03449309e-01, 3.03621609e-02, 8.17199647e-02, 8.50983933e-02,
          1.49084687e-01, 1.62876040e-01, 1.83884814e-01, 3.13892722e-01,
          1.91115484e-01, 2.93972548e-02, 1.23345196e-01, 1.61517069e-01,
          1.94040522e-01, 2.14626849e-01, 1.32171035e-01, 2.69465953e-01,
          1.39027134e-01, 8.03540349e-02, 2.02660933e-01, 1.30391628e-01,
          5.44473194e-02, 7.40713030e-02, 5.54998964e-02, 3.29286933e-01,
          2.25366816e-01, 1.61396131e-01, 1.18557930e-01, 1.30505010e-01,
          8.42584595e-02, 8.33654478e-02, 1.58693001e-01, 2.22868621e-01,
          0., 0., 0., 0., 1.92500334e-02, 0., 0., 0., 5.62878586e-02, 0.,
          0., 0., 1.35266736e-01, 7.36871213e-02, 1.25247940e-01,
          1.27812520e-01, 8.27584490e-02, 1.67059928e-01, 0., 0.,
          1.24435820e-01, 0., 0., 0., 0., 0., 0., 0., 0., 0., 0., 0. ]
      - [ 1.03967607e-01, 1.15728952e-01, 1.87974006e-01, 2.08165258e-01,
          9.68372598e-02, 0., 0., 2.56928671e-02, 2.29867786e-01,
          2.82437831e-01, 1.85101539e-01, 1.88402131e-01, 2.57047057e-01,
          1.93660527e-01, 1.20303907e-01, 6.89969808e-02, 1.70751855e-01,
          1.80664763e-01, 1.50162160e-01, 1.26135886e-01, 1.86009869e-01,
          1.55046076e-01, 2.49158472e-01, 2.07764640e-01, 2.57533491e-01,
          8.98169354e-02, 9.71788391e-02, 1.56437516e-01, 9.33191627e-02,
          1.40378565e-01, 6.23355471e-02, 1.34004503e-01, 9.02777538e-02,
          0., 1.07631184e-01, 0., 9.03368890e-02, 0., 0., 0.,
          1.56610515e-02, 0., 0., 0., 1.36516944e-01, 1.09720699e-01,
          8.49938020e-02, 3.36941332e-02, 1.38147250e-01, 9.43188295e-02,
          7.61949867e-02, 0., 9.44396928e-02, 0., 0., 0., 0., 0., 0., 0.,
          6.71120137e-02, 0., 0., 1.57557115e-01 ]
      - [ 2.66561270e-01, 0., 4.45375443e-02, 0., 5.76394722e-02,
          3.43571827e-02, 1.93037372e-02, 3.10425758e-01, 3.42638224e-01,
          1.42905638e-01, 1.57028437e-01, 1.23284183e-01, 8.97895098e-02,
          1.07867815e-01, 9.92369726e-02, 2.25885317e-01, 2.34046951e-01,
          1.35906398e-01, 1.15793489e-01, 1.19294293e-01, 7.56164566e-02,
          1.89576134e-01, 1.69909731e-01, 2.15115666e-01, 3.08881432e-01,
          1.21439330e-01, 1.14601262e-01, 9.34934020e-02, 1.43137991e-01,
          0., 1.21246882e-01, 1.99483141e-01, 1.91177621e-01, 0., 0., 0.,
          4.31590229e-02, 0., 0., 0., 2.24120822e-02, 0., 0., 0.,
          8.86843428e-02, 0., 7.77092427e-02, 1.61778823e-01,
          1.94689050e-01, 9.41101834e-02, 0., 0., 7.64150172e-02, 0., 0.,
          0., 0., 0., 0., 0., 3.23490538e-02, 0., 0., 1.00670800e-01 ]
      - [ 2.94424862e-01, 8.02075714e-02, 0., 1.50572091e-01,
          2.23989591e-01, 1.71731323e-01, 1.64317474e-01, 1.86707452e-01,
          2.88898081e-01, 1.25006288e-01, 1.35404527e-01, 3.23811144e-01,
          1.50730282e-01, 9.62582454e-02, 0., 9.21164900e-02,
          4.05181080e-01, 4.52665426e-02, 7.84670264e-02, 5.27005121e-02,
          3.64226736e-02, 0., 4.57424000e-02, 1.69346586e-01,
          3.34012181e-01, 2.04979077e-01, 1.04503863e-01, 0.,
          4.38188873e-02, 0., 6.85999766e-02, 8.55251402e-02,
          2.10332885e-01, 7.62446970e-02, 0., 0., 7.04083517e-02, 0., 0.,
          0., 0., 0., 0., 0., 5.35040870e-02, 0., 1.18721552e-01,
          1.05413385e-01, 4.93094586e-02, 4.92349789e-02, 2.72209775e-02,
          0., 3.54512259e-02, 0., 0., 0., 0., 0., 0., 0., 3.28973457e-02,
          0., 3.68562788e-02, 4.32405360e-02 ]
      - [ 1.85895965e-01, 1.41596913e-01, 7.47321174e-02, 9.42321122e-02,
          1.53745353e-01, 1.59823433e-01, 1.93311140e-01, 2.12353349e-01,
          2.76281595e-01, 1.40333906e-01, 1.14735313e-01, 0.,
          2.42806047e-01, 2.45342612e-01, 3.50787602e-02, 2.53703862e-01,
          2.21872896e-01, 6.45898208e-02, 2.40670994e-01, 1.62825748e-01,
          1.26853809e-01, 8.50578099e-02, 1.12374261e-01, 2.09807456e-01,
          2.08360538e-01, 2.07440719e-01, 1.58910856e-01, 7.80169517e-02,
          1.24466583e-01, 9.82844755e-02, 1.34379059e-01, 1.38790622e-01,
          0., 0., 0., 0., 0., 1.95136443e-02, 0., 4.81966920e-02,
          8.81883800e-02, 0., 0., 4.16689143e-02, 1.59735888e-01,
          1.17882296e-01, 5.73455431e-02, 0., 2.79261991e-02,
          1.18867882e-01, 1.14563629e-01, 0., 1.43813148e-01,
          2.82284450e-02, 0., 0., 5.34263626e-02, 0., 0., 0., 0., 0., 0.,
          0. ]
      - [ 3.46696794e-01, 6.82008788e-02, 0., 0., 5.48467524e-02, 0.,
          3.23796898e-01, 2.10864767e-01, 1.53537884e-01, 2.01137155e-01,
          1.80471763e-01, 1.50399745e-01, 1.65193304e-01, 1.47451520e-01,
          2.39154622e-01, 0., 1.89764291e-01, 1.76010877e-01,
          5.96752204e-02, 1.34139255e-01, 1.06153570e-01, 1.39829814e-02,
          2.43427917e-01, 9.22473371e-02, 3.84435445e-01, 7.37692863e-02,
          0., 0., 2.56487634e-02, 2.33318601e-02, 2.20071733e-01,
          1.94547817e-01, 1.23516612e-01, 7.03852549e-02, 1.52474158e-02,
          0., 5.61982431e-02, 0., 0., 0., 0., 0., 0., 0., 4.62122113e-02,
          7.13688582e-02, 0., 8.46750140e-02, 6.67446032e-02,
          8.64020884e-02, 0., 0., 3.83358635e-02, 0., 0., 0., 0., 0., 0.,
          0., 8.90071318e-02, 0., 1.41875446e-01, 9.72406194e-02 ]
      - [ 2.03400686e-01, 1.25635207e-01, 9.35311019e-02, 9.12517309e-02,
          1.87293127e-01, 1.58706948e-01, 2.12391078e-01, 2.42012367e-01,
          2.00507954e-01, 8.47967342e-02, 1.22728191e-01, 2.07007200e-01,
          2.60027796e-01, 1.33236855e-01, 1.74492344e-01, 2.23819539e-01,
          1.12858802e-01, 8.38449225e-02, 1.60369411e-01, 2.14982867e-01,
          9.80590582e-02, 7.83107951e-02, 1.06033005e-01, 2.75169194e-01,
          2.38712713e-01, 1.38510644e-01, 1.31543413e-01, 1.60920352e-01,
          9.81877074e-02, 1.12633020e-01, 1.98396780e-02, 2.52575547e-01,
          0., 0., 0., 0., 2.17485186e-02, 0., 0., 0., 8.42316542e-03, 0.,
          0., 0., 1.21772289e-01, 0., 1.31560490e-01, 1.25139162e-01,
          8.64924490e-02, 1.40685990e-01, 0., 3.12840044e-02,
          1.14979550e-01, 0., 0., 0., 2.22856011e-02, 0., 0., 0., 0., 0.,
          0., 0. ]
      - [ 2.39394352e-01, 8.97468477e-02, 1.15719743e-01, 1.16898194e-01,
          1.08808786e-01, 9.14476886e-02, 1.32312953e-01, 1.57642126e-01,
          3.57004255e-01, 1.50398239e-01, 1.55645385e-01, 1.71716288e-01,
          1.96968585e-01, 1.25186414e-01, 1.42933160e-01, 1.65675938e-01,
          2.26859793e-01, 1.29926085e-01, 1.10250793e-01, 1.21545851e-01,
          1.02104507e-01, 1.34393409e-01, 1.53880879e-01, 3.38560790e-01,
          1.83449060e-01, 5.22219092e-02, 1.16036393e-01, 1.48673341e-01,
          1.47936955e-01, 1.05504051e-01, 1.98562834e-02, 1.80344865e-01,
          1.38233721e-01, 3.68219763e-02, 0., 0., 5.25244586e-02, 0., 0.,
          0., 6.48994371e-03, 0., 0., 0., 9.28084627e-02, 2.13445704e-02,
          1.10474467e-01, 1.61562800e-01, 2.08633676e-01, 8.48946720e-02,
          0., 0., 8.39940161e-02, 0., 0., 0., 0., 0., 0., 0.,
          3.37227359e-02, 0., 0., 9.68098715e-02 ]
      - [ 2.80960739e-01, 8.17456618e-02, 0., 0., 4.32590730e-02,
          7.28397965e-02, 6.27659857e-02, 1.90297425e-01, 4.19107735e-01,
          1.77358329e-01, 1.32570520e-01, 7.51486421e-02, 1.31833911e-01,
          9.31687504e-02, 1.12783045e-01, 1.95949331e-01, 2.49529868e-01,
          1.47009477e-01, 1.37848765e-01, 8.70245472e-02, 9.83321071e-02,
          1.61174491e-01, 1.23080038e-01, 2.89752483e-01, 2.49524146e-01,
          1.06559411e-01, 1.04698241e-01, 1.50577053e-01, 1.34451449e-01,
          1.04431361e-01, 3.88187841e-02, 2.02666327e-01, 1.89178050e-01,
          0., 0., 0., 5.94752319e-02, 0., 0., 0., 0., 0., 0., 0.,
          9.08917785e-02, 9.81567502e-02, 7.50602782e-02, 1.28156021e-01,
          2.11989686e-01, 6.44853935e-02, 3.54518071e-02, 0.,
          7.43152574e-02, 0., 0., 0., 1.78745165e-02, 0., 0., 0.,
          6.75593223e-03, 0., 0., 0. ]
      - [ 2.48277113e-01, 1.00600928e-01, 0., 1.23545952e-01,
          2.28291750e-01, 1.83929399e-01, 1.83862433e-01, 1.53191686e-01,
          2.51321822e-01, 1.18308462e-01, 7.88775906e-02, 2.95951009e-01,
          1.49177477e-01, 1.87918752e-01, 1.97588772e-01, 1.53767094e-01,
          1.09765254e-01, 2.86793523e-02, 1.26606584e-01, 9.45083797e-02,
          1.51489630e-01, 2.26207092e-01, 2.20602199e-01, 1.40415534e-01,
          2.29714021e-01, 1.34509727e-01, 1.50994629e-01, 2.10371882e-01,
          2.15712368e-01, 1.41434208e-01, 0., 0., 4.12597172e-02, 0.,
          3.82609963e-02, 2.51587033e-02, 4.04940955e-02, 0., 0., 0.,
          3.75526771e-02, 0., 0., 3.63120362e-02, 1.24811180e-01,
          1.45951241e-01, 0., 3.37930284e-02, 7.48867095e-02,
          1.37930170e-01, 0., 0., 1.17781445e-01, 0., 1.94294564e-02, 0.,
          3.97689342e-02, 0., 0., 0., 6.50431439e-02, 0., 5.35095185e-02,
          0. ]
      - [ 1.54143840e-01, 1.12651154e-01, 1.27007574e-01, 1.21338218e-01,
          1.44672841e-01, 9.64819267e-02, 1.66911557e-01, 2.37816468e-01,
          1.81040600e-01, 2.10131973e-01, 1.49755478e-01, 2.45559797e-01,
          1.66647047e-01, 2.03085348e-01, 1.47212774e-01, 2.39507049e-01,
          1.61546946e-01, 1.56731784e-01, 1.57219440e-01, 1.33418202e-01,
          1.33614615e-01, 2.14106843e-01, 1.94411546e-01, 1.96550548e-01,
          2.71505415e-01, 7.53810629e-02, 1.06686108e-01, 1.38228402e-01,
          1.54792875e-01, 1.21512525e-01, 9.62528959e-02, 1.11429751e-01,
          1.37052745e-01, 0., 1.56027293e-02, 0., 5.42419255e-02, 0., 0.,
          0., 2.45218836e-02, 0., 2.67909486e-02, 0., 7.25367069e-02, 0.,
          1.05368465e-01, 8.07334408e-02, 1.13633402e-01, 8.86333063e-02,
          7.14311898e-02, 0., 9.00991485e-02, 0., 0., 0., 0., 0., 0., 0.,
          7.98643604e-02, 0., 9.24900696e-02, 1.07907340e-01 ]
      - [ 3.36062282e-01, 5.67258783e-02, 1.46210361e-02, 5.32532632e-02,
          7.69078135e-02, 5.80775142e-02, 3.11072499e-01, 1.79535821e-01,
          2.19463915e-01, 1.78233802e-01, 1.59869924e-01, 1.95189789e-01,
          1.54842913e-01, 1.63191766e-01, 1.99022859e-01, 1.62804827e-01,
          1.84673071e-01, 1.95846617e-01, 8.58694464e-02, 7.27987960e-02,
          6.57099336e-02, 1.47835910e-01, 1.88198298e-01, 1.24610655e-01,
          3.62688899e-01, 1.62504748e-01, 3.55793275e-02, 2.77068447e-02,
          5.04366420e-02, 8.60853717e-02, 2.10319683e-01, 1.35364249e-01,
          7.83430636e-02, 5.54505140e-02, 4.30927053e-02, 0.,
          7.26387426e-02, 2.98105963e-02, 1.44011080e-02, 0., 0., 0., 0.,
          0., 4.19497192e-02, 0., 6.30611032e-02, 7.91290030e-02,
          4.01637964e-02, 0., 8.03460255e-02, 0., 5.63682392e-02, 0., 0.,
          0., 0., 0., 0., 0., 1.12628028e-01, 0., 1.64128348e-01,
          8.44752342e-02 ]
      - [ 1.90911591e-01, 5.83307445e-02, 9.31386426e-02, 0.,
          9.69512090e-02, 8.78619254e-02, 3.09156999e-02, 1.57011732e-01,
          3.92812937e-01, 1.80011541e-01, 8.81377608e-02, 1.35161787e-01,
          7.20122978e-02, 1.60247222e-01, 1.02907293e-01, 3.08607638e-01,
          1.22953825e-01, 9.09565017e-02, 1.60536617e-01, 2.41047040e-01,
          1.81442514e-01, 1.97787464e-01, 1.39446229e-01, 1.41014874e-01,
          2.61860430e-01, 2.43198395e-01, 5.36971018e-02, 7.94726312e-02,
          6.07608072e-02, 1.50886372e-01, 0., 1.94267213e-01,
          1.06937893e-01, 0., 0., 0., 4.79799807e-02, 0., 0., 0.,
          2.95008142e-02, 0., 0., 3.61820348e-02, 6.38024211e-02, 0.,
          5.18672690e-02, 1.94865882e-01, 1.05370007e-01, 0.,
          8.21695998e-02, 0., 6.31389469e-02, 0., 0., 0., 0., 0., 0., 0.,
          7.24559352e-02, 0., 0., 2.27633148e-01 ]
      - [ 1.00646980e-01, 1.43419161e-01, 1.76375538e-01, 2.17944846e-01,
          1.64823413e-01, 8.30195323e-02, 0., 2.02694118e-01,
          2.70327002e-01, 1.38858795e-01, 5.15808798e-02, 2.83112913e-01,
          2.77375907e-01, 1.51052222e-01, 1.43856913e-01, 1.33551851e-01,
          9.76445302e-02, 6.14886731e-02, 1.15741208e-01, 2.32611954e-01,
          1.60566613e-01, 1.78274691e-01, 2.21259475e-01, 1.79793090e-01,
          1.92509413e-01, 1.56238690e-01, 1.51842892e-01, 1.57132924e-01,
          1.64542973e-01, 1.85352758e-01, 6.94296360e-02, 0.,
          2.10456848e-02, 4.14844528e-02, 3.87348533e-02, 0.,
          3.83227393e-02, 0., 0., 0., 0., 0., 0., 0., 1.18463486e-01,
          3.13655026e-02, 1.62166134e-01, 4.39728722e-02, 5.58905862e-02,
          5.89805730e-02, 1.32201910e-01, 0., 1.33454412e-01, 0.,
          2.87115853e-02, 0., 5.89683205e-02, 5.13817705e-02, 0., 0.,
          7.54190683e-02, 0., 0., 6.37016222e-02 ]
      - [ 2.01713875e-01, 1.16896830e-01, 7.12405145e-02, 9.44735780e-02,
          1.18408598e-01, 6.73262328e-02, 9.51566920e-02, 1.50979698e-01,
          3.74943823e-01, 1.58766970e-01, 1.15134329e-01, 2.10296586e-01,
          2.01201394e-01, 1.39495492e-01, 1.71586305e-01, 1.53841719e-01,
          2.22360432e-01, 1.51589662e-01, 1.40309364e-01, 1.66584656e-01,
          1.20814711e-01, 9.27036256e-02, 1.39819250e-01, 2.29108959e-01,
          3.33997846e-01, 2.37737317e-02, 1.17958836e-01, 1.05502941e-01,
          1.12108812e-01, 0., 8.45351443e-02, 1.57200962e-01,
          1.68925598e-01, 0., 0., 0., 5.64604439e-02, 0., 0., 0., 0., 0.,
          0., 0., 8.18688944e-02, 0., 1.11007974e-01, 1.69850349e-01,
          1.45681426e-01, 1.30570412e-01, 0., 0., 8.16189125e-02, 0., 0.,
          0., 0., 0., 0., 0., 5.66411205e-02, 0., 0., 1.43177733e-01 ]
      - [ 1.78694651e-01, 1.35906637e-01, 1.55545697e-01, 1.75177440e-01,
          2.74636179e-01, 3.96708734e-02, 0., 9.61502865e-02,
          4.13046628e-01, 1.42323539e-01, 1.01804018e-01, 1.09280199e-01,
          3.62685829e-01, 1.99314073e-01, 8.96307379e-02, 1.39157414e-01,
          2.91631818e-01, 1.78605109e-01, 1.62020355e-01, 1.19987912e-01,
          2.25025162e-01, 8.28099996e-02, 1.10717282e-01, 0.,
          2.85030425e-01, 0., 0., 0., 7.60319233e-02, 0., 0., 0.,
          6.49332106e-02, 0., 6.82042986e-02, 1.23034820e-01,
          1.30448759e-01, 0., 0., 0., 0., 0., 0., 0., 1.55386508e-01,
          9.70323011e-02, 3.95764373e-02, 5.35747707e-02, 0.,
          5.47836199e-02, 0., 0., 1.56288650e-02, 0., 0., 0., 0., 0., 0.,
          0., 0., 0., 0., 0. ]
      - [ 3.36961925e-01, 0., 0., 0., 1.83422882e-02, 4.67224754e-02,
          8.73690099e-02, 4.03751612e-01, 2.55889982e-01, 1.93925753e-01,
          1.72947228e-01, 1.61552936e-01, 1.37449011e-01, 1.58551574e-01,
          2.06591085e-01, 1.67617604e-01, 4.02775913e-01, 1.03017993e-01,
          0., 0., 8.61052349e-02, 4.92324196e-02, 1.27241507e-01,
          3.76523733e-01, 1.16969548e-01, 0., 0., 0., 0., 0., 0., 0.,
          2.17555389e-01, 5.56967631e-02, 0., 0., 9.32274386e-02, 0., 0.,
          0., 0., 0., 0., 0., 7.85369873e-02, 9.33952928e-02, 0.,
          9.97709706e-02, 2.95936614e-02, 1.03324875e-02, 0., 0.,
          9.17114411e-03, 0., 0., 0., 0., 0., 0., 0., 5.29496232e-03, 0.,
          0., 0. ]
      - [ 1.65774330e-01, 1.92037195e-01, 1.11371040e-01, 1.79026365e-01,
          9.41360667e-02, 1.66668177e-01, 1.42709374e-01, 1.58127517e-01,
          2.35866621e-01, 2.34049827e-01, 2.41401866e-01, 1.86541811e-01,
          1.68564975e-01, 2.09350526e-01, 8.08566064e-02, 0.,
          1.33008212e-01, 1.01203792e-01, 3.01675171e-01, 6.55722395e-02,
          1.62984654e-01, 9.17192996e-02, 1.16702914e-01, 9.88816023e-02,
          1.55231178e-01, 2.57525891e-01, 1.71623290e-01, 0.,
          2.67442048e-01, 1.40895739e-01, 4.55051921e-02, 1.18847623e-01,
          8.59683380e-02, 1.37609899e-01, 0., 0., 1.11350112e-01, 0., 0.,
          0., 4.85223755e-02, 0., 0., 0., 1.23912193e-01, 0.,
          1.58867732e-01, 7.77826831e-02, 7.56715611e-02, 8.39837119e-02,
          0., 0., 4.64311950e-02, 0., 0., 0., 2.83423103e-02, 0., 0., 0.,
          7.00831562e-02, 6.45480230e-02, 0., 7.28936568e-02 ]
      - [ 4.75816838e-02, 0., 8.74749497e-02, 1.06635965e-01,
          1.38290688e-01, 7.38452971e-02, 5.20306602e-02, 1.10268056e-01,
          2.75663942e-01, 2.86604434e-01, 2.69989252e-01, 9.73946825e-02,
          2.26503089e-01, 2.48368710e-01, 2.66819000e-01, 0.,
          3.16254199e-01, 1.30711019e-01, 8.83300751e-02, 2.33986303e-01,
          1.43137962e-01, 1.90558240e-01, 1.87596813e-01, 3.06232959e-01,
          2.19475314e-01, 0., 0., 0., 3.66641507e-02, 0., 0., 0.,
          9.58397463e-02, 5.62754422e-02, 0., 0., 3.90017442e-02, 0., 0.,
          0., 2.91377120e-02, 0., 0., 1.55082002e-01, 1.54983222e-01,
          5.76717146e-02, 0., 6.35541975e-02, 4.75290939e-02,
          4.87240404e-02, 4.06898074e-02, 1.01889245e-01, 1.13162905e-01,
          0., 0., 0., 0., 0., 0., 0., 0., 0., 0., 0. ]
      - [ 2.37590447e-01, 2.65691787e-01, 4.75592501e-02, 0.,
          3.91287915e-02, 2.54522711e-02, 5.39394692e-02, 0.,
          3.70302022e-01, 3.07496399e-01, 1.86599240e-01, 7.84258544e-02,
          8.06476921e-02, 1.06908724e-01, 1.69004992e-01, 1.78675711e-01,
          2.77178437e-01, 1.73512146e-01, 1.24867499e-01, 1.16282701e-01,
          5.36982380e-02, 7.86744058e-02, 2.31752083e-01, 2.56038725e-01,
          2.63150662e-01, 3.32850069e-02, 0., 0., 7.69422352e-02, 0.,
          9.39333737e-02, 3.04881155e-01, 7.89351836e-02, 1.40431091e-01,
          0., 0., 1.02782927e-01, 0., 0., 0., 3.49978544e-02, 0., 0.,
          6.88786581e-02, 8.57268870e-02, 7.03560561e-02, 3.24173346e-02,
          3.69300060e-02, 8.85676518e-02, 0., 0., 0., 3.89210060e-02, 0.,
          0., 3.57355997e-02, 3.31226960e-02, 0., 0., 0., 3.49580497e-02,
          0., 4.41263691e-02, 0. ]
      - [ 1.95128143e-01, 9.70028341e-02, 9.18033868e-02, 1.49026066e-01,
          1.27697051e-01, 1.12351872e-01, 1.27889037e-01, 3.11406642e-01,
          1.34919956e-01, 1.38753250e-01, 1.87109321e-01, 2.54288495e-01,
          1.97610050e-01, 1.79442093e-01, 2.08925888e-01, 1.29069567e-01,
          1.69976443e-01, 1.43472701e-01, 1.68975964e-01, 1.66148603e-01,
          1.02969036e-01, 1.47087216e-01, 1.66800693e-01, 2.96067357e-01,
          2.08261266e-01, 1.17396466e-01, 1.03630476e-01, 1.50908574e-01,
          1.03870526e-01, 4.92522866e-02, 1.08860001e-01, 1.41481191e-01,
          1.46930248e-01, 0., 0., 2.30028816e-02, 5.60885780e-02, 0., 0.,
          0., 0., 0., 0., 0., 9.17922035e-02, 3.79650518e-02,
          1.17928371e-01, 1.18299000e-01, 1.12561151e-01, 1.18347570e-01,
          4.97057587e-02, 0., 9.61238295e-02, 0., 0., 0., 0., 0., 0., 0.,
          7.17487484e-02, 0., 0., 1.23555630e-01 ]
      - [ 3.01862001e-01, 0., 0., 0., 9.82738659e-02, 0., 2.67094582e-01,
          1.86092600e-01, 3.03549677e-01, 2.30385825e-01, 1.57721430e-01,
          1.03663415e-01, 1.32559150e-01, 1.92745879e-01, 2.68079460e-01,
          2.42291197e-01, 3.93077880e-01, 1.03821658e-01, 4.63701822e-02,
          3.11478041e-02, 4.22443449e-02, 5.76994382e-02, 2.68108457e-01,
          2.97136873e-01, 1.10824823e-01, 3.52629162e-02, 5.24151586e-02,
          8.41719061e-02, 6.16689287e-02, 4.49314266e-02, 2.16755997e-02,
          3.52216102e-02, 1.55552924e-01, 4.77704071e-02, 0., 0.,
          4.19325754e-02, 0., 0., 0., 0., 0., 0., 0., 4.00109664e-02, 0.,
          6.30769283e-02, 1.20737560e-01, 0., 3.46895084e-02,
          3.38333733e-02, 2.47918125e-02, 5.39728850e-02, 0.,
          2.92720702e-02, 0., 3.07372771e-02, 0., 0., 0., 6.53123707e-02,
          0., 4.68125269e-02, 0. ]
      - [ 1.71178743e-01, 6.45532757e-02, 5.35598584e-02, 1.33981463e-02,
          7.93920904e-02, 5.83786666e-02, 5.81674092e-02, 3.18583637e-01,
          2.57174402e-01, 1.11858912e-01, 8.93576667e-02, 8.56951252e-02,
          5.87243140e-02, 2.33275704e-02, 1.44771725e-01, 4.03427273e-01,
          1.15072533e-01, 0., 4.20472547e-02, 1.90754026e-01,
          1.00914694e-01, 9.49881375e-02, 1.55810073e-01, 3.21719497e-01,
          2.59521872e-01, 3.61944698e-02, 9.76879522e-02, 2.20302701e-01,
          2.13116258e-01, 1.03160441e-01, 1.75312847e-01, 2.84869432e-01,
          0., 3.32840867e-02, 0., 0., 7.09534660e-02, 5.37037626e-02, 0.,
          3.55968997e-02, 7.93448165e-02, 0., 0., 0., 3.36654708e-02, 0.,
          0., 0., 8.17197785e-02, 0., 8.08388069e-02, 0., 7.28020817e-02,
          0., 0., 0., 0., 0., 0., 0., 1.58394113e-01, 1.07353769e-01,
          3.59338894e-02, 0. ]
      - [ 2.09043145e-01, 1.34331184e-02, 0., 9.15201902e-02,
          3.12652856e-01, 1.89512342e-01, 1.37514770e-01, 1.39768407e-01,
          2.84844697e-01, 1.68325633e-01, 1.36729211e-01, 2.25683853e-01,
          3.41042161e-01, 7.84185231e-02, 0., 0., 2.95276493e-01,
          2.79695094e-01, 9.29305032e-02, 0., 0., 8.66543055e-02,
          8.94759521e-02, 6.79694638e-02, 2.81441987e-01, 2.76864618e-01,
          0., 0., 1.95767265e-02, 0., 0., 0., 0., 2.19649747e-01, 0., 0.,
          1.40427426e-01, 0., 0., 0., 0., 0., 0., 0., 1.98978424e-01, 0.,
          8.83055404e-02, 0., 0., 8.09785426e-02, 0., 0., 2.70491336e-02,
          0., 1.10986773e-02, 0., 2.83078980e-02, 0., 0., 0.,
          8.34754389e-03, 0., 0., 0. ]
      - [ 2.26671278e-01, 5.42791672e-02, 0., 0., 0., 2.94097625e-02, 0.,
          8.39121863e-02, 3.91138405e-01, 2.30773568e-01, 1.91516116e-01,
          1.85449630e-01, 1.42185003e-01, 1.57951072e-01, 2.18256205e-01,
          1.66143358e-01, 3.07151288e-01, 1.69314891e-01, 1.57598004e-01,
          8.91929939e-02, 1.51165828e-01, 1.57824606e-01, 1.96732789e-01,
          2.32421234e-01, 3.51672620e-01, 0., 2.14533620e-02,
          3.00820004e-02, 5.78193963e-02, 0., 0., 7.76790902e-02, 0., 0.,
          0., 0., 2.47134678e-02, 0., 0., 0., 9.04243514e-02,
          8.55731294e-02, 8.19096491e-02, 1.02812305e-01, 1.51212558e-01,
          0., 0., 4.93174680e-02, 1.66706547e-01, 1.08674981e-01, 0., 0.,
          1.05156496e-01, 0., 0., 0., 0., 0., 0., 0., 0., 0., 0., 0. ]
      - [ 6.89367354e-02, 0., 0., 0., 6.95045516e-02, 5.78825288e-02,
          7.06170350e-02, 3.02312911e-01, 3.19104820e-01, 1.57969043e-01,
          1.63728148e-01, 2.04603359e-01, 1.92696676e-01, 1.62912592e-01,
          1.45871550e-01, 2.84072340e-01, 1.98436007e-01, 1.26688227e-01,
          1.11344129e-01, 1.80220306e-01, 2.02919021e-01, 1.16480559e-01,
          9.22159702e-02, 3.76987845e-01, 2.56776303e-01, 3.57239544e-02,
          4.42441106e-02, 0., 5.22451140e-02, 4.45301756e-02, 0.,
          2.27967158e-01, 8.47967267e-02, 0., 0., 0., 2.10598297e-02, 0.,
          0., 0., 0., 0., 0., 0., 1.31787881e-01, 8.66983235e-02, 0.,
          1.88097209e-01, 7.32326359e-02, 3.54687497e-02, 0., 0.,
          7.50043690e-02, 7.40234628e-02, 5.01868129e-02, 0.,
          3.48401256e-02, 0., 0., 0., 4.85555343e-02, 0., 0.,
          7.96912462e-02 ]
      - [ 1.30588800e-01, 0., 0., 0., 1.67131722e-02, 0., 0.,
          1.71262443e-01, 3.84819776e-01, 2.29085445e-01, 2.08026424e-01,
          1.43712550e-01, 1.92681640e-01, 1.50928974e-01, 1.98781416e-01,
          2.65297741e-01, 3.25599372e-01, 1.54578090e-01, 1.24551848e-01,
          1.70349404e-01, 1.36128739e-01, 1.09582655e-01, 1.61531836e-01,
          4.42714304e-01, 1.72559410e-01, 0., 0., 0., 0., 0., 0., 0., 0.,
          0., 0., 0., 0., 0., 0., 0., 2.80080009e-02, 2.32886467e-02,
          3.47109362e-02, 1.30137920e-01, 1.38225108e-01, 3.32817808e-02,
          4.99848276e-02, 5.70084862e-02, 0., 5.34977540e-02,
          3.90246809e-02, 0., 1.00413606e-01, 2.48977710e-02,
          2.25005299e-02, 2.23273039e-02, 2.58919355e-02, 0., 0., 0., 0.,
          0., 0., 0. ]
      - [ 8.58769715e-02, 2.31677309e-01, 0., 4.46972065e-02,
          2.70783424e-01, 1.98390618e-01, 1.52498692e-01, 1.35575861e-01,
          1.18250392e-01, 3.50974798e-01, 1.24281399e-01, 1.19394138e-01,
          3.05297405e-01, 2.83158515e-02, 4.71977219e-02, 4.45874259e-02,
          1.48612261e-01, 2.66213864e-01, 3.42028141e-02, 8.19560289e-02,
          7.53336847e-02, 0., 7.93950856e-02, 1.19636834e-01,
          1.80195808e-01, 2.97895968e-01, 1.31244913e-01, 5.90585805e-02,
          2.55398542e-01, 1.27792209e-01, 1.46902442e-01, 3.40209045e-02,
          2.00528633e-02, 2.02046424e-01, 0., 0., 1.51616961e-01, 0., 0.,
          0., 0., 0., 0., 0., 1.86857909e-01, 7.54331052e-02, 0., 0.,
          6.97059333e-02, 2.66617648e-02, 0., 0., 0., 0., 0., 0., 0., 0.,
          7.63281137e-02, 0., 1.31749719e-01, 7.58215263e-02,
          6.97469264e-02, 0. ]
      - [ 2.15031967e-01, 1.46576300e-01, 1.05545431e-01, 7.13778213e-02,
          1.52051777e-01, 1.89816311e-01, 4.36858162e-02, 1.70584500e-01,
          2.67917603e-01, 1.65884584e-01, 1.72260001e-01, 2.13626295e-01,
          2.40956485e-01, 1.05720811e-01, 9.71562415e-02, 1.68301433e-01,
          1.14631571e-01, 1.29113227e-01, 1.04577795e-01, 7.66869783e-02,
          1.23752207e-01, 2.32215554e-01, 1.69489399e-01, 2.99621165e-01,
          1.82160333e-01, 1.19821794e-01, 1.32202402e-01, 7.70520866e-02,
          1.48351982e-01, 1.14421330e-01, 1.20400548e-01, 2.49007583e-01,
          9.07883272e-02, 7.14471117e-02, 4.99358363e-02, 0.,
          5.37679195e-02, 0., 0., 0., 0., 0., 0., 0., 9.49372575e-02,
          8.08847621e-02, 1.09582171e-01, 1.13375448e-01, 1.34210229e-01,
          1.44942880e-01, 0., 0., 9.68217775e-02, 0., 0., 0., 0., 0., 0.,
          0., 5.02952822e-02, 0., 0., 1.31450042e-01 ]
      - [ 3.83294255e-01, 1.08121157e-01, 2.84517184e-02, 3.53597254e-02,
          8.14680085e-02, 0., 7.06194490e-02, 7.03434795e-02,
          4.16130304e-01, 1.09475344e-01, 1.08391047e-01, 1.00353412e-01,
          1.35665268e-01, 4.17830795e-02, 1.38398051e-01, 1.61769703e-01,
          2.04523966e-01, 3.05771064e-02, 1.13169633e-01, 1.71855196e-01,
          2.60681063e-01, 9.86941457e-02, 8.62086937e-02, 2.07504988e-01,
          2.84735620e-01, 3.34697552e-02, 0., 2.18087196e-01,
          2.26417929e-01, 1.34778813e-01, 1.62016988e-01, 2.02492058e-01,
          0., 0., 3.90872173e-02, 0., 4.77793738e-02, 4.38459814e-02,
          2.61391979e-02, 0., 4.98111695e-02, 2.76717413e-02, 0.,
          3.99460271e-02, 3.74812223e-02, 0., 3.58298011e-02, 0.,
          8.55387971e-02, 1.04707845e-01, 2.32307296e-02, 0.,
          7.59322494e-02, 0., 0., 0., 0., 0., 0., 7.46701062e-02,
          9.44806933e-02, 9.05038565e-02, 0., 9.67554227e-02 ]
      - [ 1.22598261e-01, 1.38345465e-01, 9.43106115e-02, 1.29133388e-01,
          1.75882146e-01, 1.15321293e-01, 1.05502762e-01, 2.86447287e-01,
          1.92359701e-01, 1.61950514e-01, 2.14887336e-01, 3.08054715e-01,
          2.84326106e-01, 2.00561062e-01, 5.58807440e-02, 1.84891671e-01,
          1.86036468e-01, 1.29050002e-01, 1.97733879e-01, 2.90417075e-01,
          3.59254926e-02, 0., 1.02382667e-01, 3.03378016e-01,
          1.39509514e-01, 0., 0., 8.11233837e-03, 2.03225259e-02, 0.,
          7.39981467e-03, 2.23352373e-01, 9.89877656e-02, 9.09924135e-02,
          9.49563757e-02, 0., 1.15521543e-01, 0., 0., 0., 8.79991241e-03,
          0., 0., 0., 1.23929925e-01, 1.19553410e-01, 8.78703892e-02,
          7.25065768e-02, 0., 4.27228492e-03, 7.83295110e-02, 0.,
          4.73889783e-02, 0., 0., 0., 5.08063147e-03, 0., 0.,
          9.55311954e-03, 1.01612629e-02, 0., 0., 0. ]
      - [ 3.75325292e-01, 0., 0., 7.10712001e-02, 5.05731739e-02, 0.,
          5.29196709e-02, 1.77011073e-01, 4.13861662e-01, 8.92433152e-02,
          1.58130303e-01, 1.08314484e-01, 1.62110686e-01, 1.74466208e-01,
          1.29529506e-01, 2.38182887e-01, 3.68848920e-01, 1.65833965e-01,
          7.23431781e-02, 1.27113581e-01, 1.52358413e-01, 1.12615302e-01,
          1.02801085e-01, 1.76605344e-01, 3.71113479e-01, 9.05448124e-02,
          0., 0., 3.88101116e-02, 0., 4.46737856e-02, 1.56755790e-01,
          5.74301817e-02, 6.48258626e-02, 3.59358788e-02, 0.,
          6.65386245e-02, 0., 0., 0., 0., 0., 0., 0., 5.36238775e-02,
          5.11160195e-02, 3.11596505e-02, 3.17535922e-02, 0., 0., 0., 0.,
          6.38279468e-02, 4.66562994e-02, 0., 0., 2.47325413e-02, 0.,
          1.74981058e-02, 3.51471268e-02, 6.00484051e-02, 4.34605852e-02,
          0., 0. ]
      - [ 3.28447610e-01, 6.40034154e-02, 6.96749166e-02, 5.56571707e-02,
          1.15834266e-01, 4.47790809e-02, 8.18981081e-02, 1.85633525e-01,
          4.02776629e-01, 6.01076186e-02, 1.17644437e-01, 1.52265534e-01,
          1.06197283e-01, 1.43186629e-01, 4.17657048e-02, 3.01982671e-01,
          3.33746761e-01, 1.94971487e-01, 5.27856573e-02, 1.25103101e-01,
          7.49757439e-02, 8.69846046e-02, 1.20366678e-01, 3.06741446e-01,
          2.82281131e-01, 7.48749897e-02, 0., 3.00786197e-02,
          1.00553162e-01, 7.65572190e-02, 4.64112274e-02, 2.38742486e-01,
          8.64536539e-02, 5.49025163e-02, 3.82903032e-02, 0.,
          5.24986759e-02, 0., 0., 0., 0., 0., 0., 0., 8.85984376e-02,
          7.27753490e-02, 2.72420291e-02, 0., 0., 0., 0., 0.,
          8.70780870e-02, 3.83249298e-02, 4.64880168e-02, 3.87397744e-02,
          5.47875464e-02, 0., 0., 0., 2.57461090e-02, 0., 0., 0. ]
      - [ 2.42084354e-01, 1.13519982e-01, 1.10354453e-01, 8.71694088e-02,
          1.44044220e-01, 1.28015310e-01, 7.79971108e-02, 2.43767262e-01,
          3.09581012e-01, 1.50706768e-01, 1.55971855e-01, 1.55255303e-01,
          1.94109216e-01, 1.46847934e-01, 1.35088101e-01, 1.55135214e-01,
          1.99575827e-01, 9.15292427e-02, 1.02626614e-01, 1.28259063e-01,
          1.47509322e-01, 8.92733783e-02, 1.23305336e-01, 3.43172461e-01,
          2.13463426e-01, 8.36237073e-02, 1.30896255e-01, 1.21417969e-01,
          1.32745191e-01, 5.14068492e-02, 1.01921245e-01, 2.12052450e-01,
          1.68654770e-01, 0., 0., 0., 4.10170034e-02, 0., 0., 0., 0., 0.,
          0., 5.40604144e-02, 9.23619494e-02, 0., 9.32936147e-02,
          1.32609621e-01, 1.44118577e-01, 1.50894657e-01, 0., 0.,
          9.40607041e-02, 0., 0., 0., 0., 0., 0., 0., 4.87354621e-02, 0.,
          0., 1.30269825e-01 ]
      - [ 4.35999364e-01, 5.25293909e-02, 5.26004210e-02, 0.,
          5.24931625e-02, 4.06978019e-02, 4.59919460e-02, 2.47825548e-01,
          3.83074820e-01, 1.63888857e-01, 1.51249260e-01, 0.,
          1.20032139e-01, 1.00488417e-01, 1.18237592e-01, 1.33947045e-01,
          3.77111822e-01, 1.28673017e-01, 1.22895353e-01, 0.,
          7.24198669e-02, 1.21450432e-01, 1.42727181e-01, 2.23948717e-01,
          3.57104987e-01, 5.01687564e-02, 3.61812003e-02, 0.,
          6.27848879e-02, 6.07932545e-02, 5.38436584e-02, 2.13615030e-01,
          2.14302447e-02, 0., 0., 0., 7.12301806e-02, 2.80722976e-02,
          5.14124222e-02, 4.86266688e-02, 0., 0., 0., 0., 5.90142906e-02,
          4.70336154e-02, 2.53624432e-02, 0., 2.23053060e-02, 0., 0., 0.,
          4.14994881e-02, 0., 2.18983516e-02, 4.50915322e-02,
          6.18837848e-02, 3.99695896e-02, 0., 0., 4.87115942e-02,
          2.71139685e-02, 0., 2.60520354e-02 ]
      - [ 2.66660362e-01, 7.42422491e-02, 4.93966378e-02, 4.74960767e-02,
          6.55949563e-02, 4.81705666e-02, 0., 3.16238552e-01,
          3.17820966e-01, 1.59818351e-01, 1.30557403e-01, 0.,
          1.60663739e-01, 1.44253746e-01, 1.48040071e-01, 3.62381756e-01,
          2.90993601e-01, 8.17980170e-02, 1.18581831e-01, 8.96695703e-02,
          1.44612104e-01, 1.25421256e-01, 9.52068418e-02, 3.46114129e-01,
          2.16505453e-01, 2.94905361e-02, 5.25105335e-02, 4.33574542e-02,
          6.66936561e-02, 6.79811984e-02, 8.18869472e-02, 2.78261930e-01,
          2.89579965e-02, 0., 4.44546863e-02, 5.56895360e-02,
          7.34573826e-02, 0., 0., 3.29847410e-02, 0., 0., 0.,
          5.80043383e-02, 1.01163983e-01, 5.88166602e-02, 0., 0.,
          4.87433821e-02, 2.74158567e-02, 0., 0., 4.79264073e-02, 0., 0.,
          7.25038052e-02, 3.95948626e-02, 0., 0., 0., 3.60614099e-02, 0.,
          3.21227498e-02, 0. ]
      - [ 2.16768309e-01, 4.62506749e-02, 3.60949934e-02, 2.72649731e-02,
          8.17073062e-02, 3.28675807e-02, 1.10204719e-01, 3.19346428e-01,
          3.03160787e-01, 1.55295089e-01, 1.32464930e-01, 1.22860655e-01,
          1.17242478e-01, 1.09677605e-01, 1.19499721e-01, 2.63372302e-01,
          1.73185542e-01, 1.21641479e-01, 1.62933037e-01, 0.,
          8.14376995e-02, 1.48081705e-01, 1.95435554e-01, 2.54461110e-01,
          2.67858505e-01, 9.27181914e-02, 1.27540112e-01, 1.55182436e-01,
          1.46518946e-01, 0., 1.14422545e-01, 2.41540179e-01,
          1.36772707e-01, 0., 0., 0., 4.40076441e-02, 0., 0., 0.,
          4.77329921e-03, 0., 0., 0., 7.68189803e-02, 6.50682896e-02,
          8.41657519e-02, 2.24305347e-01, 1.96291342e-01, 9.72373486e-02,
          0., 0., 7.85784200e-02, 0., 0., 0., 0., 0., 0., 0.,
          2.38664970e-02, 0., 0., 9.74277407e-02 ]
      - [ 6.11281060e-02, 2.01285630e-01, 1.31956905e-01, 1.72528684e-01,
          2.53083825e-01, 1.23906523e-01, 1.45012006e-01, 7.18744397e-02,
          1.57316342e-01, 3.12627673e-01, 1.44054040e-01, 1.46101832e-01,
          3.30874264e-01, 1.16159022e-02, 5.49558736e-02, 7.16249123e-02,
          1.06265664e-01, 2.64594615e-01, 1.28972262e-01, 1.21244140e-01,
          1.25060782e-01, 8.79701152e-02, 0., 9.13199782e-02,
          1.77993700e-01, 3.01453173e-01, 1.08162686e-01, 1.96766391e-01,
          2.00761274e-01, 8.88495371e-02, 1.15436323e-01, 7.77220130e-02,
          9.92277712e-02, 1.64133012e-01, 4.80205640e-02, 0.,
          1.30087376e-01, 0., 0., 0., 0., 0., 0., 0., 1.82091221e-01, 0.,
          6.39533997e-02, 0., 1.06385358e-01, 0., 0., 3.95517014e-02,
          5.00881560e-02, 0., 0., 0., 0., 0., 0., 0., 1.28570154e-01,
          9.79508907e-02, 3.09048556e-02, 0. ]
      - [ 1.28193870e-01, 8.69886354e-02, 1.55948788e-01, 2.13567436e-01,
          1.55544087e-01, 1.11691453e-01, 1.04975536e-01, 1.46033406e-01,
          3.02196681e-01, 1.84277013e-01, 1.19232818e-01, 1.33340031e-01,
          2.77589887e-01, 2.11316809e-01, 8.38134214e-02, 1.58039689e-01,
          1.12608358e-01, 0., 1.59825400e-01, 1.09238252e-01,
          1.38007224e-01, 1.92321181e-01, 1.90418333e-01, 1.99272349e-01,
          2.41092458e-01, 1.67125329e-01, 1.27328619e-01, 1.17309861e-01,
          1.84107184e-01, 1.74786448e-01, 1.30185217e-01, 4.27099951e-02,
          9.48072374e-02, 8.22957978e-02, 6.14414252e-02, 0.,
          6.65444285e-02, 0., 0., 0., 0., 0., 0., 0., 1.07463673e-01,
          6.07333295e-02, 1.65886506e-01, 0., 1.24397136e-01,
          1.35830536e-01, 7.87997469e-02, 0., 1.15367420e-01, 0., 0., 0.,
          0., 0., 0., 0., 8.27255771e-02, 0., 0., 1.32850200e-01 ]
      - [ 1.60984322e-01, 0., 7.43444338e-02, 3.16664986e-02,
          8.46980736e-02, 6.15184158e-02, 1.00910522e-01, 1.46422461e-01,
          2.94446737e-01, 2.99793214e-01, 1.03818528e-01, 1.49707422e-01,
          1.13631420e-01, 1.26921564e-01, 1.14137903e-01, 2.94618964e-01,
          1.47278294e-01, 1.10689573e-01, 2.17418537e-01, 1.76190659e-01,
          1.80767536e-01, 1.66429922e-01, 1.96200505e-01, 1.43600121e-01,
          3.28292757e-01, 1.64682850e-01, 0., 1.00050516e-01,
          1.12901814e-01, 1.08899005e-01, 0., 1.99921355e-01,
          1.22045964e-01, 0., 0., 0., 3.92254591e-02, 0., 0., 0., 0., 0.,
          0., 0., 7.16794729e-02, 0., 4.78803702e-02, 2.00672582e-01,
          1.54792905e-01, 9.00366455e-02, 0., 0., 6.65099993e-02, 0., 0.,
          0., 0., 0., 0., 0., 5.88381886e-02, 0., 0., 2.02589437e-01 ]
      - [ 2.09159434e-01, 1.89814046e-01, 0., 1.07707694e-01,
          2.40409046e-01, 1.98137730e-01, 1.70885503e-01, 1.06944092e-01,
          2.13602066e-01, 1.71611235e-01, 1.50925606e-01, 3.04877311e-01,
          1.23349287e-01, 2.27430448e-01, 1.17875785e-01, 9.10521895e-02,
          1.22041315e-01, 6.48602173e-02, 9.99651700e-02, 1.76654458e-01,
          1.90488353e-01, 1.82154313e-01, 1.79293707e-01, 1.81664214e-01,
          2.09622100e-01, 1.76897302e-01, 1.16762437e-01, 1.88963518e-01,
          1.53643563e-01, 1.74817353e-01, 8.72451961e-02, 7.21183419e-02,
          8.55371729e-02, 2.17092205e-02, 0., 0., 4.41604406e-02, 0., 0.,
          0., 1.92426778e-02, 0., 0., 0., 1.00357525e-01, 0.,
          1.47353396e-01, 0., 7.04589486e-02, 1.21691898e-01,
          8.82474929e-02, 0., 1.26865536e-01, 0., 0., 0., 0., 0., 0., 0.,
          8.74783769e-02, 0., 8.47782120e-02, 6.43388033e-02 ]
      - [ 3.23872775e-01, 1.16356857e-01, 0., 0., 8.34232122e-02, 0., 0.,
          2.78674275e-01, 2.39877239e-01, 2.42352605e-01, 1.55927062e-01,
          0., 1.94401026e-01, 1.17359318e-01, 1.86361402e-01,
          2.65113324e-01, 1.87640697e-01, 1.37771294e-01, 8.53240788e-02,
          5.40539250e-02, 2.38915291e-02, 1.79670379e-01, 2.85312831e-01,
          3.37095618e-01, 1.50489271e-01, 0., 0., 0., 6.62631774e-03, 0.,
          2.53725916e-01, 2.21227586e-01, 7.31683820e-02, 5.24536893e-02,
          0., 0., 1.04771284e-02, 0., 0., 0., 0., 0., 0., 0.,
          1.14771193e-02, 0., 8.89698975e-03, 5.45906164e-02,
          2.96337940e-02, 8.19714516e-02, 0., 9.01593342e-02,
          9.09762308e-02, 0., 0., 0., 0., 0., 0., 0., 1.03824064e-01, 0.,
          1.59060359e-01, 0. ]
      - [ 1.81037858e-01, 3.86194028e-02, 1.13123037e-01, 1.16890863e-01,
          1.34380728e-01, 1.27215669e-01, 1.25868797e-01, 2.42261752e-01,
          2.21015602e-01, 2.00168639e-01, 1.39188394e-01, 2.27374628e-01,
          1.84176832e-01, 1.63747728e-01, 2.44237706e-01, 2.07309023e-01,
          1.58252656e-01, 1.15344174e-01, 1.72413096e-01, 1.83978289e-01,
          1.29166663e-01, 1.58285826e-01, 1.99706882e-01, 2.42272019e-01,
          2.40895599e-01, 7.50398561e-02, 1.24525927e-01, 1.25592634e-01,
          1.60324708e-01, 9.71252546e-02, 1.06860436e-01, 1.09506205e-01,
          7.58681968e-02, 0., 0., 0., 2.88666207e-02, 0., 0., 0.,
          3.19227874e-02, 0., 0., 0., 6.85112253e-02, 4.93636988e-02,
          8.54991823e-02, 1.41731128e-01, 1.48699865e-01, 1.22964039e-01,
          0., 0., 9.34212506e-02, 0., 0., 0., 0., 0., 0., 0.,
          8.19152668e-02, 0., 9.57400948e-02, 8.62805620e-02 ]
      - [ 2.12911069e-01, 2.39529595e-01, 0., 2.66793761e-02,
          5.06666340e-02, 0., 5.73800839e-02, 2.79164582e-01,
          2.34837607e-01, 2.96414346e-01, 1.43756032e-01, 6.47479221e-02,
          8.34074318e-02, 1.32759690e-01, 1.68485925e-01, 2.64769554e-01,
          2.91028172e-01, 1.54388785e-01, 1.05614796e-01, 2.75629349e-02,
          2.05054767e-02, 7.98098296e-02, 2.92279691e-01, 2.85201758e-01,
          2.59043038e-01, 0., 0., 2.40226146e-02, 4.38785926e-02,
          5.40902652e-02, 2.51783490e-01, 1.43515795e-01, 1.02455102e-01,
          8.69168788e-02, 0., 0., 6.00602143e-02, 0., 0., 0., 0., 0., 0.,
          0., 4.10109535e-02, 0., 6.53977543e-02, 8.87713358e-02,
          1.10096537e-01, 0., 0., 0., 1.88171156e-02, 0., 0., 0., 0.,
          1.60648916e-02, 0., 2.74807084e-02, 5.32228388e-02, 0.,
          3.73202264e-02, 1.34570375e-01 ]
      - [ 3.50730330e-01, 6.79087862e-02, 0., 2.76732650e-02,
          4.17567492e-02, 0., 2.48287115e-02, 1.34844720e-01,
          4.57831651e-01, 1.84083268e-01, 1.19215079e-01, 2.16265693e-02,
          5.12617938e-02, 7.60185421e-02, 1.26303479e-01, 1.33127809e-01,
          2.97546297e-01, 8.85004401e-02, 1.84987247e-01, 1.28060460e-01,
          7.06307814e-02, 1.60276309e-01, 1.50808245e-01, 1.96054816e-01,
          2.72987574e-01, 1.72395989e-01, 1.39782190e-01, 1.37448385e-01,
          1.07228279e-01, 9.26746055e-02, 1.07728645e-01, 1.19909085e-01,
          1.62714124e-01, 6.42198473e-02, 4.41906601e-02, 0.,
          1.06913224e-01, 0., 0., 0., 1.90592613e-02, 0., 0.,
          1.22834861e-01, 1.30386338e-01, 0., 0., 0., 1.96161225e-01,
          5.29632047e-02, 0., 3.37981507e-02, 6.24415055e-02, 0., 0., 0.,
          1.90592613e-02, 0., 0., 0., 9.84216016e-03, 0., 0., 0. ]
      - [ 1.80003539e-01, 1.49081394e-01, 1.55977309e-01, 1.84606135e-01,
          1.54884353e-01, 1.68196693e-01, 2.01435640e-01, 1.27300993e-01,
          1.63332611e-01, 2.43436813e-01, 1.52673990e-01, 1.51766822e-01,
          2.32879385e-01, 2.79022992e-01, 1.87087461e-01, 1.19442597e-01,
          1.32142588e-01, 1.82584226e-01, 0., 7.14742020e-02,
          1.56905740e-01, 2.56540120e-01, 1.67397633e-01, 7.56909102e-02,
          2.32186109e-01, 1.37299418e-01, 2.24544033e-01, 1.98379025e-01,
          6.22333176e-02, 2.65359525e-02, 7.11204112e-02, 0.,
          3.16522010e-02, 0., 3.62509228e-02, 3.34790796e-02,
          4.22792137e-02, 0., 0., 0., 3.35482210e-02, 0., 3.34681273e-02,
          0., 1.10898107e-01, 7.94400424e-02, 8.65596235e-02, 0.,
          1.12396561e-01, 1.60372615e-01, 0., 0., 1.14637122e-01, 0., 0.,
          0., 0., 0., 0., 0., 6.78324401e-02, 0., 0., 1.49461776e-01 ]
      - [ 1.99168354e-01, 1.06436633e-01, 1.33909628e-01, 2.63535619e-01,
          7.54986927e-02, 4.92676534e-02, 0., 2.75909781e-01,
          1.90973848e-01, 1.35716736e-01, 9.24821720e-02, 3.28609616e-01,
          1.97845906e-01, 1.58546716e-01, 1.62016183e-01, 1.53552964e-01,
          9.82668772e-02, 1.50429711e-01, 1.38426200e-01, 2.78123289e-01,
          8.12060758e-02, 0., 9.92260799e-02, 3.36448550e-01,
          1.53322205e-01, 3.35999392e-02, 0., 1.98926792e-01,
          1.58008367e-01, 1.20838143e-01, 1.56949520e-01, 1.24570645e-01,
          9.52048823e-02, 9.25548896e-02, 0., 0., 7.38027543e-02, 0.,
          3.95119265e-02, 0., 2.99681220e-02, 0., 0., 0., 5.70280962e-02,
          0., 7.55566135e-02, 3.36345881e-02, 5.94116114e-02,
          6.67858347e-02, 8.71225372e-02, 0., 1.00322120e-01, 0., 0., 0.,
          0., 0., 0., 0., 1.67904913e-01, 0., 0., 0. ]
      - [ 2.77965784e-01, 3.19294296e-02, 1.23556722e-02, 2.57493071e-02,
          4.29004915e-02, 0., 0., 2.91881114e-01, 3.75497222e-01,
          1.36612341e-01, 1.38036802e-01, 1.13514632e-01, 7.91140869e-02,
          1.16758049e-01, 1.22576505e-01, 2.01278180e-01, 1.96004584e-01,
          1.63904890e-01, 1.02250934e-01, 1.22853972e-01, 1.04045838e-01,
          1.68704018e-01, 1.18187644e-01, 2.93782860e-01, 2.56131530e-01,
          7.39809200e-02, 1.02252401e-01, 7.15130046e-02, 1.74678102e-01,
          9.00026783e-02, 1.01636320e-01, 2.20469818e-01, 1.69682667e-01,
          0., 0., 0., 4.72584143e-02, 0., 0., 0., 2.61230711e-02, 0., 0.,
          0., 9.36375782e-02, 6.32288754e-02, 9.21422467e-02,
          1.93177134e-01, 1.79363564e-01, 9.39786956e-02, 3.56966443e-02,
          0., 9.29726884e-02, 0., 0., 0., 1.98218450e-02, 0., 0., 0.,
          4.89774607e-02, 0., 0., 9.08270404e-02 ]
      - [ 3.27349961e-01, 5.78301661e-02, 0., 0., 7.73737431e-02, 0.,
          3.16656977e-01, 1.73942760e-01, 1.75360024e-01, 2.03517929e-01,
          1.23555437e-01, 1.85053587e-01, 1.67934462e-01, 2.11096227e-01,
          1.86367944e-01, 1.49122298e-01, 2.40809247e-01, 1.37681082e-01,
          0., 1.19636834e-01, 9.73475128e-02, 1.35051310e-01,
          1.91214919e-01, 1.30535498e-01, 3.66772205e-01, 1.25746503e-01,
          3.79807651e-02, 5.58994152e-02, 5.58137968e-02, 0.,
          1.96698830e-01, 1.94678679e-01, 5.04839532e-02, 1.03525028e-01,
          2.88524721e-02, 0., 6.31769300e-02, 0., 3.53974551e-02, 0.,
          2.96054427e-02, 0., 0., 0., 5.79530261e-02, 7.00310767e-02, 0.,
          7.72431046e-02, 6.61199987e-02, 0., 8.85856897e-02, 0.,
          6.97672442e-02, 0., 0., 0., 0., 0., 0., 0., 1.03833728e-01, 0.,
          1.48489133e-01, 1.00093387e-01 ]
      - [ 1.61389977e-01, 1.28656119e-01, 0., 1.21767759e-01,
          1.17156304e-01, 8.58379528e-02, 1.19330421e-01, 2.69376010e-01,
          2.18656421e-01, 1.70034677e-01, 1.86811224e-01, 2.27263942e-01,
          2.13570058e-01, 2.20556423e-01, 1.59355313e-01, 1.45062447e-01,
          1.92469522e-01, 1.50814250e-01, 1.82175145e-01, 1.56373471e-01,
          1.22328237e-01, 1.50172129e-01, 1.63851842e-01, 3.24373782e-01,
          1.60756707e-01, 8.64988640e-02, 1.35057464e-01, 1.23822130e-01,
          8.95447880e-02, 8.28427300e-02, 1.36079565e-01, 7.07772523e-02,
          1.26479775e-01, 0., 0., 0., 6.02065511e-02, 0., 0., 0.,
          1.66982934e-02, 0., 0., 0., 1.14660554e-01, 6.30782843e-02,
          1.16412252e-01, 1.55915141e-01, 1.19236879e-01, 1.37054071e-01,
          0., 0., 1.10889740e-01, 0., 0., 0., 0., 0., 0., 0.,
          6.67931736e-02, 0., 0., 1.17251463e-01 ]
      - [ 4.47203033e-02, 2.71537513e-01, 5.29736318e-02, 1.01811521e-01,
          2.38468051e-01, 1.98085129e-01, 1.15920141e-01, 1.26741454e-01,
          2.44492859e-01, 2.50175953e-01, 8.47953930e-02, 3.03248405e-01,
          2.05835938e-01, 2.90887784e-02, 4.72376384e-02, 0.,
          1.68804482e-01, 2.45572120e-01, 5.08082323e-02, 5.04432134e-02,
          2.92763114e-02, 0., 7.02446401e-02, 1.42953470e-01,
          2.17824504e-01, 3.29332501e-01, 2.13062875e-02, 0.,
          2.61705339e-01, 1.37033522e-01, 1.14379257e-01, 7.60801360e-02,
          2.03144997e-02, 1.85805202e-01, 0., 3.48543376e-02,
          1.33924082e-01, 0., 0., 0., 0., 0., 0., 0., 1.49218172e-01,
          8.92434791e-02, 0., 7.23596811e-02, 5.07080592e-02,
          2.62962319e-02, 0., 0., 4.94471304e-02, 0., 0., 0., 0., 0., 0.,
          0., 1.92622676e-01, 0., 0., 5.92544153e-02 ]
      - [ 1.77068561e-01, 1.06920399e-01, 1.04915641e-01, 1.08110957e-01,
          1.45093814e-01, 1.33844912e-01, 4.65375111e-02, 1.14507735e-01,
          3.65007997e-01, 1.47761956e-01, 1.71394676e-01, 1.66302904e-01,
          2.77639866e-01, 1.57472879e-01, 1.16818294e-01, 8.98161456e-02,
          2.27544129e-01, 1.75794050e-01, 1.61429510e-01, 1.91070959e-01,
          2.37898260e-01, 1.53965637e-01, 1.52587637e-01, 0.,
          2.82068402e-01, 1.09781168e-01, 1.07889779e-01, 9.19139013e-02,
          1.44402221e-01, 1.05540857e-01, 1.07923821e-01, 8.69912580e-02,
          1.50395334e-01, 8.79989937e-02, 0., 0., 1.01019822e-01, 0., 0.,
          0., 0., 0., 0., 0., 1.14655145e-01, 9.41239670e-02,
          1.18880324e-01, 6.57733902e-02, 1.56306162e-01, 6.98256642e-02,
          0., 0., 6.31998181e-02, 0., 0., 0., 0., 0., 0., 0.,
          4.05705385e-02, 0., 0., 1.29859686e-01 ]
      - [ 3.25434744e-01, 1.05492286e-01, 0., 4.37485650e-02,
          6.15351126e-02, 3.73931602e-02, 1.33538142e-01, 3.77712220e-01,
          2.36987606e-01, 2.48232111e-01, 1.24663010e-01, 1.32819459e-01,
          9.24129337e-02, 1.56260997e-01, 2.17603788e-01, 1.52946085e-01,
          3.85222435e-01, 1.13996536e-01, 8.89763981e-02, 7.41156042e-02,
          8.05317089e-02, 3.25298756e-02, 5.80821596e-02, 3.64221543e-01,
          1.66027397e-01, 5.00225499e-02, 3.96732725e-02, 0.,
          5.42811416e-02, 4.86691259e-02, 3.18230353e-02, 8.66338909e-02,
          1.76342756e-01, 1.16775833e-01, 0., 0., 1.07744135e-01, 0., 0.,
          0., 0., 0., 0., 0., 1.23296440e-01, 0., 8.33403766e-02,
          2.82791872e-02, 0., 0., 0., 0., 6.23687357e-02, 5.85771315e-02,
          0., 3.31776366e-02, 5.73169403e-02, 3.50005850e-02, 0.,
          3.32060456e-02, 5.93732670e-02, 0., 0., 0. ]
      - [ 2.05742493e-01, 4.80880439e-02, 0., 9.87781771e-03,
          6.93782493e-02, 0., 9.20186788e-02, 3.35776925e-01,
          2.83766150e-01, 1.01993740e-01, 1.52559966e-01, 1.08588003e-01,
          1.81615680e-01, 1.45441443e-01, 8.78467411e-02, 2.73889482e-01,
          1.76336527e-01, 9.34415460e-02, 1.42074734e-01, 9.68341380e-02,
          1.04682155e-01, 1.99224412e-01, 1.40298396e-01, 3.29379827e-01,
          2.23873764e-01, 5.00370525e-02, 1.45426735e-01, 1.92251459e-01,
          3.91648524e-02, 1.37154967e-01, 6.28759414e-02, 2.45510802e-01,
          8.12758654e-02, 0., 0., 0., 2.42123995e-02, 0., 0., 0., 0., 0.,
          0., 0., 1.05831347e-01, 9.69776586e-02, 8.02758560e-02,
          1.77855790e-01, 1.87601209e-01, 1.08000979e-01, 0., 0.,
          1.00599989e-01, 0., 0., 0., 0., 0., 0., 0., 0., 0., 0., 0. ]
      - [ 3.12922955e-01, 1.04542971e-01, 0., 3.76371592e-02,
          7.16884285e-02, 9.64081213e-02, 2.76585281e-01, 2.30019107e-01,
          1.87685400e-01, 1.97810262e-01, 1.83358490e-01, 1.11142904e-01,
          1.23000905e-01, 2.15108201e-01, 2.22512782e-01, 1.41268581e-01,
          1.82997480e-01, 1.77024856e-01, 1.14734031e-01, 6.64204210e-02,
          7.22197741e-02, 1.39859572e-01, 2.06839800e-01, 1.26897514e-01,
          3.57832253e-01, 1.39840245e-01, 5.30051440e-02, 0.,
          6.16021603e-02, 6.96517527e-02, 2.44609565e-01, 8.89786184e-02,
          1.13287941e-01, 6.94738328e-02, 3.63651291e-02, 2.81199515e-02,
          6.19853772e-02, 0., 0., 0., 0., 0., 0., 2.67112479e-02,
          5.95694259e-02, 0., 7.18169138e-02, 7.88504630e-02,
          6.29646704e-02, 8.75322521e-02, 0., 0., 6.19853772e-02, 0., 0.,
          0., 0., 0., 0., 0., 1.13811448e-01, 0., 1.52261525e-01,
          1.04718745e-01 ]
      - [ 4.74865511e-02, 6.09477833e-02, 6.59640133e-02, 5.42810559e-02,
          8.14351737e-02, 7.56997392e-02, 1.00153141e-01, 3.44025373e-01,
          2.80353218e-01, 1.43489003e-01, 1.79048926e-01, 1.65319294e-01,
          1.40233502e-01, 4.83505651e-02, 2.51620598e-02, 2.98228208e-02,
          1.43154368e-01, 0., 2.02100441e-01, 1.46847427e-01,
          1.15625583e-01, 1.09534130e-01, 2.59363830e-01, 2.48478949e-01,
          2.32054293e-01, 2.06515878e-01, 1.41020030e-01, 2.19030961e-01,
          2.16885909e-01, 2.04788834e-01, 6.20333999e-02, 4.28739861e-02,
          1.62231535e-01, 0., 0., 0., 6.56486899e-02, 0., 0., 0.,
          8.54673143e-03, 0., 0., 0., 1.75134823e-01, 8.95417184e-02, 0.,
          1.42346308e-01, 1.85012922e-01, 9.98367891e-02, 9.16502327e-02,
          0., 1.35270759e-01, 0., 0., 0., 0., 0., 0., 0., 1.48033733e-02,
          0., 0., 8.25361088e-02 ]
      - [ 2.16974303e-01, 1.35321707e-01, 1.53601736e-01, 1.32336721e-01,
          2.04458624e-01, 1.81661710e-01, 1.34059891e-01, 1.85581490e-01,
          1.34393007e-01, 2.32060343e-01, 1.36143625e-01, 1.27662048e-01,
          3.23316216e-01, 1.99176610e-01, 1.85211644e-01, 1.65913269e-01,
          1.10711642e-01, 9.87770036e-02, 1.37349486e-01, 9.87960994e-02,
          2.27971777e-01, 2.05502301e-01, 1.50357753e-01, 8.45853016e-02,
          2.46222585e-01, 1.66876197e-01, 1.50182754e-01, 1.25199348e-01,
          1.97411194e-01, 2.47625429e-02, 6.99727908e-02, 0., 0., 0., 0.,
          0., 4.75034863e-02, 5.01181670e-02, 0., 2.39643063e-02,
          6.58809170e-02, 3.38069089e-02, 0., 0., 7.49305561e-02,
          3.63717154e-02, 1.09126419e-01, 0., 1.42231181e-01,
          9.08423960e-02, 7.18051195e-02, 0., 1.03919931e-01, 0., 0., 0.,
          0., 0., 0., 0., 9.55708176e-02, 0., 9.84235033e-02,
          1.21603489e-01 ]
      - [ 4.27534543e-02, 1.12231605e-01, 8.68906230e-02, 0.,
          1.13658592e-01, 7.76681229e-02, 1.03083573e-01, 2.47038364e-01,
          1.98567390e-01, 3.28018904e-01, 1.66679636e-01, 1.40158132e-01,
          1.60573289e-01, 1.63507089e-01, 3.01699191e-01, 4.35891338e-02,
          3.22223783e-01, 1.19610265e-01, 1.24513626e-01, 1.79255739e-01,
          8.45795348e-02, 1.80410594e-01, 1.55579895e-01, 4.23687607e-01,
          1.31719053e-01, 0., 0., 0., 0., 0., 0., 1.03369467e-01,
          1.15531921e-01, 0., 0., 0., 0., 0., 0., 0., 2.43796818e-02, 0.,
          0., 6.12942651e-02, 1.46271601e-01, 7.40047470e-02,
          7.77516440e-02, 1.56358019e-01, 1.15853794e-01, 4.76009846e-02,
          0., 9.63235199e-02, 9.96717140e-02, 0., 0., 0., 0., 0., 0., 0.,
          1.84293073e-02, 0., 0., 0. ]
      - [ 1.49874911e-01, 1.42916486e-01, 2.21157864e-01, 2.95540363e-01,
          7.97324255e-02, 0., 0., 3.08702499e-01, 2.08291098e-01,
          8.00020695e-02, 1.14908449e-01, 3.20050776e-01, 2.51311034e-01,
          1.76348269e-01, 1.51558861e-01, 2.03364462e-01, 2.23888144e-01,
          1.28684238e-01, 1.45006478e-01, 1.82270721e-01, 5.66349104e-02,
          0., 1.26482219e-01, 3.24124843e-01, 1.68716744e-01,
          1.19025623e-02, 0., 0., 6.92050457e-02, 5.65773621e-02,
          8.35539922e-02, 2.39516139e-01, 9.85311121e-02, 0.,
          7.40793943e-02, 5.00663780e-02, 6.61496520e-02, 0., 0., 0., 0.,
          0., 0., 2.34167501e-02, 5.77060953e-02, 0., 8.59642401e-02,
          4.32092696e-02, 5.53055033e-02, 0., 0., 4.74402606e-02,
          5.21971248e-02, 0., 0., 0., 0., 0., 0., 0., 4.09726351e-02,
          1.89426709e-02, 5.11593632e-02, 3.39327864e-02 ]
      - [ 2.15316758e-01, 1.40540838e-01, 1.99040085e-01, 1.02194369e-01,
          2.01197639e-01, 2.05941364e-01, 1.08124427e-01, 3.36391836e-01,
          1.19512193e-01, 1.39426216e-01, 1.13298096e-01, 2.62330949e-01,
          1.96784556e-01, 1.18242502e-01, 4.16479185e-02, 2.97779977e-01,
          1.76243022e-01, 1.11616969e-01, 0., 1.04670972e-01,
          3.52992415e-02, 5.35220876e-02, 1.46410972e-01, 3.33883703e-01,
          1.85513943e-01, 0., 0., 4.95039672e-02, 5.14798798e-02,
          3.32854763e-02, 7.35441521e-02, 3.35972756e-01, 1.26802146e-01,
          8.76234174e-02, 6.33737594e-02, 3.55745368e-02, 6.53274432e-02,
          0., 4.43326086e-02, 0., 3.57854962e-02, 3.87207232e-02, 0., 0.,
          5.49694337e-02, 0., 9.61940140e-02, 0., 3.78542207e-02,
          3.99804898e-02, 3.57031599e-02, 0., 5.26538827e-02, 0., 0., 0.,
          0., 0., 1.99273117e-02, 4.44003120e-02, 6.01124428e-02, 0., 0.,
          6.16047233e-02 ]
      - [ 5.04022986e-02, 0., 3.00026312e-02, 0., 9.93197262e-02, 0.,
          5.10866903e-02, 3.12270582e-01, 2.24015757e-01, 1.71950430e-01,
          1.70039237e-01, 2.50935614e-01, 2.22950831e-01, 1.80147424e-01,
          1.62883893e-01, 2.54051805e-01, 2.22316712e-01, 1.19268760e-01,
          1.63430363e-01, 2.01372743e-01, 1.15253285e-01, 1.42055213e-01,
          1.63952485e-01, 3.84365678e-01, 1.72538042e-01, 0., 0.,
          3.72055620e-02, 3.47454026e-02, 0., 3.67646217e-02,
          2.32657671e-01, 9.14802998e-02, 0., 0., 0., 0., 0., 0., 0., 0.,
          0., 0., 0., 1.55980021e-01, 0., 1.27103850e-01, 1.27497941e-01,
          0., 0., 0., 4.43368219e-02, 1.17605366e-01, 8.50428492e-02,
          9.75826606e-02, 1.21478423e-01, 4.75197434e-02, 0., 0., 0.,
          1.40565298e-02, 0., 0., 0. ]
      - [ 2.31613040e-01, 2.10207000e-01, 1.95035674e-02, 2.18949959e-01,
          2.39464805e-01, 1.22880369e-01, 9.02741775e-02, 8.90779868e-02,
          1.96092561e-01, 2.76300758e-01, 9.19807330e-02, 3.00739586e-01,
          2.40600407e-01, 4.33473028e-02, 0., 5.09426668e-02,
          9.27588046e-02, 2.83715010e-01, 2.39685457e-02, 1.60476759e-01,
          7.55123720e-02, 3.57885100e-02, 8.14249441e-02, 1.12754196e-01,
          2.38023743e-01, 2.81343758e-01, 4.22023088e-02, 2.17779428e-01,
          1.53766990e-01, 1.24405652e-01, 0., 8.81248489e-02,
          9.71702859e-02, 1.54486105e-01, 0., 0., 1.05980113e-01, 0., 0.,
          0., 0., 0., 0., 0., 1.15959540e-01, 0., 8.56278613e-02,
          2.38464512e-02, 3.17785367e-02, 0., 0., 8.11210945e-02,
          7.79992491e-02, 0., 2.64970660e-02, 0., 1.89487990e-02,
          2.92255860e-02, 0., 5.42724915e-02, 1.76577136e-01, 0., 0., 0. ]
      - [ 7.96402991e-02, 1.74128100e-01, 1.58768609e-01, 2.06644461e-01,
          1.19444214e-01, 1.23367570e-01, 1.77751958e-01, 1.73725232e-01,
          1.87733799e-01, 2.08442912e-01, 3.02397609e-01, 1.51546702e-01,
          2.29907215e-01, 1.36409923e-01, 6.93901479e-02, 4.40579243e-02,
          1.05956130e-01, 1.56712025e-01, 2.72964090e-01, 8.52162689e-02,
          1.75147563e-01, 1.28926709e-01, 7.84684345e-02, 9.35872123e-02,
          1.18379131e-01, 2.94359922e-01, 1.46872461e-01, 3.33753489e-02,
          2.55381435e-01, 1.25368118e-01, 1.39165848e-01, 1.07837014e-01,
          1.27821669e-01, 9.78602320e-02, 0., 0., 9.67401713e-02, 0., 0.,
          0., 8.55070353e-03, 0., 0., 0., 1.08158797e-01, 7.02108815e-02,
          1.36652723e-01, 1.28635079e-01, 7.13697821e-02, 0.,
          8.01909789e-02, 0., 7.03378767e-02, 2.89004426e-02, 0., 0., 0.,
          0., 0., 3.40871811e-02, 5.49733341e-02, 0., 5.47521226e-02,
          7.81356692e-02 ]
      - [ 2.24388465e-01, 9.35991257e-02, 2.17968691e-02, 7.28294700e-02,
          2.60518879e-01, 1.66580930e-01, 1.99867785e-01, 1.02344371e-01,
          2.39444509e-01, 2.70373374e-01, 8.94095749e-02, 1.91588759e-01,
          3.28292102e-01, 0., 0., 3.90223600e-02, 2.13788003e-01,
          3.56086999e-01, 6.00294992e-02, 4.85065095e-02, 9.36764404e-02,
          5.69276512e-02, 4.41219769e-02, 1.33346871e-01, 3.14789355e-01,
          2.42196083e-01, 3.70919369e-02, 2.41600387e-02, 4.60730083e-02,
          0., 1.96334645e-02, 0., 2.38640919e-01, 0., 0., 0.,
          1.32769808e-01, 0., 0., 0., 2.77326927e-02, 0., 0., 0.,
          1.72659382e-01, 0., 8.86663124e-02, 0., 5.41170388e-02,
          6.55234829e-02, 0., 0., 4.26037684e-02, 0., 3.59176248e-02,
          1.82223134e-02, 3.59456763e-02, 0., 0., 0., 5.32005280e-02,
          2.62082685e-02, 0., 6.10235594e-02 ]
      - [ 2.73705810e-01, 4.71541733e-02, 3.17437537e-02, 3.49111296e-02,
          5.62303290e-02, 3.81010883e-02, 6.56876788e-02, 2.93854624e-01,
          3.44479084e-01, 1.67995974e-01, 1.16601437e-01, 1.52394831e-01,
          4.26364988e-02, 9.37457383e-02, 1.27630159e-01, 2.17119679e-01,
          1.80391729e-01, 1.39114127e-01, 1.26131952e-01, 1.20515257e-01,
          5.30222468e-02, 1.91572681e-01, 1.69933245e-01, 2.04849809e-01,
          3.13096583e-01, 8.78643245e-02, 1.02369092e-01, 1.59800977e-01,
          1.39715999e-01, 9.66590643e-02, 0., 2.40082294e-01,
          1.68041140e-01, 0., 0., 0., 6.30392730e-02, 0., 0., 0., 0., 0.,
          0., 0., 8.40244219e-02, 6.57687709e-02, 8.52896571e-02,
          1.91286206e-01, 1.31270111e-01, 1.12167902e-01, 0., 0.,
          7.38485828e-02, 1.79433823e-02, 0., 0., 3.31538506e-02, 0., 0.,
          0., 6.23650402e-02, 0., 0., 1.36467442e-01 ]
      - [ 8.82631540e-02, 0., 8.93122554e-02, 6.17468059e-02,
          7.01505542e-02, 1.08392261e-01, 2.01217420e-02, 7.77060091e-02,
          4.54758555e-01, 1.81117967e-01, 5.70919365e-02, 1.40368283e-01,
          8.20013881e-02, 5.52562438e-02, 3.81501466e-01, 8.59417953e-03,
          3.29683661e-01, 1.50608003e-01, 8.60044658e-02, 5.90880327e-02,
          1.11718446e-01, 0., 3.53497297e-01, 1.52874023e-01,
          2.81085998e-01, 7.10982010e-02, 0., 7.53509030e-02,
          9.59283262e-02, 0., 5.90121895e-02, 3.34630534e-02,
          8.42644051e-02, 0., 0., 0., 6.42970577e-02, 0., 3.85300666e-02,
          0., 1.18380468e-02, 5.82782328e-02, 8.16727281e-02,
          9.39130485e-02, 1.29769340e-01, 0., 5.88248633e-02,
          7.16403201e-02, 2.43288949e-01, 8.39996561e-02, 0., 0.,
          9.64153036e-02, 0., 0., 0., 0., 0., 0., 0., 0., 0., 0., 0. ]
      - [ 1.54920906e-01, 1.71547994e-01, 1.10628977e-01, 1.25571206e-01,
          2.29282424e-01, 1.34226844e-01, 2.03749537e-01, 2.06948802e-01,
          1.22961208e-01, 2.09198624e-01, 1.54952064e-01, 1.84813768e-01,
          2.18747810e-01, 2.57692546e-01, 1.90426290e-01, 1.03227004e-01,
          1.35966823e-01, 1.60929933e-01, 1.24322087e-01, 1.33981898e-01,
          2.11336717e-01, 1.91540703e-01, 1.71191886e-01, 1.64265126e-01,
          1.82620779e-01, 1.38269395e-01, 1.71113834e-01, 1.51821315e-01,
          1.89264417e-01, 8.44459608e-02, 0., 1.30873799e-01,
          6.71664849e-02, 0., 0., 0., 8.48458037e-02, 2.46201530e-02, 0.,
          0., 0., 0., 0., 0., 7.58623108e-02, 0., 9.79963616e-02,
          6.70233518e-02, 1.10703014e-01, 1.39410317e-01, 0., 0.,
          7.30503574e-02, 0., 0., 0., 0., 0., 0., 0., 5.90028465e-02, 0.,
          0., 1.80067256e-01 ]
      - [ 2.12974772e-01, 1.20994762e-01, 1.13636509e-01, 1.40928358e-01,
          2.13940665e-01, 0., 0., 0., 3.82832050e-01, 1.27640143e-01,
          8.68093371e-02, 1.38031259e-01, 3.30967098e-01, 1.36337876e-01,
          1.37464181e-01, 1.43945679e-01, 1.99126601e-01, 1.59582198e-01,
          1.54342964e-01, 1.67217582e-01, 2.73146629e-01, 9.01547521e-02,
          9.73754004e-02, 0., 2.76807696e-01, 0., 0., 0., 2.91923732e-01,
          1.31411225e-01, 1.46022126e-01, 9.49991122e-02, 2.96456274e-02,
          0., 0., 0., 1.73672706e-01, 0., 0., 0., 0., 0., 0., 0.,
          1.60846412e-01, 2.09708810e-02, 1.90465692e-02, 2.68079508e-02,
          1.11328155e-01, 1.74749661e-02, 0., 0., 1.99833885e-02, 0., 0.,
          1.32879131e-02, 2.21024901e-02, 0., 0., 3.17279771e-02,
          5.54728284e-02, 5.94260097e-02, 7.66868442e-02, 0. ]
      - [ 1.29389286e-01, 1.58581614e-01, 1.12336129e-01, 1.31992146e-01,
          2.09674805e-01, 1.18600935e-01, 1.63806632e-01, 1.73090026e-01,
          2.27716744e-01, 1.59437492e-01, 2.94038683e-01, 1.46460697e-01,
          2.02829853e-01, 2.15829715e-01, 3.82340625e-02, 8.28807130e-02,
          8.81351903e-02, 1.52868837e-01, 2.87480801e-01, 9.03274417e-02,
          1.54216573e-01, 1.05288617e-01, 8.60692337e-02, 0.,
          1.68093488e-01, 3.02351326e-01, 1.05597094e-01, 6.15953133e-02,
          2.98548520e-01, 1.13352299e-01, 8.46969932e-02, 6.71605468e-02,
          8.19464624e-02, 9.13495272e-02, 0., 0., 9.17138308e-02, 0., 0.,
          0., 2.04737429e-02, 0., 0., 0., 1.12884425e-01, 6.59976676e-02,
          8.59030113e-02, 1.61300272e-01, 7.15117082e-02, 0.,
          9.75225419e-02, 0., 7.51324072e-02, 0., 0., 0., 0.,
          3.20816375e-02, 0., 0., 1.09619573e-01, 8.14628899e-02, 0.,
          7.19211027e-02 ]
      - [ 2.58794963e-01, 1.06248990e-01, 1.16552509e-01, 1.54776797e-01,
          6.19186908e-02, 1.24942109e-01, 8.88193175e-02, 2.55992174e-01,
          3.08879137e-01, 1.27503902e-01, 2.01405853e-01, 1.24516658e-01,
          1.74239472e-01, 1.80259272e-01, 8.64739269e-02, 1.10863097e-01,
          2.50771046e-01, 1.33962125e-01, 9.10472497e-02, 8.46103057e-02,
          1.38847306e-01, 1.62284508e-01, 1.46312401e-01, 1.94097370e-01,
          3.20984989e-01, 1.28250316e-01, 1.75512638e-02, 1.48492083e-01,
          1.47862568e-01, 1.05106466e-01, 5.68365529e-02, 1.73608258e-01,
          1.60465553e-01, 1.98162626e-02, 0., 0., 6.02583215e-02, 0., 0.,
          0., 0., 0., 0., 0., 9.59469602e-02, 8.15315619e-02,
          8.34006071e-02, 1.19630799e-01, 2.19421551e-01, 1.03606515e-01,
          0., 0., 7.81583861e-02, 0., 0., 0., 0., 0., 0., 0., 0., 0., 0.,
          0. ]
      - [ 2.99088508e-01, 9.74783376e-02, 8.09964314e-02, 1.21057436e-01,
          6.91815093e-02, 1.51798293e-01, 1.60857350e-01, 0.,
          3.10412496e-01, 2.34199300e-01, 1.74520254e-01, 2.08127096e-01,
          1.73567355e-01, 1.68324158e-01, 6.88893497e-02, 2.82604247e-02,
          2.33806178e-01, 1.52930662e-01, 1.32419363e-01, 3.64589691e-02,
          5.13722338e-02, 1.33302316e-01, 2.28828862e-01, 2.38492742e-01,
          2.62705356e-01, 1.14462450e-01, 1.13895088e-01, 1.17184445e-01,
          8.82644057e-02, 1.36901274e-01, 1.25716478e-01, 1.58491239e-01,
          8.26296359e-02, 7.91716054e-02, 6.65403083e-02, 0.,
          7.66169801e-02, 0., 0., 0., 0., 0., 0., 0., 1.10046774e-01,
          6.58652186e-02, 1.63388863e-01, 0., 1.73635751e-01,
          9.67273563e-02, 0., 0., 8.14540535e-02, 0., 0., 0., 0., 0., 0.,
          0., 3.81471924e-02, 0., 0., 1.42002106e-01 ]
      - [ 5.60724586e-02, 8.07939544e-02, 8.49057660e-02, 7.16346130e-02,
          1.26251996e-01, 9.85030159e-02, 9.04291719e-02, 2.34362558e-01,
          2.37230822e-01, 2.87191242e-01, 1.66964456e-01, 1.66387945e-01,
          1.36856005e-01, 1.79040805e-01, 3.09705675e-01, 0.,
          2.24972129e-01, 1.35634944e-01, 1.59608051e-01, 1.47694424e-01,
          1.73371643e-01, 1.89459965e-01, 1.70443758e-01, 3.04657400e-01,
          2.63958961e-01, 4.63163294e-02, 0., 0., 3.59151177e-02,
          1.60765219e-02, 4.64466065e-02, 2.00367242e-01, 3.23734507e-02,
