%YAML:1.0
---
opencv_ml_svm:
   format: 3
   svmType: C_SVC
   kernel:
      type: RBF
      gamma: 5.3830000000000000e+00
   C: 2.6699999999999999e+00
   term_criteria: { epsilon:1.1920928955078125e-07, iterations:1000 }
   var_count: 64
   class_count: 10
   class_labels: !!opencv-matrix
      rows: 10
      cols: 1
      dt: i
      data: [ 0, 1, 2, 3, 4, 5, 6, 7, 8, 9 ]
   sv_total: 671
   support_vectors:
      - [ 1.55651376e-01, 1.73269346e-01, 1.21925898e-01, 1.25222325e-01,
          1.10077120e-01, 1.24962889e-01, 2.45403558e-01, 2.20457032e-01,
          1.47711232e-01, 2.81279892e-01, 2.59599149e-01, 1.56251371e-01,
          2.33013704e-01, 1.76890120e-01, 1.11026645e-01, 8.92696306e-02,
          1.23528324e-01, 1.91757917e-01, 2.63935983e-01, 1.12179436e-01,
          4.39261384e-02, 2.09437475e-01, 1.83589280e-01, 9.71284658e-02,
          2.03782111e-01, 1.62131906e-01, 1.88762590e-01, 1.52452216e-01,
          5.75199686e-02, 2.44389232e-02, 2.84117367e-02, 0.,
          9.57321674e-02, 0., 0., 0., 4.40396741e-02, 0., 0., 0., 0., 0.,
          0., 0., 1.21549882e-01, 9.16384235e-02, 1.23786353e-01,
          1.49479210e-01, 1.36545256e-01, 9.18959156e-02, 9.69365314e-02,
          2.92840917e-02, 1.12912863e-01, 0., 0., 3.55800204e-02,
          4.27247621e-02, 0., 0., 0., 1.68884452e-02, 0., 0., 0. ]
      - [ 2.20493734e-01, 3.15591842e-01, 3.46341580e-02, 8.68887007e-02,
          7.35700279e-02, 0., 2.88508255e-02, 1.11809798e-01,
          2.35569626e-01, 3.62193674e-01, 1.47440523e-01, 1.32612154e-01,
          1.41300976e-01, 1.17102727e-01, 1.29733592e-01, 9.60013792e-02,
          1.93766952e-01, 1.48492530e-01, 3.84316705e-02, 1.34033456e-01,
          2.69811541e-01, 2.07181275e-01, 1.32629201e-01, 1.96526229e-01,
          2.01713607e-01, 1.94722831e-01, 1.18700176e-01, 1.28746748e-01,
          1.45258546e-01, 1.10251993e-01, 1.04216672e-01, 1.04341500e-01,
          4.70604226e-02, 0., 0., 0., 4.18516695e-02, 0., 0., 0., 0., 0.,
          2.89555192e-02, 0., 8.81621093e-02, 1.05128087e-01, 0.,
          1.06563769e-01, 1.62997827e-01, 1.30770445e-01, 0., 0.,
          9.40208286e-02, 0., 0., 0., 0., 0., 0., 0., 6.21201284e-02, 0.,
          0., 1.78773105e-01 ]
      - [ 1.90962762e-01, 1.83072776e-01, 0., 2.29731992e-01,
          1.79439425e-01, 2.17505828e-01, 1.12351701e-01, 1.82842404e-01,
          1.96137354e-01, 1.82991296e-01, 8.74741897e-02, 3.09482992e-01,
          1.58838451e-01, 1.71533182e-01, 1.60516158e-01, 1.69274554e-01,
          8.74719620e-02, 1.50108738e-02, 1.16840549e-01, 1.89092368e-01,
          1.30792230e-01, 1.90692082e-01, 1.98909074e-01, 1.69840097e-01,
          2.13349342e-01, 1.39844403e-01, 1.19857401e-01, 1.35271341e-01,
          2.29502156e-01, 1.64120108e-01, 0., 4.01668288e-02,
          2.53781900e-02, 6.35745674e-02, 0., 1.44118248e-02,
          3.69512029e-02, 0., 0., 0., 0., 0., 0., 0., 1.18383199e-01,
          9.21413377e-02, 1.39740959e-01, 5.80967143e-02, 8.90477598e-02,
          1.52287275e-01, 0., 0., 1.29104912e-01, 0., 0., 0., 0., 0., 0.,
          0., 6.69522583e-02, 0., 0., 7.18196332e-02 ]
      - [ 3.16179633e-01, 7.99648538e-02, 3.41027267e-02, 3.18394527e-02,
          4.64392379e-02, 1.84354596e-02, 0., 2.01795980e-01,
          3.86210263e-01, 1.71412975e-01, 1.52440727e-01, 4.76823114e-02,
          2.09389672e-01, 9.91944373e-02, 1.06642991e-01, 2.04369649e-01,
          1.31432891e-01, 3.03577259e-02, 7.63494521e-02, 2.38933325e-01,
          2.46514648e-01, 1.36809409e-01, 2.41743907e-01, 1.56317458e-01,
          3.07191849e-01, 1.36966541e-01, 1.12983808e-01, 7.40838945e-02,
          1.58497825e-01, 1.07388563e-01, 9.47947949e-02, 4.37093191e-02,
          0., 0., 0., 0., 5.48680648e-02, 2.50146519e-02, 0., 0.,
          2.09081154e-02, 2.65212022e-02, 0., 4.20251898e-02,
          1.16536558e-01, 3.59745994e-02, 1.45688698e-01, 1.03617765e-01,
          4.43925895e-02, 5.88818416e-02, 0., 1.14546612e-01,
          1.19621702e-01, 0., 0., 0., 0., 0., 0., 0., 9.61167067e-02, 0.,
          8.03838670e-02, 1.14063762e-01 ]
      - [ 1.17451333e-01, 2.19456002e-01, 1.59662902e-01, 1.41742826e-01,
          1.34911403e-01, 1.49375200e-01, 1.53034583e-01, 1.37071192e-01,
          2.77190924e-01, 2.35853225e-01, 2.51530051e-01, 2.62332499e-01,
          1.11456886e-01, 1.12807326e-01, 8.77313316e-02, 6.15103208e-02,
          1.46613657e-01, 7.54691660e-02, 2.89315760e-01, 6.86926916e-02,
          9.54605415e-02, 9.22098383e-02, 7.54199475e-02, 9.24725756e-02,
          2.24260300e-01, 2.27666795e-01, 1.99237421e-01, 4.13908139e-02,
          1.82520360e-01, 1.96472585e-01, 1.26921177e-01, 7.07170367e-02,
          5.80710284e-02, 1.29898742e-01, 0., 0., 1.20070428e-01, 0., 0.,
          0., 0., 0., 0., 0., 1.34693801e-01, 0., 1.65392071e-01, 0.,
          7.15504959e-02, 0., 8.44060406e-02, 5.36025278e-02,
          7.27736652e-02, 0., 0., 4.38949317e-02, 0., 5.14221862e-02, 0.,
          5.96134700e-02, 8.24411437e-02, 6.52568713e-02, 0.,
          6.91628009e-02 ]
      - [ 2.78184623e-01, 1.32457033e-01, 1.12893343e-01, 1.30984306e-01,
          1.03437610e-01, 1.09890200e-01, 8.92108977e-02, 2.45733157e-01,
          3.71848762e-01, 2.04937533e-01, 1.35952398e-01, 1.13539316e-01,
          1.90142423e-01, 1.43621430e-01, 8.75433758e-02, 5.60094304e-02,
          1.69410154e-01, 0., 1.58447191e-01, 6.35184422e-02,
          9.65613797e-02, 1.00086823e-01, 2.44881868e-01, 1.59592763e-01,
          3.33420068e-01, 1.16329983e-01, 1.31850883e-01, 1.38714686e-01,
          8.93182009e-02, 9.91969109e-02, 1.09844968e-01, 1.92491621e-01,
          8.16745758e-02, 0., 0., 0., 2.94503439e-02, 0., 0., 0., 0., 0.,
          0., 0., 1.36895463e-01, 0., 1.70798659e-01, 4.69696037e-02,
          1.39761075e-01, 8.29113573e-02, 1.17328212e-01, 0.,
          1.26915023e-01, 0., 0., 0., 0., 0., 0., 0., 0., 0., 0., 0. ]
      - [ 1.58492878e-01, 1.25067353e-01, 1.78777590e-01, 1.94100887e-01,
          1.12479903e-01, 1.43731907e-01, 1.39135003e-01, 1.71150893e-01,
          1.96720973e-01, 2.89560109e-01, 2.72599638e-01, 1.78848669e-01,
          1.55743748e-01, 1.46835759e-01, 7.86246881e-02, 3.32340673e-02,
          1.55998886e-01, 8.26151669e-02, 2.76673198e-01, 9.56020281e-02,
          1.66668624e-01, 9.95639265e-02, 8.21411088e-02, 8.23050812e-02,
          2.29585961e-01, 2.29533702e-01, 1.82458535e-01, 0.,
          2.44935066e-01, 1.24942780e-01, 9.70065296e-02, 5.94850928e-02,
          6.32196069e-02, 1.35890067e-01, 0., 0., 1.20425202e-01, 0., 0.,
          0., 1.31060751e-02, 0., 0., 0., 1.30685762e-01, 9.62757096e-02,
          1.26366943e-01, 7.51394108e-02, 8.12455863e-02, 1.00643657e-01,
          0., 0., 5.38102053e-02, 1.84634551e-02, 0., 0., 0., 0., 0.,
          2.74941437e-02, 7.94127434e-02, 6.57602623e-02, 8.46651718e-02,
          8.23026448e-02 ]
      - [ 1.23836711e-01, 2.35334203e-01, 1.31422505e-01, 1.39866203e-01,
          1.46910682e-01, 7.77497590e-02, 2.03256607e-01, 2.05799147e-01,
          2.51452595e-01, 2.41964489e-01, 2.33885095e-01, 2.07504824e-01,
          2.29154661e-01, 0., 3.29815336e-02, 9.11797509e-02,
          1.62497744e-01, 1.03845574e-01, 2.64145374e-01, 9.29992199e-02,
          7.11699277e-02, 7.65717849e-02, 0., 1.17085747e-01,
          1.99362159e-01, 2.93498188e-01, 1.22412659e-01, 5.46749011e-02,
          2.11620376e-01, 1.53988659e-01, 9.25930440e-02, 9.87254530e-02,
          6.68899938e-02, 1.35260463e-01, 0., 0., 1.19258255e-01, 0., 0.,
          0., 1.61626171e-02, 0., 0., 0., 1.20469034e-01, 9.37986672e-02,
          1.23907290e-01, 8.43563676e-02, 7.77001902e-02, 0.,
          1.03523590e-01, 0., 6.50978833e-02, 0., 0., 0., 2.19293628e-02,
          0., 4.19459455e-02, 0., 1.06570169e-01, 7.36310482e-02, 0.,
          7.57263452e-02 ]
      - [ 1.74770981e-01, 0., 1.06373422e-01, 9.45425257e-02,
          1.39120847e-01, 1.21223018e-01, 1.81211248e-01, 2.68441230e-01,
          2.03052387e-01, 2.46510729e-01, 1.42032221e-01, 1.72589928e-01,
          1.77484021e-01, 9.01042894e-02, 2.66169518e-01, 2.01649919e-01,
          1.42935276e-01, 9.92414653e-02, 1.49719253e-01, 8.96634832e-02,
          1.23243660e-01, 1.59134179e-01, 2.29055330e-01, 2.45654508e-01,
          2.67217129e-01, 1.00798197e-01, 7.83880875e-02, 1.14427060e-01,
          7.81769603e-02, 1.29012346e-01, 1.20949335e-01, 1.50000706e-01,
          1.26583323e-01, 0., 0., 0., 5.03226519e-02, 0., 0.,
          3.79875973e-02, 4.09864448e-02, 0., 0., 4.06817608e-02,
          1.05747543e-01, 6.62442893e-02, 1.30517349e-01, 1.31242886e-01,
          7.56084397e-02, 1.50628790e-01, 0., 0., 1.13191366e-01, 0., 0.,
          0., 0., 0., 0., 0., 7.62687847e-02, 0., 0., 1.10543542e-01 ]
      - [ 1.67664409e-01, 1.61860421e-01, 5.69913648e-02, 6.04211539e-02,
          2.22299606e-01, 2.07354367e-01, 1.56260401e-01, 2.08956599e-01,
          2.18820930e-01, 2.09480420e-01, 1.09313682e-01, 1.66249126e-01,
          2.00633511e-01, 8.78628418e-02, 1.21903658e-01, 1.77399307e-01,
          1.31627545e-01, 1.56762376e-01, 1.44411102e-01, 3.76602896e-02,
          1.65489569e-01, 1.12168014e-01, 2.47621253e-01, 1.61037236e-01,
          1.93871453e-01, 1.78488389e-01, 1.42607406e-01, 1.40632391e-01,
          2.12562904e-01, 1.50920838e-01, 1.58350036e-01, 4.83621769e-02,
          1.01345710e-01, 1.48989156e-01, 0., 0., 9.45278481e-02, 0., 0.,
          0., 0., 0., 0., 0., 1.04858123e-01, 6.89458698e-02,
          1.67252809e-01, 0., 1.26042426e-01, 9.22718644e-02,
          8.17365199e-02, 5.36649674e-02, 1.05146587e-01, 0., 0., 0.,
          3.30217443e-02, 0., 0., 0., 7.95649663e-02, 0., 0.,
          1.36938393e-01 ]
      - [ 3.57706308e-01, 8.86860937e-02, 7.25027695e-02, 5.56225702e-02,
          6.52750507e-02, 0., 0., 2.63568163e-01, 3.37918848e-01,
          1.79242730e-01, 1.47547901e-01, 1.38233870e-01, 1.46684259e-01,
          1.66472659e-01, 1.00316472e-01, 2.51832515e-01, 3.60490590e-01,
          1.66696653e-01, 0., 1.20605953e-01, 1.03344858e-01,
          1.27757251e-01, 1.28839940e-01, 2.63900876e-01, 3.05740714e-01,
          9.21398699e-02, 0., 0., 5.72729409e-02, 4.21140902e-02,
          3.41747627e-02, 1.82601258e-01, 0., 7.55100772e-02, 0., 0.,
          5.85047565e-02, 0., 0., 0., 2.06845552e-02, 0., 0., 0.,
          7.19675645e-02, 5.87989874e-02, 4.49747704e-02, 6.66386262e-02,
          2.80070212e-02, 3.90355662e-02, 4.74538654e-02, 0.,
          8.10009539e-02, 0., 5.31992652e-02, 0., 0., 0., 0., 0.,
          7.00249895e-02, 4.02591340e-02, 0., 0. ]
      - [ 3.12134296e-01, 0., 0., 1.11359440e-01, 3.03712308e-01,
          1.21116012e-01, 1.63733602e-01, 1.51543215e-01, 3.06129187e-01,
          1.26118317e-01, 1.23918802e-01, 3.50614578e-01, 1.37016907e-01,
          8.52263793e-02, 5.30766062e-02, 0., 3.46200407e-01,
          1.95676997e-01, 9.22946557e-02, 0., 9.62372646e-02,
          2.99485903e-02, 1.16449527e-01, 1.20844953e-01, 3.21918696e-01,
          1.83100447e-01, 2.58588865e-02, 4.34950963e-02, 4.35329080e-02,
          4.83137108e-02, 0., 7.30273873e-02, 1.47194862e-01,
          1.41205594e-01, 0., 0., 9.80867818e-02, 0., 0., 0., 0., 0., 0.,
          0., 9.12229493e-02, 0., 1.36381298e-01, 8.47981125e-02, 0., 0.,
          6.81745932e-02, 2.40883660e-02, 6.83540404e-02, 0., 0., 0.,
          1.57740097e-02, 0., 0., 0., 7.72978216e-02, 3.15784030e-02, 0.,
          0. ]
      - [ 2.07633868e-01, 2.11007327e-01, 1.23337403e-01, 1.23827010e-01,
          1.60419554e-01, 1.43991336e-01, 1.95469737e-01, 2.02512145e-01,
          2.08064869e-01, 1.70320228e-01, 2.83194244e-01, 1.81088120e-01,
          2.09752217e-01, 1.33186132e-01, 1.57988533e-01, 5.16631864e-02,
          1.36223406e-01, 2.51760423e-01, 5.75797893e-02, 1.52733147e-01,
          7.77087063e-02, 9.70545486e-02, 3.24116908e-02, 1.72369972e-01,
          2.71899253e-01, 2.21842915e-01, 0., 1.63105488e-01,
          1.36131048e-01, 7.16729313e-02, 1.07831232e-01, 8.34150165e-02,
          1.36810780e-01, 1.24212742e-01, 0., 0., 9.66573954e-02, 0., 0.,
          0., 3.42181362e-02, 0., 0., 3.42552029e-02, 9.55149829e-02, 0.,
          1.35730401e-01, 9.51234400e-02, 3.82570364e-02, 4.90635224e-02,
          3.20804678e-02, 8.32309350e-02, 9.03978497e-02, 0., 0., 0., 0.,
          0., 1.46066649e-02, 1.25343516e-01, 1.27172291e-01,
          1.21397274e-02, 0., 0. ]
      - [ 1.36859879e-01, 2.17702299e-01, 8.45198557e-02, 1.52091712e-01,
          1.90028697e-01, 1.02451622e-01, 1.81222260e-01, 1.83142036e-01,
          2.54973561e-01, 2.52381504e-01, 2.67201453e-01, 1.81589827e-01,
          1.43431589e-01, 1.60170212e-01, 3.46718282e-02, 0.,
          1.33441344e-01, 9.63686407e-02, 2.72836238e-01, 9.56202522e-02,
          0., 1.11175217e-01, 0., 1.59051582e-01, 1.82816193e-01,
          2.97566563e-01, 9.88126919e-02, 3.81174758e-02, 2.26769507e-01,
          1.39003217e-01, 8.13052729e-02, 1.15493827e-01, 8.12157914e-02,
          1.35875508e-01, 0., 0., 1.13627307e-01, 0., 0., 0., 0., 0., 0.,
          0., 1.35887057e-01, 1.29671067e-01, 7.85225108e-02,
          9.82787758e-02, 8.01654756e-02, 0., 8.86014998e-02,
          5.53387068e-02, 7.23481625e-02, 0., 0., 3.25192213e-02, 0., 0.,
          0., 4.42608073e-02, 8.08877051e-02, 6.46746382e-02,
          7.78654665e-02, 8.02175403e-02 ]
      - [ 1.53337657e-01, 1.45167604e-01, 8.74513909e-02, 1.43157929e-01,
          1.24620549e-01, 1.55073151e-01, 1.79048702e-01, 2.41008431e-01,
          1.42091244e-01, 2.01697186e-01, 2.83412129e-01, 2.47416481e-01,
          1.78761750e-01, 2.18101248e-01, 1.19379103e-01, 8.06832090e-02,
          1.35328755e-01, 2.25202426e-01, 2.50625461e-01, 1.06149666e-01,
          1.04799531e-01, 2.26372242e-01, 1.66436136e-01, 1.15551554e-01,
          1.92573160e-01, 1.35788783e-01, 2.01047048e-01, 1.77408874e-01,
          7.75695965e-02, 0., 0., 0., 6.93490133e-02, 0., 0., 0.,
          3.87038626e-02, 0., 0., 0., 0., 0., 0., 0., 1.46543428e-01,
          9.07559171e-02, 1.53531879e-01, 0., 0., 1.45194724e-01,
          1.01356842e-01, 0., 1.42883092e-01, 0., 0., 0., 5.66908568e-02,
          0., 0., 0., 2.13520434e-02, 0., 0., 0. ]
      - [ 1.33880571e-01, 1.45973161e-01, 1.49664521e-01, 2.27255166e-01,
          1.96006224e-01, 1.64400473e-01, 1.22338362e-01, 1.02465816e-01,
          2.95302987e-01, 1.87623262e-01, 1.43534333e-01, 1.06378794e-01,
          2.79164940e-01, 2.27559298e-01, 1.22405529e-01, 0.,
          1.00721993e-01, 0., 1.46072567e-01, 1.34973243e-01,
          1.46265626e-01, 1.81685552e-01, 2.05866963e-01, 1.63283855e-01,
          2.05075473e-01, 1.40610784e-01, 1.76751077e-01, 1.60590738e-01,
          1.61725834e-01, 2.00801894e-01, 7.76790828e-02, 5.07673137e-02,
          3.44178192e-02, 9.55700278e-02, 7.68850818e-02, 0.,
          8.52020457e-02, 0., 0., 0., 0., 0., 0., 0., 1.40510172e-01,
          1.63421243e-01, 5.22989407e-02, 7.38647729e-02, 5.56610189e-02,
          0., 1.39482304e-01, 0., 1.36341095e-01, 0., 0., 0.,
          3.61666083e-02, 3.42410952e-02, 0., 0., 7.29071423e-02,
          5.12581281e-02, 0., 0. ]
      - [ 1.91940829e-01, 9.67555866e-02, 1.65056884e-01, 1.05954237e-01,
          1.73914671e-01, 1.17603317e-01, 9.47475433e-02, 2.42191717e-01,
          3.22888374e-01, 1.25082552e-01, 2.25510046e-01, 1.53757483e-01,
          2.13923886e-01, 2.05911592e-01, 6.34086058e-02, 1.83408603e-01,
          1.67998105e-01, 1.00935839e-01, 9.51639265e-02, 1.34434342e-01,
          1.45291120e-01, 1.23860754e-01, 1.89850390e-01, 2.85545707e-01,
          2.17517287e-01, 1.19873740e-01, 1.45455927e-01, 7.64601678e-02,
          1.36933431e-01, 1.13561347e-01, 7.65128359e-02, 1.77708805e-01,
          7.10070804e-02, 0., 0., 0., 2.82186866e-02, 0., 0., 0.,
          1.99536253e-02, 0., 0., 0., 1.40349299e-01, 1.13746569e-01,
          1.08489528e-01, 7.26553127e-02, 8.73181149e-02, 1.26341879e-01,
          8.30251351e-02, 0., 1.28593847e-01, 0., 0., 0., 0., 0., 0., 0.,
          3.25841345e-02, 0., 0., 4.53452803e-02 ]
      - [ 1.46916598e-01, 3.60150635e-01, 0., 0., 2.34164577e-02, 0.,
          2.83591952e-02, 0., 1.09842613e-01, 4.41716284e-01,
          1.32963732e-01, 1.37812659e-01, 1.43070698e-01, 8.13654587e-02,
          1.30284742e-01, 7.86959901e-02, 1.67933777e-01, 1.65908322e-01,
          0., 0., 3.12492698e-01, 1.71755061e-01, 1.82524130e-01,
          1.96252242e-01, 2.12276116e-01, 1.89932376e-01, 1.54135585e-01,
          8.46055672e-02, 1.48349211e-01, 1.15109876e-01, 9.42850336e-02,
          1.18355282e-01, 4.80628759e-02, 2.88763046e-02, 0., 0.,
          1.81383099e-02, 0., 0., 0., 0., 0., 0., 0., 9.18928161e-02,
          7.33129233e-02, 9.19392705e-02, 1.15657769e-01, 2.16468245e-01,
          1.00515984e-01, 0., 0., 9.42494199e-02, 0., 0., 0., 0., 0., 0.,
          0., 4.68329154e-02, 0., 0., 1.45505503e-01 ]
      - [ 2.37754732e-01, 5.46661764e-02, 7.01837838e-02, 5.60363270e-02,
          5.72969913e-02, 7.67806843e-02, 6.98242038e-02, 3.76277477e-01,
          2.54946947e-01, 1.32244855e-01, 8.07565227e-02, 1.11506917e-01,
          1.47089735e-01, 1.54964194e-01, 7.02825934e-02, 3.77707392e-01,
          1.66444480e-01, 1.33992881e-01, 0., 1.26723126e-01,
          5.66240288e-02, 1.31441742e-01, 1.71842828e-01, 3.13544035e-01,
          2.74860680e-01, 5.64076230e-02, 0., 5.91917634e-02,
          7.23600984e-02, 4.21630777e-02, 4.63435836e-02, 3.94745171e-01,
          2.07342599e-02, 0., 0., 3.46571356e-02, 3.95386815e-02, 0.,
          2.48586293e-02, 0., 0., 0., 2.56298929e-02, 0., 5.35347946e-02,
          1.06744841e-02, 2.36409809e-02, 5.77935018e-02, 4.95449901e-02,
          2.77459826e-02, 5.26654571e-02, 0., 5.07883541e-02, 0., 0., 0.,
          0., 0., 0., 0., 3.80270854e-02, 2.85176784e-02, 5.14030196e-02,
          0. ]
      - [ 3.25830847e-01, 1.88384011e-01, 0., 0., 2.04735138e-02, 0., 0.,
          0., 1.03070915e-01, 4.49871749e-01, 1.31857827e-01,
          1.35605812e-01, 1.66329443e-01, 1.21634267e-01, 1.01598062e-01,
          1.11704350e-01, 7.57337958e-02, 5.05523048e-02, 1.17297895e-01,
          0., 3.05280149e-01, 2.43653193e-01, 1.99369475e-01,
          1.74540490e-01, 1.91832870e-01, 2.26025134e-01, 1.43617004e-01,
          7.16539845e-02, 1.29433930e-01, 1.03834219e-01, 1.32193416e-01,
          1.22468799e-01, 5.75988218e-02, 0., 0., 0., 2.21139230e-02, 0.,
          0., 0., 0., 0., 0., 0., 1.19818173e-01, 1.26452297e-01,
          8.93345401e-02, 5.72910830e-02, 1.18153028e-01, 1.57231659e-01,
          0., 0., 1.04728915e-01, 0., 0., 0., 0., 0., 0., 0.,
          7.84075931e-02, 0., 0., 1.55522540e-01 ]
      - [ 1.50035664e-01, 1.50778010e-01, 9.77005064e-02, 1.44244105e-01,
          1.40234530e-01, 1.11875691e-01, 1.90988109e-01, 2.66079277e-01,
          2.03455076e-01, 2.07298711e-01, 2.29965091e-01, 2.38909319e-01,
          2.09817648e-01, 2.09100589e-01, 8.28716233e-02, 1.01232752e-01,
          9.94404033e-02, 2.18084350e-01, 1.59578621e-01, 2.24725083e-01,
          1.23870641e-01, 2.56252855e-01, 1.34834811e-01, 2.96002310e-02,
          1.99647427e-01, 1.06787935e-01, 1.61053166e-01, 2.33993173e-01,
          6.95423484e-02, 0., 0., 0., 9.73571241e-02, 0., 0., 0.,
          6.00159615e-02, 0., 0., 0., 0., 0., 0., 0., 1.23751521e-01, 0.,
          1.57752633e-01, 1.11394897e-01, 9.25160497e-02, 1.63015634e-01,
          0., 0., 1.11660957e-01, 0., 0., 0., 0., 0., 0., 0.,
          3.13423127e-02, 0., 0., 3.48013192e-02 ]
      - [ 1.97743967e-01, 1.90844536e-01, 9.04873163e-02, 6.73357397e-02,
          2.94033051e-01, 1.44194886e-01, 1.40491366e-01, 9.30930898e-02,
          2.89504796e-01, 2.77534455e-01, 9.75088105e-02, 1.90815657e-01,
          2.63696909e-01, 4.75824364e-02, 4.10272256e-02, 3.34147476e-02,
          3.32644850e-01, 2.21009910e-01, 1.42249063e-01, 2.99632885e-02,
          7.44463801e-02, 8.34253207e-02, 6.11222088e-02, 1.13252096e-01,
          3.38753313e-01, 1.94217041e-01, 6.82133734e-02, 6.74110427e-02,
          7.85928443e-02, 0., 1.36717716e-02, 0., 1.99934974e-01,
          8.83849412e-02, 7.20649660e-02, 3.92686464e-02, 1.28733471e-01,
          0., 0., 0., 9.27445106e-03, 0., 0., 0., 1.50751814e-01,
          9.21783671e-02, 0., 0., 0., 0., 0., 0., 5.35460673e-02,
          4.43252139e-02, 0., 0., 5.85485175e-02, 4.72917669e-02, 0.,
          2.54335515e-02, 5.89006729e-02, 0., 0., 0. ]
      - [ 1.23114407e-01, 1.80542260e-01, 1.65093780e-01, 1.54606268e-01,
          1.49008870e-01, 1.43178642e-01, 1.50182992e-01, 1.71986610e-01,
          2.46946871e-01, 1.87756702e-01, 3.03936958e-01, 1.96686417e-01,
          1.67474985e-01, 1.55180231e-01, 8.64187181e-02, 4.97724414e-02,
          1.52643606e-01, 4.10224460e-02, 2.85300523e-01, 0.,
          1.89074889e-01, 8.25312957e-02, 8.37465972e-02, 1.17425762e-01,
          1.62794575e-01, 2.89712787e-01, 1.26671150e-01, 0.,
          2.62015462e-01, 5.34242466e-02, 8.87093246e-02, 7.16433525e-02,
          7.32817799e-02, 1.31407782e-01, 0., 0., 1.11365549e-01, 0., 0.,
          0., 0., 0., 0., 0., 1.27674758e-01, 0., 1.64398089e-01,
          7.94495121e-02, 1.17981762e-01, 0., 1.00503556e-01, 0.,
          7.45348483e-02, 0., 0., 0., 0., 0., 0., 0., 1.26590759e-01, 0.,
          7.65746534e-02, 0. ]
      - [ 1.75390720e-01, 1.86674431e-01, 1.81470588e-01, 7.32151270e-02,
          1.39631644e-01, 1.46467254e-01, 1.95069373e-01, 2.10848004e-01,
          2.24063188e-01, 2.00038075e-01, 2.55804688e-01, 1.71512663e-01,
          2.26991892e-01, 1.40369862e-01, 1.73595306e-02, 0.,
          1.35792613e-01, 1.59328952e-01, 2.05026716e-01, 1.13656655e-01,
          1.54913142e-01, 8.15426409e-02, 8.46943557e-02, 1.08885013e-01,
          2.16037557e-01, 2.50655681e-01, 1.51697159e-01, 1.94440752e-01,
          1.57270089e-01, 1.15300052e-01, 8.93093199e-02, 6.80310577e-02,
          8.38821679e-02, 1.42647266e-01, 0., 0., 1.25494465e-01, 0., 0.,
          0., 0., 0., 0., 0., 1.23974353e-01, 7.92335272e-02,
          1.00494102e-01, 1.43984839e-01, 6.12176806e-02, 1.07664719e-01,
          0., 0., 6.28360510e-02, 0., 0., 0., 0., 0., 0., 0.,
          1.51309878e-01, 0., 8.18783045e-02, 4.61710393e-02 ]
      - [ 1.43470943e-01, 8.60507563e-02, 1.09617323e-01, 1.04413711e-01,
          1.68918505e-01, 4.37376983e-02, 1.97730616e-01, 1.93345502e-01,
          2.63166338e-01, 1.59742251e-01, 2.21560597e-01, 1.33578524e-01,
          1.83319494e-01, 2.27365002e-01, 1.55614510e-01, 1.63985953e-01,
          1.43380821e-01, 1.59149557e-01, 1.42636135e-01, 1.54678941e-01,
          1.64938733e-01, 1.84479013e-01, 2.33703494e-01, 2.05230162e-01,
          2.48713836e-01, 1.23649225e-01, 9.21674073e-02, 1.17970973e-01,
          1.47369340e-01, 1.20712012e-01, 1.24048635e-01, 2.07091123e-02,
          1.33413970e-01, 0., 0., 0., 6.07343465e-02, 0., 0., 0.,
          1.62804630e-02, 0., 0., 0., 1.05299912e-01, 6.79857954e-02,
          8.35708752e-02, 1.85797393e-01, 8.78796205e-02, 1.43867150e-01,
          0., 0., 1.06964834e-01, 0., 0., 0., 0., 0., 0., 0.,
          7.75105059e-02, 0., 0., 1.39345601e-01 ]
      - [ 3.50926816e-01, 9.30438414e-02, 0., 2.83107162e-02,
          8.51266235e-02, 3.92468274e-02, 4.24268469e-02, 2.53483206e-01,
          3.75116438e-01, 9.94067267e-02, 1.77064672e-01, 7.04525784e-02,
          1.50115296e-01, 1.47852212e-01, 1.52023584e-01, 2.63063848e-01,
          3.76562327e-01, 8.56140703e-02, 1.08597264e-01, 8.98957029e-02,
          6.15872815e-02, 1.47416383e-01, 1.14762776e-01, 1.15964554e-01,
          3.86805683e-01, 1.13667123e-01, 0., 5.79783022e-02,
          9.30552483e-02, 5.96678890e-02, 6.51464611e-02, 1.50717735e-01,
          6.63569272e-02, 3.82480696e-02, 0., 3.60231809e-02,
          7.63857067e-02, 0., 0., 0., 0., 3.16715315e-02, 0., 0.,
          6.00082353e-02, 0., 0., 5.04697561e-02, 4.18061092e-02,
          2.31947377e-02, 6.44587353e-02, 0., 5.84766008e-02, 0., 0., 0.,
          0., 0., 0., 0., 7.76765421e-02, 5.96347302e-02, 3.10995858e-02,
          4.62533087e-02 ]
      - [ 1.58308595e-01, 1.63154766e-01, 1.61675632e-01, 2.77099460e-01,
          1.25713035e-01, 1.21080138e-01, 5.22320829e-02, 1.49275854e-01,
          2.88733512e-01, 1.67802438e-01, 1.08830877e-01, 2.06611261e-01,
          3.00654560e-01, 1.59058690e-01, 1.20240927e-01, 1.44547671e-01,
          8.72317329e-02, 3.18442546e-02, 1.56630531e-01, 1.65340826e-01,
          2.40096033e-01, 1.16626173e-01, 2.03572303e-01, 1.45446926e-01,
          1.93221629e-01, 1.76459074e-01, 1.02846541e-01, 1.94970563e-01,
          1.90467283e-01, 1.60492688e-01, 3.80895659e-02, 0.,
          3.81995179e-02, 3.88256945e-02, 0., 0., 3.32477987e-02, 0., 0.,
          3.75077091e-02, 0., 0., 0., 0., 1.42961144e-01, 1.28164098e-01,
          7.51869306e-02, 0., 4.59129922e-02, 0., 1.35815054e-01,
          2.82372516e-02, 1.32507056e-01, 0., 0., 5.94020933e-02,
          6.44628257e-02, 4.05470692e-02, 0., 0., 4.11908366e-02, 0., 0.,
          0. ]
      - [ 3.93515974e-01, 1.23529054e-01, 0., 0., 5.02781011e-02,
          6.82710782e-02, 6.82085603e-02, 9.31825489e-02, 4.41027611e-01,
          1.70152828e-01, 1.14832960e-01, 1.51405305e-01, 1.28813908e-01,
          9.94769558e-02, 1.23081543e-01, 1.60879478e-01, 4.11893666e-01,
          9.45756659e-02, 1.10009685e-01, 5.63695207e-02, 1.45835400e-01,
          6.84393495e-02, 1.22961991e-01, 1.66958064e-01, 3.84570926e-01,
          1.01203032e-01, 3.43719982e-02, 7.08615556e-02, 7.71230906e-02,
          6.97285235e-02, 3.44398580e-02, 8.59823972e-02, 2.28133164e-02,
          7.09851533e-02, 3.21387313e-02, 2.96930671e-02, 5.71960136e-02,
          0., 0., 0., 0., 0., 3.50058116e-02, 0., 5.31534217e-02,
          5.07762581e-02, 0., 6.68335184e-02, 3.22629027e-02, 0., 0., 0.,
          6.69146255e-02, 0., 2.92545483e-02, 0., 0., 0., 1.63728874e-02,
          2.30001509e-02, 7.56027102e-02, 0., 3.14619765e-02, 0. ]
      - [ 1.39541373e-01, 1.08289167e-01, 9.92449522e-02, 2.61098355e-01,
          7.06700683e-02, 0., 0., 3.79846841e-02, 2.47528464e-01,
          2.49032438e-01, 1.74194619e-01, 2.70073116e-01, 1.21931911e-01,
          2.50284314e-01, 1.33697614e-01, 4.15326878e-02, 1.64840356e-01,
          1.85847268e-01, 1.53108418e-01, 1.44558057e-01, 2.00587258e-01,
          1.43168315e-01, 2.09099174e-01, 2.29165509e-01, 1.93205163e-01,
          1.24518611e-01, 1.66748524e-01, 6.82257116e-02, 1.37907669e-01,
          1.22812808e-01, 1.42660096e-01, 1.19654857e-01, 7.62794614e-02,
          0., 9.31994915e-02, 8.17131773e-02, 1.13090962e-01, 0., 0., 0.,
          1.63854584e-02, 0., 0., 0., 1.45021126e-01, 9.71452296e-02,
          1.08293876e-01, 0., 8.92299414e-02, 1.41849384e-01, 0., 0.,
          1.03158616e-01, 0., 0., 0., 0., 0., 0., 0., 8.32571238e-02, 0.,
          9.22535583e-02, 1.13898538e-01 ]
      - [ 3.18069935e-01, 0., 0., 2.05045491e-02, 5.83931766e-02,
          7.35733435e-02, 1.01962745e-01, 1.71770826e-01, 4.04416740e-01,
          1.33256391e-01, 9.74015445e-02, 1.86469972e-01, 1.51191577e-01,
          1.43941343e-01, 1.23728372e-01, 3.05013180e-01, 3.12865168e-01,
          1.39302403e-01, 1.19012184e-01, 1.46152198e-01, 6.24532476e-02,
          1.19839795e-01, 1.18109316e-01, 2.17894480e-01, 3.39820772e-01,
          5.12869582e-02, 2.50027701e-02, 6.93077892e-02, 9.24522653e-02,
          6.34555668e-02, 5.77702150e-02, 2.42914200e-01, 0.,
          2.65496094e-02, 4.59970683e-02, 0., 6.67356476e-02, 0., 0., 0.,
          2.88198423e-02, 0., 0., 0., 9.32061523e-02, 0., 3.99406664e-02,
          0., 0., 0., 0., 0., 8.78860503e-02, 5.29260561e-02,
          1.76253449e-02, 0., 3.74015644e-02, 0., 0., 0., 9.82278734e-02,
          0., 0., 3.11074071e-02 ]
      - [ 2.79091477e-01, 2.47957155e-01, 8.27802569e-02, 5.02449051e-02,
          6.21364042e-02, 1.91553365e-02, 8.17900375e-02, 1.10652708e-01,
          2.98734397e-01, 3.40617865e-01, 9.96312276e-02, 1.35271192e-01,
          1.53795764e-01, 9.29780528e-02, 1.54765278e-01, 2.96874326e-02,
          1.23815060e-01, 5.22152856e-02, 6.27750158e-02, 1.59075141e-01,
          2.63955623e-01, 1.67060822e-01, 1.50254160e-01, 1.89676583e-01,
          3.08312058e-01, 9.19485986e-02, 1.53981477e-01, 8.56754631e-02,
          1.32969782e-01, 1.07627407e-01, 1.21092699e-01, 1.28877059e-01,
          2.65478306e-02, 0., 0., 0., 5.24478294e-02, 0., 0.,
          3.02694142e-02, 0., 0., 0., 1.92448478e-02, 1.12022810e-01,
          1.02581628e-01, 9.51264650e-02, 1.00731052e-01, 1.90713421e-01,
          1.01450734e-01, 0., 0., 1.09803908e-01, 0., 0., 0., 0., 0., 0.,
          0., 8.97480473e-02, 0., 8.15889686e-02, 1.35972545e-01 ]
      - [ 2.70384282e-01, 7.70303458e-02, 0., 0., 3.21394086e-01,
          1.13377549e-01, 1.94488958e-01, 1.05024241e-01, 3.40564847e-01,
          9.94313806e-02, 1.23011276e-01, 3.27846110e-01, 1.92784220e-01,
          0., 0., 0., 3.72910649e-01, 1.83021501e-01, 0., 1.00374527e-01,
          5.57718240e-03, 0., 9.16865841e-02, 1.06557444e-01,
          3.90714288e-01, 6.97287619e-02, 0., 0., 9.65996366e-03, 0., 0.,
          0., 2.15215355e-01, 1.02686599e-01, 0., 0., 1.31271288e-01, 0.,
          0., 0., 0., 0., 0., 0., 1.55099228e-01, 9.35826823e-02, 0., 0.,
          4.40988205e-02, 3.54225673e-02, 0., 0., 1.24709588e-02, 0., 0.,
          0., 0., 0., 0., 0., 0., 0., 0., 0. ]
      - [ 4.65280086e-01, 0., 0., 0., 0., 0., 0., 0., 4.88461703e-01,
          5.40664569e-02, 1.43067434e-01, 1.15028404e-01, 1.15690179e-01,
          1.42492607e-01, 5.86833656e-02, 1.33795768e-01, 4.44949627e-01,
          1.20032236e-01, 0., 1.17145531e-01, 0., 1.20630458e-01,
          1.09884389e-01, 1.24769852e-01, 4.24137324e-01, 0., 0., 0., 0.,
          0., 0., 0., 5.63517250e-02, 0., 0., 0., 0., 0., 0., 0., 0., 0.,
          0., 0., 8.92315339e-03, 0., 2.14070734e-02, 2.66551245e-02,
          2.27496661e-02, 9.18980874e-03, 0., 0., 6.30962197e-03, 0., 0.,
          0., 0., 0., 0., 0., 0., 0., 0., 0. ]
      - [ 1.64689630e-01, 2.13514820e-01, 1.42640442e-01, 1.30208999e-01,
          1.97861448e-01, 1.40226752e-01, 1.73412293e-01, 1.22898437e-01,
          2.20861539e-01, 2.90853053e-01, 1.77096352e-01, 1.87586546e-01,
          2.06007972e-01, 2.02856913e-01, 6.05108701e-02, 4.24616076e-02,
          1.07440270e-01, 2.53495187e-01, 5.27239107e-02, 1.68054521e-01,
          8.82792920e-02, 9.17379558e-02, 9.15384144e-02, 7.54063204e-02,
          2.85565168e-01, 2.44349644e-01, 2.31395923e-02, 1.65127128e-01,
          1.53577730e-01, 1.31795898e-01, 3.61009501e-02, 8.35243985e-02,
          7.58718699e-02, 1.52383193e-01, 0., 0., 1.15259402e-01, 0., 0.,
          0., 3.68477665e-02, 0., 3.72570455e-02, 0., 1.13513827e-01,
          1.06672034e-01, 8.51955935e-02, 7.85804614e-02, 4.37816717e-02,
          7.11181685e-02, 0., 8.76342505e-02, 9.33039337e-02, 0., 0., 0.,
          0., 0., 0., 8.21164846e-02, 1.64922744e-01, 0., 4.02145013e-02,
          0. ]
      - [ 3.78275871e-01, 6.72685355e-02, 0., 0., 6.56967759e-02,
          5.85417226e-02, 9.30999964e-02, 1.41783491e-01, 4.19653445e-01,
          1.95384353e-01, 7.90476650e-02, 1.23756222e-01, 1.44250095e-01,
          1.33334905e-01, 1.24932989e-01, 2.19685018e-01, 3.31783772e-01,
          8.38173479e-02, 1.50581017e-01, 1.22664124e-01, 5.32131121e-02,
          1.32996291e-01, 1.12556785e-01, 2.91970670e-01, 3.00489932e-01,
          4.89657782e-02, 3.65103371e-02, 0., 7.09216148e-02, 0.,
          9.22347382e-02, 2.17429161e-01, 4.11077440e-02, 2.67371014e-02,
          0., 4.50006053e-02, 9.15041268e-02, 0., 2.12903041e-02,
          3.46428603e-02, 0., 0., 0., 4.91270944e-02, 6.95786104e-02,
          4.06807512e-02, 0., 4.07733843e-02, 2.24139877e-02,
          4.59057093e-02, 5.61175905e-02, 0., 5.96856736e-02, 0., 0., 0.,
          0., 0., 0., 0., 7.96764940e-02, 8.00163820e-02, 3.35857645e-02,
          3.51580456e-02 ]
      - [ 3.71126056e-01, 5.77551313e-02, 4.35457602e-02, 0.,
          7.79736117e-02, 7.16203749e-02, 2.79570445e-02, 3.14379930e-01,
          3.25699240e-01, 1.59505829e-01, 1.74852893e-01, 0.,
          1.24010883e-01, 1.65734217e-01, 4.88334186e-02, 2.74453729e-01,
          3.15214604e-01, 1.45008862e-01, 1.08240843e-01, 1.18096672e-01,
          3.11519727e-02, 1.28934979e-01, 1.15418985e-01, 2.48594418e-01,
          3.14875096e-01, 5.44527359e-02, 5.17991856e-02, 6.87143058e-02,
          6.83083907e-02, 6.78342283e-02, 4.45718206e-02, 2.42417172e-01,
          0., 0., 5.55226132e-02, 0., 8.00453871e-02, 0., 0., 0.,
          5.14787547e-02, 6.16865270e-02, 0., 3.63593847e-02,
          7.45747834e-02, 3.39447111e-02, 3.56120802e-02, 0.,
          2.20277701e-02, 4.02556397e-02, 3.81782763e-02, 5.11800162e-02,
          6.66457340e-02, 0., 0., 0., 0., 2.12367028e-02, 0.,
          4.23501395e-02, 5.32605536e-02, 0., 4.89050411e-02,
          4.36675660e-02 ]
      - [ 2.00197265e-01, 1.95199177e-01, 1.46592885e-01, 1.21813759e-01,
          1.85543880e-01, 1.30714431e-01, 1.69693947e-01, 1.58746317e-01,
          2.13185817e-01, 2.73096770e-01, 2.05521688e-01, 1.91711023e-01,
          2.11672083e-01, 1.36550397e-01, 1.59916639e-01, 5.40094227e-02,
          1.13151617e-01, 2.16994658e-01, 1.38648376e-01, 1.46950111e-01,
          1.29880652e-01, 8.53912979e-02, 3.42915244e-02, 1.45426095e-01,
          3.13306838e-01, 1.59220755e-01, 9.63035896e-02, 1.77496001e-01,
          1.19473584e-01, 5.31961620e-02, 1.10478908e-01, 1.06729843e-01,
          9.93828177e-02, 1.26874059e-01, 0., 0., 8.25045407e-02, 0., 0.,
          0., 4.54003811e-02, 0., 0., 0., 9.14004594e-02, 5.51836342e-02,
          1.26745686e-01, 1.35544091e-01, 4.85414118e-02, 4.95694093e-02,
          0., 8.77653211e-02, 9.43475515e-02, 3.27910706e-02, 0., 0., 0.,
          0., 4.92631122e-02, 1.19769245e-01, 1.26843482e-01, 0.,
          2.82855369e-02, 0. ]
      - [ 1.77881122e-01, 1.11575194e-01, 8.76825973e-02, 9.78328362e-02,
          1.86978698e-01, 1.14274062e-01, 1.75065100e-01, 2.19636053e-01,
          2.17898041e-01, 1.93810672e-01, 1.69286117e-01, 2.39716411e-01,
          1.09203599e-01, 2.06963450e-01, 1.88607246e-01, 1.56628862e-01,
          1.50745004e-01, 1.38285160e-01, 1.42433643e-01, 1.66503727e-01,
          1.67128429e-01, 1.24346837e-01, 2.27536842e-01, 2.04924062e-01,
          2.73485571e-01, 1.14620507e-01, 1.08158194e-01, 1.28255367e-01,
          1.39271826e-01, 8.99485424e-02, 1.03612468e-01, 8.51970315e-02,
          1.61720991e-01, 0., 0., 0., 5.00177294e-02, 0., 0., 0.,
          2.55659241e-02, 0., 2.55962703e-02, 0., 1.02373838e-01,
          5.83705194e-02, 1.25289828e-01, 1.31303653e-01, 7.69322738e-02,
          1.46170333e-01, 0., 0., 1.18401632e-01, 0., 0., 0., 0., 0., 0.,
          0., 7.92984292e-02, 0., 8.48199576e-02, 7.45513812e-02 ]
      - [ 2.54899830e-01, 1.22023687e-01, 1.04768835e-01, 6.04776628e-02,
          1.27224714e-01, 1.52024597e-01, 1.15065776e-01, 2.57895529e-01,
          3.17499101e-01, 2.12159723e-01, 1.25666529e-01, 1.81457892e-01,
          1.81592211e-01, 1.08836070e-01, 8.52492154e-02, 1.35387778e-01,
          2.20423192e-01, 1.32846028e-01, 8.88637379e-02, 0.,
          9.44300070e-02, 1.73663244e-01, 1.58135623e-01, 2.19864354e-01,
          3.09022814e-01, 1.20593861e-01, 1.41454875e-01, 1.03714488e-01,
          7.78165087e-02, 8.27912688e-02, 1.09507702e-01, 1.58364013e-01,
          1.22181766e-01, 0., 0., 0., 5.35504147e-02, 0., 0., 0., 0., 0.,
          0., 0., 1.13788664e-01, 7.42445290e-02, 1.24689959e-01,
          1.29944906e-01, 1.42121196e-01, 1.55377597e-01, 0., 0.,
          1.13406181e-01, 0., 0., 0., 0., 0., 0., 0., 4.06333543e-02, 0.,
          0., 1.28910586e-01 ]
      - [ 3.69651586e-01, 6.38812631e-02, 7.84182027e-02, 4.38889861e-02,
          9.02380496e-02, 5.69506288e-02, 4.81335074e-02, 2.89835304e-01,
          3.50744903e-01, 9.62940082e-02, 1.04453698e-01, 1.48226678e-01,
          5.39748296e-02, 1.02755032e-01, 1.71074450e-01, 2.39253506e-01,
          3.28125596e-01, 1.41282648e-01, 5.41045777e-02, 1.37510002e-01,
          1.12229325e-01, 0., 1.66600242e-01, 1.82167038e-01,
          3.55921924e-01, 4.89821285e-02, 6.84623867e-02, 6.41453192e-02,
          8.91183466e-02, 6.21568821e-02, 5.75154424e-02, 2.53383130e-01,
          3.89843956e-02, 6.90135658e-02, 0., 0., 5.66430129e-02,
          4.66187745e-02, 0., 4.82062176e-02, 0., 0., 3.95541415e-02,
          3.63875628e-02, 9.72655341e-02, 0., 5.53232394e-02, 0.,
          2.53315251e-02, 2.29330845e-02, 0., 3.32880244e-02,
          6.28604442e-02, 0., 4.53507118e-02, 5.34253158e-02, 0., 0.,
          3.29265743e-02, 0., 7.42594749e-02, 3.16926837e-02, 0., 0. ]
      - [ 3.16540003e-01, 0., 0., 0., 2.70975411e-01, 9.23903510e-02,
          1.90289691e-01, 1.89639241e-01, 3.44184309e-01, 1.42205000e-01,
          8.63211155e-02, 2.76204228e-01, 1.30485088e-01, 0.,
          6.26784414e-02, 0., 3.92840236e-01, 1.99989289e-01,
          7.83870891e-02, 0., 5.14038056e-02, 0., 0., 1.39808834e-01,
          4.05493706e-01, 1.06215104e-01, 0., 6.82748621e-03,
          1.21411784e-02, 0., 0., 0., 2.48117521e-01, 7.02899620e-02, 0.,
          0., 1.05704978e-01, 0., 0., 0., 0., 0., 0., 0., 8.25242922e-02,
          8.85627642e-02, 1.01495072e-01, 0., 1.62891001e-02,
          2.35076398e-02, 0., 0., 1.21411784e-02, 0., 0., 0.,
          5.42970002e-03, 0., 0., 6.82748621e-03, 7.67875509e-03, 0., 0.,
          0. ]
      - [ 1.12617701e-01, 1.26329094e-01, 1.05798423e-01, 1.34584963e-01,
          1.45253479e-01, 2.08213210e-01, 1.75399855e-01, 1.27556086e-01,
          2.65313208e-01, 1.81576282e-01, 2.27734163e-01, 2.00441390e-01,
          2.30892524e-01, 2.40593806e-01, 1.33895114e-01, 1.27450675e-01,
          1.50679231e-01, 1.78299963e-01, 2.10420102e-01, 1.08195454e-01,
          1.80905133e-01, 2.28239834e-01, 1.21980242e-01, 1.40478969e-01,
          1.64445877e-01, 1.44542545e-01, 2.24086776e-01, 1.44924179e-01,
          7.38571957e-02, 0., 3.46099958e-02, 0., 1.76713750e-01, 0., 0.,
          0., 5.61314486e-02, 0., 0., 0., 0., 0., 0., 0., 1.06523372e-01,
          0., 1.48813784e-01, 9.66612920e-02, 1.75496921e-01,
          7.83069283e-02, 0., 0., 9.48450863e-02, 0., 0., 0., 0., 0., 0.,
          0., 3.20533179e-02, 0., 3.18837948e-02, 9.43028703e-02 ]
      - [ 2.68654287e-01, 2.79589802e-01, 0., 0., 2.85360068e-02, 0.,
          6.50806725e-02, 1.01298437e-01, 3.85585904e-01, 1.42871514e-01,
          2.13594913e-01, 8.90918449e-02, 2.06378147e-01, 1.05606437e-01,
          1.36008650e-01, 7.52910152e-02, 3.28174084e-02, 0.,
          3.08516584e-02, 1.64691299e-01, 3.04425627e-01, 1.40236989e-01,
          2.01093942e-01, 1.86307758e-01, 2.83290952e-01, 1.16288118e-01,
          1.26831919e-01, 1.41609415e-01, 1.02667511e-01, 9.99750718e-02,
          1.00397401e-01, 1.68244943e-01, 0., 0., 3.10148392e-02,
          2.91052051e-02, 3.43810059e-02, 0., 0., 0., 5.12521807e-03, 0.,
          0., 0., 1.30560920e-01, 8.22440758e-02, 9.63313133e-02,
          9.91817713e-02, 1.31345779e-01, 1.29192948e-01, 0., 0.,
          1.14373922e-01, 0., 0., 0., 0., 0., 0., 0., 9.83187258e-02, 0.,
          1.24905556e-01, 1.00327104e-01 ]
      - [ 1.67722106e-01, 1.22049600e-01, 1.64653912e-01, 2.29991183e-01,
          1.64777637e-01, 1.48861855e-01, 1.30389065e-01, 1.35953292e-01,
          3.11172754e-01, 1.65879697e-01, 1.27298579e-01, 1.90221488e-01,
          2.12377265e-01, 2.34206602e-01, 1.56220213e-01, 8.29566345e-02,
          1.02317087e-01, 9.43134576e-02, 1.02827080e-01, 1.29338771e-01,
          1.25655368e-01, 2.00970739e-01, 2.11654603e-01, 1.71950072e-01,
          2.17586577e-01, 1.69451743e-01, 1.72763705e-01, 1.47359401e-01,
          1.25615850e-01, 1.87757909e-01, 6.69808909e-02, 4.95203733e-02,
          2.79046595e-02, 6.94992319e-02, 5.63359186e-02, 0.,
          5.40761091e-02, 0., 0., 0., 0., 0., 0., 0., 1.35293543e-01,
          9.70461294e-02, 1.39200926e-01, 6.53230175e-02, 6.48890287e-02,
          1.48483023e-01, 4.23676893e-02, 0., 1.34470999e-01, 0., 0., 0.,
          2.25065369e-02, 0., 0., 0., 7.85600469e-02, 0., 7.42066205e-02,
          0. ]
      - [ 3.37439120e-01, 0., 2.68235188e-02, 0., 6.33903667e-02, 0.,
          2.60001738e-02, 7.59984851e-02, 3.89647156e-01, 2.25050703e-01,
          1.58332527e-01, 1.69073507e-01, 1.56246603e-01, 9.21035782e-02,
          1.32460251e-01, 1.81235120e-01, 4.07769829e-02, 0., 0.,
          2.76445031e-01, 2.10785687e-01, 2.01318681e-01, 2.46974468e-01,
          1.21329285e-01, 3.08182418e-01, 1.25233650e-01, 1.35095745e-01,
          0., 1.34679139e-01, 1.46767080e-01, 0., 1.09081499e-01, 0., 0.,
          0., 0., 4.12377566e-02, 0., 6.39289990e-02, 0., 5.63671403e-02,
          0., 4.41747569e-02, 5.10208644e-02, 1.50353983e-01,
          8.31823051e-02, 1.25706434e-01, 0., 7.19231069e-02,
          6.18187934e-02, 6.55834004e-02, 8.38803053e-02, 1.14347532e-01,
          0., 0., 0., 0., 0., 0., 0., 8.62823278e-02, 0., 1.10780545e-01,
          6.56371266e-02 ]
      - [ 3.23559463e-01, 1.94448367e-01, 0., 3.78852598e-02,
          6.98448718e-02, 3.07940152e-02, 2.64406297e-02, 9.65259820e-02,
          3.57470304e-01, 2.32692510e-01, 1.27625972e-01, 2.51258880e-01,
          1.55600429e-01, 1.20564483e-01, 1.29461810e-01, 0.,
          1.23090066e-01, 0., 4.03009355e-02, 1.57582492e-01,
          2.91894048e-01, 2.63551295e-01, 1.95369154e-01, 1.06490627e-01,
          2.16779962e-01, 1.95241258e-01, 1.64713711e-01, 3.80965881e-02,
          1.56193212e-01, 1.58892453e-01, 7.47192428e-02, 0., 0., 0., 0.,
          4.17524725e-02, 4.84032109e-02, 0., 3.15873511e-02, 0.,
          3.30333188e-02, 0., 0., 6.03413619e-02, 1.50670066e-01,
          8.88922811e-02, 0., 8.15341845e-02, 4.63713929e-02, 0.,
          1.25032902e-01, 0., 1.16790421e-01, 0., 0., 0., 0., 0., 0., 0.,
          9.97455642e-02, 0., 1.05403647e-01, 9.54658762e-02 ]
      - [ 1.62433892e-01, 1.52349994e-01, 8.95425603e-02, 1.25956148e-01,
          7.93258250e-02, 1.53871059e-01, 1.70906976e-01, 2.55337626e-01,
          2.61107624e-01, 2.25779742e-01, 2.36100391e-01, 1.99178532e-01,
          1.96319014e-01, 1.78607807e-01, 1.47100568e-01, 0.,
          1.19479917e-01, 2.19092548e-01, 2.57796913e-01, 1.00711957e-01,
          1.12631030e-01, 1.87323019e-01, 1.54771313e-01, 1.31149784e-01,
          2.42726013e-01, 1.09178111e-01, 1.46529391e-01, 1.92011073e-01,
          7.19611347e-02, 0., 0., 3.46506462e-02, 1.29246458e-01, 0., 0.,
          0., 5.98938651e-02, 0., 0., 0., 0., 0., 0., 0., 1.23942077e-01,
          0., 1.64751589e-01, 1.09016821e-01, 1.38443887e-01,
          1.30096525e-01, 5.57773560e-02, 0., 1.16853714e-01, 0., 0.,
          3.15806679e-02, 3.22717689e-02, 4.00120243e-02, 0., 0.,
          3.08978651e-02, 0., 0., 0. ]
      - [ 1.28044426e-01, 1.54359803e-01, 2.47892961e-01, 9.31819007e-02,
          1.17537737e-01, 0., 4.76238877e-02, 0., 2.49592781e-01,
          2.43507355e-01, 2.05251217e-01, 2.25208730e-01, 2.25860417e-01,
          2.03326091e-01, 1.11816607e-01, 8.58012587e-02, 8.98934752e-02,
          1.83474347e-01, 1.51619121e-01, 1.59571290e-01, 2.01134130e-01,
          1.55131042e-01, 2.31661141e-01, 2.57496715e-01, 1.75329402e-01,
          1.64356172e-01, 3.11259646e-02, 1.18361801e-01, 1.49952263e-01,
          9.59177464e-02, 1.58811033e-01, 1.36409655e-01, 7.36532211e-02,
          7.39761442e-02, 0., 0., 5.24864830e-02, 0., 0., 0., 0., 0., 0.,
          0., 1.12468950e-01, 3.23883966e-02, 1.52332067e-01,
          9.44906622e-02, 8.27131122e-02, 1.29584044e-01, 8.73993039e-02,
          0., 1.23371147e-01, 0., 0., 0., 0., 0., 0., 0., 6.99272826e-02,
          0., 0., 1.14465773e-01 ]
      - [ 2.64153808e-01, 5.07438295e-02, 0., 4.48256470e-02,
          9.06375796e-02, 4.77358550e-02, 7.89789557e-02, 3.05124432e-01,
          3.36086333e-01, 1.04587100e-01, 1.31546229e-01, 3.58356312e-02,
          1.63529620e-01, 1.29114076e-01, 1.47386163e-01, 3.35758001e-01,
          2.87721515e-01, 0., 1.19756363e-01, 0., 1.57958582e-01,
          4.40400653e-02, 1.52494147e-01, 3.29146087e-01, 2.62424111e-01,
          4.26815487e-02, 6.46100938e-02, 3.39909717e-02, 7.23783597e-02,
          0., 9.03348848e-02, 3.17119271e-01, 3.63229327e-02,
          2.82372609e-02, 0., 0., 9.16333273e-02, 3.24495882e-02, 0.,
          4.32132296e-02, 3.35547365e-02, 5.09805828e-02, 0.,
          9.53472964e-03, 6.00123666e-02, 0., 5.30913807e-02, 0.,
          3.81188504e-02, 0., 0., 0., 8.52268413e-02, 0., 4.68052886e-02,
          0., 5.06864749e-02, 4.16755788e-02, 6.12009205e-02, 0.,
          8.50801170e-02, 0., 0., 0. ]
      - [ 1.30720302e-01, 1.15495168e-01, 1.40053958e-01, 3.74561548e-02,
          2.52771854e-01, 2.02323005e-01, 1.31497443e-01, 1.70054123e-01,
          2.02346340e-01, 2.36677587e-01, 1.24377161e-01, 1.21476814e-01,
          2.75133699e-01, 0., 2.16073826e-01, 0., 1.16856255e-01,
          9.56647843e-02, 1.00016363e-01, 1.60282925e-01, 1.80305675e-01,
          2.01987803e-01, 1.57813668e-01, 2.00667575e-01, 1.89604133e-01,
          1.47848427e-01, 1.49638355e-01, 1.33872673e-01, 1.89063340e-01,
          1.63640216e-01, 1.68006122e-01, 0., 8.93079489e-02,
          1.44083783e-01, 0., 0., 1.11094683e-01, 0., 0., 0., 0., 0., 0.,
          0., 1.54366478e-01, 8.71823058e-02, 1.31474048e-01,
          6.21601790e-02, 1.59454361e-01, 1.06062584e-01, 0., 0.,
          9.50916708e-02, 0., 0., 0., 0., 0., 0., 0., 7.20325634e-02, 0.,
          9.88930315e-02, 8.80118310e-02 ]
      - [ 2.60649979e-01, 9.52871516e-02, 7.48376697e-02, 1.82746649e-01,
          1.71480596e-01, 1.73425227e-01, 1.66937754e-01, 1.63667262e-01,
          2.51770496e-01, 2.88909018e-01, 1.02614745e-01, 1.50787041e-01,
          2.40431920e-01, 1.29320147e-02, 3.49441431e-02, 3.23336571e-02,
          2.40885004e-01, 3.75242591e-01, 3.76321785e-02, 7.73788765e-02,
          4.59040999e-02, 0., 0., 1.02210119e-01, 3.61551791e-01,
          2.18599886e-01, 0., 3.12274080e-02, 7.77166262e-02,
          3.17219682e-02, 5.19181155e-02, 7.74842799e-02, 9.80967060e-02,
          2.00470895e-01, 4.68121693e-02, 0., 1.39402077e-01, 0., 0., 0.,
          0., 0., 0., 0., 1.39372543e-01, 9.14074704e-02, 8.41175690e-02,
          0., 0., 0., 0., 0., 1.82886310e-02, 0., 0., 5.46984114e-02,
          6.17095605e-02, 1.76374279e-02, 2.29158215e-02, 0.,
          3.47002372e-02, 0., 0., 0. ]
      - [ 1.48099571e-01, 7.51589686e-02, 1.30604222e-01, 1.03900552e-01,
          1.74991012e-01, 0., 1.12326436e-01, 2.42079318e-01,
          2.62409180e-01, 1.78880438e-01, 2.06117764e-01, 2.27333039e-01,
          2.06755728e-01, 1.98194966e-01, 1.11764371e-01, 1.04642056e-01,
          1.72975197e-01, 1.30271643e-01, 1.69717461e-01, 1.54681161e-01,
          1.84898168e-01, 1.53070465e-01, 2.34299615e-01, 1.89121589e-01,
          2.19383389e-01, 1.46728396e-01, 1.23632215e-01, 1.46379411e-01,
          1.03339620e-01, 1.01602666e-01, 1.11991972e-01, 1.22689418e-01,
          1.35186046e-01, 0., 0., 0., 8.96065310e-02, 0., 0., 0., 0., 0.,
          0., 0., 1.20042726e-01, 6.33485317e-02, 1.48080885e-01,
          1.09896459e-01, 7.62102604e-02, 1.31658614e-01, 6.67535141e-02,
          0., 1.09987140e-01, 0., 0., 0., 0., 0., 0., 0., 8.68951157e-02,
          0., 8.85459259e-02, 7.44440332e-02 ]
      - [ 2.73412704e-01, 2.74482667e-01, 0., 0., 4.11153920e-02, 0.,
          1.25625432e-02, 1.05924435e-01, 1.40518844e-01, 4.15611833e-01,
          1.39905676e-01, 1.61016956e-01, 1.16639853e-01, 1.13291353e-01,
          1.19583227e-01, 8.87487680e-02, 2.07028285e-01, 1.37391537e-01,
          5.09095266e-02, 2.25632228e-02, 3.41058820e-01, 1.05935648e-01,
          1.80079579e-01, 1.76269338e-01, 2.82297790e-01, 9.37309042e-02,
          1.45341143e-01, 0., 1.47776544e-01, 1.16701774e-01,
          1.17927864e-01, 1.05260976e-01, 3.68085802e-02, 0.,
          4.23220880e-02, 0., 4.02257405e-02, 0., 0., 0., 1.75180770e-02,
          0., 5.21335751e-02, 2.65924502e-02, 9.72990617e-02, 0.,
          1.07773192e-01, 1.05439343e-01, 1.78376317e-01, 9.73500907e-02,
          0., 0., 9.23954919e-02, 0., 0., 0., 0., 0., 0., 0.,
          5.81008866e-02, 0., 0., 1.74387544e-01 ]
      - [ 1.50908247e-01, 1.60836264e-01, 1.16911985e-01, 8.46628174e-02,
          2.69359440e-01, 1.72560856e-01, 2.18573973e-01, 7.77297989e-02,
          1.99948981e-01, 2.13070095e-01, 1.16018005e-01, 1.95154175e-01,
          2.81829774e-01, 1.69132441e-01, 1.17482692e-01, 8.63934532e-02,
          9.55998003e-02, 0., 7.90479854e-02, 2.04418540e-01,
          1.24258056e-01, 1.86973616e-01, 2.30086684e-01, 1.49655938e-01,
          1.74950287e-01, 1.39421120e-01, 1.12914190e-01, 2.05760688e-01,
          1.60012826e-01, 1.77091911e-01, 1.33607060e-01, 4.07800600e-02,
          1.00305773e-01, 1.15110464e-01, 0., 0., 7.68635496e-02, 0., 0.,
          0., 0., 0., 0., 0., 1.16930798e-01, 9.82107893e-02,
          1.46994978e-01, 0., 1.36847451e-01, 1.23803951e-01, 0., 0.,
          1.06119655e-01, 0., 0., 0., 0., 0., 0., 0., 6.38382137e-02, 0.,
          0., 1.41739756e-01 ]
      - [ 3.11163545e-01, 7.17877448e-02, 6.96313828e-02, 2.66645644e-02,
          9.91555154e-02, 1.07016101e-01, 7.40374252e-02, 3.01866233e-01,
          3.43903035e-01, 4.81268577e-02, 1.20319895e-01, 1.62575647e-01,
          6.79407641e-02, 1.11127481e-01, 1.97680980e-01, 3.04197371e-01,
          3.40712875e-01, 1.11513883e-01, 7.94813633e-02, 0.,
          1.02833435e-01, 6.55832142e-02, 1.62209108e-01, 2.29141518e-01,
          3.12131226e-01, 8.71157423e-02, 6.78103119e-02, 5.52639477e-02,
          8.45793784e-02, 7.19589144e-02, 4.21859361e-02, 2.41395384e-01,
          3.17983888e-02, 0., 0., 0., 5.53815626e-02, 1.96033530e-02,
          3.60635258e-02, 3.24202925e-02, 4.11271341e-02, 3.22565362e-02,
          0., 3.94517966e-02, 9.31798145e-02, 0., 0., 0., 0.,
          1.50365299e-02, 0., 5.05161807e-02, 9.79727656e-02, 0.,
          7.02033266e-02, 0., 7.13466182e-02, 0., 0., 5.78579791e-02,
          7.34352320e-02, 0., 0., 0. ]
      - [ 1.17396787e-01, 9.07836258e-02, 2.03162417e-01, 1.88494101e-01,
          1.10808462e-01, 6.98404312e-02, 1.57947019e-02, 2.89237127e-02,
          2.41333678e-01, 2.48842567e-01, 2.24121392e-01, 2.25337327e-01,
          2.14493722e-01, 1.69587150e-01, 1.75857708e-01, 8.84027779e-02,
          1.66313305e-01, 4.48549800e-02, 2.01615334e-01, 1.26708195e-01,
          2.01481342e-01, 2.05247134e-01, 1.47586271e-01, 2.22109854e-01,
          2.77530968e-01, 7.83097073e-02, 1.06114365e-01, 1.18302748e-01,
          1.57250509e-01, 3.56433615e-02, 1.22725666e-01, 1.86519846e-01,
          3.07409503e-02, 7.56590739e-02, 6.69196323e-02, 3.60918753e-02,
          7.78314248e-02, 0., 0., 0., 0., 0., 0., 0., 8.98270383e-02,
          7.28477389e-02, 1.41602397e-01, 0., 1.53442279e-01,
          8.60247388e-02, 6.64263293e-02, 0., 1.08741395e-01, 0., 0., 0.,
          0., 0., 0., 0., 9.68368053e-02, 0., 1.23620696e-01, 0. ]
      - [ 1.41389504e-01, 1.21000804e-01, 2.05576301e-01, 1.97144702e-01,
          1.23136424e-01, 0., 0., 0., 2.62593836e-01, 2.18161002e-01,
          2.14469507e-01, 2.02626422e-01, 2.42954925e-01, 2.21482947e-01,
          1.20721340e-01, 5.10667786e-02, 1.86600924e-01, 1.24918967e-01,
          1.22226633e-01, 1.62786826e-01, 1.76899835e-01, 2.01977000e-01,
          2.07574829e-01, 2.27285117e-01, 2.16561422e-01, 1.50960758e-01,
          1.21930271e-01, 0., 1.63257778e-01, 1.26510352e-01, 0.,
          1.48797944e-01, 3.86813991e-02, 8.27614665e-02, 5.96536063e-02,
          0., 6.12492375e-02, 0., 2.72027310e-02, 2.46722735e-02, 0., 0.,
          0., 0., 1.08711600e-01, 1.19441278e-01, 9.65669677e-02,
          8.13971311e-02, 1.12412155e-01, 1.56564936e-01, 0., 0.,
          1.21877328e-01, 0., 0., 0., 0., 0., 0., 0., 8.45930353e-02, 0.,
          9.35261771e-02, 7.21976310e-02 ]
      - [ 2.90495783e-01, 2.50471711e-01, 4.99598347e-02, 6.02543727e-02,
          4.57782634e-02, 2.70345993e-02, 6.03815950e-02, 9.83960181e-02,
          3.55800152e-01, 2.67820716e-01, 1.36585608e-01, 9.95657220e-02,
          1.62279755e-01, 1.39820129e-01, 1.03056289e-01, 2.44244374e-02,
          1.46134928e-01, 7.50223547e-02, 9.47772861e-02, 1.22188233e-01,
          2.84693033e-01, 1.76184252e-01, 2.01900572e-01, 1.59725547e-01,
          2.31421947e-01, 2.11469993e-01, 1.47313401e-01, 0.,
          1.58418387e-01, 1.09952673e-01, 1.60909489e-01, 0.,
          1.86750591e-02, 0., 4.48722281e-02, 0., 4.45890129e-02, 0., 0.,
          0., 7.33038876e-03, 0., 0., 0., 9.68012512e-02, 8.00596923e-02,
          1.09923415e-01, 1.05989829e-01, 2.10746646e-01, 0., 0., 0.,
          9.35881361e-02, 0., 0., 0., 0., 0., 0., 0., 7.82671347e-02, 0.,
          0., 1.77439377e-01 ]
      - [ 1.01502188e-01, 1.71986878e-01, 1.03634268e-01, 6.76804334e-02,
          1.81781128e-01, 1.45656258e-01, 1.88835964e-01, 1.83914453e-01,
          1.65574878e-01, 2.15655461e-01, 1.75168291e-01, 2.59998918e-01,
          2.52637208e-01, 2.13425457e-01, 1.95010945e-01, 1.37761429e-01,
          1.28215253e-01, 1.25983819e-01, 2.40368158e-01, 0.,
          2.55320221e-01, 2.01072663e-01, 1.20594114e-01, 1.35288551e-01,
          1.43090859e-01, 1.82217062e-01, 2.46514574e-01, 4.29588556e-02,
          4.79924716e-02, 3.79591696e-02, 0., 0., 0., 0., 0., 0.,
          1.75243728e-02, 0., 0., 2.32999511e-02, 2.57951785e-02, 0., 0.,
          0., 1.04290880e-01, 7.91576058e-02, 8.78648534e-02,
          2.09121272e-01, 1.93481117e-01, 1.13560550e-01, 0., 0.,
          1.05510697e-01, 0., 0., 0., 0., 0., 0., 0., 2.99285650e-02, 0.,
          0., 3.74895036e-02 ]
      - [ 3.87449443e-01, 6.56630322e-02, 9.36138481e-02, 8.13266933e-02,
          8.02102536e-02, 4.09578979e-02, 5.86960129e-02, 5.90325780e-02,
          4.49614704e-01, 1.18009403e-01, 1.06229134e-01, 1.51186928e-01,
          8.01795870e-02, 1.39846906e-01, 1.27406880e-01, 2.01804966e-01,
          4.10805464e-01, 1.62096262e-01, 0., 0., 1.53064281e-01,
          7.20340759e-02, 1.38786167e-01, 1.02735810e-01, 4.09175038e-01,
          4.31598872e-02, 7.24735036e-02, 3.91199812e-02, 6.42779469e-02,
          0., 1.03952130e-02, 7.49923214e-02, 6.14886060e-02,
          4.12251912e-02, 2.91350018e-02, 4.43886295e-02, 6.69686198e-02,
          0., 0., 0., 2.91972943e-02, 0., 0., 4.37424369e-02,
          5.30744493e-02, 0., 0., 7.46497884e-02, 0., 0., 0., 0.,
          6.02686852e-02, 4.43670154e-02, 4.98356670e-02, 0.,
          5.29286712e-02, 3.47584933e-02, 0., 0., 6.32689446e-02,
          3.24436538e-02, 0., 3.86537835e-02 ]
      - [ 9.63829532e-02, 2.04756781e-01, 0., 3.80789116e-02,
          2.08043590e-01, 2.49472246e-01, 1.46739095e-01, 1.71063513e-01,
          1.41230360e-01, 2.20158532e-01, 1.89566031e-01, 9.57151502e-02,
          2.84597397e-01, 6.52358532e-02, 1.66892767e-01, 1.39055118e-01,
          1.28086612e-01, 9.26289409e-02, 8.79847556e-02, 1.62418529e-01,
          1.56098574e-01, 1.59435079e-01, 2.41103336e-01, 1.58052355e-01,
          1.77479550e-01, 1.69125482e-01, 1.41875148e-01, 1.61627516e-01,
          1.88100502e-01, 1.55001536e-01, 1.67483315e-01, 6.65992945e-02,
          7.12407939e-03, 1.08337037e-01, 9.07641053e-02, 0.,
          1.07098393e-01, 0., 0., 0., 0., 0., 0., 0., 1.36454195e-01,
          8.99902508e-02, 1.23976640e-01, 8.86410475e-02, 1.36783883e-01,
          1.45717129e-01, 0., 0., 8.82638618e-02, 0., 0., 0., 0., 0., 0.,
          0., 7.65631422e-02, 0., 0., 1.40633717e-01 ]
      - [ 1.80225462e-01, 3.25186998e-01, 0., 0., 1.80711392e-02, 0., 0.,
          0., 9.34110284e-02, 4.36879098e-01, 1.59220219e-01,
          8.58119130e-02, 2.04301402e-01, 1.01027608e-01, 9.88965780e-02,
          1.01513863e-01, 8.42209235e-02, 0., 1.25830024e-01, 0.,
          3.05960298e-01, 2.71720797e-01, 1.55091062e-01, 1.86374128e-01,
          2.07977384e-01, 1.84321195e-01, 1.36090279e-01, 1.35329902e-01,
          1.51063547e-01, 1.32219419e-01, 1.05995543e-01, 1.30053073e-01,
          5.06901368e-02, 4.76766117e-02, 0., 0., 2.06042696e-02, 0., 0.,
          0., 0., 0., 0., 0., 1.37733057e-01, 9.79140326e-02,
          9.39299762e-02, 4.60384302e-02, 1.20895840e-01, 1.62818983e-01,
          0., 0., 1.05526790e-01, 0., 0., 0., 0., 0., 0., 0.,
          6.71313033e-02, 0., 0., 1.54601455e-01 ]
      - [ 4.12092626e-01, 1.00945935e-01, 8.17472562e-02, 3.53331827e-02,
          9.25974324e-02, 4.17876914e-02, 3.90005521e-02, 2.05390885e-01,
          3.98269117e-01, 1.62145242e-01, 1.28976449e-01, 1.19527385e-01,
          1.13207214e-01, 1.09710172e-01, 1.29939854e-01, 1.92866698e-01,
          3.22128445e-01, 1.28064156e-01, 1.31677359e-01, 0.,
          1.19878903e-01, 7.51404688e-02, 1.08395495e-01, 1.60159513e-01,
          3.67691547e-01, 1.34553909e-01, 6.25708029e-02, 0.,
          7.78588876e-02, 5.71076795e-02, 7.13837147e-02, 2.40362287e-01,
          1.50626628e-02, 7.74276555e-02, 0., 3.42467912e-02,
          7.58137405e-02, 0., 0., 0., 0., 0., 2.79205106e-02, 0.,
          8.36802870e-02, 5.82387447e-02, 0., 0., 4.33474854e-02,
          3.11741289e-02, 3.37974802e-02, 0., 4.17066254e-02, 0., 0., 0.,
          0., 0., 0., 0., 7.08220303e-02, 4.84890863e-02, 0.,
          3.89462039e-02 ]
      - [ 8.73829201e-02, 8.64284039e-02, 1.70623273e-01, 2.12404341e-01,
          7.64549449e-02, 4.66807187e-02, 0., 8.45244676e-02,
          2.17619598e-01, 2.45867684e-01, 2.48870701e-01, 2.52460271e-01,
          1.35297343e-01, 2.59414554e-01, 1.13383174e-01, 1.49285749e-01,
          1.46327898e-01, 1.14166625e-01, 2.22659647e-01, 1.01726331e-01,
          1.35044366e-01, 1.72450930e-01, 1.81460783e-01, 2.39643291e-01,
          2.28836641e-01, 1.34384573e-01, 1.18954450e-01, 1.09829359e-01,
          1.14654437e-01, 1.13446914e-01, 1.42919511e-01, 1.34671628e-01,
          8.25630128e-02, 4.28325795e-02, 1.15835600e-01, 0.,
          1.14459246e-01, 0., 0., 0., 0., 0., 0., 0., 1.32971555e-01,
          1.51574463e-01, 7.97944814e-02, 0., 1.06081918e-01,
          8.32030699e-02, 8.46855491e-02, 7.29025528e-02, 1.14878252e-01,
          0., 0., 0., 0., 0., 0., 0., 8.82251412e-02, 0., 8.88200998e-02,
          7.50026479e-02 ]
      - [ 3.45850706e-01, 3.21147665e-02, 4.77088690e-02, 0.,
          6.41796440e-02, 0., 3.54239866e-02, 4.21644785e-02,
          4.21671510e-01, 2.20258355e-01, 1.23523675e-01, 7.30856359e-02,
          1.75684229e-01, 1.18106984e-01, 1.09928228e-01, 1.85834140e-01,
          5.29192649e-02, 4.47583124e-02, 3.63589935e-02, 2.92049319e-01,
          1.18607759e-01, 1.53866008e-01, 2.82572329e-01, 2.15675652e-01,
          2.55386412e-01, 1.59885600e-01, 1.04283653e-01, 0.,
          1.28672853e-01, 9.27292705e-02, 1.15190074e-01, 1.30915493e-01,
          0., 0., 0., 0., 3.57177816e-02, 0., 4.85473573e-02,
          3.54165211e-02, 3.05529516e-02, 3.47955748e-02, 0., 0.,
          1.23757415e-01, 7.08687678e-02, 1.37428418e-01, 1.05323762e-01,
          0., 4.27851379e-02, 0., 0., 1.18787840e-01, 1.10639215e-01, 0.,
          0., 5.14282808e-02, 0., 0., 0., 1.05396613e-01, 0.,
          8.05704892e-02, 1.14240177e-01 ]
      - [ 7.58448914e-02, 1.58808395e-01, 2.04131633e-01, 1.65636599e-01,
          9.74586681e-02, 0., 0., 8.58823732e-02, 1.77873090e-01,
          3.03180367e-01, 2.71338671e-01, 1.30357087e-01, 2.15211868e-01,
          2.61725187e-01, 1.06129706e-01, 1.56310916e-01, 1.63640916e-01,
          1.51970655e-01, 1.99694917e-01, 5.29901274e-02, 1.73660129e-01,
          1.97597370e-01, 2.35659614e-01, 2.38319084e-01, 1.91691056e-01,
          1.65789440e-01, 8.61273110e-02, 4.63009402e-02, 1.32169843e-01,
          1.54256433e-01, 9.98162329e-02, 0., 8.32535401e-02, 0.,
          7.78430104e-02, 0., 6.63529262e-02, 0., 0., 0., 0., 0., 0., 0.,
          1.31244823e-01, 1.39340967e-01, 6.63683936e-02, 7.83778802e-02,
          7.82147050e-02, 7.24743828e-02, 1.18852645e-01, 0.,
          1.22637346e-01, 0., 0., 0., 0., 0., 0., 0., 7.10312799e-02, 0.,
          7.04651326e-02, 6.41668662e-02 ]
      - [ 3.29576522e-01, 5.84802330e-02, 8.44056010e-02, 4.57908809e-02,
          8.75846222e-02, 5.65009639e-02, 1.01994239e-01, 3.00462842e-01,
          2.95779526e-01, 1.76122293e-01, 1.30451828e-01, 1.53612316e-01,
          7.86472782e-02, 1.61850080e-01, 1.16975710e-01, 2.64212579e-01,
          3.09487402e-01, 1.21466711e-01, 1.24842092e-01, 0.,
          1.30295008e-01, 0., 1.39501795e-01, 3.44126970e-01,
          2.57183194e-01, 3.34002674e-02, 0., 5.25940508e-02,
          9.68543068e-02, 1.14011936e-01, 0., 2.83462673e-01,
          7.23386481e-02, 1.91931594e-02, 0., 2.15079542e-02,
          6.14879839e-02, 0., 3.40906195e-02, 0., 0., 0., 0., 0.,
          6.14839122e-02, 4.08993922e-02, 6.45067021e-02, 0.,
          4.40252833e-02, 0., 0., 0., 6.30579516e-02, 0., 0., 0., 0., 0.,
          0., 5.38383573e-02, 7.09955096e-02, 2.82161366e-02,
          3.60734947e-02, 4.34977300e-02 ]
      - [ 2.44150266e-01, 9.25307050e-02, 7.99634457e-02, 7.56037533e-02,
          8.42633620e-02, 5.32445647e-02, 1.96331162e-02, 2.84628749e-01,
          3.53004873e-01, 1.06826857e-01, 1.24484137e-01, 5.81919663e-02,
          1.58980221e-01, 1.18083797e-01, 9.35441628e-02, 3.67204338e-01,
          2.70129919e-01, 1.23308882e-01, 5.25590554e-02, 1.73491538e-02,
          1.39982507e-01, 1.09741621e-01, 1.29598722e-01, 3.67656350e-01,
          2.10206166e-01, 0., 5.98333813e-02, 4.33457009e-02,
          8.18638131e-02, 9.14419144e-02, 3.02610584e-02, 3.26240599e-01,
          7.00397715e-02, 0., 6.28744885e-02, 0., 5.91837093e-02,
          4.71257009e-02, 0., 4.90600765e-02, 0., 0., 0., 0.,
          5.01279831e-02, 0., 7.44328201e-02, 3.89327966e-02,
          1.74523238e-02, 4.69496474e-02, 0., 0., 6.86155558e-02, 0., 0.,
          1.09725678e-02, 0., 0., 0., 6.75150007e-02, 6.04566224e-02, 0.,
          0., 4.07296754e-02 ]
      - [ 3.64915848e-01, 0., 0., 2.33741291e-02, 2.51696184e-02, 0.,
          1.79075673e-02, 0., 4.35349137e-01, 2.04305366e-01,
          9.03632790e-02, 1.32900566e-01, 1.45323798e-01, 7.94076771e-02,
          1.30284473e-01, 1.67426839e-01, 6.02952205e-02, 0., 0.,
          2.59292573e-01, 1.70695648e-01, 2.05930144e-01, 2.61874586e-01,
          1.08128719e-01, 3.20908725e-01, 1.47929877e-01, 1.15614958e-01,
          0., 1.20811604e-01, 0., 1.36203751e-01, 1.45999119e-01, 0., 0.,
          0., 0., 2.05509067e-02, 0., 0., 4.93385866e-02, 3.89457010e-02,
          0., 0., 0., 1.12846322e-01, 6.18041009e-02, 1.36786446e-01,
          1.10667422e-01, 8.46951082e-02, 9.90378261e-02, 7.30616525e-02,
          0., 9.62356925e-02, 0., 0., 0., 0., 0., 0., 0., 1.00977667e-01,
          0., 0., 1.63607031e-01 ]
      - [ 1.80574358e-01, 1.09557897e-01, 1.89124033e-01, 2.62079716e-01,
          1.13388956e-01, 1.43942565e-01, 9.36511755e-02, 1.79698139e-01,
          2.38958955e-01, 1.38294518e-01, 1.98146805e-01, 2.13143840e-01,
          2.78032035e-01, 1.93131745e-01, 1.25137538e-01, 1.28592208e-01,
          9.40026343e-02, 3.11403330e-02, 1.18125372e-01, 2.01432452e-01,
          1.74173370e-01, 1.95307687e-01, 1.91873237e-01, 1.65694222e-01,
          2.00324461e-01, 1.51852384e-01, 1.29752949e-01, 1.76428005e-01,
          2.00758636e-01, 1.33810341e-01, 6.08496964e-02, 2.99065541e-02,
          3.93528827e-02, 0., 0., 0., 1.22222872e-02, 2.21597198e-02, 0.,
          0., 1.65490545e-02, 3.68787795e-02, 0., 0., 1.32488877e-01,
          8.43040794e-02, 1.32531941e-01, 0., 6.07026592e-02,
          1.16014995e-01, 8.53747949e-02, 2.03101169e-02, 1.31921455e-01,
          0., 0., 4.83826809e-02, 4.23932485e-02, 0., 0., 0.,
          6.11114353e-02, 0., 0., 3.69772576e-02 ]
      - [ 3.48958701e-01, 9.36916620e-02, 5.53550869e-02, 2.09973723e-01,
          2.10585713e-01, 1.66802496e-01, 1.10306315e-01, 1.45329282e-01,
          3.09613675e-01, 7.90357590e-02, 1.11086175e-01, 3.51881325e-01,
          1.28391832e-01, 9.57151130e-02, 1.77494772e-02, 1.08751349e-01,
          3.27928334e-01, 1.93309426e-01, 1.05191238e-01, 5.28301485e-02,
          7.62626380e-02, 0., 1.20809972e-01, 1.67260453e-01,
          3.41536433e-01, 7.24261776e-02, 6.17628954e-02, 4.52032238e-02,
          7.55544454e-02, 5.86909465e-02, 4.75287139e-02, 1.48245484e-01,
          1.92654908e-01, 0., 0., 0., 5.70789538e-02, 0., 0., 0., 0., 0.,
          0., 0., 3.73136811e-02, 0., 0., 1.39112443e-01, 1.66871846e-02,
          4.91498969e-02, 0., 2.84299143e-02, 3.53988670e-02, 0., 0., 0.,
          0., 0., 0., 0., 5.60411401e-02, 0., 2.91017108e-02,
          5.13163842e-02 ]
      - [ 5.15785739e-02, 6.96126893e-02, 1.89385980e-01, 2.32568145e-01,
          1.19611166e-01, 0., 0., 9.52131599e-02, 1.53874278e-01,
          3.00534189e-01, 1.77854359e-01, 2.62093931e-01, 1.73161641e-01,
          2.73679465e-01, 1.03159115e-01, 1.28210664e-01, 1.20594501e-01,
          1.42114133e-01, 1.92935407e-01, 1.51722163e-01, 2.01456308e-01,
          2.19698042e-01, 1.50113031e-01, 1.74505979e-01, 2.04372272e-01,
          9.16781947e-02, 1.36510685e-01, 1.51865363e-01, 1.20769083e-01,
          1.22308448e-01, 1.30239502e-01, 1.09703802e-01, 8.42388049e-02,
          0., 1.19715899e-01, 0., 1.04329959e-01, 0., 0., 0., 0., 0., 0.,
          0., 1.50889039e-01, 1.18007235e-01, 8.49540830e-02,
          4.33361903e-02, 1.25039279e-01, 8.80121067e-02, 8.07962641e-02,
          0., 1.07516333e-01, 0., 0., 0., 0., 0., 0., 0., 8.30111802e-02,
          0., 1.17377803e-01, 7.35177994e-02 ]
      - [ 3.58096719e-01, 6.65756688e-02, 4.12373804e-02, 3.67260389e-02,
          6.98097423e-02, 1.16424620e-01, 5.08520417e-02, 3.63002270e-01,
          2.46065542e-01, 1.87049955e-01, 8.58848020e-02, 4.49208133e-02,
          1.57590240e-01, 2.79010404e-02, 1.82200566e-01, 2.67855167e-01,
          3.24403554e-01, 1.13146149e-01, 6.36420995e-02, 0.,
          1.48530513e-01, 1.41447261e-01, 3.89297791e-02, 3.05864185e-01,
          2.69203991e-01, 7.14782700e-02, 3.19574140e-02, 6.58210218e-02,
          9.38778594e-02, 4.53634374e-02, 1.15603693e-01, 2.60027915e-01,
          2.51214616e-02, 3.15004513e-02, 0., 0., 5.95071763e-02, 0.,
          4.02845815e-02, 3.71167958e-02, 5.05514257e-02, 0.,
          3.44437174e-02, 3.17674093e-02, 8.24725702e-02, 0.,
          2.70957425e-02, 5.07680699e-02, 0., 0., 2.51408238e-02,
          3.52637768e-02, 8.01483393e-02, 3.57242115e-02, 0., 0.,
          4.01594341e-02, 5.05621247e-02, 0., 0., 4.88273464e-02,
          3.76029722e-02, 3.78292203e-02, 0. ]
      - [ 5.63513525e-02, 1.50728106e-01, 1.27712578e-01, 1.19922109e-01,
          2.76028097e-01, 1.69515759e-01, 9.73383635e-02, 9.19244811e-02,
          2.16664538e-01, 2.59224653e-01, 8.16055536e-02, 1.50258198e-01,
          2.89874345e-01, 2.24465162e-01, 1.30512491e-01, 0.,
          1.05715193e-01, 1.06564380e-01, 9.70510691e-02, 1.75361305e-01,
          1.44182429e-01, 1.91615224e-01, 2.02712178e-01, 1.90124512e-01,
          1.68533668e-01, 1.49554193e-01, 1.50174603e-01, 1.39632255e-01,
          1.94075823e-01, 1.33469224e-01, 1.72991201e-01, 3.96771356e-02,
          0., 2.84587927e-02, 8.54326785e-02, 7.06304535e-02,
          1.01194322e-01, 0., 0., 0., 7.01656379e-03, 0., 0., 0.,
          1.46364793e-01, 9.06712487e-02, 1.47846118e-01, 7.63948113e-02,
          1.22544974e-01, 1.47479400e-01, 0., 0., 1.06527060e-01, 0., 0.,
          0., 0., 0., 0., 0., 6.60079345e-02, 0., 0., 1.23670839e-01 ]
      - [ 7.41562024e-02, 0., 0., 0., 0., 0., 5.30823832e-03,
          4.56096709e-01, 1.47081673e-01, 1.54686108e-01, 1.14191823e-01,
          0., 1.15872361e-01, 1.43556386e-01, 6.68296069e-02,
          4.78067338e-01, 1.92792609e-01, 1.29249915e-01, 1.19611591e-01,
          0., 0., 1.19032666e-01, 1.12383328e-01, 4.35148656e-01,
          1.18770763e-01, 0., 0., 0., 0., 0., 0., 3.97147357e-01,
          2.27603856e-02, 0., 0., 0., 0., 0., 0., 0., 0., 0., 0., 0.,
          8.92735738e-03, 0., 1.31771369e-02, 1.00794369e-02,
          3.15629765e-02, 2.33280063e-02, 0., 0., 6.31259475e-03, 0., 0.,
          0., 0., 0., 0., 0., 0., 0., 0., 4.66679372e-02 ]
      - [ 3.17472547e-01, 0., 7.01095983e-02, 1.95163161e-01,
          2.22229958e-01, 1.09434165e-01, 1.77738726e-01, 1.83432430e-01,
          2.66997606e-01, 1.83643132e-01, 1.47511601e-01, 2.76509166e-01,
          2.17056245e-01, 8.96290764e-02, 3.13514173e-02, 0.,
          3.42002660e-01, 2.30228677e-01, 5.37434220e-02, 4.17323858e-02,
          9.95590910e-02, 4.45595533e-02, 3.74802053e-02, 1.42054036e-01,
          3.83280665e-01, 0., 3.40606049e-02, 2.81971842e-02,
          5.24405129e-02, 7.68148080e-02, 3.71996872e-02, 9.16216820e-02,
          2.20110849e-01, 4.76240218e-02, 0., 0., 8.92553478e-02, 0., 0.,
          0., 0., 0., 2.00733058e-02, 0., 7.64213428e-02, 0.,
          8.79701748e-02, 9.93516520e-02, 0., 4.78035174e-02, 0., 0.,
          5.10710739e-02, 0., 4.14511226e-02, 3.53052281e-02,
          2.06218064e-02, 2.23868806e-02, 3.13546769e-02, 0.,
          5.07225841e-02, 0., 0., 0. ]
      - [ 1.37244269e-01, 1.15276001e-01, 1.51587248e-01, 2.74983585e-01,
          1.31880909e-01, 1.60230756e-01, 7.67413080e-02, 1.61499515e-01,
          2.49624312e-01, 1.81791306e-01, 1.10676505e-01, 2.80542314e-01,
          2.27825582e-01, 1.71779379e-01, 1.59241185e-01, 1.07548095e-01,
          9.15665329e-02, 0., 1.24794818e-01, 1.89274102e-01,
          1.81471631e-01, 2.16164961e-01, 1.90359220e-01, 1.59332618e-01,
          1.86970845e-01, 1.74991533e-01, 1.21094577e-01, 1.54137626e-01,
          1.69730440e-01, 2.12459788e-01, 6.19459115e-02, 0.,
          5.02292179e-02, 4.94247042e-02, 0., 3.95570733e-02,
          2.67127026e-02, 0., 0., 0., 0., 0., 2.22445782e-02, 0.,
          1.33456245e-01, 0., 1.45709649e-01, 8.14578608e-02,
          4.70867194e-02, 7.28252679e-02, 1.27271339e-01, 0.,
          1.33563519e-01, 0., 0., 5.02650514e-02, 5.41208386e-02, 0., 0.,
          0., 6.89424202e-02, 3.94517258e-02, 0., 0. ]
      - [ 2.23154366e-01, 2.09507853e-01, 1.33241549e-01, 1.11947298e-01,
          1.73465848e-01, 1.44713223e-01, 1.56032652e-01, 2.05253854e-01,
          2.08532125e-01, 3.00003111e-01, 1.50126174e-01, 1.73445940e-01,
          1.92801669e-01, 1.77779943e-01, 1.34440452e-01, 6.22577444e-02,
          1.28821775e-01, 2.54114270e-01, 0., 1.76701963e-01,
          3.89862172e-02, 8.87390897e-02, 2.94377152e-02, 1.41672999e-01,
          2.97214210e-01, 2.06797063e-01, 0., 1.76436827e-01,
          1.19519539e-01, 0., 1.32243454e-01, 9.88521501e-02,
          1.40999436e-01, 1.24769248e-01, 0., 0., 9.16699618e-02, 0., 0.,
          0., 4.74583283e-02, 0., 0., 0., 8.39124247e-02, 4.54588421e-02,
          1.24271855e-01, 9.82933715e-02, 3.78331244e-02, 5.87500036e-02,
          0., 8.47962350e-02, 9.78215784e-02, 0., 0., 0., 0., 0., 0.,
          1.27923861e-01, 1.29818857e-01, 0., 0., 0. ]
      - [ 2.02127799e-01, 1.50506854e-01, 1.99087068e-01, 0.,
          1.60927474e-01, 1.58395231e-01, 1.79580688e-01, 2.16251612e-01,
          2.00068548e-01, 3.19190294e-01, 2.08516374e-01, 1.31788895e-01,
          1.90283850e-01, 1.71326622e-01, 0., 6.28196523e-02,
          1.72250524e-01, 1.09964013e-01, 2.04080611e-01, 1.15481950e-01,
          8.46816972e-02, 3.95152457e-02, 7.45442435e-02, 1.33734807e-01,
          2.25826159e-01, 2.68462181e-01, 1.46433815e-01, 9.05540213e-03,
          2.14922309e-01, 6.84943572e-02, 1.03932813e-01, 7.38345459e-02,
          1.38756439e-01, 1.40137404e-01, 0., 0., 1.10748611e-01, 0., 0.,
          0., 0., 0., 0., 0., 1.21040851e-01, 9.88437980e-02,
          1.05229922e-01, 1.42930329e-01, 8.47385898e-02, 8.04698765e-02,
          0., 0., 5.09222671e-02, 0., 0., 0., 0., 0., 0., 0.,
          1.57226220e-01, 7.67398030e-02, 0., 0. ]
      - [ 3.32594484e-01, 9.01941434e-02, 2.63953786e-02, 2.00877786e-01,
          1.95931867e-01, 1.73100173e-01, 1.50050536e-01, 1.88244507e-01,
          3.24414313e-01, 1.23259813e-01, 1.48776814e-01, 1.60119087e-01,
          2.28758901e-01, 8.95109028e-02, 1.15157291e-01, 1.48281842e-01,
          3.84075254e-01, 1.63246140e-01, 0., 0., 1.80431157e-02, 0.,
          3.02734114e-02, 1.78281099e-01, 3.95245522e-01, 4.78635691e-02,
          5.02032042e-02, 0., 5.51607832e-02, 0., 7.61390254e-02,
          9.10423845e-02, 1.37940973e-01, 8.78328308e-02, 0., 0.,
          6.53051138e-02, 0., 0., 0., 0., 0., 0., 0., 2.85286717e-02, 0.,
          0., 1.44815058e-01, 6.96811527e-02, 0., 0., 0., 2.55168192e-02,
          0., 0., 0., 0., 0., 0., 0., 5.10336384e-02, 3.94724533e-02,
          3.74831110e-02, 2.96071116e-02 ]
      - [ 2.80970901e-01, 2.26565868e-01, 3.41639109e-02, 0.,
          8.45549926e-02, 4.18782458e-02, 6.01495206e-02, 3.24304067e-02,
          3.27452540e-01, 3.03671837e-01, 1.11523636e-01, 1.91710785e-01,
          1.57970935e-01, 7.69127980e-02, 1.30990937e-01, 1.30013838e-01,
          1.26397654e-01, 3.93238589e-02, 0., 2.12765142e-01,
          2.86289692e-01, 2.39153802e-01, 1.31812453e-01, 1.54476136e-01,
          2.27747694e-01, 1.87617168e-01, 1.80638999e-01, 0.,
          1.89916149e-01, 1.32171050e-01, 9.63163301e-02, 4.75170650e-02,
          3.29718217e-02, 0., 0., 3.59044857e-02, 3.73865291e-02, 0., 0.,
          0., 0., 0., 0., 0., 1.34277835e-01, 1.28400624e-01,
          8.04876909e-02, 0., 1.23012632e-01, 1.36761591e-01, 0., 0.,
          1.09780394e-01, 0., 0., 0., 0., 0., 0., 0., 9.49091092e-02, 0.,
          1.17456004e-01, 0. ]
      - [ 8.83118659e-02, 2.06460506e-01, 1.62405074e-01, 1.82227775e-01,
          1.41095519e-01, 1.35957599e-01, 1.32953897e-01, 1.45505041e-01,
          2.27849051e-01, 2.68475115e-01, 2.84909129e-01, 1.60497725e-01,
          1.93741366e-01, 1.25319213e-01, 7.31970295e-02, 1.52381854e-02,
          1.04116395e-01, 1.46752849e-01, 2.34794065e-01, 1.73817992e-01,
          1.44391850e-01, 1.14503562e-01, 1.07222691e-01, 8.99440646e-02,
          1.67038098e-01, 2.73618013e-01, 1.42654195e-01, 6.83162659e-02,
          2.48487115e-01, 1.47962600e-01, 0., 7.61698708e-02,
          6.07498102e-02, 1.33512452e-01, 0., 0., 1.18262872e-01, 0., 0.,
          0., 6.98692538e-03, 0., 0., 0., 1.28262892e-01, 0.,
          1.79419845e-01, 0., 1.17631845e-01, 1.08984813e-01, 0., 0.,
          7.14240149e-02, 0., 0., 0., 0., 0., 0., 0., 1.12856753e-01, 0.,
          8.21981952e-02, 0. ]
      - [ 1.43044457e-01, 1.40984312e-01, 8.87632594e-02, 1.43522263e-01,
          1.66294739e-01, 1.90734297e-01, 1.53049260e-01, 2.14988127e-01,
          2.25479752e-01, 1.71544537e-01, 1.71936899e-01, 2.65102446e-01,
          2.17372939e-01, 2.72944361e-01, 1.32846877e-01, 0.,
          1.15568176e-01, 1.94119573e-01, 1.68115824e-01, 1.65841892e-01,
          2.03423098e-01, 1.88568249e-01, 1.92707434e-01, 1.56391814e-01,
          1.34072617e-01, 8.93575549e-02, 2.57231802e-01, 5.82601130e-02,
          7.45670572e-02, 0., 5.01176678e-02, 0., 0., 0., 0., 0.,
          3.17002013e-02, 0., 0., 0., 2.24154275e-02, 0., 1.88916493e-02,
          0., 1.09812722e-01, 8.54478255e-02, 1.05257951e-01,
          1.97434947e-01, 1.58327371e-01, 1.20409265e-01, 5.77764660e-02,
          0., 1.15649372e-01, 0., 0., 0., 0., 0., 0., 0., 2.85217930e-02,
          0., 0., 2.62428205e-02 ]
      - [ 1.35480031e-01, 9.09311622e-02, 0., 1.38445184e-01,
          1.34146899e-01, 1.13014780e-01, 1.73463777e-01, 2.82580316e-01,
          2.24852994e-01, 1.89856380e-01, 1.75108984e-01, 2.06605002e-01,
          2.03773618e-01, 2.01883689e-01, 1.45713001e-01, 1.93085492e-01,
          1.53751269e-01, 1.61409646e-01, 1.42216697e-01, 1.23739444e-01,
          1.49094015e-01, 2.23589927e-01, 1.74525633e-01, 2.12488398e-01,
          2.86295921e-01, 9.73457322e-02, 1.08390287e-01, 1.15457967e-01,
          1.22576542e-01, 1.13647975e-01, 1.01198591e-01, 7.90729895e-02,
          8.55038762e-02, 0., 0., 0., 3.66851091e-02, 0., 0., 0.,
          3.38947065e-02, 0., 0., 3.63532826e-02, 1.14154525e-01,
          5.82350902e-02, 1.15462177e-01, 1.71959430e-01, 6.17059246e-02,
          1.30689591e-01, 0., 3.71192656e-02, 1.21535771e-01,
          3.99409011e-02, 0., 0., 0., 0., 0., 0., 7.20155761e-02, 0.,
          6.68329298e-02, 0. ]
      - [ 1.42169937e-01, 1.31661192e-01, 1.20476611e-01, 0.,
          1.31632939e-01, 8.24657530e-02, 1.08424701e-01, 3.81380737e-01,
          2.46748731e-01, 1.53734416e-01, 1.35386020e-01, 1.32535189e-01,
          1.79371953e-01, 1.84704408e-01, 3.42024267e-02, 2.56711662e-01,
          1.38325721e-01, 2.10169535e-02, 9.68856215e-02, 5.76938316e-02,
          4.30031456e-02, 1.39038876e-01, 1.92580268e-01, 3.54341149e-01,
          1.84739664e-01, 1.31981328e-01, 1.21120855e-01, 0.,
          1.17735215e-01, 8.68516713e-02, 8.56151208e-02, 2.34674796e-01,
          0., 0., 0., 0., 0., 0., 0., 0., 2.60299034e-02, 0., 0.,
          2.85198279e-02, 1.12059660e-01, 5.63357994e-02, 1.24743536e-01,
          2.20802709e-01, 1.74848333e-01, 1.46631166e-01, 0., 0.,
          1.08683288e-01, 0., 0., 0., 0., 0., 0., 0., 3.55636179e-02, 0.,
          0., 0. ]
      - [ 1.11183994e-01, 9.91623700e-02, 1.84386924e-01, 2.18181193e-01,
          1.00765891e-01, 3.13811675e-02, 0., 6.17639907e-03,
          2.43125096e-01, 2.35741064e-01, 2.13565439e-01, 2.27536887e-01,
          2.20701411e-01, 2.20343947e-01, 1.38344094e-01, 3.45662758e-02,
          1.57291695e-01, 1.43605724e-01, 1.68770120e-01, 2.25790739e-01,
          1.20190814e-01, 1.54960588e-01, 2.65134424e-01, 1.85679376e-01,
          2.16947347e-01, 1.36132613e-01, 1.35523245e-01, 1.34801447e-01,
          1.05956405e-01, 1.31910697e-01, 1.35983095e-01, 5.11273742e-02,
          3.89870703e-02, 8.22511315e-02, 6.92697838e-02, 5.08352369e-02,
          8.84397179e-02, 0., 0., 0., 0., 0., 0., 0., 1.04428627e-01,
          7.98148066e-02, 1.47033304e-01, 0., 1.54352918e-01,
          9.11516696e-02, 7.75284618e-02, 0., 1.05919719e-01, 0., 0., 0.,
          0., 0., 0., 0., 8.24849829e-02, 0., 9.64596346e-02,
          8.70705768e-02 ]
      - [ 5.65445051e-02, 1.32288188e-01, 2.46066183e-01, 1.47295132e-01,
          1.42123878e-01, 0., 0., 1.19092092e-01, 1.55637234e-01,
          3.07893246e-01, 2.34452888e-01, 1.80616245e-01, 2.14516535e-01,
          2.61169016e-01, 1.07322007e-01, 1.41730964e-01, 1.53825715e-01,
          1.32786989e-01, 1.73690870e-01, 1.31964132e-01, 1.29530326e-01,
          2.74470925e-01, 1.87817603e-01, 2.31815651e-01, 1.53546318e-01,
          1.16936624e-01, 1.29420817e-01, 1.44665152e-01, 1.56317502e-01,
          7.11624622e-02, 1.20059431e-01, 1.27651706e-01, 3.80227156e-02,
          6.75539821e-02, 4.98296432e-02, 0., 5.58020920e-02, 0.,
          2.62043830e-02, 0., 0., 2.39408035e-02, 0., 0., 1.28518030e-01,
          1.21000446e-01, 6.16176836e-02, 6.68083280e-02, 6.03499785e-02,
          1.47339627e-01, 0., 0., 1.27858654e-01, 3.04520465e-02, 0.,
          3.48874070e-02, 0., 0., 0., 0., 7.09382966e-02, 6.26998395e-02,
          0., 0. ]
      - [ 1.89395979e-01, 2.17614040e-01, 1.79454282e-01, 0.,
          1.51220381e-01, 1.46597505e-01, 1.79139823e-01, 2.41871864e-01,
          2.02152878e-01, 2.52493799e-01, 2.34617114e-01, 1.76989257e-01,
          1.69053674e-01, 1.72327116e-01, 1.19695403e-01, 3.15185040e-02,
          1.19599238e-01, 2.41162971e-01, 9.42390636e-02, 1.14677884e-01,
          0., 8.26946646e-02, 6.64957464e-02, 1.66982993e-01,
          2.52647907e-01, 2.61623144e-01, 6.14954717e-02, 1.63900405e-01,
          1.30158752e-01, 2.37905532e-02, 1.15516759e-01, 1.19611844e-01,
          1.46616295e-01, 1.37987986e-01, 0., 0., 1.03293285e-01, 0., 0.,
          0., 4.46715020e-02, 0., 3.96594033e-02, 0., 9.92203578e-02,
          6.09470755e-02, 1.31500617e-01, 1.01661555e-01, 3.96210440e-02,
          7.74249285e-02, 5.49156480e-02, 0., 5.99331073e-02, 0., 0., 0.,
          0., 0., 0., 0., 1.72723472e-01, 5.78360409e-02, 0., 0. ]
      - [ 6.90955520e-02, 5.07666320e-02, 1.72879905e-01, 2.38728642e-01,
          1.10891134e-01, 0., 0., 0., 2.44999513e-01, 1.98777705e-01,
          2.70810425e-01, 2.44738206e-01, 1.26248509e-01, 2.71477640e-01,
          7.25040883e-02, 1.33791059e-01, 1.28465652e-01, 1.50741965e-01,
          1.63829699e-01, 1.82541385e-01, 1.84308469e-01, 1.95253536e-01,
          1.95695311e-01, 1.89696997e-01, 2.08738789e-01, 1.35204375e-01,
          9.09052566e-02, 1.53042927e-01, 1.03857063e-01, 0.,
          1.87520251e-01, 1.25297174e-01, 9.44829434e-02, 0.,
          9.40345302e-02, 6.71542063e-02, 1.00862950e-01, 0., 0., 0., 0.,
          0., 0., 0., 1.17999941e-01, 1.11120641e-01, 1.30051821e-01, 0.,
          1.63827971e-01, 1.13333903e-01, 0., 0., 9.40721855e-02, 0., 0.,
          0., 0., 0., 0., 0., 6.71609044e-02, 0., 0., 1.35172710e-01 ]
      - [ 1.60446003e-01, 1.98069528e-01, 0., 9.25968885e-02,
          1.65883601e-01, 2.29995623e-01, 1.70304283e-01, 1.86696768e-01,
          2.58041978e-01, 1.39679149e-01, 1.12725630e-01, 1.93019733e-01,
          2.11189181e-01, 7.84228668e-02, 1.99498683e-01, 1.22229554e-01,
          1.19083799e-01, 1.43224999e-01, 1.29916325e-01, 3.16072963e-02,
          1.77501842e-01, 1.80579647e-01, 2.29217231e-01, 1.58149019e-01,
          1.88084453e-01, 1.48576200e-01, 1.69496655e-01, 1.63401917e-01,
          1.84595168e-01, 1.32463515e-01, 1.74087390e-01, 4.02450338e-02,
          1.07246332e-01, 1.03061721e-01, 0., 0., 8.34759027e-02, 0., 0.,
          0., 0., 0., 0., 0., 1.07055590e-01, 0., 1.68117240e-01,
          6.43168986e-02, 1.33467093e-01, 9.36055854e-02, 1.08177118e-01,
          0., 1.14637822e-01, 0., 0., 0., 0., 0., 0., 0., 8.31089765e-02,
          0., 1.00003041e-01, 9.31611210e-02 ]
      - [ 4.10943508e-01, 4.78564352e-02, 0., 4.64776158e-02,
          1.24532998e-01, 4.86556068e-02, 4.44341078e-02, 1.67760953e-01,
          3.87633741e-01, 1.84009165e-01, 1.31782621e-01, 8.96566212e-02,
          2.07924470e-01, 1.08626112e-01, 1.21169642e-01, 1.43991321e-01,
          3.80654514e-01, 1.25740439e-01, 1.24635972e-01, 6.98694363e-02,
          1.60274148e-01, 8.28106925e-02, 1.63325146e-01, 1.48854986e-01,
          3.82845193e-01, 7.78475404e-02, 0., 3.16591412e-02,
          2.03092974e-02, 0., 5.46768010e-02, 1.49958685e-01,
          5.87667115e-02, 7.03202188e-02, 0., 0., 6.56670481e-02, 0., 0.,
          0., 4.79785241e-02, 0., 0., 0., 8.59938487e-02, 0.,
          2.25068275e-02, 0., 1.73198283e-02, 1.94840636e-02,
          3.25052626e-02, 4.29156199e-02, 5.93693778e-02, 0., 0., 0., 0.,
          0., 0., 3.03128548e-02, 4.98086102e-02, 0., 0., 5.71577027e-02 ]
      - [ 1.19319469e-01, 1.50670230e-01, 1.21162616e-01, 1.98332071e-01,
          7.71722719e-02, 6.67779669e-02, 0., 0., 2.68103808e-01,
          1.91638157e-01, 3.10080141e-01, 1.58911079e-01, 1.87869847e-01,
          1.77756071e-01, 1.75113812e-01, 1.39104739e-01, 1.56050757e-01,
          2.06544891e-01, 1.71838611e-01, 9.30362642e-02, 1.43810913e-01,
          1.89042628e-01, 2.16642424e-01, 2.24007934e-01, 2.09918693e-01,
          1.53989807e-01, 1.00055076e-01, 1.46277040e-01, 9.36468691e-02,
          1.10453941e-01, 1.08594015e-01, 1.37211412e-01, 1.06063806e-01,
          7.81158581e-02, 6.10017106e-02, 0., 8.12758356e-02, 0., 0., 0.,
          0., 0., 0., 0., 1.05638631e-01, 0., 1.68161929e-01, 0.,
          1.66348785e-01, 8.70692655e-02, 7.50921741e-02, 0.,
          1.06960818e-01, 0., 0., 0., 0., 0., 0., 0., 7.36556649e-02, 0.,
          9.47185010e-02, 9.14593935e-02 ]
      - [ 1.48927763e-01, 1.85673356e-01, 5.46342097e-02, 3.02249659e-02,
          2.73274213e-01, 1.15607455e-01, 1.81962430e-01, 1.74823821e-01,
          1.90377653e-01, 3.02590221e-01, 1.54658571e-01, 8.74363706e-02,
          3.18866551e-01, 0., 2.93065012e-02, 2.02831347e-02,
          2.15414762e-01, 3.60103428e-01, 8.73649493e-02, 1.00295447e-01,
          7.85989612e-02, 3.05121988e-02, 1.18879430e-01, 1.06096260e-01,
          2.91283727e-01, 2.63877302e-01, 3.61844525e-02, 0.,
          5.32282069e-02, 0., 6.61353916e-02, 5.62209897e-02,
          3.83984670e-02, 2.19200537e-01, 0., 0., 1.55557707e-01, 0., 0.,
          0., 0., 0., 0., 0., 2.17438072e-01, 0., 0., 0., 4.68630418e-02,
          2.78523564e-02, 0., 3.95590365e-02, 5.58779798e-02, 0., 0., 0.,
          0., 2.55944915e-02, 0., 0., 6.06432036e-02, 0., 0., 0. ]
      - [ 1.67655036e-01, 1.40870243e-01, 1.51543647e-01, 1.36214629e-01,
          2.56091803e-01, 1.17560275e-01, 1.44074351e-01, 1.53762311e-01,
          2.91039526e-01, 2.19322011e-01, 8.88712853e-02, 1.13018870e-01,
          2.81269193e-01, 1.88783690e-01, 1.19049110e-01, 6.40899166e-02,
          9.98825580e-02, 4.08700593e-02, 1.43950433e-01, 1.18674628e-01,
          1.56788111e-01, 1.68988019e-01, 1.92966089e-01, 1.80597678e-01,
          2.10935250e-01, 1.45120412e-01, 1.60130799e-01, 8.46285298e-02,
          2.06020236e-01, 2.17148140e-01, 2.51395516e-02, 0.,
          5.25002591e-02, 7.78641701e-02, 9.76806805e-02, 0.,
          9.09331217e-02, 0., 0., 0., 0., 0., 0., 0., 1.23488478e-01, 0.,
          1.78830370e-01, 7.57798627e-02, 1.05742395e-01, 1.17328867e-01,
          7.13253245e-02, 0., 1.17903456e-01, 0., 0., 0., 0., 0., 0., 0.,
          7.70194009e-02, 0., 8.90120864e-02, 6.92166910e-02 ]
      - [ 1.12568095e-01, 8.42498317e-02, 1.51119843e-01, 2.02455938e-01,
          2.64499247e-01, 1.53889552e-01, 7.32723847e-02, 7.93967694e-02,
          2.71258771e-01, 1.83699206e-01, 1.13083541e-01, 1.41547233e-01,
          2.49114096e-01, 2.63663322e-01, 1.05771795e-01, 5.15422411e-02,
          1.15618095e-01, 9.99634638e-02, 1.04096077e-01, 1.94723338e-01,
          8.28583762e-02, 2.11739764e-01, 2.48215303e-01, 9.38905999e-02,
          1.75249308e-01, 1.57040030e-01, 1.44195855e-01, 1.62276253e-01,
          1.76832944e-01, 1.43369228e-01, 1.80041969e-01, 4.31382991e-02,
          7.59455040e-02, 0., 8.45835060e-02, 7.54261240e-02,
          1.04691438e-01, 0., 0., 0., 0., 0., 0., 0., 1.63597822e-01,
          1.64712727e-01, 0., 0., 1.12795815e-01, 1.59486309e-01, 0., 0.,
          1.13025449e-01, 0., 0., 0., 0., 0., 0., 0., 5.02546206e-02, 0.,
          0., 7.58603290e-02 ]
      - [ 1.23837963e-01, 2.27735177e-01, 5.65066040e-02, 0.,
          2.40259975e-01, 1.51735216e-01, 1.08824700e-01, 1.74951196e-01,
          2.76454836e-01, 3.12506795e-01, 7.27291778e-02, 9.25469324e-02,
          2.45156839e-01, 0., 0., 0., 1.33021787e-01, 4.33319539e-01,
          9.46074128e-02, 6.52212054e-02, 0., 0., 9.22585353e-02, 0.,
          2.73990899e-01, 3.47520411e-01, 0., 0., 4.18702736e-02, 0., 0.,
          0., 7.79490024e-02, 2.22954839e-01, 0., 0., 1.57902688e-01, 0.,
          0., 0., 0., 0., 0., 0., 1.86811090e-01, 7.99002722e-02, 0., 0.,
          0., 2.83513684e-02, 0., 0., 0., 0., 0., 0., 9.43705812e-02, 0.,
          0., 0., 4.33933213e-02, 0., 0., 0. ]
      - [ 3.61342728e-01, 1.43493757e-01, 0., 0., 1.04078725e-02, 0., 0.,
          0., 3.94299209e-01, 2.39063680e-01, 1.05536491e-01,
          1.37905151e-01, 1.69512749e-01, 1.14274323e-01, 4.45048735e-02,
          1.06861308e-01, 1.39542550e-01, 4.24134023e-02, 1.08814687e-01,
          6.54360326e-03, 3.15470666e-01, 1.96366191e-01, 1.93513021e-01,
          1.63449988e-01, 2.75637269e-01, 1.62617311e-01, 1.40159413e-01,
          0., 1.47175431e-01, 1.41874373e-01, 1.04034908e-01,
          5.47912344e-02, 2.86486279e-02, 0., 0., 0., 9.01348144e-03, 0.,
          0., 0., 0., 0., 0., 0., 9.43908468e-02, 8.91365781e-02,
          9.91766900e-02, 1.11730866e-01, 1.92658961e-01, 9.87641141e-02,
          0., 0., 1.02769502e-01, 0., 0., 0., 0., 0., 0., 0.,
          8.37494209e-02, 0., 0., 1.82092592e-01 ]
      - [ 1.90604463e-01, 1.72904819e-01, 5.65978661e-02, 8.01525936e-02,
          2.45013148e-01, 1.46605000e-01, 1.23537607e-01, 1.71243012e-01,
          3.02578658e-01, 2.59346843e-01, 1.39354065e-01, 1.56999826e-01,
          2.25204200e-01, 3.01253423e-02, 0., 2.19367929e-02,
          1.85207874e-01, 4.01907086e-01, 7.93985054e-02, 6.55106381e-02,
          3.85651849e-02, 0., 4.10808995e-02, 1.21448271e-01,
          3.04394364e-01, 2.94887275e-01, 4.31051701e-02, 2.33470164e-02,
          8.80254805e-02, 4.32137437e-02, 3.83612216e-02, 4.89742048e-02,
          2.10374817e-01, 1.11737400e-01, 0., 0., 1.36892825e-01, 0., 0.,
          0., 2.63450369e-02, 0., 0., 0., 1.70005068e-01, 0.,
          7.44585171e-02, 0., 0., 4.78581600e-02, 0., 3.66985463e-02,
          3.81342731e-02, 0., 0., 2.61027571e-02, 7.28655383e-02, 0., 0.,
          0., 3.85651849e-02, 0., 0., 0. ]
      - [ 1.47303000e-01, 1.01433456e-01, 1.09766133e-01, 1.14376411e-01,
          1.85087249e-01, 1.30718410e-01, 2.45013937e-01, 1.78698972e-01,
          1.27822652e-01, 2.15251669e-01, 2.82245219e-01, 1.97822198e-01,
          2.53118962e-01, 2.11766988e-01, 1.28095195e-01, 6.70595095e-02,
          1.15887091e-01, 1.97110593e-01, 1.77156776e-01, 2.24698529e-01,
          5.35629317e-02, 2.91179657e-01, 1.34793311e-01, 8.41667727e-02,
          1.98521554e-01, 0., 2.29427546e-01, 1.77428797e-01,
          6.48276582e-02, 0., 0., 4.77822684e-02, 1.02649003e-01, 0., 0.,
          0., 4.97185588e-02, 0., 0., 0., 0., 0., 0., 0., 1.38304263e-01,
          1.35862693e-01, 8.56662840e-02, 6.88189268e-02, 1.10006422e-01,
          1.18633240e-01, 8.97699520e-02, 0., 1.19220920e-01, 0., 0., 0.,
          9.39592440e-03, 0., 0., 0., 0., 0., 0., 0. ]
      - [ 1.68074146e-01, 1.00594506e-01, 8.40362981e-02, 1.24030158e-01,
          1.49845362e-01, 7.90585056e-02, 1.61447182e-01, 3.61585110e-01,
          1.98179036e-01, 1.56301543e-01, 1.74047500e-01, 7.91769400e-02,
          2.05986261e-01, 1.68261245e-01, 1.22904152e-01, 2.59168774e-01,
          1.08367942e-01, 0., 6.00243881e-02, 8.85510668e-02,
          6.29658923e-02, 1.71002299e-01, 1.73427880e-01, 3.00732583e-01,
          2.70135671e-01, 9.75005105e-02, 8.08866546e-02, 1.08319722e-01,
          1.36572883e-01, 8.53645578e-02, 8.97651017e-02, 2.46874198e-01,
          0., 0., 0., 0., 0., 0., 0., 0., 5.46373613e-02, 0., 0., 0.,
          1.19094238e-01, 0., 1.15401648e-01, 2.16075510e-01,
          7.57827386e-02, 1.29829556e-01, 0., 0., 1.05642989e-01, 0., 0.,
          0., 0., 0., 0., 0., 6.35608286e-02, 0., 0., 1.13161437e-01 ]
      - [ 1.59122631e-01, 2.00693592e-01, 1.46043763e-01, 1.65052950e-01,
          1.37321532e-01, 1.30082563e-01, 1.77010432e-01, 1.93327606e-01,
          2.14759275e-01, 2.17266947e-01, 2.79904127e-01, 1.81833476e-01,
          1.44521445e-01, 1.23942100e-01, 1.54772237e-01, 4.34198938e-02,
          1.23045266e-01, 2.02900037e-01, 1.81787342e-01, 6.21679090e-02,
          1.73414961e-01, 9.20360535e-02, 1.08770810e-01, 9.90266576e-02,
          2.53575593e-01, 2.19224781e-01, 1.29083961e-01, 2.19445407e-01,
          1.08502485e-01, 1.06995776e-01, 1.08397655e-01, 0.,
          9.07738581e-02, 1.41201422e-01, 0., 0., 1.22164719e-01, 0., 0.,
          0., 0., 0., 0., 0., 1.12085119e-01, 0., 1.23875447e-01,
          1.67258173e-01, 7.66957179e-02, 1.97396185e-02, 7.12404102e-02,
          0., 5.95123321e-02, 0., 1.43933687e-02, 0., 0., 0., 0., 0.,
          1.67550102e-01, 8.25494230e-02, 0., 0. ]
      - [ 4.01115805e-01, 5.27773192e-03, 0., 0., 8.87605175e-03, 0., 0.,
          0., 4.98408288e-01, 1.18858218e-01, 0., 1.35587588e-01, 0., 0.,
          1.80009857e-01, 2.69651115e-01, 4.54564840e-01, 1.16324127e-01,
          0., 0., 1.08533539e-01, 0., 0., 3.47942710e-01, 3.13147277e-01,
          5.27773192e-03, 0., 0., 6.27631601e-03, 0., 5.27773192e-03, 0.,
          3.08019724e-02, 0., 0., 0., 0., 0., 0., 0., 0., 0., 0., 0.,
          6.27631601e-03, 0., 1.22474823e-02, 1.00215096e-02,
          1.77521035e-02, 0., 0., 0., 8.87605175e-03, 0., 0., 0., 0., 0.,
          0., 0., 8.87605175e-03, 0., 5.27773192e-03, 7.89204985e-03 ]
      - [ 1.75424710e-01, 8.10543969e-02, 1.02429479e-01, 1.05190992e-01,
          1.71909735e-01, 1.14030547e-01, 5.40818386e-02, 2.19032124e-01,
          2.54250169e-01, 2.52705336e-01, 1.82673693e-01, 2.10208014e-01,
          2.37661853e-01, 1.72565460e-01, 1.05958946e-01, 0.,
          1.78683221e-01, 1.28182441e-01, 1.91048175e-01, 1.52654633e-01,
          1.93285897e-01, 1.89461827e-01, 2.25790992e-01, 1.66254416e-01,
          2.10420132e-01, 1.45506412e-01, 1.13742679e-01, 1.44239709e-01,
          1.35223851e-01, 9.33339596e-02, 1.36766121e-01, 0.,
          1.58316389e-01, 0., 0., 0., 9.14997160e-02, 0., 0., 0., 0., 0.,
          0., 0., 1.17769286e-01, 6.37575164e-02, 1.28313333e-01,
          9.59882587e-02, 1.09756924e-01, 1.17433012e-01, 6.95283785e-02,
          0., 1.04374059e-01, 0., 0., 0., 0., 0., 0., 0., 7.84414485e-02,
          0., 0., 1.19979590e-01 ]
      - [ 8.87613297e-02, 1.63301513e-01, 2.42638126e-01, 1.53027266e-01,
          8.69879499e-02, 4.36953157e-02, 0., 5.09324260e-02,
          2.93960363e-01, 1.85007751e-01, 2.65784472e-01, 1.32234871e-01,
          2.83079654e-01, 2.10863262e-01, 1.25944346e-01, 1.14966586e-01,
          1.12442851e-01, 1.57787442e-01, 1.72320709e-01, 1.60821423e-01,
          2.26526856e-01, 1.82539240e-01, 2.38462269e-01, 1.33623943e-01,
          2.05493212e-01, 1.20801322e-01, 1.22842565e-01, 1.45615608e-01,
          1.33689389e-01, 1.18748039e-01, 1.18086785e-01, 1.25199169e-01,
          7.04451054e-02, 7.52291530e-02, 2.32288875e-02, 0.,
          5.63391671e-02, 0., 0., 0., 0., 0., 0., 0., 1.19750321e-01,
          1.34366676e-01, 5.39048612e-02, 0., 9.22046751e-02,
          9.21271071e-02, 9.09540728e-02, 0., 1.25753045e-01,
          2.49502994e-02, 0., 3.31440084e-02, 0., 0., 0., 0.,
          6.67039007e-02, 0., 5.64561412e-02, 3.76601182e-02 ]
      - [ 1.55672789e-01, 1.93324417e-01, 7.60735795e-02, 0.,
          2.88162142e-01, 2.11036474e-01, 1.79779142e-01, 1.22438326e-01,
          1.36554509e-01, 2.30198652e-01, 1.19350553e-01, 2.95564413e-01,
          1.53992727e-01, 1.72322914e-01, 1.53008103e-01, 1.28644869e-01,
          1.00083306e-01, 0., 1.34480566e-01, 1.53053820e-01,
          1.82415724e-01, 2.57970363e-01, 2.03411236e-01, 0.,
          1.69148162e-01, 1.23865813e-01, 1.77752048e-01, 1.81989178e-01,
          2.38076806e-01, 1.47670537e-01, 4.70157862e-02, 2.68286262e-02,
          1.13143757e-01, 6.26895130e-02, 3.97842713e-02, 0.,
          5.77062331e-02, 0., 0., 0., 0., 0., 0., 0., 1.28791049e-01,
          1.05733737e-01, 1.03325360e-01, 0., 3.89677323e-02,
          7.97427222e-02, 1.27907112e-01, 0., 1.24517158e-01, 0., 0., 0.,
          0., 0., 0., 0., 6.11355454e-02, 0., 4.25987840e-02,
          5.39562218e-02 ]
      - [ 2.58305818e-01, 4.74587567e-02, 4.86971438e-02, 3.82422693e-02,
          8.75510499e-02, 5.67221045e-02, 7.67480135e-02, 4.26766008e-01,
          9.83206406e-02, 1.60792410e-01, 1.41478524e-01, 1.04241483e-01,
          9.34195220e-02, 1.24760218e-01, 2.42115676e-01, 3.31548601e-01,
          2.97654152e-01, 1.64995790e-01, 0., 1.43694788e-01,
          8.03584680e-02, 1.10629857e-01, 1.30652651e-01, 3.64083558e-01,
          1.87057048e-01, 3.47045138e-02, 2.78363861e-02, 3.29867192e-02,
          5.98961711e-02, 5.28747253e-02, 9.54277515e-02, 2.67516822e-01,
          5.65466024e-02, 3.48856300e-02, 2.85116546e-02, 4.65980321e-02,
          7.76871443e-02, 0., 3.09067257e-02, 0., 0., 3.01402994e-02, 0.,
          0., 6.39852807e-02, 0., 6.31077960e-02, 0., 4.86041792e-02, 0.,
          2.87242457e-02, 0., 5.20402938e-02, 0., 0., 0., 2.78652180e-02,
          0., 0., 0., 5.85109256e-02, 0., 3.40609923e-02, 6.71790615e-02 ]
      - [ 2.43546695e-01, 1.30185857e-01, 1.12712063e-01, 0.,
          1.45155430e-01, 1.40202850e-01, 1.24027655e-01, 2.31565639e-01,
          3.53582889e-01, 1.78673357e-01, 1.28762603e-01, 1.78788573e-01,
          1.53247043e-01, 1.68238953e-01, 9.58528072e-02, 1.32928818e-01,
          2.03035861e-01, 1.36578649e-01, 2.69016065e-02, 1.37250260e-01,
          8.50161836e-02, 1.24860980e-01, 1.73829481e-01, 2.61193067e-01,
          2.70556808e-01, 1.47696421e-01, 1.11006796e-01, 1.08191699e-01,
          1.33336484e-01, 1.06091902e-01, 0., 1.65704697e-01,
          1.24159388e-01, 0., 0., 0., 3.84150483e-02, 0., 0., 0., 0., 0.,
          0., 0., 1.11279748e-01, 3.41473743e-02, 1.42061308e-01,
          1.35418639e-01, 1.93885386e-01, 1.22744940e-01, 0., 0.,
          1.06265873e-01, 0., 0., 0., 0., 0., 0., 0., 1.66743360e-02, 0.,
          0., 8.80002975e-02 ]
      - [ 2.03261510e-01, 1.53780103e-01, 0., 1.60188422e-01,
          2.83489764e-01, 1.50451556e-01, 1.32383421e-01, 1.64564744e-01,
          1.77459419e-01, 1.86414301e-01, 1.37582719e-01, 2.95093864e-01,
          1.63362563e-01, 1.74740076e-01, 1.72854379e-01, 1.55521780e-01,
          8.03117156e-02, 0., 1.14717498e-01, 1.12601750e-01,
          2.16818273e-01, 1.63220257e-01, 2.20243305e-01, 1.57486200e-01,
          1.97477683e-01, 1.87342033e-01, 1.66782364e-01, 9.79344472e-02,
          1.72925621e-01, 1.91728979e-01, 8.33255872e-02, 5.30484542e-02,
          1.76307131e-02, 0., 6.60100430e-02, 2.46975925e-02,
          5.59850298e-02, 0., 0., 0., 0., 0., 0., 0., 1.19901806e-01,
          1.31346762e-01, 9.48897526e-02, 5.99550381e-02, 1.03170998e-01,
          1.50948554e-01, 0., 0., 1.21617839e-01, 0., 0., 0., 0., 0., 0.,
          0., 6.73283935e-02, 0., 7.52539635e-02, 0. ]
      - [ 1.03158332e-01, 1.60437375e-01, 1.36862710e-01, 3.43633257e-02,
          2.01246247e-01, 2.35715896e-01, 1.81078121e-01, 1.49821043e-01,
          1.88263401e-01, 2.29080617e-01, 1.08826339e-01, 1.30991280e-01,
          2.68634707e-01, 5.33158779e-02, 2.20812216e-01, 0.,
          1.11681558e-01, 1.09551318e-01, 1.50018126e-01, 1.30006835e-01,
          1.94061786e-01, 1.29773229e-01, 2.17066124e-01, 1.77733183e-01,
          1.86239749e-01, 1.25126362e-01, 1.62807405e-01, 1.66491255e-01,
          2.09984839e-01, 9.37459469e-02, 2.04200387e-01, 5.33744879e-02,
          0., 9.30687934e-02, 1.02438636e-01, 0., 1.06034406e-01, 0., 0.,
          0., 1.81437470e-02, 0., 0., 0., 1.44665584e-01, 8.85370448e-02,
          1.33154050e-01, 7.91707262e-02, 1.31065324e-01, 1.09778695e-01,
          9.00635421e-02, 0., 1.00769125e-01, 0., 0., 0., 0., 0., 0., 0.,
          6.71375245e-02, 0., 0., 1.30915672e-01 ]
      - [ 1.20154858e-01, 1.03109539e-01, 6.89426139e-02, 1.32394761e-01,
          1.69903502e-01, 8.26860294e-02, 1.66753963e-01, 2.58834749e-01,
          2.13875622e-01, 1.91886365e-01, 1.61262602e-01, 2.08833396e-01,
          1.92872003e-01, 2.24442989e-01, 1.40458688e-01, 1.90546975e-01,
          1.67275593e-01, 1.56623110e-01, 1.45705298e-01, 9.52198431e-02,
          1.22631326e-01, 1.93613574e-01, 2.27884844e-01, 2.19290957e-01,
          2.88642138e-01, 8.28103051e-02, 1.02099866e-01, 1.33567289e-01,
          1.36923611e-01, 1.15932301e-01, 1.13957211e-01, 2.43516602e-02,
          8.61143097e-02, 0., 0., 0., 4.32291999e-02, 0., 0., 0.,
          4.76829372e-02, 0., 4.58935760e-02, 0., 1.35812193e-01, 0.,
          1.15686409e-01, 1.72264472e-01, 7.29792938e-02, 1.40893757e-01,
          0., 0., 1.26146883e-01, 0., 3.62829305e-02, 0., 0., 0., 0., 0.,
          6.92567229e-02, 0., 6.65106997e-02, 0. ]
      - [ 1.90718472e-01, 1.24329984e-01, 0., 1.08385593e-01,
          1.12938628e-01, 1.62622139e-01, 1.87806815e-01, 2.11218342e-01,
          2.23259434e-01, 2.85677910e-01, 5.54940403e-02, 2.34547675e-01,
          2.14250833e-01, 2.21615970e-01, 1.79435790e-01, 9.03119817e-02,
          1.30010754e-01, 1.91327915e-01, 2.24353522e-01, 3.80893536e-02,
          1.71888962e-01, 1.97093800e-01, 1.43387064e-01, 2.04010189e-01,
          2.02393696e-01, 1.20336495e-01, 2.00056821e-01, 6.32987022e-02,
          3.65194231e-02, 0., 0., 0., 9.72955450e-02, 0., 0., 0.,
          3.18551026e-02, 0., 0., 0., 3.04593053e-02, 0., 0., 0.,
