%YAML:1.0
---
opencv_ml_svm:
   format: 3
   svmType: C_SVC
   kernel:
      type: RBF
      gamma: 5.3830000000000000e+00
   C: 2.6699999999999999e+00
   term_criteria: { epsilon:1.1920928955078125e-07, iterations:1000 }
   var_count: 64
   class_count: 24
   class_labels: !!opencv-matrix
      rows: 24
      cols: 1
      dt: i
      data: [ 0, 1, 2, 3, 4, 5, 6, 7, 8, 9, 10, 11, 12, 13, 14, 15, 16,
          17, 18, 19, 20, 21, 22, 23 ]
   sv_total: 2371
   support_vectors:
      - [ 2.96581984e-01, 1.11615382e-01, 1.30867973e-01, 1.24303579e-01,
          1.53143764e-01, 1.66098818e-01, 1.68465450e-01, 2.99100317e-02,
          3.30113918e-01, 2.18913779e-01, 1.16245009e-01, 2.16841295e-01,
          2.15508401e-01, 1.26490757e-01, 5.15184551e-02, 7.18291402e-02,
          2.49495342e-01, 9.18816999e-02, 1.04224488e-01, 1.86669469e-01,
          1.34386808e-01, 1.67978242e-01, 1.99387416e-01, 1.76747650e-01,
          2.04107583e-01, 4.24871594e-02, 0., 1.02688901e-01,
          2.26864159e-01, 1.15379930e-01, 1.74664021e-01, 1.60421118e-01,
          2.29573436e-02, 6.18145391e-02, 0., 8.95783231e-02,
          1.56161785e-01, 0., 0., 0., 0., 0., 0., 3.31665166e-02,
          1.25427797e-01, 9.98234376e-02, 1.27391636e-01, 0.,
          6.17845692e-02, 0., 3.29624042e-02, 0., 4.41593342e-02, 0., 0.,
          0., 5.13341790e-03, 0., 0., 0., 6.02513738e-02, 0., 0., 0. ]
      - [ 1.22286186e-01, 5.96047305e-02, 1.39244691e-01, 1.47711575e-01,
          1.46098644e-01, 1.00132830e-01, 7.03209713e-02, 2.80781597e-01,
          1.08107582e-01, 1.57508165e-01, 1.98062435e-01, 2.33872816e-01,
          2.72951335e-01, 1.95334360e-01, 1.60290673e-01, 1.68639213e-01,
          1.29924148e-01, 1.38880119e-01, 1.66982532e-01, 2.57157475e-01,
          1.57377645e-01, 1.50744513e-01, 1.33891433e-01, 2.19171554e-01,
          2.39082605e-01, 5.30707613e-02, 1.34892717e-01, 1.74606472e-01,
          1.27497092e-01, 1.12521298e-01, 8.66199359e-02, 1.33078441e-01,
          1.63374171e-01, 0., 0., 0., 5.73906153e-02, 0., 0., 0.,
          1.12121841e-02, 0., 0., 0., 9.17756855e-02, 5.56354225e-02,
          1.15511231e-01, 8.54990184e-02, 1.06570870e-01, 1.22525476e-01,
          6.77304044e-02, 0., 1.07893609e-01, 0., 0., 0., 0., 0., 0., 0.,
          7.42039979e-02, 0., 8.21735337e-02, 6.59914017e-02 ]
      - [ 1.61288336e-01, 1.19517617e-01, 1.51205346e-01, 1.03863753e-01,
          1.04007088e-01, 1.17751189e-01, 9.74059030e-02, 1.62213191e-01,
          3.93734008e-01, 1.90756515e-01, 1.72686085e-01, 1.76401004e-01,
          3.03654909e-01, 2.01436743e-01, 8.58399346e-02, 1.44047290e-01,
          3.03983420e-01, 1.51306793e-01, 2.19285503e-01, 2.49841243e-01,
          1.75437748e-01, 9.23045576e-02, 0., 1.32545829e-01,
          2.27728382e-01, 2.33037751e-02, 0., 0., 8.69983509e-02,
          1.94754638e-02, 2.16492116e-02, 3.97521667e-02, 0.,
          7.81966075e-02, 9.26330909e-02, 0., 1.16644330e-01, 0., 0., 0.,
          0., 0., 0., 0., 1.47499606e-01, 1.07464463e-01, 1.40822679e-01,
          0., 0., 0., 1.07446849e-01, 3.21381763e-02, 9.02786404e-02,
          2.55982280e-02, 2.78549064e-02, 3.24219391e-02, 4.85732481e-02,
          0., 0., 0., 1.52598759e-02, 0., 0., 0. ]
      - [ 9.92905200e-02, 7.02672377e-02, 4.66801226e-02, 4.38630134e-02,
          8.52141753e-02, 4.66472767e-02, 6.68211654e-02, 1.23428188e-01,
          4.33195412e-01, 1.92866504e-01, 1.55949339e-01, 1.80025958e-02,
          4.14605848e-02, 5.02510332e-02, 8.06933939e-02, 5.97511716e-02,
          1.63390622e-01, 1.79331169e-01, 1.49010718e-01, 0.,
          6.96496069e-02, 1.29191682e-01, 2.09135011e-01, 2.22729310e-01,
          3.09191525e-01, 1.88317046e-01, 1.94032326e-01, 1.53176129e-01,
          1.67220727e-01, 1.83471933e-01, 1.47914350e-01, 8.92520547e-02,
          1.80394337e-01, 0., 0., 0., 7.15846866e-02, 0., 0., 0.,
          1.93852261e-02, 0., 0., 0., 1.72484651e-01, 0., 7.59985447e-02,
          1.66837648e-01, 2.74648249e-01, 1.26747057e-01, 0., 0.,
          1.25085577e-01, 0., 0., 0., 0., 0., 0., 0., 0., 0., 0., 0. ]
      - [ 1.26336768e-01, 1.72122180e-01, 0., 0., 3.01822890e-02, 0., 0.,
          3.43556345e-01, 2.20916256e-01, 3.01496148e-01, 1.95800409e-01,
          0., 1.82330817e-01, 1.41094193e-01, 1.31747141e-01,
          2.65039474e-01, 1.35179028e-01, 4.15390164e-01, 1.33808523e-01,
          0., 5.08751310e-02, 0., 1.35802686e-01, 3.78761828e-01,
          1.68119311e-01, 5.60854487e-02, 2.45095361e-02, 0.,
          2.32343357e-02, 0., 5.26009202e-02, 0., 8.26959983e-02,
          1.86892211e-01, 0., 0., 1.34729102e-01, 0., 0., 0.,
          1.29883885e-02, 0., 0., 1.01309396e-01, 1.59143224e-01, 0.,
          6.21483400e-02, 0., 0., 7.09077641e-02, 0., 0., 2.09431481e-02,
          0., 0., 1.53287137e-02, 4.88910712e-02, 0., 0., 0.,
          2.24965494e-02, 0., 0., 0. ]
      - [ 1.32772714e-01, 1.39379278e-01, 4.89388108e-02, 1.74252763e-01,
          1.39048934e-01, 2.09313035e-01, 6.31357431e-02, 1.82596415e-01,
          2.92074591e-01, 1.54700458e-01, 1.62848443e-01, 2.13661388e-01,
          1.41919017e-01, 1.83645904e-01, 1.16725087e-01, 2.86907166e-01,
          2.13200256e-01, 9.62733775e-02, 1.55280918e-01, 9.95195284e-02,
          1.54310063e-01, 1.58746868e-01, 2.10790187e-01, 2.40740061e-01,
          1.81590497e-01, 0., 8.91796723e-02, 1.55340135e-01,
          1.60507232e-01, 1.51917160e-01, 1.75147891e-01, 1.63295239e-01,
          8.19403753e-02, 0., 8.41155276e-02, 0., 7.08898678e-02, 0., 0.,
          0., 2.99879536e-02, 0., 0., 4.03322168e-02, 8.67464989e-02,
          6.58911243e-02, 8.47718418e-02, 9.43240300e-02, 3.04257572e-02,
          8.18078071e-02, 6.37383536e-02, 0., 7.29130730e-02,
          4.28395756e-02, 0., 3.65837775e-02, 0., 0., 0., 0.,
          5.65718077e-02, 3.89276817e-02, 7.60997087e-02, 8.45174864e-02 ]
      - [ 2.68229544e-01, 1.98110893e-01, 3.16665396e-02, 1.36460871e-01,
          1.74316153e-01, 1.25544831e-01, 2.06152901e-01, 3.06293756e-01,
          2.18237922e-01, 1.40483215e-01, 8.81487653e-02, 1.91942990e-01,
          2.57683575e-01, 8.79269987e-02, 0., 2.13297889e-01,
          3.57804537e-01, 9.28177536e-02, 8.95125344e-02, 3.08331288e-02,
          5.25763966e-02, 4.27767560e-02, 9.88153294e-02, 2.36907408e-01,
          3.31586659e-01, 6.64423481e-02, 4.78649959e-02, 6.11227602e-02,
          2.92956308e-02, 3.01324334e-02, 0., 1.70009717e-01,
          3.03238593e-02, 0., 1.08651519e-01, 9.28822160e-02,
          1.30897015e-01, 2.79383883e-02, 0., 2.62450054e-02, 0., 0., 0.,
          0., 1.54137954e-01, 0., 8.05431828e-02, 5.73053211e-02,
          2.82299761e-02, 0., 0., 0., 3.99232171e-02, 0., 4.07966152e-02,
          0., 3.66120636e-02, 0., 2.44839620e-02, 4.27121371e-02,
          6.48013577e-02, 3.63703854e-02, 2.45873239e-02, 2.31649540e-02 ]
      - [ 2.59281784e-01, 1.29651710e-01, 7.86434561e-02, 9.05800313e-02,
          1.01731084e-01, 9.19438377e-02, 1.61292598e-01, 3.49229932e-01,
          1.58628315e-01, 1.65883258e-01, 2.01776475e-01, 1.30551681e-01,
          2.01380998e-01, 1.20444603e-01, 1.21773109e-01, 1.64197311e-01,
          2.00474754e-01, 1.26786530e-01, 7.71645084e-02, 6.17334992e-02,
          7.23062828e-02, 1.08744010e-01, 2.13453725e-01, 2.94059366e-01,
          2.39570111e-01, 1.14392765e-01, 1.09570168e-01, 1.26543179e-01,
          1.07464120e-01, 6.30346611e-02, 9.12732035e-02, 2.20997855e-01,
          9.99816358e-02, 0., 0., 0., 1.50193619e-02, 0., 0., 0.,
          3.00387237e-02, 3.45940813e-02, 0., 0., 8.23392048e-02, 0.,
          5.89091405e-02, 2.17511356e-01, 2.23203465e-01, 1.18156128e-01,
          0., 0., 8.38935897e-02, 0., 0., 0., 0., 0., 0., 0.,
          2.22773124e-02, 0., 0., 0. ]
      - [ 3.33077878e-01, 2.06143446e-02, 0., 4.28091809e-02,
          8.51856470e-02, 3.94775420e-02, 2.37797052e-01, 2.33523980e-01,
          3.40041995e-01, 1.68949768e-01, 1.47648752e-01, 1.40716940e-01,
          1.73304603e-01, 1.58874959e-01, 2.47394800e-01, 2.20297664e-01,
          3.85544419e-01, 1.11844003e-01, 2.66374554e-02, 0.,
          4.31836955e-02, 1.15608893e-01, 1.60102710e-01, 3.41497421e-01,
          1.38434261e-01, 2.30235327e-02, 5.61860278e-02, 5.96412010e-02,
          4.56627943e-02, 1.85096357e-02, 2.64345072e-02, 6.74850494e-02,
          1.73654929e-01, 7.23334625e-02, 0., 0., 4.45964634e-02, 0., 0.,
          0., 0., 0., 0., 0., 4.17966247e-02, 0., 6.55413345e-02,
          9.29712430e-02, 3.30536850e-02, 2.50658300e-02, 0., 0.,
          5.69756627e-02, 0., 0., 3.04616634e-02, 8.97935592e-03, 0., 0.,
          3.48436311e-02, 5.43726981e-02, 2.18057297e-02, 0., 0. ]
      - [ 2.48818278e-01, 2.65397668e-01, 4.19157594e-02, 5.12377098e-02,
          3.33055034e-02, 0., 5.30198850e-02, 0., 3.72915119e-01,
          2.31087714e-01, 2.69845545e-01, 8.65315497e-02, 5.39610833e-02,
          1.22299820e-01, 1.59936413e-01, 1.76837370e-01, 2.28357226e-01,
          1.84492692e-01, 1.25156596e-01, 1.37231752e-01, 1.11787595e-01,
          4.24580947e-02, 2.54589319e-01, 2.23328203e-01, 2.44468316e-01,
          0., 0., 0., 8.44006315e-02, 0., 1.39981166e-01, 3.01304370e-01,
          0., 1.56946927e-01, 0., 0., 1.18437633e-01, 0., 0., 0.,
          5.80915660e-02, 0., 7.90861174e-02, 7.58180171e-02,
          1.00951940e-01, 0., 0., 2.51905825e-02, 8.65761787e-02, 0., 0.,
          0., 4.73457761e-02, 0., 3.14868577e-02, 2.43334696e-02, 0.,
          2.91984584e-02, 3.07515245e-02, 0., 4.27276418e-02,
          4.48921248e-02, 0., 5.56512550e-02 ]
      - [ 1.34848043e-01, 1.57742929e-02, 1.78823695e-02, 1.91596746e-02,
          1.03780329e-01, 0., 7.68528506e-02, 3.94225121e-01,
          1.96291924e-01, 1.24726489e-01, 1.26820683e-01, 1.11056700e-01,
          1.28086030e-01, 1.41582325e-01, 1.50614128e-01, 3.43017876e-01,
          1.39352769e-01, 8.94805789e-02, 1.32539898e-01, 7.73875862e-02,
          1.34440869e-01, 1.05637901e-01, 2.17638925e-01, 3.14250559e-01,
          1.73693091e-01, 1.67593837e-01, 1.01876520e-01, 8.64775553e-02,
          1.34728536e-01, 1.24744438e-01, 1.29438475e-01, 2.26486593e-01,
          1.28723662e-02, 0., 0., 0., 1.88432150e-02, 0., 0., 0., 0., 0.,
          0., 0., 8.35642219e-02, 0., 5.08607961e-02, 2.52115935e-01,
          1.13074422e-01, 1.27159834e-01, 0., 0., 1.00888945e-01, 0., 0.,
          0., 0., 0., 0., 0., 5.39587550e-02, 0., 0., 1.71978265e-01 ]
      - [ 8.64949301e-02, 0., 3.32943127e-02, 1.00466534e-01,
          3.29728574e-02, 9.97278839e-02, 0., 1.30907848e-01,
          4.54538792e-01, 1.56985492e-01, 1.05353862e-01, 1.25075728e-01,
          7.31832460e-02, 4.57113236e-02, 3.60725582e-01, 1.24558769e-01,
          3.13514024e-01, 1.63510963e-01, 1.20095067e-01, 8.75139982e-02,
          7.14885890e-02, 6.17836155e-02, 3.27891320e-01, 2.18488172e-01,
          2.50762314e-01, 6.67473599e-02, 2.90790461e-02, 8.70966539e-02,
          9.04955789e-02, 0., 7.51696154e-02, 0., 8.27634558e-02, 0., 0.,
          0., 7.24359527e-02, 0., 0., 0., 0., 8.44319612e-02,
          7.71490857e-02, 1.04566991e-01, 1.35340735e-01, 1.08708292e-02,
          0., 8.76513571e-02, 2.48235896e-01, 8.53236914e-02, 0., 0.,
          1.00224093e-01, 0., 0., 0., 0., 0., 0., 0., 0., 0., 0., 0. ]
      - [ 2.46444792e-01, 1.46408036e-01, 1.53577283e-01, 7.56492540e-02,
          1.32671088e-01, 1.93002701e-01, 1.07876897e-01, 2.33768255e-01,
          2.82518566e-01, 1.55314490e-01, 1.39238924e-01, 2.06297219e-01,
          1.40773371e-01, 1.55879915e-01, 1.38648778e-01, 2.26435065e-01,
          1.20420903e-01, 1.75658211e-01, 8.11996013e-02, 0.,
          1.18531436e-01, 1.86003879e-01, 1.29869297e-01, 3.34675461e-01,
          1.16185538e-01, 3.87393907e-02, 0., 1.61046267e-01,
          1.52507186e-01, 1.85358688e-01, 1.43332243e-01, 2.59362578e-01,
          9.47660506e-02, 9.20208544e-02, 0., 0., 5.99651933e-02, 0., 0.,
          0., 3.11871935e-02, 0., 0., 0., 6.38922974e-02, 0.,
          1.03011765e-01, 9.30524245e-02, 7.97557607e-02, 0.,
          5.32571524e-02, 0., 2.82098781e-02, 0., 0., 0., 0., 0., 0., 0.,
          3.76131721e-02, 0., 8.25301260e-02, 8.63825083e-02 ]
      - [ 1.30052239e-01, 8.64433721e-02, 1.39432311e-01, 1.22472934e-01,
          1.16506815e-01, 8.34909081e-02, 1.27607435e-01, 3.34528416e-01,
          1.47166505e-01, 1.64915130e-01, 1.56677485e-01, 1.62759051e-01,
          1.69614866e-01, 2.10697785e-01, 1.22905962e-01, 2.74679333e-01,
          1.34636149e-01, 6.81644604e-02, 9.62704346e-02, 1.11568801e-01,
          1.43120736e-01, 1.31293103e-01, 1.96110293e-01, 3.32946122e-01,
          1.84994757e-01, 1.20686039e-01, 6.82214722e-02, 1.31417796e-01,
          1.51618898e-01, 1.11532100e-01, 1.16989210e-01, 2.27782220e-01,
          0., 0., 0., 0., 0., 0., 0., 0., 5.64765073e-02, 0., 0.,
          3.44764777e-02, 8.98939073e-02, 0., 9.41032022e-02,
          1.85171902e-01, 1.56571522e-01, 1.32593349e-01, 0., 0.,
          1.06879197e-01, 0., 0., 0., 0., 0., 0., 0., 6.03311323e-02, 0.,
          0., 1.13261677e-01 ]
      - [ 2.01991364e-01, 1.35961682e-01, 1.34531498e-01, 1.22143239e-01,
          2.36121178e-01, 1.49861574e-01, 1.48326680e-01, 1.84133455e-01,
          1.36428803e-01, 2.28068441e-01, 1.36900708e-01, 1.87089965e-01,
          3.15630853e-01, 1.99163377e-01, 1.85582459e-01, 1.39322877e-01,
          1.21272072e-01, 1.41371980e-01, 1.01713963e-01, 9.49875414e-02,
          2.47368991e-01, 1.50249422e-01, 1.63006693e-01, 1.64076120e-01,
          2.40653962e-01, 1.20141201e-01, 7.51200616e-02, 2.17777565e-01,
          1.52198300e-01, 4.04294580e-02, 7.89060444e-02, 0., 0., 0., 0.,
          0., 3.69353555e-02, 0., 0., 5.61126657e-02, 3.69353555e-02,
          2.64120605e-02, 3.09028402e-02, 3.04934774e-02, 8.06983411e-02,
          0., 1.12236165e-01, 3.61233167e-02, 1.00668766e-01,
          1.54089734e-01, 0., 0., 1.10573523e-01, 0., 0., 0., 0., 0., 0.,
          0., 8.93274993e-02, 0., 9.76706073e-02, 1.25719070e-01 ]
      - [ 5.18106222e-02, 9.75635424e-02, 5.82853854e-02, 0.,
          8.78739059e-02, 0., 0., 2.86081016e-01, 3.62303674e-01,
          1.84420332e-01, 1.36931360e-01, 1.05057590e-01, 1.16702639e-01,
          1.84382066e-01, 3.22880328e-01, 0., 2.73801029e-01,
          1.05490565e-01, 5.62397689e-02, 6.00335263e-02, 8.69017169e-02,
          4.71725315e-02, 3.49527538e-01, 3.38353366e-01, 1.62257880e-01,
          6.23922050e-02, 0., 6.05202951e-02, 2.29807571e-02, 0., 0.,
          2.13590145e-01, 2.44975686e-02, 0., 0., 0., 0., 0., 0., 0., 0.,
          0., 0., 0., 1.19706735e-01, 7.73379505e-02, 0., 2.24678800e-01,
          1.16664208e-01, 6.43802360e-02, 0., 0., 1.17096707e-01,
          7.36464635e-02, 0., 0., 5.23124896e-02, 0., 0., 0.,
          3.85788083e-02, 0., 0., 1.26784533e-01 ]
      - [ 3.63468975e-01, 5.59203848e-02, 0., 7.44201243e-02,
          7.19193518e-02, 5.49322851e-02, 1.53063340e-02, 9.93076414e-02,
          4.01434541e-01, 1.23599581e-01, 1.14960879e-01, 0.,
          1.09814122e-01, 1.16340615e-01, 1.44057468e-01, 2.01410890e-01,
          2.49293670e-01, 6.64781332e-02, 1.16025589e-01, 1.63547292e-01,
          2.70907849e-01, 1.55620247e-01, 1.17210709e-01, 1.24417499e-01,
          2.92196929e-01, 0., 5.53721040e-02, 0., 3.55555117e-01,
          1.29081890e-01, 1.35458604e-01, 1.08013995e-01, 6.00279756e-02,
          6.95648864e-02, 0., 0., 3.99782881e-02, 0., 0., 0., 0., 0., 0.,
          3.06942761e-02, 5.36365025e-02, 5.93975931e-02, 0., 0.,
          1.27943829e-01, 6.28764555e-02, 0., 0., 6.00279756e-02, 0., 0.,
          0., 0., 0., 0., 0., 8.17535818e-02, 1.01537086e-01, 0.,
          1.04541659e-01 ]
      - [ 1.24920309e-01, 1.22394606e-01, 1.48385495e-01, 1.23691864e-01,
          2.02195138e-01, 1.04818329e-01, 3.14226933e-02, 1.95013463e-01,
          1.80318847e-01, 2.59693384e-01, 1.33997411e-01, 2.07944110e-01,
          2.50148505e-01, 1.56349018e-01, 9.52589214e-02, 2.47825831e-01,
          1.00560687e-01, 1.24729820e-01, 8.44771042e-02, 0.,
          1.47391066e-01, 1.92656964e-01, 2.49248400e-01, 2.93380648e-01,
          1.67369276e-01, 7.06515312e-02, 9.50714126e-02, 1.44998446e-01,
          1.31101996e-01, 1.27711505e-01, 9.84935313e-02, 2.41607815e-01,
          0., 7.08889589e-02, 6.24596924e-02, 0., 5.90841360e-02,
          3.11031342e-02, 0., 0., 6.71150722e-03, 0., 0., 2.45146137e-02,
          1.05372801e-01, 1.17226109e-01, 1.20643608e-01, 0.,
          1.31808072e-01, 1.27232134e-01, 0., 0., 1.18358716e-01, 0., 0.,
          0., 0., 0., 0., 0., 7.41310194e-02, 0., 0., 1.07539967e-01 ]
      - [ 2.02792585e-02, 0., 0., 0., 5.69175035e-02, 0., 0.,
          3.21174204e-01, 2.26823390e-01, 2.06032664e-01, 2.18865782e-01,
          2.41108924e-01, 1.81892648e-01, 1.86270654e-01, 1.22260444e-01,
          2.87111044e-01, 2.09310785e-01, 1.30625084e-01, 1.43684074e-01,
          1.83326557e-01, 2.23515227e-01, 9.74338502e-02, 1.51782274e-01,
          4.11485136e-01, 1.46516755e-01, 0., 0., 0., 0., 0., 0.,
          2.29216099e-01, 0., 0., 0., 0., 0., 0., 0., 0., 1.81383193e-02,
          0., 0., 0., 1.79482728e-01, 0., 9.81791317e-02, 9.93997604e-02,
          0., 5.37454933e-02, 0., 0., 1.07426807e-01, 8.13141763e-02,
          6.14655763e-02, 9.00407657e-02, 4.65393141e-02, 0., 0., 0., 0.,
          0., 0., 0. ]
      - [ 8.92375857e-02, 8.73795748e-02, 1.04758427e-01, 1.13576353e-01,
          1.05916090e-01, 7.09275231e-02, 1.38276324e-01, 1.97964638e-01,
          2.29742974e-01, 2.90520936e-01, 1.38702735e-01, 1.98531136e-01,
          1.74839288e-01, 1.56336024e-01, 2.71601558e-01, 6.90370053e-02,
          2.50958204e-01, 1.41869694e-01, 9.92405266e-02, 1.57022089e-01,
          1.74781129e-01, 1.07804522e-01, 1.65246949e-01, 3.10687900e-01,
          2.94903010e-01, 7.58726969e-02, 2.19827853e-02, 0.,
          5.49315251e-02, 2.34572738e-02, 4.11865227e-02, 2.12979227e-01,
          1.05419725e-01, 7.40867108e-02, 0., 0., 6.25098571e-02, 0., 0.,
          0., 3.45856622e-02, 0., 7.25014210e-02, 9.02818963e-02,
          1.61798850e-01, 6.06916994e-02, 0., 1.00049160e-01,
          7.43427575e-02, 0., 7.23824725e-02, 9.66551602e-02,
          1.15630880e-01, 0., 0., 0., 0., 0., 0., 0., 5.57677038e-02, 0.,
          6.56831712e-02, 1.15116537e-01 ]
      - [ 4.29482013e-01, 3.24396379e-02, 3.97876464e-02, 6.95394129e-02,
          8.30364749e-02, 0., 4.30809259e-02, 5.69956563e-02,
          4.52323020e-01, 1.84338838e-01, 1.08273193e-01, 5.24459817e-02,
          1.57580361e-01, 9.91362482e-02, 7.00969696e-02, 1.77208811e-01,
          4.14694726e-01, 1.09687775e-01, 1.29071131e-01, 1.14480466e-01,
          5.55046946e-02, 1.20074205e-01, 8.61326531e-02, 1.87369868e-01,
          3.77550364e-01, 6.45681918e-02, 4.60190549e-02, 2.00239159e-02,
          8.07919949e-02, 5.50010651e-02, 0., 5.37759736e-02,
          5.03138192e-02, 5.56032471e-02, 3.62930149e-02, 0.,
          6.32449612e-02, 0., 0., 0., 0., 0., 0., 0., 5.01741953e-02,
          2.95206606e-02, 4.85284775e-02, 4.41732518e-02, 2.69206315e-02,
          0., 0., 0., 6.26797229e-02, 0., 7.03369528e-02, 0.,
          5.40647507e-02, 4.50578108e-02, 0., 0., 5.18203303e-02, 0., 0.,
          2.65202839e-02 ]
      - [ 4.17245388e-01, 9.06207189e-02, 5.48713654e-02, 3.36370245e-02,
          8.29344466e-02, 5.79828136e-02, 3.46651226e-02, 3.89133766e-02,
          4.74443108e-01, 6.80449009e-02, 1.13237351e-01, 4.53259088e-02,
          1.52047575e-01, 1.13577634e-01, 7.54420459e-02, 1.81549519e-01,
          4.14753705e-01, 1.36833146e-01, 4.01528850e-02, 1.33506402e-01,
          5.53283766e-02, 3.54270861e-02, 1.21453486e-01, 1.79903895e-01,
          3.84585381e-01, 3.16844955e-02, 0., 3.95046622e-02,
          9.63229835e-02, 4.31434028e-02, 9.15059075e-02, 1.31876752e-01,
          1.73580442e-02, 0., 3.98677550e-02, 0., 8.35979134e-02, 0., 0.,
          3.44459675e-02, 0., 3.10170799e-02, 3.53831388e-02, 0.,
          5.38519137e-02, 0., 0., 4.86987382e-02, 0., 0., 4.33809943e-02,
          0., 5.27924262e-02, 5.04719242e-02, 0., 3.93484347e-02,
          4.07082215e-02, 0., 0., 0., 6.18910939e-02, 2.30354071e-02, 0.,
          0. ]
      - [ 2.70613402e-01, 1.68018073e-01, 5.83217368e-02, 3.37510742e-02,
          6.43106699e-02, 6.34927005e-02, 2.33720809e-01, 2.82627165e-01,
          1.59928903e-01, 2.23545820e-01, 1.23891078e-01, 1.83364153e-01,
          1.67845905e-01, 1.87954158e-01, 1.79209337e-01, 1.59723073e-01,
          1.82012275e-01, 1.73632145e-01, 1.02002576e-01, 1.13723017e-01,
          1.16190888e-01, 0., 2.41217017e-01, 1.12426743e-01,
          3.61354232e-01, 1.40002117e-01, 1.06405886e-02, 5.04962318e-02,
          4.26947400e-02, 2.35759877e-02, 2.02313572e-01, 2.06440642e-01,
          9.70440283e-02, 7.73793682e-02, 5.97376935e-02, 0.,
          6.65621236e-02, 3.22252959e-02, 2.37093624e-02, 0., 0., 0., 0.,
          0., 4.66613583e-02, 7.80125260e-02, 0., 8.88252482e-02,
          6.73185363e-02, 8.78266096e-02, 0., 0., 4.82616387e-02, 0., 0.,
          0., 0., 0., 0., 3.60258706e-02, 9.84806865e-02, 5.18141054e-02,
          8.32006931e-02, 1.40127093e-01 ]
      - [ 5.55195846e-02, 1.08569302e-01, 8.51812288e-02, 8.59317854e-02,
          5.29358489e-03, 9.47701484e-02, 1.09342791e-01, 8.28330293e-02,
          4.05229568e-01, 1.48106292e-01, 1.25209823e-01, 1.44715026e-01,
          1.05871698e-02, 9.28667635e-02, 1.62495092e-01, 3.69522244e-01,
          1.45966396e-01, 1.71666861e-01, 1.13145664e-01, 2.39419580e-01,
          1.08409777e-01, 2.09768265e-01, 1.16652340e-01, 1.92168012e-01,
          3.55291307e-01, 8.93492326e-02, 1.15152530e-01, 8.90943855e-02,
          1.14989363e-01, 9.33234468e-02, 1.20966621e-01, 7.54676908e-02,
          5.29358489e-03, 0., 0., 0., 0., 0., 0., 0., 0., 0., 0., 0.,
          6.82030693e-02, 0., 4.77377698e-02, 1.76096052e-01,
          7.48625956e-03, 6.88271448e-02, 0., 1.19315490e-01,
          1.17298007e-01, 0., 0., 0., 0., 0., 0., 0., 1.08098060e-01, 0.,
          0., 2.02245355e-01 ]
      - [ 3.36618364e-01, 7.64118955e-02, 2.30208874e-01, 0.,
          5.69998324e-02, 2.86579698e-01, 1.39625058e-01, 1.69838130e-01,
          3.39101166e-01, 7.49273002e-02, 1.16611980e-01, 2.02332348e-01,
          3.07356715e-01, 8.41771513e-02, 0., 0., 3.85473192e-01,
          1.16504513e-01, 0., 8.73080641e-02, 0., 9.09764394e-02,
          8.84294510e-02, 1.60046875e-01, 3.54993880e-01, 0.,
          1.15338443e-02, 0., 1.18212141e-02, 0., 0., 0., 4.95185032e-02,
          2.90808100e-02, 9.69559029e-02, 1.15443863e-01, 1.36968046e-01,
          0., 0., 0., 0., 0., 0., 0., 1.63090914e-01, 0., 8.68030563e-02,
          0., 0., 0., 0., 0., 0., 0., 7.02893594e-03, 1.05107110e-02,
          1.18212141e-02, 0., 0., 0., 1.18212141e-02, 0., 4.97020828e-03,
          1.63652133e-02 ]
      - [ 1.96174189e-01, 9.13055390e-02, 7.64094666e-02, 5.42584844e-02,
          1.64835408e-01, 1.17460258e-01, 1.25050336e-01, 2.55859405e-01,
          1.71197012e-01, 1.40399128e-01, 1.46283865e-01, 2.69543856e-01,
          2.15048984e-01, 1.56088978e-01, 2.09391654e-01, 1.81837961e-01,
          1.86908871e-01, 1.23067349e-01, 9.09781158e-02, 7.51664713e-02,
          1.38936892e-01, 1.01112582e-01, 2.87865072e-01, 3.36796194e-01,
          1.50298104e-01, 0., 0., 0., 3.66998315e-02, 1.17001049e-02,
          1.22717328e-01, 2.61312157e-01, 1.18157573e-01, 8.87361765e-02,
          0., 0., 7.45556280e-02, 0., 0., 3.30991969e-02, 3.66998315e-02,
          0., 0., 0., 8.64421949e-02, 0., 7.37485364e-02, 1.59609899e-01,
          0., 0., 0., 5.44251055e-02, 1.19965672e-01, 0., 0., 0.,
          3.84077020e-02, 0., 0., 0., 1.19145550e-01, 0., 1.50115028e-01,
          1.03453934e-01 ]
      - [ 4.09900285e-02, 0., 0., 0., 8.65281969e-02, 0., 4.70135622e-02,
          3.16758364e-01, 2.51771033e-01, 1.84679359e-01, 2.13324606e-01,
          1.67766675e-01, 1.93173960e-01, 1.81480482e-01, 2.13352442e-01,
          2.33794481e-01, 2.18363717e-01, 1.73193246e-01, 7.92392194e-02,
          1.57186657e-01, 1.26770541e-01, 1.63297713e-01, 1.53052762e-01,
          4.07739937e-01, 1.48339361e-01, 0., 0., 0., 0., 0., 0.,
          2.50281572e-01, 6.03960194e-02, 0., 0., 0., 0., 0., 0., 0., 0.,
          0., 0., 0., 1.31876320e-01, 7.43930116e-02, 1.24829307e-01,
          1.56634688e-01, 0., 0., 0., 4.63178419e-02, 1.09665722e-01, 0.,
          1.33230716e-01, 1.35397404e-01, 6.35478869e-02, 0., 0., 0., 0.,
          0., 0., 0. ]
      - [ 1.55589402e-01, 1.15353391e-01, 1.09888099e-01, 1.58128530e-01,
          1.06433742e-01, 1.04909427e-01, 9.12879407e-02, 1.49665788e-01,
          3.43388647e-01, 1.89361498e-01, 1.13967650e-01, 1.58799529e-01,
          2.69262254e-01, 1.64917365e-01, 7.61274323e-02, 1.29134044e-01,
          2.18278751e-01, 1.07529476e-01, 2.15102568e-01, 1.50939271e-01,
          2.25477159e-01, 1.57485560e-01, 1.44685835e-01, 1.39328018e-01,
          2.79388428e-01, 1.34953409e-01, 1.06828354e-01, 9.10065845e-02,
          1.50508270e-01, 8.85326490e-02, 1.16337128e-01, 1.18273430e-01,
          1.79650247e-01, 0., 0., 0., 8.60733315e-02, 0., 0., 0., 0., 0.,
          0., 0., 9.97900516e-02, 7.35038295e-02, 9.85425562e-02,
          1.24659523e-01, 1.58719182e-01, 0., 8.41575861e-02, 0.,
          7.38072693e-02, 0., 0., 0., 0., 0., 0., 0., 5.56254201e-02, 0.,
          0., 1.37298048e-01 ]
      - [ 1.05704494e-01, 1.62807807e-01, 1.42267689e-01, 2.80318737e-01,
          2.04343230e-01, 0., 8.50961804e-02, 2.04272032e-01,
          3.30735058e-01, 1.36228010e-01, 0., 2.62793094e-01,
          2.97017485e-01, 1.98753804e-01, 1.24031164e-01, 1.64891735e-01,
          2.09970936e-01, 1.35946587e-01, 1.71619892e-01, 1.82067990e-01,
          1.33600980e-01, 1.04331627e-01, 8.08579400e-02, 2.32041016e-01,
          2.37224862e-01, 3.80030945e-02, 2.02082451e-02, 1.82691738e-02,
          5.10381535e-02, 2.56588161e-02, 5.13251759e-02, 2.26287991e-01,
          7.74936378e-02, 0., 9.52427760e-02, 8.77609253e-02,
          1.12452768e-01, 2.47106832e-02, 0., 0., 0., 0., 0., 0.,
          9.13514569e-02, 1.02481447e-01, 0., 1.02764793e-01,
          4.33315225e-02, 3.01916245e-02, 1.80642530e-02, 0.,
          3.54164243e-02, 0., 0., 3.09332218e-02, 0., 0., 3.54366899e-02,
          0., 5.99956885e-02, 0., 0., 0. ]
      - [ 2.88339287e-01, 2.47900143e-01, 7.96852931e-02, 0.,
          6.10777549e-02, 0., 3.86376977e-02, 0., 3.68015260e-01,
          2.91774690e-01, 1.69718638e-01, 1.47629753e-01, 1.04912221e-01,
          1.41124889e-01, 1.35097593e-01, 1.05492830e-01, 2.46240556e-01,
          1.66194230e-01, 1.42416164e-01, 1.39844969e-01, 9.28899571e-02,
          1.50507569e-01, 2.11996958e-01, 2.53475517e-01, 2.21610978e-01,
          4.21303920e-02, 0., 0., 9.84070599e-02, 2.28757672e-02,
          1.19225226e-01, 2.86915481e-01, 0., 1.31990582e-01,
          7.60027021e-02, 0., 1.12038814e-01, 0., 0., 0., 2.08810158e-02,
          0., 0., 7.76430666e-02, 1.53240398e-01, 0., 0., 7.00053945e-02,
          4.54460457e-02, 5.09771630e-02, 0., 4.04278226e-02,
          5.04703522e-02, 0., 0., 0., 0., 0., 0., 0., 3.61669809e-02,
          3.29855643e-02, 3.64570729e-02, 5.47486208e-02 ]
      - [ 1.93896219e-01, 2.16945902e-01, 5.99164590e-02, 4.80814353e-02,
          7.72066563e-02, 4.31795567e-02, 2.01943703e-02, 3.45222831e-01,
          2.32424110e-01, 1.20772161e-01, 2.16260076e-01, 1.68183208e-01,
          1.52686581e-01, 1.43332094e-01, 1.78231657e-01, 1.17922649e-01,
          2.23930374e-01, 2.00476453e-01, 1.27435982e-01, 8.34317356e-02,
          1.72754526e-01, 1.11343369e-01, 1.21866226e-01, 1.96630836e-01,
          1.77808031e-01, 3.06306422e-01, 5.91757260e-02, 0.,
          9.75146517e-02, 0., 6.46384284e-02, 3.05714458e-01, 0.,
          1.71511948e-01, 3.92335802e-02, 0., 1.32092610e-01, 0., 0., 0.,
          1.98100824e-02, 0., 0., 0., 1.54978245e-01, 7.57136270e-02, 0.,
          0., 5.76250032e-02, 1.98100824e-02, 3.72577421e-02, 0.,
          4.18435596e-02, 0., 0., 0., 0., 0., 0., 0., 9.21322927e-02,
          3.08387838e-02, 7.22749680e-02, 5.82170673e-02 ]
      - [ 3.58273625e-01, 0., 0., 0., 9.97824520e-02, 5.91645166e-02,
          2.60717511e-01, 3.00320566e-01, 2.08520561e-01, 1.84958696e-01,
          2.17419446e-01, 1.33838341e-01, 1.49616227e-01, 1.79072514e-01,
          1.91891775e-01, 1.44976214e-01, 3.32421452e-01, 1.08115427e-01,
          8.66347551e-02, 0., 1.91971380e-02, 6.18058704e-02,
          1.69285506e-01, 3.56984437e-01, 1.65328100e-01, 1.88018158e-02,
          3.78678888e-02, 2.22743973e-02, 7.01240078e-02, 3.19800191e-02,
          7.42251202e-02, 1.79087028e-01, 1.67906001e-01, 6.93414211e-02,
          5.23613021e-02, 0., 7.18291104e-02, 0., 0., 0., 0., 0., 0., 0.,
          8.20843056e-02, 0., 9.12324861e-02, 9.70890149e-02,
          5.70001118e-02, 4.52163778e-02, 5.51548861e-02, 0.,
          5.70556670e-02, 0., 0., 0., 0., 0., 0., 0., 3.50490175e-02,
          4.28932756e-02, 0., 4.09894921e-02 ]
      - [ 1.88144445e-01, 1.57370135e-01, 8.57498944e-02, 1.14393204e-01,
          9.12085623e-02, 1.14387400e-01, 1.04558021e-01, 1.23927303e-01,
          4.33812559e-01, 1.55438140e-01, 1.43498749e-01, 1.80347294e-01,
          2.94358283e-01, 1.63258374e-01, 8.98559764e-02, 1.51378363e-01,
          2.94917583e-01, 2.01397225e-01, 1.84576377e-01, 2.53533036e-01,
          1.36243150e-01, 9.02861878e-02, 0., 9.33810100e-02,
          2.75639325e-01, 1.45774018e-02, 0., 0., 1.03312135e-01, 0.,
          1.22282114e-02, 6.49561509e-02, 6.60938025e-02, 1.39869437e-01,
          0., 0., 1.20632775e-01, 0., 0., 0., 0., 0., 0., 0.,
          1.37097016e-01, 9.45789739e-02, 1.42769650e-01, 4.17890549e-02,
          0., 9.17195827e-02, 5.70222102e-02, 2.17134021e-02,
          6.73029423e-02, 0., 0., 0., 6.16433769e-02, 0., 0., 0.,
          2.39315461e-02, 0., 0., 0. ]
      - [ 1.30265564e-01, 8.00805539e-02, 2.60144956e-02, 8.21416080e-02,
          7.90493861e-02, 9.03854966e-02, 1.20372012e-01, 1.09794877e-01,
          3.75865430e-01, 1.66389748e-01, 1.62374154e-01, 3.72957885e-02,
          1.24280006e-01, 1.30511239e-01, 1.82441205e-01, 3.15424472e-01,
          1.77531034e-01, 1.40349448e-01, 1.65854216e-01, 1.90245628e-01,
          2.06551164e-01, 1.26082987e-01, 1.91968381e-01, 1.78488955e-01,
          3.22519332e-01, 1.45577163e-01, 1.01104066e-01, 1.10316530e-01,
          9.00036022e-02, 1.11002266e-01, 1.02812223e-01, 7.47723058e-02,
          9.51151252e-02, 0., 0., 0., 4.88305427e-02, 3.74904461e-02, 0.,
          0., 4.63432260e-02, 0., 0., 3.71717066e-02, 8.02367702e-02, 0.,
          1.31411254e-01, 8.02112371e-02, 1.16249196e-01, 9.95058045e-02,
          9.67211947e-02, 0., 1.02427810e-01, 0., 0., 0., 0., 0., 0., 0.,
          8.26761276e-02, 0., 0., 2.08040699e-01 ]
      - [ 1.78049102e-01, 1.35646611e-01, 1.55501023e-01, 1.75262943e-01,
          2.77355999e-01, 0., 0., 9.45832357e-02, 4.13207978e-01,
          1.43405244e-01, 1.02525286e-01, 0., 3.78492206e-01,
          1.99791491e-01, 8.92984793e-02, 1.39316365e-01, 2.92259097e-01,
          1.79438755e-01, 1.62893623e-01, 1.19825497e-01, 2.23523572e-01,
          8.35253522e-02, 1.12781301e-01, 0., 2.85901845e-01, 0., 0., 0.,
          7.34099895e-02, 0., 0., 0., 6.51387572e-02, 0., 7.07275867e-02,
          1.21161669e-01, 1.29784793e-01, 0., 0., 0., 0., 0., 0., 0.,
          1.54896796e-01, 9.53911096e-02, 3.97587940e-02, 5.35158925e-02,
          0., 5.39463237e-02, 0., 0., 1.56116886e-02, 0., 0., 0., 0., 0.,
          0., 0., 0., 0., 0., 0. ]
      - [ 7.90343061e-02, 0., 0., 0., 0., 0., 5.85144712e-03,
          4.59088027e-01, 1.34425879e-01, 1.44056529e-01, 1.09490432e-01,
          1.52095407e-01, 0., 1.47485852e-01, 1.23588257e-01,
          4.76750582e-01, 1.73684046e-01, 1.13212906e-01, 1.10695139e-01,
          1.19643562e-01, 0., 1.17382266e-01, 1.61946550e-01,
          4.11907673e-01, 9.93884429e-02, 0., 0., 0., 0., 0., 0.,
          3.78700554e-01, 1.70449764e-02, 0., 0., 0., 0., 0., 0., 0., 0.,
          0., 0., 0., 6.95858244e-03, 0., 2.00750940e-02, 2.42991820e-02,
          5.10160625e-02, 3.64941321e-02, 0., 0., 6.95858244e-03, 0., 0.,
          0., 0., 0., 0., 0., 6.95858244e-03, 0., 0., 8.25584382e-02 ]
      - [ 4.66822088e-01, 0., 0., 0., 0., 0., 0., 0., 4.87325817e-01,
          1.58019453e-01, 0., 1.17502391e-01, 1.18293054e-01, 0.,
          1.55523553e-01, 1.37511164e-01, 4.28410470e-01, 1.57068372e-01,
          1.19577222e-01, 0., 1.19749084e-01, 0., 1.58274040e-01,
          1.40205562e-01, 4.05504167e-01, 1.10197254e-02, 0., 0., 0., 0.,
          0., 0., 3.13887522e-02, 9.65069421e-03, 0., 0., 6.45380793e-03,
          0., 0., 0., 0., 0., 0., 0., 9.12706275e-03, 0., 1.22546777e-02,
          2.45591290e-02, 2.28915941e-02, 9.65069421e-03, 0., 0.,
          6.45380793e-03, 0., 0., 0., 0., 0., 0., 0., 0., 0., 0., 0. ]
      - [ 2.19631106e-01, 1.65005818e-01, 1.62627056e-01, 4.04754356e-02,
          7.65352696e-02, 0., 5.47342300e-02, 1.58960417e-01,
          3.09512138e-01, 2.43672058e-01, 2.43640542e-01, 1.60391137e-01,
          1.71605170e-01, 1.34463787e-01, 1.31692514e-01, 2.25357488e-01,
          2.20445842e-01, 1.66172042e-01, 1.09686002e-01, 1.83665991e-01,
          1.16406702e-01, 1.30801767e-01, 2.68046767e-01, 1.13831848e-01,
          2.55789310e-01, 0., 0., 0., 8.46781358e-02, 1.73939057e-02,
          9.57151279e-02, 2.98732549e-01, 7.28847980e-02, 1.23273700e-01,
          9.44727659e-02, 0., 1.18355274e-01, 0., 0., 0., 3.01271286e-02,
          0., 0., 7.54714683e-02, 1.28624320e-01, 4.27972227e-02,
          2.30052769e-02, 0., 9.36715379e-02, 0., 0., 0., 2.75021791e-02,
          0., 0., 0., 0., 0., 0., 0., 6.34341240e-02, 0., 1.01040222e-01,
          7.03698024e-02 ]
      - [ 2.04270840e-01, 1.47505894e-01, 4.86596376e-02, 1.14746176e-01,
          4.10069786e-02, 1.08984999e-01, 1.26041710e-01, 1.10498294e-01,
          3.89648527e-01, 1.92030996e-01, 1.20128326e-01, 1.53398827e-01,
          2.30242327e-01, 1.61413282e-01, 1.17051370e-01, 1.11269727e-01,
          2.17456564e-01, 2.15171233e-01, 1.65885150e-01, 1.14348263e-01,
          2.05205724e-01, 7.01473951e-02, 1.87076673e-01, 1.26911297e-01,
          2.85960943e-01, 1.14906624e-01, 9.14123356e-02, 1.15431115e-01,
          1.15099788e-01, 8.06435198e-02, 8.84961933e-02, 1.64823264e-01,
          1.92922994e-01, 0., 0., 0., 1.00091860e-01, 0., 0., 0., 0., 0.,
          0., 0., 1.06844485e-01, 0., 1.59073710e-01, 8.35506395e-02,
          1.31758377e-01, 7.52111152e-02, 4.99808453e-02, 0.,
          5.73767573e-02, 0., 2.68388577e-02, 0., 3.44122909e-02, 0., 0.,
          0., 4.84223850e-02, 0., 0., 1.40703514e-01 ]
      - [ 6.62171543e-02, 3.35708410e-02, 0., 9.47345048e-02,
          6.47075698e-02, 8.53408054e-02, 0., 8.83454084e-02,
          4.38942939e-01, 1.72375396e-01, 1.48571119e-01, 1.70347884e-01,
          1.01723969e-01, 1.90402195e-01, 3.34422916e-01, 7.59120956e-02,
          2.59670585e-01, 2.11307302e-01, 1.29582137e-01, 5.77166304e-02,
          1.63527280e-01, 1.83771297e-01, 3.16755980e-01, 1.65827647e-01,
          2.55532056e-01, 0., 0., 3.96576449e-02, 1.27952367e-01, 0.,
          2.75951605e-02, 7.77852237e-02, 0., 0., 0., 0., 3.56644541e-02,
          0., 0., 0., 8.82959291e-02, 1.62527990e-02, 9.08286572e-02,
          1.04436561e-01, 1.41785279e-01, 0., 0., 4.64569926e-02,
          1.94854856e-01, 9.01823565e-02, 8.56305212e-02, 0.,
          1.17364064e-01, 0., 0., 0., 0., 0., 0., 0., 0., 0., 0., 0. ]
      - [ 4.04723972e-01, 1.01748697e-01, 5.24088033e-02, 4.37845401e-02,
          8.08578432e-02, 6.08283915e-02, 6.21232353e-02, 1.20544948e-01,
          4.21158284e-01, 1.42761216e-01, 4.16023061e-02, 3.76331992e-02,
          1.42267436e-01, 0., 1.35193214e-01, 1.33980528e-01,
          2.58854687e-01, 9.34276655e-02, 0., 0., 3.22051167e-01,
          9.74817052e-02, 1.10447459e-01, 1.35340750e-01, 2.75490642e-01,
          2.60660220e-02, 4.99868914e-02, 8.27637613e-02, 3.28056931e-01,
          1.75278842e-01, 1.44804060e-01, 9.70301926e-02, 0., 0., 0., 0.,
          6.49488419e-02, 5.26349396e-02, 5.53620905e-02, 0.,
          5.75646013e-02, 0., 0., 4.96923849e-02, 6.24008290e-02, 0., 0.,
          0., 1.24690048e-01, 0., 0., 0., 5.45838401e-02, 4.90678996e-02,
          0., 0., 0., 0., 0., 0., 6.82736933e-02, 3.98052037e-02,
          7.39401504e-02, 9.31932330e-02 ]
      - [ 1.61210686e-01, 0., 3.11863590e-02, 4.07737792e-02,
          1.17383622e-01, 0., 1.31725103e-01, 3.80982578e-01,
          1.96025178e-01, 1.61451682e-01, 1.08876020e-01, 1.16001572e-02,
          1.72005609e-01, 0., 2.29947940e-01, 3.94358456e-01,
          2.23893121e-01, 1.05548434e-01, 0., 8.82392153e-02,
          1.36718661e-01, 1.51150256e-01, 1.89839721e-01, 3.00431520e-01,
          2.17324272e-01, 7.05585033e-02, 2.78366841e-02, 7.00442046e-02,
          9.68356952e-02, 3.48476358e-02, 8.26349854e-02, 3.52572173e-01,
          0., 0., 0., 0., 5.98136485e-02, 0., 5.19602858e-02,
          7.69070610e-02, 7.72602558e-02, 6.49125353e-02, 0., 0.,
          5.55237606e-02, 0., 0., 0., 2.22437512e-02, 0., 0., 0.,
          4.69840392e-02, 0., 4.48471308e-02, 5.29901274e-02, 0.,
          2.79948302e-02, 5.30072749e-02, 3.11564673e-02, 8.11445639e-02,
          0., 0., 0. ]
      - [ 1.50937304e-01, 1.42261878e-01, 1.46064162e-01, 1.48851439e-01,
          2.00953901e-01, 1.64188474e-01, 2.44973507e-02, 1.73502341e-01,
          2.11215690e-01, 1.92453399e-01, 2.09208518e-01, 1.67584002e-01,
          2.69991904e-01, 9.99045223e-02, 1.17432505e-01, 2.29275048e-01,
          1.13573536e-01, 1.08699314e-01, 1.67250410e-01, 1.15514800e-01,
          1.80077299e-01, 1.74004748e-01, 1.77860320e-01, 2.66980857e-01,
          1.46147400e-01, 1.89187098e-02, 6.46019652e-02, 1.87725917e-01,
          2.26412907e-01, 1.08747974e-01, 9.00356695e-02, 2.51366973e-01,
          8.52329880e-02, 7.70271346e-02, 5.45498617e-02, 3.26124951e-02,
          6.66815341e-02, 0., 0., 0., 7.88592361e-03, 0., 0., 0.,
          7.52269179e-02, 8.98411870e-02, 8.37728679e-02, 0.,
          1.47532122e-02, 8.80784765e-02, 6.52376190e-02, 0.,
          8.13802704e-02, 0., 0., 0., 0., 0., 0., 0., 6.97551817e-02,
          6.31551445e-02, 8.66399854e-02, 8.85248482e-02 ]
      - [ 6.97713271e-02, 8.68460611e-02, 9.84761864e-02, 4.02286202e-02,
          1.38646215e-01, 6.83865324e-02, 1.14535548e-01, 2.50432640e-01,
          2.36008763e-01, 2.76390582e-01, 2.23853990e-01, 1.24446288e-01,
          1.83462426e-01, 1.63280800e-01, 2.79391497e-01, 7.34463930e-02,
          2.89143264e-01, 1.41789988e-01, 1.62870124e-01, 1.29125133e-01,
          1.23546660e-01, 1.81568682e-01, 1.59493878e-01, 2.67033428e-01,
          3.10825676e-01, 2.73152441e-02, 0., 0., 6.90904409e-02, 0., 0.,
          9.44258273e-02, 1.53376430e-01, 0., 0., 0., 5.46714738e-02, 0.,
          0., 0., 1.01087587e-02, 0., 0., 1.05212942e-01, 1.58400536e-01,
          0., 6.30544648e-02, 1.03513077e-01, 8.42044875e-02,
          9.13725197e-02, 9.43583176e-02, 0., 1.15700036e-01, 0., 0., 0.,
          0., 0., 0., 0., 5.91599941e-02, 0., 0., 1.15965478e-01 ]
      - [ 1.48955509e-01, 1.13482691e-01, 8.28543231e-02, 6.39826730e-02,
          9.25468653e-02, 2.39524432e-02, 9.68742818e-02, 0.,
          4.01804149e-01, 1.80151090e-01, 3.70825157e-02, 9.66655761e-02,
          1.47477180e-01, 1.21124089e-01, 1.65042803e-01, 3.16219658e-01,
          1.64077669e-01, 1.51604027e-01, 1.88628584e-01, 1.89156666e-01,
          1.70876861e-01, 1.83492720e-01, 1.97080925e-01, 1.17699161e-01,
          3.41388941e-01, 1.59388512e-01, 0., 1.17969349e-01,
          1.11523174e-01, 1.19059615e-01, 1.26984477e-01, 8.48794356e-02,
          1.04609996e-01, 4.38924022e-02, 0., 0., 4.73151505e-02, 0., 0.,
          0., 0., 0., 0., 0., 8.14687461e-02, 0., 1.11987486e-01,
          1.16705976e-01, 1.46164954e-01, 0., 8.53842422e-02, 0.,
          6.92351237e-02, 0., 0., 0., 0., 0., 0., 0., 7.22143278e-02, 0.,
          0., 1.94853663e-01 ]
      - [ 2.50065386e-01, 1.40777662e-01, 7.02415854e-02, 1.22452676e-01,
          1.27529129e-01, 1.22306354e-01, 1.17283069e-01, 0.,
          3.42657924e-01, 1.50946736e-01, 1.96531326e-01, 2.08552197e-01,
          1.98982179e-01, 1.77207187e-01, 7.16653392e-02, 1.16579339e-01,
          2.36399934e-01, 9.54026058e-02, 1.57874584e-01, 5.61301224e-02,
          5.56324869e-02, 8.51268619e-02, 2.45240614e-01, 2.89793968e-01,
          2.45576724e-01, 1.04761764e-01, 8.54138508e-02, 1.35833934e-01,
          8.07182565e-02, 1.28751427e-01, 1.26915216e-01, 1.67896122e-01,
          8.54636878e-02, 9.75674540e-02, 0., 0., 6.17251769e-02, 0., 0.,
          0., 4.86462563e-03, 0., 0., 0., 9.75354388e-02, 0.,
          1.72988683e-01, 0., 1.75764769e-01, 8.50561783e-02,
          6.05082475e-02, 0., 7.21540600e-02, 0., 0., 0., 0., 0., 0., 0.,
          3.50793153e-02, 0., 0., 1.42952338e-01 ]
      - [ 3.63909632e-01, 4.93775494e-02, 0., 2.80732699e-02,
          9.89110991e-02, 0., 3.11649829e-01, 1.88223034e-01,
          1.81914836e-01, 1.95075527e-01, 1.76451534e-01, 1.63592681e-01,
          1.31715044e-01, 1.80398047e-01, 2.22146630e-01, 1.18629485e-01,
          1.77009240e-01, 1.81522653e-01, 8.32875520e-02, 9.76460874e-02,
          7.64012486e-02, 1.51301190e-01, 2.14664325e-01, 6.43255413e-02,
          3.89258265e-01, 0., 2.83247791e-02, 4.91409488e-02,
          6.84495494e-02, 2.57042889e-02, 2.19923183e-01, 1.52941808e-01,
          1.26673415e-01, 2.74750777e-02, 0., 3.10877021e-02,
          4.11638096e-02, 0., 0., 0., 0., 0., 0., 0., 1.10014910e-02, 0.,
          1.74157210e-02, 5.92117049e-02, 1.09138601e-01, 0.,
          9.13181826e-02, 0., 6.39602095e-02, 0., 0., 0., 0., 0., 0., 0.,
          1.05980389e-01, 6.00969866e-02, 1.59766212e-01, 0. ]
      - [ 1.96905404e-01, 1.99383244e-01, 1.68064907e-01, 2.60433018e-01,
          5.31828068e-02, 0., 0., 3.52727830e-01, 1.91013068e-01,
          1.82306454e-01, 4.18436751e-02, 2.22248986e-01, 2.50256717e-01,
          1.70889735e-01, 1.81327581e-01, 1.68319345e-01, 3.11490595e-01,
          1.58773184e-01, 1.40212238e-01, 1.76386550e-01, 4.80337404e-02,
          0., 9.42648873e-02, 3.69520456e-01, 1.39735714e-01,
          1.17443707e-02, 1.37683330e-02, 0., 3.11379842e-02, 0., 0.,
          1.82943001e-01, 1.01773791e-01, 5.39957285e-02, 6.74645528e-02,
          5.45241833e-02, 7.73429126e-02, 0., 2.28957552e-02, 0., 0., 0.,
          0., 0., 6.40897602e-02, 0., 8.25447366e-02, 0., 6.23275898e-02,
          2.91645303e-02, 0., 0., 4.11162302e-02, 0., 0., 2.15749647e-02,
          2.64702495e-02, 0., 0., 0., 4.34235781e-02, 0., 3.88394110e-02,
          0. ]
      - [ 2.76873887e-01, 1.12038694e-01, 8.17962661e-02, 1.27735838e-01,
          1.36950761e-01, 2.17164144e-01, 7.43662342e-02, 7.49763623e-02,
          3.30810696e-01, 2.14955524e-01, 1.18432753e-01, 2.25004345e-01,
          1.29688084e-01, 1.92449868e-01, 9.47841033e-02, 1.95187494e-01,
          1.01444647e-01, 9.71301422e-02, 1.83104619e-01, 0.,
          1.28820330e-01, 1.24967285e-01, 2.06687450e-01, 2.96509594e-01,
          1.51800096e-01, 6.38685450e-02, 1.37225538e-01, 8.41297433e-02,
          1.24680318e-01, 1.25904769e-01, 1.85572118e-01, 2.76406676e-01,
          0., 1.33867338e-01, 0., 0., 7.93412626e-02, 0., 0., 0., 0.,
          4.39924048e-03, 0., 0., 8.76977295e-02, 8.18610862e-02,
          8.93864855e-02, 9.08004269e-02, 6.11278899e-02, 3.49530280e-02,
          0., 0., 3.47025618e-02, 0., 0., 0., 1.16982311e-02, 0., 0., 0.,
          5.33521436e-02, 0., 0., 1.18764967e-01 ]
      - [ 4.21385840e-02, 0., 0., 0., 1.58019699e-02, 0., 0.,
          1.92602545e-01, 3.76420617e-01, 2.26110891e-01, 2.08395272e-01,
          1.43319651e-01, 1.92149088e-01, 1.50486752e-01, 1.97860390e-01,
          2.92016804e-01, 3.26421171e-01, 1.53998554e-01, 1.24131277e-01,
          1.69813335e-01, 1.36586234e-01, 1.09212629e-01, 1.61923304e-01,
          4.45982873e-01, 1.65732458e-01, 0., 0., 0., 0., 0., 0., 0., 0.,
          0., 0., 0., 0., 0., 0., 2.26597507e-02, 9.12327133e-03,
          2.20302958e-02, 3.16191688e-02, 1.30632281e-01, 1.37859046e-01,
          3.28944214e-02, 4.98160422e-02, 5.68159893e-02, 0.,
          5.33171110e-02, 3.88929099e-02, 0., 9.21708792e-02,
          4.79621962e-02, 0., 3.86276096e-02, 2.88503170e-02, 0., 0., 0.,
          0., 0., 0., 0. ]
      - [ 3.46096933e-01, 9.43354964e-02, 7.72212446e-02, 6.51351735e-02,
          7.51302093e-02, 3.93480882e-02, 0., 2.49066621e-01,
          3.33057642e-01, 1.22158274e-01, 1.21468276e-01, 5.13206124e-02,
          1.45202562e-01, 1.44389808e-01, 5.59892505e-02, 2.20314741e-01,
          1.52787641e-01, 2.73925234e-02, 0., 1.94241181e-01,
          2.30020568e-01, 1.06139846e-01, 1.03323512e-01, 2.74584770e-01,
          2.41961822e-01, 0., 4.29205336e-02, 1.63650230e-01,
          2.94238746e-01, 4.67429012e-02, 1.28986254e-01, 2.41979361e-01,
          1.36187570e-02, 0., 0., 3.82997617e-02, 6.61196336e-02,
          4.36077714e-02, 0., 0., 0., 0., 2.64482312e-02, 0.,
          7.39783347e-02, 0., 4.83335480e-02, 5.00704534e-02,
          8.63610581e-02, 4.65431400e-02, 1.08517081e-01, 0.,
          9.35072824e-02, 0., 0., 0., 0., 0., 0., 0., 1.43422827e-01,
          1.04864895e-01, 4.85075712e-02, 9.40327346e-02 ]
      - [ 2.29432523e-01, 2.09277958e-01, 1.63785517e-02, 4.87695038e-02,
          7.53432214e-02, 3.36330384e-02, 1.30669221e-01, 3.80109549e-01,
          2.04238549e-01, 2.09731594e-01, 1.81246251e-01, 1.66663840e-01,
          1.76224992e-01, 1.31722882e-01, 1.88646957e-01, 1.65050775e-01,
          3.13596547e-01, 1.50744662e-01, 5.31483814e-02, 1.03587791e-01,
          4.56605703e-02, 1.06379084e-01, 7.91659579e-02, 3.11287731e-01,
          2.43918806e-01, 7.25614429e-02, 1.95981003e-02, 4.78619263e-02,
          6.29169941e-02, 4.75366674e-02, 4.27080169e-02, 2.18297020e-01,
          1.58166334e-01, 1.50527462e-01, 0., 0., 1.14352658e-01, 0., 0.,
          0., 1.89711489e-02, 0., 0., 0., 1.36614352e-01, 0.,
          8.23926255e-02, 0., 7.18376562e-02, 3.54640707e-02, 0., 0.,
          3.50667052e-02, 0., 0., 0., 0., 0., 0., 0., 4.31219973e-02, 0.,
          4.75636832e-02, 4.82844375e-02 ]
      - [ 1.64765984e-01, 1.55690864e-01, 1.21539652e-01, 1.49851784e-01,
          1.69449255e-01, 2.05962881e-01, 5.15504405e-02, 2.49819398e-01,
          1.83975652e-01, 1.92090511e-01, 1.28496468e-01, 2.31452256e-01,
          1.61082029e-01, 1.64893672e-01, 1.58087581e-01, 2.57832825e-01,
          1.25333667e-01, 9.76179540e-02, 1.84979096e-01, 0.,
          1.14267506e-01, 1.70000419e-01, 2.44702548e-01, 2.60896772e-01,
          1.12734906e-01, 4.79769409e-02, 1.43960893e-01, 1.53812990e-01,
          1.75508484e-01, 8.96314606e-02, 1.46258190e-01, 2.57543117e-01,
          7.58595839e-02, 0., 5.75763546e-02, 3.53315622e-02,
          6.70052320e-02, 0., 0., 0., 1.98463816e-02, 0., 0., 0.,
          5.58996648e-02, 2.17573773e-02, 9.71875414e-02, 8.79084989e-02,
          9.73323658e-02, 1.01131253e-01, 0., 0., 5.70619442e-02, 0., 0.,
          0., 0., 0., 0., 0., 5.56642972e-02, 4.04963419e-02,
          1.03784971e-01, 0. ]
      - [ 2.15001926e-01, 1.10245347e-01, 1.50303692e-01, 1.78098097e-01,
          1.92765564e-01, 1.81792527e-01, 1.92917272e-01, 2.26370871e-01,
          2.41812542e-01, 1.06219225e-01, 9.41882879e-02, 2.98468798e-01,
          2.10133880e-01, 0., 7.88585320e-02, 2.69217670e-01,
          3.01839262e-01, 1.25217795e-01, 1.15565687e-01, 5.27631938e-02,
          4.41825166e-02, 9.59116369e-02, 1.49965689e-01, 3.52309644e-01,
          1.60408571e-01, 0., 0., 2.31083054e-02, 4.32334840e-02,
          3.96960787e-02, 3.95013392e-02, 2.38874540e-01, 8.18770155e-02,
          9.53542590e-02, 7.56219700e-02, 0., 8.90527144e-02, 0., 0., 0.,
          3.24408934e-02, 0., 2.98205204e-02, 0., 8.41210037e-02, 0.,
          1.00108474e-01, 1.05417542e-01, 2.35923678e-02, 0.,
          3.47810462e-02, 0., 6.04115836e-02, 0., 2.37588603e-02, 0.,
          2.57081855e-02, 0., 2.08977219e-02, 0., 4.88058813e-02, 0., 0.,
          0. ]
      - [ 3.19967031e-01, 4.71891612e-02, 5.66021465e-02, 5.83006889e-02,
          7.54474178e-02, 0., 4.05665785e-02, 1.24575742e-01,
          4.43768471e-01, 1.81822896e-01, 1.32135391e-01, 1.23511940e-01,
          9.31071565e-02, 9.16895047e-02, 1.08158879e-01, 1.61943138e-01,
          2.41723195e-01, 1.20916717e-01, 1.87092066e-01, 0.,
          1.10449046e-01, 1.34110525e-01, 1.97631970e-01, 1.52618840e-01,
          3.14735919e-01, 1.11312032e-01, 8.58087912e-02, 1.72742024e-01,
          1.23511091e-01, 9.26928520e-02, 1.07069820e-01, 1.93710059e-01,
          1.91656977e-01, 0., 0., 0., 7.59984776e-02, 0., 0., 0.,
          1.69584826e-02, 0., 0., 4.83984351e-02, 1.46640241e-01, 0., 0.,
          6.25375956e-02, 2.09753722e-01, 0., 7.13101849e-02, 0.,
          7.64700323e-02, 0., 0., 0., 1.89601611e-02, 0., 0., 0.,
          1.76509488e-02, 0., 0., 0. ]
      - [ 8.15965161e-02, 0., 0., 0., 5.06341942e-02, 4.44186702e-02,
          4.18227166e-02, 2.52141863e-01, 3.32817405e-01, 2.18789503e-01,
          1.78705409e-01, 2.22461253e-01, 1.34947062e-01, 1.88516587e-01,
          2.01636106e-01, 2.44493112e-01, 2.07472965e-01, 1.41190350e-01,
          1.49592698e-01, 1.39001742e-01, 1.46019444e-01, 1.55837506e-01,
          9.99477208e-02, 4.19533134e-01, 2.05301121e-01, 0.,
          1.73116475e-02, 0., 3.42452191e-02, 0., 0., 2.52245963e-01,
          6.16329312e-02, 0., 0., 0., 2.31539942e-02, 0., 0., 0.,
          1.53149273e-02, 0., 0., 0., 1.48664698e-01, 7.87797794e-02,
          6.90086856e-02, 1.28986865e-01, 0., 5.15099876e-02, 0., 0.,
          8.67071152e-02, 7.07084984e-02, 6.56298324e-02, 9.14508402e-02,
          5.46085835e-02, 0., 0., 0., 2.45585181e-02, 0., 0., 0. ]
      - [ 2.38657892e-01, 1.90830886e-01, 1.12775303e-01, 1.95998341e-01,
          1.76381439e-01, 1.73815846e-01, 1.68326735e-01, 2.79762417e-01,
          2.21422300e-01, 8.99534971e-02, 8.92058462e-02, 2.50080854e-01,
          2.70742804e-01, 6.68975413e-02, 6.86900467e-02, 2.12879792e-01,
          2.48371020e-01, 1.40480101e-01, 4.31323461e-02, 4.66707237e-02,
          8.16500336e-02, 1.04499839e-01, 7.15507492e-02, 3.35241109e-01,
          1.91497758e-01, 5.41711599e-02, 4.28283475e-02, 2.41308548e-02,
          7.55801424e-02, 4.33213934e-02, 4.69993725e-02, 2.92541832e-01,
          9.07216370e-02, 9.79629755e-02, 0., 6.78490624e-02,
          8.67365599e-02, 0., 0., 4.04263325e-02, 0., 2.56446674e-02, 0.,
          0., 8.41364712e-02, 1.03472061e-01, 0., 1.04892001e-01,
          4.25060019e-02, 0., 2.47105602e-02, 0., 5.10536358e-02,
          3.42387557e-02, 0., 3.26823257e-02, 5.67746870e-02, 0., 0., 0.,
          3.80963497e-02, 0., 0., 3.47855948e-02 ]
      - [ 1.60273090e-01, 8.97076577e-02, 1.65233776e-01, 1.26985446e-01,
          1.14398919e-01, 1.23245344e-01, 1.26615405e-01, 1.56136274e-01,
          3.52447778e-01, 2.17350110e-01, 1.39648914e-01, 1.89160585e-01,
          3.59877706e-01, 2.17166975e-01, 0., 1.22388288e-01,
          2.72708446e-01, 1.44039780e-01, 1.87097296e-01, 3.29365224e-01,
          1.22174561e-01, 9.34555084e-02, 8.47675726e-02, 1.08517729e-01,
          2.11956576e-01, 4.42384603e-03, 0., 0., 9.15753990e-02, 0., 0.,
          6.71901181e-02, 2.43240874e-02, 6.63668662e-02, 9.36655998e-02,
          0., 1.12464540e-01, 0., 0., 1.11942757e-02, 5.26086939e-03, 0.,
          0., 0., 1.39784768e-01, 1.37768552e-01, 8.79651383e-02,
          5.06774336e-02, 0., 0., 1.07578173e-01, 1.87832564e-02,
          8.38444605e-02, 0., 0., 0., 4.56146412e-02, 0., 0., 0.,
          1.57826077e-02, 0., 0., 0. ]
      - [ 5.32067083e-02, 3.09628434e-02, 0., 4.54167612e-02,
          7.78531805e-02, 0., 0., 3.27554673e-01, 2.73124009e-01,
          1.72351599e-01, 1.73610926e-01, 2.47542813e-01, 1.50563717e-01,
          1.61977097e-01, 1.09726787e-01, 3.05521458e-01, 1.89476684e-01,
          1.24494560e-01, 9.61587206e-02, 2.16054767e-01, 1.27950028e-01,
          1.30597532e-01, 2.00229958e-01, 3.96340042e-01, 1.57342106e-01,
          0., 0., 4.08975296e-02, 2.90815644e-02, 4.59550023e-02, 0.,
          2.47663468e-01, 7.14012235e-02, 0., 0., 0., 0., 0., 0., 0., 0.,
          0., 0., 0., 1.31419033e-01, 8.83140191e-02, 8.12110752e-02,
          1.78633064e-01, 1.19161732e-01, 0., 3.86720560e-02, 0.,
          1.05538428e-01, 0., 5.87515607e-02, 0., 4.33522351e-02, 0., 0.,
          0., 3.59457768e-02, 0., 0., 0. ]
      - [ 2.50987023e-01, 1.61016464e-01, 2.74483487e-02, 2.61863563e-02,
          5.58656156e-02, 0., 3.44784856e-02, 3.65334302e-01,
          2.76034147e-01, 2.28231579e-01, 2.06229806e-01, 1.19493790e-01,
          1.48834676e-01, 1.24097511e-01, 1.87768981e-01, 2.43860811e-01,
          3.37894887e-01, 2.27840528e-01, 4.07675616e-02, 5.16107418e-02,
          5.54773025e-02, 1.14179075e-01, 1.44712076e-01, 3.58399421e-01,
          1.08021364e-01, 0., 3.24705280e-02, 1.82976369e-02,
          8.43771398e-02, 0., 2.76061054e-02, 8.29669833e-02,
          1.77083746e-01, 9.72128510e-02, 0., 0., 9.51096863e-02, 0.,
          2.58197393e-02, 0., 1.46322595e-02, 0., 0., 0., 1.11287497e-01,
          8.20433795e-02, 8.71257558e-02, 0., 0., 0., 0., 0.,
          4.53953929e-02, 0., 5.33720814e-02, 4.11406159e-02,
          4.07681875e-02, 3.20872031e-02, 4.32850160e-02, 0.,
          4.62712683e-02, 0., 0., 0. ]
      - [ 1.31764367e-01, 1.22738048e-01, 1.05147168e-01, 1.58010572e-01,
          1.07477218e-01, 1.32102117e-01, 7.61233121e-02, 1.41884804e-01,
          3.43134016e-01, 1.48062244e-01, 1.46007046e-01, 2.33057573e-01,
          2.37903252e-01, 1.67115673e-01, 1.28384307e-01, 1.36798739e-01,
          1.59746945e-01, 1.48880169e-01, 1.66252062e-01, 1.54293358e-01,
          2.04138815e-01, 1.55487761e-01, 1.60327151e-01, 1.99755818e-01,
          2.64583856e-01, 8.13203529e-02, 1.28924206e-01, 1.21064991e-01,
          1.39105409e-01, 8.69247094e-02, 1.11745335e-01, 1.75878391e-01,
          1.24817304e-01, 9.44694951e-02, 0., 0., 8.24264959e-02, 0., 0.,
          0., 0., 0., 0., 0., 1.09278664e-01, 6.54859766e-02,
          1.26370147e-01, 1.17296644e-01, 9.35408026e-02, 1.16937563e-01,
          0., 0., 7.30429068e-02, 0., 0., 0., 0., 0., 0., 0.,
          4.03185934e-02, 0., 0., 1.61715850e-01 ]
      - [ 2.68919080e-01, 2.72238106e-02, 0., 1.47790052e-02,
          3.88440117e-02, 2.17510201e-02, 2.33452190e-02, 1.58469733e-02,
          4.50361252e-01, 2.08937883e-01, 1.20562784e-01, 0.,
          1.82913035e-01, 1.54934436e-01, 1.49303004e-01, 1.92466229e-01,
          2.95257717e-01, 2.01835647e-01, 9.86816511e-02, 1.47189051e-01,
          1.19772479e-01, 8.14443529e-02, 1.72251865e-01, 2.13574842e-01,
          3.76049280e-01, 3.33328508e-02, 2.51991432e-02, 0.,
          9.15696174e-02, 4.01415490e-02, 0., 7.86775649e-02, 0., 0., 0.,
          0., 5.49231544e-02, 0., 0., 0., 8.65636468e-02, 1.17913201e-01,
          8.53469148e-02, 0., 1.26604244e-01, 0., 4.10675853e-02,
          1.03417911e-01, 2.47757316e-01, 0., 0., 0., 9.85612646e-02, 0.,
          0., 0., 0., 0., 0., 0., 0., 0., 0., 0. ]
      - [ 1.92371532e-01, 9.77873728e-02, 1.22500390e-01, 1.47851720e-01,
          1.03050359e-01, 1.13426141e-01, 1.21248037e-01, 2.01768398e-01,
          3.07246387e-01, 1.67225152e-01, 1.37855023e-01, 1.76708072e-01,
          2.59916753e-01, 1.51285842e-01, 1.39481455e-01, 1.40358359e-01,
          2.14243636e-01, 1.28105551e-01, 1.70858234e-01, 1.45708948e-01,
          1.80707350e-01, 1.57003537e-01, 1.07192345e-01, 2.55114347e-01,
          2.63388574e-01, 9.24429893e-02, 1.03478253e-01, 9.68807936e-02,
          1.16420224e-01, 1.07558995e-01, 9.43380445e-02, 1.12935260e-01,
          9.50569287e-02, 9.75111946e-02, 0., 0., 9.70426947e-02, 0., 0.,
          0., 4.42088582e-03, 0., 0., 0., 1.04149163e-01, 0.,
          1.39869168e-01, 1.62665188e-01, 1.66196644e-01, 1.11817785e-01,
          4.28140946e-02, 0., 7.89595395e-02, 0., 0., 0., 0., 0., 0., 0.,
          4.50843647e-02, 0., 0., 9.48372558e-02 ]
      - [ 1.66926652e-01, 1.92247435e-01, 1.67987421e-01, 1.02370560e-01,
          1.89168587e-01, 1.40770227e-01, 1.80448398e-01, 3.55867922e-01,
          1.37537688e-01, 1.09896801e-01, 1.10490821e-01, 1.90634832e-01,
          1.65751800e-01, 1.25726625e-01, 4.28870656e-02, 3.31267059e-01,
          3.01897645e-01, 6.60622120e-02, 7.08521456e-02, 3.81335169e-02,
          5.96838854e-02, 0., 1.44179329e-01, 3.59021038e-01,
          1.86260939e-01, 5.72971739e-02, 0., 2.66990196e-02,
          9.54084098e-02, 0., 3.50391008e-02, 2.86837876e-01,
          7.06703737e-02, 8.86348039e-02, 7.03516901e-02, 3.51063237e-02,
          7.06703737e-02, 0., 0., 2.74432842e-02, 2.19059419e-02, 0.,
          3.69442813e-02, 0., 5.39498478e-02, 0., 8.81652758e-02,
          9.41818804e-02, 2.22738106e-02, 3.78950015e-02, 3.60796042e-02,
          4.66426350e-02, 6.29998520e-02, 0., 0., 0., 0., 0., 0., 0.,
          5.82260787e-02, 3.36388983e-02, 0., 2.58788429e-02 ]
      - [ 1.76842868e-01, 1.83674902e-01, 1.64784402e-01, 2.71778941e-01,
          1.16038032e-01, 0., 0., 3.21347594e-01, 1.36255443e-01,
          1.42317683e-01, 1.28640324e-01, 3.38906139e-01, 2.04077855e-01,
          1.53554365e-01, 1.62179098e-01, 1.76974431e-01, 2.39039376e-01,
          1.45900130e-01, 1.71049014e-01, 1.68060452e-01, 6.07268475e-02,
          8.54118913e-02, 1.55691698e-01, 3.03490818e-01, 2.05999553e-01,
          4.71229106e-02, 4.66430373e-02, 4.18377370e-02, 6.65265173e-02,
          5.01372404e-02, 0., 2.35397846e-01, 1.11753412e-01,
          6.43628687e-02, 0., 0., 6.45659417e-02, 0., 0., 0., 0., 0., 0.,
          0., 6.28886223e-02, 0., 8.64136294e-02, 6.84389621e-02,
          1.79073717e-02, 2.13324483e-02, 0., 2.72177476e-02,
          4.59467433e-02, 3.03362831e-02, 0., 2.19741464e-02, 0., 0., 0.,
          0., 6.00631461e-02, 4.97942716e-02, 3.39871310e-02,
          2.82350592e-02 ]
      - [ 1.22600086e-01, 5.54622896e-02, 1.63678125e-01, 1.63896844e-01,
          2.01884404e-01, 3.90145890e-02, 3.79819907e-02, 8.43403637e-02,
          3.41592282e-01, 9.99934152e-02, 1.18676759e-01, 1.58447534e-01,
          3.29465717e-01, 1.67883590e-01, 1.44080147e-01, 1.76946640e-01,
          1.09423794e-01, 1.77776560e-01, 1.53098628e-01, 1.95968211e-01,
          2.72555232e-01, 1.12003013e-01, 8.88407528e-02, 6.97196946e-02,
          2.26420268e-01, 4.12141457e-02, 0., 0., 2.81333327e-01,
          2.15528503e-01, 1.24021202e-01, 1.34927347e-01, 0., 0., 0.,
          1.28014669e-01, 1.26546666e-01, 0., 0., 0., 1.40607413e-02, 0.,
          0., 0., 1.69412911e-01, 0., 3.46544348e-02, 5.75115681e-02,
          1.06033549e-01, 0., 4.58414368e-02, 3.85217629e-02,
          5.06967232e-02, 0., 0., 0., 0., 0., 2.28206981e-02,
          4.15892899e-02, 1.16538614e-01, 8.08240399e-02, 0., 0. ]
      - [ 9.03924927e-02, 1.10034958e-01, 9.96975601e-02, 5.38374782e-02,
          5.33291250e-02, 8.39274749e-02, 9.13537517e-02, 2.08743483e-01,
          3.95533025e-01, 1.21343508e-01, 8.92817676e-02, 0.,
          1.36892870e-01, 0., 1.85028240e-01, 3.70385736e-01,
          1.58449158e-01, 1.21231101e-01, 2.10969314e-01, 1.77195162e-01,
          9.75708663e-02, 2.19791353e-01, 1.30089507e-01, 1.89903274e-01,
          3.68790001e-01, 8.44683051e-02, 1.06448233e-01, 0.,
          3.80448215e-02, 1.18714891e-01, 9.44774374e-02, 9.08072367e-02,
          0., 0., 0., 0., 3.80448215e-02, 3.55493873e-02, 2.33696271e-02,
          3.24419774e-02, 1.35932164e-02, 0., 3.20495255e-02, 0.,
          7.54801035e-02, 4.18178961e-02, 0., 1.71615928e-01, 0.,
          7.53792748e-02, 0., 1.05863951e-01, 1.05146259e-01, 0., 0., 0.,
          1.75487660e-02, 0., 0., 0., 1.01419121e-01, 0., 0.,
          2.02746466e-01 ]
      - [ 1.32907420e-01, 3.30435410e-02, 0., 3.84707339e-02,
          1.00273356e-01, 1.49571942e-02, 9.92589518e-02, 3.76582921e-01,
          1.73819959e-01, 1.29978180e-01, 1.40519038e-01, 1.14394814e-01,
          1.42791167e-01, 1.23510979e-01, 1.77720726e-01, 3.56810033e-01,
          1.72812596e-01, 1.39909059e-01, 9.30230096e-02, 7.07818195e-02,
          9.90621299e-02, 1.69473454e-01, 1.85389936e-01, 3.11145216e-01,
          2.18080953e-01, 1.26062348e-01, 0., 1.62023798e-01,
          1.03077017e-01, 1.20707378e-01, 1.54444993e-01, 1.80780798e-01,
          0., 0., 0., 0., 1.19282920e-02, 0., 0., 0., 1.08889909e-02, 0.,
          0., 0., 7.94224814e-02, 0., 3.68556604e-02, 2.43217602e-01,
          1.01362519e-01, 1.59439519e-01, 0., 0., 9.94421840e-02, 0., 0.,
          0., 0., 0., 0., 0., 5.57363182e-02, 0., 0., 1.52687475e-01 ]
      - [ 2.97814816e-01, 8.50279480e-02, 5.05781695e-02, 0.,
          9.14340913e-02, 3.85781825e-02, 8.32064599e-02, 2.88994431e-01,
          2.96381921e-01, 1.04286768e-01, 1.14815913e-01, 2.38119215e-02,
          1.24769583e-01, 1.37472093e-01, 3.65858935e-02, 2.90042907e-01,
          1.50873989e-01, 5.93207628e-02, 3.90920080e-02, 1.92317739e-01,
          2.34879062e-01, 1.00637704e-01, 4.68076579e-02, 2.97815591e-01,
          2.65132606e-01, 5.57834059e-02, 3.21334675e-02, 1.64997920e-01,
          2.76813358e-01, 1.29519865e-01, 1.30106330e-01, 2.34608784e-01,
          3.96999866e-02, 3.42745893e-02, 0., 0., 2.83173062e-02,
          3.93407866e-02, 3.72750536e-02, 0., 5.16957566e-02,
          6.21034056e-02, 0., 2.85172071e-02, 6.70551509e-02, 0., 0., 0.,
          5.15215062e-02, 0., 1.03091285e-01, 0., 9.36230049e-02, 0., 0.,
          4.77270298e-02, 6.73582405e-02, 0., 0., 7.81247616e-02,
          1.48865446e-01, 0., 0., 7.32428730e-02 ]
      - [ 1.67245552e-01, 1.32885829e-01, 1.35905594e-01, 1.30616114e-01,
          5.66044962e-03, 1.25190765e-01, 1.33632526e-01, 1.30420655e-01,
          3.70904088e-01, 1.64116144e-01, 2.02918217e-01, 1.85664102e-01,
          3.09797078e-01, 1.77144915e-01, 1.54364765e-01, 1.02446705e-01,
          3.11177999e-01, 1.30836189e-01, 2.27263391e-01, 2.53664225e-01,
          8.78383815e-02, 6.91384077e-02, 5.57667315e-02, 2.06170529e-01,
          2.54687786e-01, 2.73432676e-02, 2.54710540e-02, 0.,
          5.57489656e-02, 0., 0., 4.37548086e-02, 7.24958330e-02,
          8.45268443e-02, 9.19559151e-02, 0., 1.07994497e-01, 0., 0., 0.,
          0., 0., 0., 0., 1.36556521e-01, 9.28425416e-02, 1.28825694e-01,
          9.57247540e-02, 0., 5.84313385e-02, 9.98955220e-02, 0.,
          8.73251706e-02, 1.56209683e-02, 0., 0., 1.69813503e-02, 0., 0.,
          0., 0., 0., 0., 0. ]
      - [ 6.74844757e-02, 8.81500691e-02, 1.04213797e-01, 7.22005367e-02,
          1.11421332e-01, 9.85484272e-02, 7.09929317e-02, 1.55068889e-01,
          4.07260776e-01, 1.41789198e-01, 2.91002691e-02, 1.07450396e-01,
          1.65071771e-01, 1.37965679e-01, 2.57918835e-01, 2.92103261e-01,
          1.41346261e-01, 1.59133196e-01, 1.85263738e-01, 1.54038906e-01,
          1.81954920e-01, 1.39016941e-01, 7.87120387e-02, 2.45696723e-01,
          3.29162210e-01, 9.17705894e-02, 5.53501435e-02, 1.41639501e-01,
          9.83708799e-02, 1.23512365e-01, 7.20457062e-02, 2.80164946e-02,
          4.64605764e-02, 0., 0., 2.68523004e-02, 4.67799120e-02, 0., 0.,
          0., 2.70106755e-02, 0., 0., 4.09150980e-02, 9.13084522e-02, 0.,
          0., 1.70000315e-01, 5.86418658e-02, 0., 0., 0., 1.92801416e-01,
          0., 0., 0., 1.53811406e-02, 0., 0., 0., 1.20866798e-01, 0.,
          1.06427722e-01, 1.38772190e-01 ]
      - [ 6.72075599e-02, 7.08040223e-02, 1.13731608e-01, 0.,
          1.54766932e-01, 8.05775672e-02, 9.57112610e-02, 2.38651544e-01,
          2.26778343e-01, 2.32022196e-01, 2.00586170e-01, 1.55713663e-01,
          2.17869103e-01, 2.61666387e-01, 1.86001539e-01, 8.41384754e-02,
          2.45910138e-01, 6.12257123e-02, 1.36744440e-01, 1.46179318e-01,
          1.79914653e-01, 1.02583408e-01, 2.60994136e-01, 3.26303840e-01,
          1.87056273e-01, 0., 0., 0., 4.24384847e-02, 0., 0.,
          2.45671764e-01, 5.99243492e-02, 0., 0., 0., 0., 0., 0., 0., 0.,
          0., 0., 0., 1.33240238e-01, 7.24431053e-02, 8.53715017e-02,
          2.32552588e-01, 0., 3.90215442e-02, 0., 0., 1.23207420e-01,
          8.42369050e-02, 1.23474099e-01, 7.07590804e-02, 4.31068502e-02,
          0., 0., 0., 2.87931114e-02, 0., 0., 0. ]
      - [ 8.18369389e-02, 4.90190648e-03, 0., 0., 8.46766680e-02, 0., 0.,
          3.40821058e-01, 1.99857011e-01, 1.39571607e-01, 0., 0.,
          1.48930103e-01, 0., 1.44739896e-01, 4.38649535e-01,
          1.12433054e-01, 5.92362136e-02, 3.35485823e-02, 2.24983215e-01,
          0., 1.05135299e-01, 1.52793303e-01, 3.88473064e-01,
          1.46116123e-01, 0., 0., 3.02565724e-01, 7.19177723e-02,
          1.44384921e-01, 1.75619647e-01, 2.71958470e-01, 0., 0., 0., 0.,
          4.66350578e-02, 0., 1.73217263e-02, 9.44337174e-02,
          4.66350578e-02, 0., 0., 0., 0., 0., 0., 0., 4.03871462e-02,
          6.31067380e-02, 0., 8.76590535e-02, 9.29050669e-02, 0., 0., 0.,
          0., 0., 0., 0., 1.87489316e-01, 8.60926509e-02, 0., 0. ]
      - [ 1.61147952e-01, 2.76822541e-02, 0., 4.19411473e-02,
          4.44069803e-02, 0., 0., 2.82808304e-01, 3.55284363e-01,
          2.11948678e-01, 1.50696635e-01, 8.02250504e-02, 1.98787391e-01,
          9.18817669e-02, 1.98242426e-01, 2.42367223e-01, 3.25761020e-01,
          1.40949383e-01, 1.16486408e-01, 7.67659694e-02, 1.41747832e-01,
          8.94214287e-02, 1.11229822e-01, 3.68590653e-01, 3.24865401e-01,
          5.03057949e-02, 0., 0., 4.51330282e-02, 0., 4.46780697e-02,
          3.94206792e-02, 9.50578749e-02, 0., 0., 0., 2.94415411e-02, 0.,
          0., 0., 0., 0., 0., 0., 1.43426895e-01, 6.68262765e-02, 0.,
          1.45064592e-01, 1.69019967e-01, 7.53333047e-02, 0., 0.,
          7.74765760e-02, 0., 0., 0., 0., 0., 0., 0., 4.39162813e-02, 0.,
          0., 9.83670279e-02 ]
      - [ 2.66714156e-01, 1.06623687e-01, 1.37990311e-01, 8.22476894e-02,
          1.25076264e-01, 1.79059386e-01, 0., 1.93908483e-01,
          2.57271677e-01, 1.88095450e-01, 1.82014972e-01, 1.93289816e-01,
          2.26282045e-01, 1.79111019e-01, 8.35084617e-02, 1.13109715e-01,
          2.08404377e-01, 1.10806383e-01, 8.00756142e-02, 0.,
          9.60199684e-02, 1.21634878e-01, 2.35786974e-01, 3.59865606e-01,
          1.54755190e-01, 1.11533880e-01, 3.13301198e-02, 1.07964195e-01,
          1.19025201e-01, 1.38047323e-01, 1.33295313e-01, 1.61836654e-01,
          8.16297010e-02, 7.07930401e-02, 0., 0., 4.97840568e-02, 0., 0.,
          0., 4.87589650e-02, 0., 0., 0., 9.96090993e-02, 6.72024339e-02,
          1.27644807e-01, 9.50536281e-02, 1.70374587e-01, 1.19068161e-01,
          0., 0., 9.59107429e-02, 0., 0., 0., 0., 0., 0., 0.,
          6.63986802e-02, 0., 0., 1.43928617e-01 ]
      - [ 6.02227077e-02, 3.05583943e-02, 1.15565158e-01, 1.04775280e-01,
          1.20499477e-01, 7.89487436e-02, 1.03739001e-01, 2.37696499e-01,
          2.27776930e-01, 2.17253491e-01, 1.85575932e-01, 1.47582173e-01,
          2.29414761e-01, 3.30731362e-01, 5.51331975e-02, 7.92219117e-02,
          2.11915255e-01, 1.54870257e-01, 1.47246912e-01, 1.97094157e-01,
          1.40865713e-01, 1.02810510e-01, 1.78956494e-01, 3.73880923e-01,
          1.82266563e-01, 0., 1.86493285e-02, 0., 2.39933003e-02, 0.,
          3.10991462e-02, 2.30813906e-01, 6.62319809e-02, 0., 0., 0., 0.,
          0., 0., 0., 0., 0., 0., 0., 1.28761560e-01, 6.78314716e-02,
          7.81523511e-02, 2.20942840e-01, 5.36506530e-03, 4.30262275e-02,
          0., 0., 1.34875655e-01, 1.21442162e-01, 9.28922072e-02,
          1.03876986e-01, 0., 0., 0., 0., 4.12098467e-02, 0., 0., 0. ]
      - [ 3.09401274e-01, 4.30715941e-02, 3.28636318e-02, 3.74051780e-02,
          7.76408017e-02, 3.34232040e-02, 5.39037809e-02, 1.55961558e-01,
          4.40780699e-01, 1.57085016e-01, 1.44331411e-01, 6.95073009e-02,
          8.50517079e-02, 1.17620192e-01, 9.30941850e-02, 2.09381089e-01,
          2.93536931e-01, 1.41219273e-01, 1.48574784e-01, 1.41351223e-01,
          8.52212161e-02, 1.30694494e-01, 1.97258249e-01, 1.76059797e-01,
          2.89519250e-01, 1.14807397e-01, 1.52869835e-01, 1.21144168e-01,
          1.41574621e-01, 9.53947902e-02, 1.01894870e-01, 1.19759634e-01,
          1.63263768e-01, 3.67386863e-02, 0., 0., 1.00527115e-01, 0., 0.,
          0., 3.54166292e-02, 0., 5.55371158e-02, 1.14974275e-01,
          1.20644309e-01, 0., 0., 0., 1.96675301e-01, 0., 0.,
          2.84217466e-02, 6.75846338e-02, 0., 0., 0., 1.37598682e-02, 0.,
          0., 0., 3.95222120e-02, 0., 0., 0. ]
      - [ 1.45788550e-01, 5.53784370e-02, 0., 3.37954462e-02,
          5.31831123e-02, 4.33619544e-02, 1.05312720e-01, 3.61444324e-01,
          2.89033324e-01, 1.22016236e-01, 1.08838007e-01, 6.70318678e-02,
          1.45153686e-01, 6.18107617e-02, 2.16730863e-01, 4.23414230e-01,
          2.59864658e-01, 1.11016862e-01, 0., 1.30816132e-01,
          7.08719492e-02, 9.65321884e-02, 1.54318020e-01, 3.97529811e-01,
          1.17105059e-01, 0., 3.38027515e-02, 4.11245413e-02,
          4.79474328e-02, 5.38392961e-02, 0., 3.30474973e-01, 0., 0., 0.,
          0., 7.46064931e-02, 3.14405560e-02, 0., 0., 3.08241583e-02, 0.,
          2.95641832e-02, 1.50114223e-02, 3.51449475e-02, 0.,
          4.73883189e-02, 4.83699292e-02, 1.04643621e-01, 0., 0., 0.,
          3.37661728e-02, 0., 0., 0., 0., 0., 0., 0., 4.67471518e-02, 0.,
          4.65917289e-02, 8.48728493e-02 ]
      - [ 1.97772786e-01, 1.20175943e-01, 1.34421423e-01, 8.88919234e-02,
          1.47511274e-01, 2.26075947e-01, 0., 2.51443416e-01,
          2.46796563e-01, 1.56469375e-01, 1.77410513e-01, 1.42671436e-01,
          1.73920110e-01, 1.66652024e-01, 9.59239528e-02, 2.76624471e-01,
          1.46630719e-01, 1.20062098e-01, 1.38192698e-01, 0.,
          7.91897699e-02, 2.05108672e-01, 1.55882820e-01, 2.73870647e-01,
          1.90558866e-01, 0., 1.30615041e-01, 1.70447767e-01,
          1.45130157e-01, 1.54904470e-01, 1.61843836e-01, 2.58392066e-01,
          9.14012864e-02, 7.86038861e-02, 5.37363216e-02, 0.,
          7.73431733e-02, 3.49449776e-02, 0., 0., 2.47485023e-02, 0., 0.,
          2.12786235e-02, 4.64574248e-02, 5.24092503e-02, 7.88245276e-02,
          9.19033289e-02, 9.56772864e-02, 6.63716272e-02, 0., 0.,
          4.00516689e-02, 0., 0., 0., 0., 3.05576697e-02, 0.,
          4.20930684e-02, 4.70810421e-02, 0., 5.01680635e-02,
          1.11612104e-01 ]
      - [ 1.12134531e-01, 8.93836021e-02, 1.01762332e-01, 0.,
          6.83728978e-02, 3.97995748e-02, 8.58631730e-02, 3.62030447e-01,
          3.00399184e-01, 1.26551509e-01, 1.40990764e-01, 9.55443084e-02,
          6.17844947e-02, 1.16752766e-01, 9.27036777e-02, 1.37966409e-01,
          1.25454202e-01, 3.80131006e-02, 1.71896815e-01, 1.05267398e-01,
          9.87615287e-02, 1.47023991e-01, 2.15479717e-01, 2.80898422e-01,
          2.33405054e-01, 1.15515500e-01, 1.56900048e-01, 1.71458632e-01,
          2.21923321e-01, 2.08324030e-01, 4.44526002e-02, 3.36065292e-02,
          1.35177642e-01, 0., 0., 0., 3.26944180e-02, 0., 0., 0., 0., 0.,
          0., 0., 1.25251919e-01, 0., 8.81589949e-02, 2.94255227e-01,
          2.15158805e-01, 1.06988534e-01, 9.23041031e-02, 0.,
          1.24243841e-01, 0., 0., 0., 0., 0., 0., 0., 2.91350670e-02, 0.,
          0., 0. ]
      - [ 1.97044104e-01, 1.49097487e-01, 9.59288776e-02, 8.00722018e-02,
          1.37515783e-01, 1.31981283e-01, 1.22987799e-01, 3.39392304e-01,
          1.96787760e-01, 1.68654874e-01, 1.45185530e-01, 2.14054197e-01,
          2.59992182e-01, 1.94192007e-01, 1.80549234e-01, 1.29529864e-01,
          2.51019835e-01, 1.40291780e-01, 2.01351881e-01, 1.93896547e-01,
          3.41096036e-02, 2.87538953e-02, 9.93268415e-02, 3.30598921e-01,
          1.75727472e-01, 0., 5.32490909e-02, 0., 7.16920942e-02,
          5.76444753e-02, 1.59847997e-02, 1.92631260e-01, 1.42934456e-01,
          1.36356354e-01, 0., 0., 9.61526781e-02, 0., 0., 0.,
          3.60802747e-02, 0., 3.43390554e-02, 0., 9.62907299e-02,
          6.01745360e-02, 1.34510040e-01, 1.02285124e-01, 0.,
          8.68160203e-02, 0., 0., 5.45785576e-02, 1.88794751e-02, 0., 0.,
          0., 0., 0., 2.31794231e-02, 4.62433472e-02, 0., 2.58281343e-02,
          0. ]
      - [ 1.55746236e-01, 1.13663919e-01, 0., 1.63530007e-01,
          1.67720467e-01, 1.21742032e-01, 0., 2.77621806e-01,
          2.35027909e-01, 1.65919140e-01, 1.87589824e-01, 1.95678443e-01,
          2.19016552e-01, 2.02967271e-01, 9.86887962e-02, 2.23503187e-01,
          1.30774006e-01, 8.87389630e-02, 1.03826575e-01, 1.40811026e-01,
          1.58586055e-01, 1.45064160e-01, 1.74921975e-01, 3.27698112e-01,
          1.26744658e-01, 1.18011944e-01, 1.35715559e-01, 1.58033252e-01,
          8.90904814e-02, 9.92907211e-02, 8.86813104e-02, 2.29307845e-01,
          8.13346058e-02, 0., 1.83043741e-02, 0., 3.49416696e-02, 0., 0.,
          0., 0., 0., 0., 0., 1.00598574e-01, 8.84181559e-02,
          8.27737004e-02, 1.60442263e-01, 1.48231894e-01, 9.07222629e-02,
          8.52605477e-02, 0., 1.04436055e-01, 0., 0., 0., 0., 0., 0., 0.,
          4.41981070e-02, 0., 0., 1.02611005e-01 ]
      - [ 8.07371214e-02, 1.07291192e-01, 8.62145275e-02, 4.41890135e-02,
          1.31966799e-01, 9.09806341e-02, 6.53082132e-02, 1.66358635e-01,
          2.62673557e-01, 2.90707946e-01, 2.23403513e-01, 8.44057649e-02,
          1.77160800e-01, 2.34339595e-01, 2.41384283e-01, 7.76976049e-02,
          1.96475878e-01, 1.69953227e-01, 9.81172845e-02, 1.82151943e-01,
          1.33080378e-01, 2.11821109e-01, 1.21448092e-01, 3.75560850e-01,
          2.02678531e-01, 0., 2.91372407e-02, 3.26344110e-02,
          6.00968301e-02, 0., 0., 2.44373932e-01, 8.79764557e-02, 0., 0.,
          0., 5.18856430e-03, 0., 0., 0., 2.84189377e-02, 0., 0.,
          5.57794794e-02, 1.63283274e-01, 0., 7.57444203e-02,
          1.69118419e-01, 1.39269784e-01, 0., 6.77189678e-02,
          9.27688107e-02, 1.12843819e-01, 0., 0., 0., 0., 0., 0., 0.,
          2.84189377e-02, 0., 0., 0. ]
      - [ 2.14473918e-01, 1.23108692e-01, 1.03545763e-01, 7.31201991e-02,
          1.47908524e-01, 1.01786271e-01, 1.02041721e-01, 2.90374577e-01,
          2.49011949e-01, 1.37528747e-01, 1.54969156e-01, 2.17764378e-01,
          2.57284999e-01, 1.23597540e-01, 1.50584176e-01, 1.14335746e-01,
          2.47935742e-01, 1.81971669e-01, 1.14340335e-01, 7.32634664e-02,
          9.25545245e-02, 1.25120685e-01, 1.74488395e-01, 3.26687485e-01,
          2.58040100e-01, 0., 0., 0., 4.19120975e-02, 0., 1.24283873e-01,
          1.90426528e-01, 1.56425074e-01, 8.44171494e-02, 0., 0.,
          8.69884789e-02, 0., 0., 0., 0., 0., 0., 0., 9.02557597e-02, 0.,
          1.12435095e-01, 1.23862959e-01, 6.27528951e-02, 1.02400735e-01,
          0., 0., 5.48758171e-02, 0., 0., 0., 0., 0., 0., 0.,
          8.46263543e-02, 0., 9.23144966e-02, 1.52810901e-01 ]
      - [ 4.71925847e-02, 5.29037006e-02, 0., 4.09457125e-02,
          9.37689096e-02, 3.30310352e-02, 6.42155930e-02, 3.43515694e-01,
          2.25768179e-01, 1.84211999e-01, 1.41742498e-01, 1.60301194e-01,
          2.03237325e-01, 1.78903431e-01, 1.88835189e-01, 2.43198425e-01,
          2.17279166e-01, 1.49034068e-01, 1.17284521e-01, 2.01546416e-01,
          1.10103413e-01, 3.81581038e-02, 1.52672619e-01, 4.21026915e-01,
          1.43314630e-01, 0., 0., 0., 5.79037853e-02, 0., 8.63953531e-02,
          2.30655745e-01, 1.23828515e-01, 0., 0., 0., 6.84741978e-03, 0.,
          0., 0., 0., 0., 0., 0., 1.17208950e-01, 7.36434087e-02,
          8.77822265e-02, 1.99394405e-01, 5.74822947e-02, 0.,
          3.28274257e-02, 0., 1.11046493e-01, 0., 9.27720442e-02,
          1.59671411e-01, 6.00858666e-02, 0., 0., 0., 5.94977364e-02, 0.,
          0., 0. ]
      - [ 1.79819211e-01, 1.37784496e-01, 1.59222126e-01, 1.46729544e-01,
          2.83312351e-01, 8.74523595e-02, 7.71110430e-02, 6.08231202e-02,
          4.09291923e-01, 1.11358009e-01, 8.20804983e-02, 1.74095616e-01,
          3.53691995e-01, 1.76340580e-01, 8.14269260e-02, 1.40307039e-01,
          2.74393529e-01, 1.92316622e-01, 1.30598545e-01, 1.82788894e-01,
          1.98665589e-01, 7.72491172e-02, 1.12640060e-01, 1.42655134e-01,
          2.44129673e-01, 1.70128476e-02, 4.17678356e-02, 4.92807738e-02,
          7.83606619e-02, 3.78350951e-02, 5.22516221e-02, 9.78269204e-02,
          5.03478982e-02, 4.91275117e-02, 6.65832683e-02, 9.56671089e-02,
          1.44850895e-01, 0., 0., 0., 4.50712331e-02, 0., 0., 0.,
          1.46667987e-01, 9.08801332e-02, 0., 0., 0., 0., 0.,
          3.67601290e-02, 2.59750355e-02, 0., 2.17372775e-02,
          2.73886453e-02, 1.06042642e-02, 4.49360125e-02, 3.11644413e-02,
          0., 4.40428182e-02, 0., 0., 0. ]
      - [ 3.08671951e-01, 6.74102977e-02, 4.88075055e-02, 5.10475375e-02,
          9.08108950e-02, 3.18054520e-02, 6.79206103e-02, 1.71065554e-01,
          3.56318116e-01, 1.02800727e-01, 9.99757648e-02, 1.28667697e-01,
          8.03598911e-02, 1.16777673e-01, 6.84455112e-02, 2.80751169e-01,
          2.85236299e-01, 0., 9.90746021e-02, 3.38566676e-02,
          3.22773546e-01, 9.81578678e-02, 1.16251923e-01, 1.29920110e-01,
          3.33644181e-01, 3.82286720e-02, 2.91304160e-02, 1.20645434e-01,
          3.26375425e-01, 1.03759252e-01, 1.55014992e-01, 1.12514473e-01,
          5.38160233e-03, 4.14934270e-02, 0., 0., 7.26261362e-02,
          3.29452977e-02, 0., 0., 0., 0., 0., 0., 6.73979074e-02,
          3.71424221e-02, 0., 0., 7.96404406e-02, 1.00752912e-01, 0., 0.,
          5.69535270e-02, 0., 0., 0., 0., 3.10489219e-02, 0.,
          1.65757127e-02, 1.10303611e-01, 0., 9.15310234e-02,
          1.00626789e-01 ]
      - [ 1.44607916e-01, 1.64801806e-01, 1.02343231e-01, 0.,
          1.26538619e-01, 8.52725655e-02, 1.44735724e-01, 2.56617814e-01,
          2.52543122e-01, 1.35109186e-01, 1.95144385e-01, 1.77623197e-01,
          2.42922544e-01, 2.16951266e-01, 1.32240146e-01, 1.70752153e-01,
          3.19154054e-01, 1.22406490e-01, 1.01194248e-01, 1.14847630e-01,
          8.34560543e-02, 1.22786149e-01, 2.59309798e-01, 3.41693372e-01,
          1.44259676e-01, 0., 0., 0., 5.09716477e-03, 0., 0.,
          1.65868133e-01, 1.07862689e-01, 1.21928103e-01, 0., 0.,
          1.01688117e-01, 0., 0., 0., 0., 0., 0., 0., 1.10856012e-01,
          8.24392065e-02, 1.16684854e-01, 7.49546289e-02, 9.04117897e-02,
          6.48991689e-02, 0., 0., 5.07161506e-02, 0., 0., 0., 0., 0., 0.,
          0., 9.49496627e-02, 0., 0., 1.82181329e-01 ]
      - [ 3.12732369e-01, 1.09881662e-01, 3.36569026e-02, 0.,
          9.05748159e-02, 5.64138144e-02, 3.35606635e-01, 1.51531070e-01,
          2.16101333e-01, 1.98718324e-01, 1.29906490e-01, 1.66357547e-01,
          1.28958359e-01, 1.92964852e-01, 1.99851930e-01, 1.96064562e-01,
          1.85080886e-01, 1.86642259e-01, 1.06818192e-01, 8.94430578e-02,
          1.58126038e-02, 1.78531691e-01, 1.84415698e-01, 1.42082825e-01,
          3.70233655e-01, 8.98384601e-02, 2.42430046e-02, 2.43789777e-02,
          6.84415177e-02, 0., 2.37984568e-01, 1.12107411e-01,
          8.73631537e-02, 0., 5.53171225e-02, 3.05238869e-02,
          5.52310497e-02, 1.83156151e-02, 0., 3.08564082e-02, 0.,
          3.37731354e-02, 0., 0., 3.96893211e-02, 5.20555004e-02, 0.,
          6.35283887e-02, 2.23623980e-02, 0., 7.59607777e-02, 0.,
          5.59059940e-02, 0., 0., 0., 0., 0., 0., 0., 1.16842195e-01, 0.,
          1.68980792e-01, 8.34457874e-02 ]
      - [ 9.29164514e-02, 0., 5.55658080e-02, 0., 8.32516328e-02,
          3.67889479e-02, 0., 3.46353948e-01, 2.15495765e-01,
          2.07111388e-01, 1.58879057e-01, 1.41407356e-01, 2.58963257e-01,
          1.60406187e-01, 1.42951965e-01, 2.60893255e-01, 1.95694879e-01,
          1.23727828e-01, 1.27110019e-01, 1.50945783e-01, 1.59791857e-01,
          1.45732373e-01, 1.36927798e-01, 4.24373090e-01, 1.58395872e-01,
          5.73777333e-02, 0., 0., 5.75770549e-02, 5.26078865e-02,
          3.43876742e-02, 2.45879978e-01, 3.28740738e-02, 0., 0., 0., 0.,
          0., 0., 0., 0., 0., 0., 0., 1.12393223e-01, 7.03153759e-02,
          8.43862444e-02, 2.19881982e-01, 9.28173885e-02, 0.,
          2.94543803e-02, 0., 8.09708312e-02, 7.50486478e-02,
          3.82167399e-02, 8.95109102e-02, 4.62319553e-02, 0., 0., 0.,
          4.99762781e-02, 0., 0., 0. ]
      - [ 7.90852904e-02, 0., 0., 0., 0., 0., 1.22902086e-02,
          4.64403987e-01, 1.62877306e-01, 6.21554069e-02, 1.44331217e-01,
          1.19351923e-01, 0., 1.17508180e-01, 1.54392868e-01,
          4.82170731e-01, 1.68651909e-01, 1.57542959e-01, 1.19471520e-01,
          0., 0., 1.23248480e-01, 1.56995013e-01, 4.14440334e-01,
          9.96181741e-02, 0., 0., 0., 0., 0., 0., 3.88434529e-01,
          2.04197355e-02, 0., 0., 0., 0., 0., 0., 0., 0., 0., 0., 0.,
          9.13198292e-03, 0., 1.46954618e-02, 8.11960828e-03,
          1.90143064e-02, 1.44389328e-02, 0., 0., 9.13198292e-03, 0., 0.,
          0., 0., 0., 0., 0., 0., 0., 0., 3.07346638e-02 ]
      - [ 1.02614619e-01, 8.58143792e-02, 1.55939847e-01, 0.,
          1.70889109e-01, 1.09985992e-01, 9.17461067e-02, 1.77297741e-01,
          3.78300816e-01, 1.58711493e-01, 1.79133162e-01, 1.81490347e-01,
          3.21550429e-01, 1.48860157e-01, 1.03371002e-01, 1.90087289e-01,
          2.52768904e-01, 1.26022607e-01, 1.76604629e-01, 2.73937166e-01,
          1.27051979e-01, 9.32721570e-02, 1.06687173e-01, 1.35505170e-01,
          2.91640222e-01, 3.48694436e-02, 3.11053582e-02, 3.13427784e-02,
          9.42241997e-02, 5.24072610e-02, 3.42537388e-02, 1.64207548e-01,
          1.33501604e-01, 1.02041528e-01, 0., 0., 1.07776873e-01, 0., 0.,
          0., 0., 0., 0., 0., 1.15450852e-01, 1.16861030e-01,
          9.01681408e-02, 1.11968838e-01, 3.89871560e-02, 0.,
          7.87430182e-02, 4.19436991e-02, 5.58661558e-02, 0., 0., 0., 0.,
          0., 0., 0., 2.16639675e-02, 3.03091053e-02, 0., 2.95144897e-02 ]
      - [ 4.66615826e-01, 0., 0., 0., 0., 0., 0., 0., 4.88532692e-01,
          7.43830353e-02, 1.43857002e-01, 1.21364765e-01, 0.,
          1.17473103e-01, 1.54181093e-01, 1.27746299e-01, 4.31364298e-01,
          1.57612994e-01, 0., 1.20011821e-01, 0., 1.19589448e-01,
          1.14582136e-01, 1.70523956e-01, 4.05763745e-01, 9.66073200e-03,
          0., 0., 0., 0., 0., 0., 2.71132104e-02, 9.66073200e-03, 0., 0.,
          6.46052044e-03, 0., 0., 0., 0., 0., 0., 0., 9.13655572e-03, 0.,
          1.10311871e-02, 2.13371795e-02, 2.29154024e-02, 9.66073200e-03,
          0., 0., 6.46052044e-03, 0., 0., 0., 0., 0., 0., 0., 0., 0., 0.,
          0. ]
      - [ 1.83633938e-01, 1.33231327e-01, 1.52552232e-01, 0.,
          1.72904640e-01, 1.38659179e-01, 0., 2.20751300e-01,
          2.05550358e-01, 2.15769425e-01, 1.82627529e-01, 1.94289207e-01,
          2.33525828e-01, 1.47820339e-01, 9.84618589e-02, 2.35408857e-01,
          1.15896232e-01, 0., 1.06381491e-01, 4.04011682e-02,
          6.95562512e-02, 1.86254457e-01, 2.36145407e-01, 3.37360054e-01,
          1.88538790e-01, 8.88181627e-02, 8.57200176e-02, 8.98700655e-02,
          1.42973810e-01, 1.16504826e-01, 1.19520299e-01, 2.52760619e-01,
          0., 8.73890147e-02, 0., 0., 5.04951365e-02, 0., 0.,
          4.22648676e-02, 3.99602130e-02, 0., 3.32403779e-02, 0.,
          1.01752475e-01, 1.17618568e-01, 9.48546007e-02, 7.04352558e-02,
          1.23247646e-01, 1.24021232e-01, 0., 0., 1.06935881e-01, 0., 0.,
          0., 0., 0., 0., 0., 7.67979622e-02, 0., 0., 1.36881545e-01 ]
      - [ 2.99969733e-01, 9.43912640e-02, 8.54899213e-02, 1.18133791e-01,
          1.66694641e-01, 1.38675436e-01, 1.52943924e-01, 1.82593793e-01,
          3.49065900e-01, 9.90821943e-02, 1.22579157e-01, 1.13248453e-01,
          2.63817608e-01, 1.62707508e-01, 8.52152631e-02, 0.,
          1.97757229e-01, 0., 2.25736931e-01, 2.52304494e-01,
          2.45659038e-01, 9.71803144e-02, 0., 7.32110515e-02,
          1.77767590e-01, 1.88318536e-01, 1.44263819e-01, 1.94874465e-01,
          1.25543743e-01, 1.60468668e-01, 0., 1.21148251e-01,
          1.25670070e-02, 0., 0., 0., 1.45111298e-02, 0., 0.,
          7.52398297e-02, 8.21026862e-02, 0., 0., 0., 1.36126474e-01,
          9.26488489e-02, 1.27447933e-01, 4.13814262e-02, 8.88621621e-03,
          1.13933109e-01, 1.08344406e-01, 0., 1.35545135e-01, 0., 0.,
          3.62814516e-02, 0., 0., 0., 0., 0., 0., 0., 0. ]
      - [ 1.40918002e-01, 1.27116829e-01, 1.38002947e-01, 6.63677305e-02,
          1.75183833e-01, 9.55716819e-02, 1.08798519e-01, 1.06292635e-01,
          3.60927522e-01, 1.97157204e-01, 7.25723282e-02, 1.79000080e-01,
          2.92390347e-01, 1.37587041e-01, 9.30974260e-02, 1.31884322e-01,
          2.37674937e-01, 1.81104645e-01, 1.87268421e-01, 1.19462818e-01,
          2.16821611e-01, 1.58866867e-01, 1.59138739e-01, 1.65348127e-01,
          2.21062049e-01, 1.15624472e-01, 1.08707234e-01, 1.32160813e-01,
          1.32242560e-01, 3.87174673e-02, 1.06938675e-01, 1.23313867e-01,
          1.24800511e-01, 1.30630076e-01, 0., 0., 9.89714786e-02, 0., 0.,
          0., 0., 0., 0., 0., 1.08273007e-01, 1.05148673e-01,
          8.81863087e-02, 1.18904509e-01, 9.36740860e-02, 1.17256761e-01,
          5.15809581e-02, 0., 6.84451237e-02, 3.11023667e-02, 0., 0.,
          3.66728753e-02, 0., 0., 0., 5.09915650e-02, 0., 0.,
          1.34309232e-01 ]
      - [ 3.57303321e-01, 0., 6.43706247e-02, 4.58185934e-02,
          7.43249282e-02, 5.06808162e-02, 2.53742427e-01, 2.88004965e-01,
          2.32675701e-01, 1.85991973e-01, 1.71761423e-01, 1.74949527e-01,
          1.59727275e-01, 1.72347590e-01, 2.24672899e-01, 8.34371969e-02,
          3.37732852e-01, 0., 0., 8.64460021e-02, 4.81087454e-02, 0.,
          1.49621338e-01, 3.82427484e-01, 1.19365811e-01, 3.01499832e-02,
          0., 0., 6.51355460e-02, 0., 8.85703638e-02, 2.07444027e-01,
          1.69903561e-01, 5.77695444e-02, 0., 0., 7.75060281e-02, 0., 0.,
          0., 0., 0., 0., 0., 5.18327132e-02, 0., 7.85588697e-02,
          1.22579716e-01, 3.60282511e-02, 4.06383090e-02, 5.09791747e-02,
          0., 5.62993772e-02, 0., 0., 0., 0., 0., 0., 0., 6.99304715e-02,
          5.60163930e-02, 4.57044840e-02, 7.39830211e-02 ]
      - [ 2.94851124e-01, 8.74262303e-02, 1.41692236e-01, 1.55771479e-01,
          2.15930149e-01, 1.71214625e-01, 1.63842767e-01, 2.43554041e-01,
          2.55709618e-01, 9.95970964e-02, 1.50446251e-01, 2.07266495e-01,
          2.58120954e-01, 1.17195003e-01, 4.09286283e-02, 1.99608564e-01,
          3.25751454e-01, 1.17503978e-01, 4.41596955e-02, 0.,
          1.11864164e-01, 8.17146674e-02, 8.44414085e-02, 3.19000751e-01,
          2.16765001e-01, 0., 0., 0., 6.22203089e-02, 5.79610094e-02,
          7.83889070e-02, 2.10231572e-01, 3.43703888e-02, 9.92165133e-02,
          0., 8.69478211e-02, 1.15652874e-01, 3.21078226e-02, 0., 0.,
          3.62921879e-02, 0., 0., 0., 8.68791714e-02, 8.61329958e-02, 0.,
          9.96187851e-02, 0., 4.43108454e-02, 5.00665754e-02, 0.,
          6.02708086e-02, 0., 0., 0., 4.51418124e-02, 6.27478510e-02,
          5.31144477e-02, 0., 7.47111365e-02, 0., 0., 0. ]
      - [ 2.50430793e-01, 1.39612392e-01, 1.30576700e-01, 9.43507031e-02,
          1.49121255e-01, 2.21005902e-01, 3.67230102e-02, 2.76030272e-01,
          1.91115052e-01, 1.62653670e-01, 1.20616019e-01, 2.24820167e-01,
          1.52671754e-01, 1.25791609e-01, 1.72855780e-01, 2.59003371e-01,
          1.48968205e-01, 8.86012688e-02, 1.15648530e-01, 1.15061127e-01,
          5.93229607e-02, 1.72158509e-01, 1.56302214e-01, 3.26287955e-01,
          1.21677868e-01, 4.07474972e-02, 1.73048571e-01, 1.23681106e-01,
          1.39399782e-01, 1.50040463e-01, 1.87552258e-01, 2.18511194e-01,
          7.37498179e-02, 5.19116521e-02, 0., 0., 5.21578491e-02,
          3.80691998e-02, 4.24653850e-02, 3.25028338e-02, 2.76436042e-02,
          2.14126445e-02, 0., 0., 3.17600854e-02, 0., 7.79187083e-02,
          7.99065158e-02, 4.42297682e-02, 1.07397519e-01, 0., 0.,
          5.21578491e-02, 0., 0., 0., 0., 0., 3.02820522e-02,
          4.26231176e-02, 7.29288384e-02, 6.01460449e-02, 7.95525610e-02,
          8.77878293e-02 ]
      - [ 2.79106647e-01, 1.75621942e-01, 2.34106742e-02, 3.54355760e-02,
          6.92114905e-02, 5.73123582e-02, 2.37350613e-01, 2.94469476e-01,
          7.38916025e-02, 2.31025800e-01, 1.54172391e-01, 1.96822241e-01,
          1.68771788e-01, 1.33543506e-01, 1.28945559e-01, 1.82714075e-01,
          1.93434492e-01, 2.04208821e-01, 8.84217918e-02, 0.,
          1.13327496e-01, 7.58792832e-02, 2.14222461e-01, 1.53062731e-01,
          2.74293333e-01, 2.67191827e-01, 5.14423624e-02, 3.02838590e-02,
          6.60249665e-02, 3.41813788e-02, 1.14535734e-01, 2.76783973e-01,
          1.50298640e-01, 6.65097833e-02, 3.13796401e-02, 2.27812510e-02,
          7.91044161e-02, 0., 0., 0., 4.20638137e-02, 0., 0., 0.,
          1.00137897e-01, 0., 8.40940773e-02, 0., 8.30953494e-02, 0.,
          2.96770316e-02, 0., 4.84970100e-02, 0., 0., 0., 0., 0., 0., 0.,
          9.43134949e-02, 3.70577350e-02, 0., 1.62193522e-01 ]
      - [ 1.70793787e-01, 1.58057615e-01, 0., 1.23612009e-01,
          7.44738951e-02, 7.79920667e-02, 1.37424946e-01, 9.04502422e-02,
          3.91191900e-01, 1.67524874e-01, 1.60383850e-01, 1.26509547e-01,
          2.24401444e-01, 1.73153058e-01, 1.13064393e-01, 1.53530896e-01,
          2.07499489e-01, 1.98380411e-01, 1.73256382e-01, 1.37115359e-01,
          1.70851097e-01, 1.28827929e-01, 1.39125183e-01, 1.67587206e-01,
          3.00523639e-01, 1.03485659e-01, 1.10133864e-01, 8.25656280e-02,
          1.35439888e-01, 7.61871040e-02, 9.04261693e-02, 1.64626822e-01,
          1.70872778e-01, 0., 0., 0., 8.90946910e-02, 0., 0., 0., 0., 0.,
          0., 0., 1.00053288e-01, 0., 1.29764467e-01, 1.62441969e-01,
          1.36539668e-01, 1.00988090e-01, 0., 3.30557823e-02,
          6.47510588e-02, 0., 0., 0., 2.82993428e-02, 0., 0., 0.,
          5.04369438e-02, 0., 0., 1.43720806e-01 ]
      - [ 2.24196061e-01, 0., 0., 3.28807160e-02, 4.88526151e-02,
          3.23432423e-02, 4.06642221e-02, 3.24648827e-01, 2.64715254e-01,
          2.33642668e-01, 2.11844891e-01, 2.12507561e-01, 1.13725506e-01,
          1.76310554e-01, 1.95511818e-01, 2.27505013e-01, 3.04514974e-01,
          2.97661036e-01, 0., 0., 9.25058499e-02, 9.05279592e-02,
          1.77733675e-01, 2.98613578e-01, 2.29059234e-01, 0., 0., 0.,
          2.00839564e-02, 3.15146297e-02, 9.89950262e-03, 4.99467365e-02,
          1.97966710e-01, 8.54302719e-02, 0., 0., 1.27286449e-01, 0., 0.,
          0., 2.59282757e-02, 0., 0., 6.62724301e-02, 1.59387603e-01,
          7.67678395e-02, 0., 0., 1.83340590e-02, 1.83340590e-02,
          4.26191092e-02, 4.90301475e-02, 5.73946834e-02, 0., 0., 0., 0.,
          0., 0., 0., 6.31703585e-02, 0., 1.99607890e-02, 5.03896773e-02 ]
      - [ 1.55735418e-01, 1.40125126e-01, 1.55136198e-01, 2.25735381e-01,
          1.03817269e-01, 1.52120814e-01, 1.43513247e-01, 2.11439699e-01,
          1.76614270e-01, 1.95602581e-01, 1.65775642e-01, 9.63242501e-02,
          3.30670744e-01, 2.15946719e-01, 2.01001182e-01, 8.85142833e-02,
          1.12766713e-01, 1.16619937e-01, 1.01660378e-01, 2.14266449e-01,
          1.54781953e-01, 2.07178771e-01, 1.84110671e-01, 1.41972169e-01,
          2.18773678e-01, 1.53241754e-01, 1.51489705e-01, 1.17887080e-01,
          2.04588473e-01, 7.47147650e-02, 8.15592408e-02, 2.74284445e-02,
          2.34074611e-02, 0., 0., 3.44088413e-02, 4.68149222e-02, 0.,
          3.65202464e-02, 0., 0., 0., 3.11860535e-02, 0., 7.54307657e-02,
          2.32115649e-02, 1.06577881e-01, 1.74063779e-02, 5.21022156e-02,
          1.57614857e-01, 0., 0., 9.66403708e-02, 0., 0., 0., 0., 0., 0.,
          0., 8.12392458e-02, 0., 9.97830704e-02, 1.65343001e-01 ]
      - [ 3.18456143e-01, 1.21944763e-01, 4.52737324e-02, 4.04757522e-02,
          7.09905848e-02, 9.81893688e-02, 5.59032783e-02, 3.08091044e-01,
          3.21917176e-01, 1.21724963e-01, 1.25234932e-01, 4.24688756e-02,
          1.68077365e-01, 1.52131930e-01, 8.16242918e-02, 3.08768928e-01,
          2.80483782e-01, 1.32084146e-01, 1.26897022e-01, 0.,
          1.42250687e-01, 7.30121285e-02, 1.17762513e-01, 3.62185597e-01,
          1.81502670e-01, 6.17879927e-02, 5.57501353e-02, 4.55677919e-02,
          9.85618383e-02, 7.03448132e-02, 8.41580778e-02, 2.92334288e-01,
          0., 5.71675710e-02, 2.70126276e-02, 0., 6.15475886e-02,
          3.01894583e-02, 0., 0., 3.06210686e-02, 3.17676440e-02, 0.,
          4.51456793e-02, 7.19371140e-02, 0., 3.02404538e-02,
          1.95572898e-02, 6.22252375e-02, 0., 4.62776609e-02, 0.,
          6.87441304e-02, 0., 5.21897674e-02, 6.21422641e-02, 0.,
          4.35665064e-02, 0., 0., 7.03661591e-02, 0., 5.15715256e-02, 0. ]
      - [ 1.34013474e-01, 1.02078170e-01, 8.29335451e-02, 0.,
          6.76845163e-02, 7.92687461e-02, 1.18016444e-01, 0.,
          3.06423545e-01, 3.44977528e-01, 1.31130040e-01, 0.,
          1.24887735e-01, 0., 1.48210749e-01, 3.04435462e-01,
          2.05175802e-01, 1.08220600e-01, 2.00208023e-01, 1.83345944e-01,
          1.61596492e-01, 1.39933199e-01, 2.03902617e-01, 1.41207948e-01,
          2.38022313e-01, 2.70094872e-01, 1.05415612e-01, 2.37853881e-02,
          9.76312906e-02, 9.02997628e-02, 1.03403032e-01, 1.98274523e-01,
          3.82708423e-02, 0., 0., 0., 1.62369441e-02, 0., 0., 0., 0., 0.,
          0., 0., 4.43017036e-02, 0., 0., 2.55021513e-01, 1.44656062e-01,
          7.78339580e-02, 0., 0., 3.78862023e-02, 0., 0., 0., 0., 0., 0.,
          0., 3.50758061e-02, 0., 0., 1.93741724e-01 ]
      - [ 1.26243949e-01, 7.88957849e-02, 7.66724721e-02, 8.20854530e-02,
          1.17504634e-01, 9.91240218e-02, 1.21326186e-01, 7.85611346e-02,
          3.52239400e-01, 2.11004421e-01, 1.41940281e-01, 1.06791407e-01,
          5.28307259e-02, 1.77615434e-01, 2.09852159e-01, 2.97251910e-01,
          1.53194398e-01, 1.20578282e-01, 1.64421782e-01, 1.71164066e-01,
          2.14237660e-01, 1.60170749e-01, 1.91261947e-01, 1.39662489e-01,
          3.22729051e-01, 1.48441032e-01, 1.49775743e-01, 0.,
          1.06672466e-01, 3.39567252e-02, 1.11245573e-01, 1.54028073e-01,
          5.27168661e-02, 0., 0., 0., 3.50141525e-02, 0., 0., 0., 0., 0.,
          0., 5.58089651e-02, 7.47139305e-02, 2.43184250e-02, 0.,
          1.69905096e-01, 1.06480300e-01, 9.46076289e-02, 8.57398286e-02,
          0., 9.90349725e-02, 0., 0., 0., 0., 0., 0., 0., 9.33400244e-02,
          0., 0., 2.15083137e-01 ]
      - [ 4.63743731e-02, 3.34885120e-02, 0., 0., 9.05700624e-02, 0., 0.,
          3.42618018e-01, 1.39979735e-01, 1.08823523e-01, 8.13442618e-02,
          0., 1.59829065e-01, 9.97560397e-02, 1.28500402e-01,
          4.09259439e-01, 1.44406408e-01, 0., 4.84750196e-02,
          2.95268327e-01, 2.35160980e-02, 1.12144366e-01, 1.20883755e-01,
          3.85659277e-01, 1.46795005e-01, 3.45919803e-02, 3.10124122e-02,
          3.14415127e-01, 1.18432514e-01, 1.48484245e-01, 3.21788006e-02,
          2.85564572e-01, 0., 0., 0., 0., 0., 0., 0., 0., 0., 0., 0., 0.,
          0., 0., 0., 0., 3.75930816e-02, 0., 7.99398273e-02,
          1.13622516e-01, 1.34062394e-01, 0., 0., 0., 0., 0., 0., 0.,
          2.16204464e-01, 8.28841608e-03, 0., 0. ]
      - [ 4.55851853e-01, 0., 0., 0., 0., 0., 0., 0., 4.73149300e-01,
          1.32006571e-01, 1.44726992e-01, 1.16945468e-01, 1.18818991e-01,
          1.42277613e-01, 1.31941035e-01, 8.52205008e-02, 4.26593542e-01,
          1.20854609e-01, 1.03972577e-01, 1.17981784e-01, 1.19342566e-01,
          1.07484691e-01, 1.20718397e-01, 1.47816986e-01, 4.02121544e-01,
          5.85805811e-03, 0., 0., 0., 0., 0., 0., 8.77319500e-02,
          1.71231795e-02, 0., 0., 9.85203963e-03, 0., 0., 0., 0., 0., 0.,
          0., 9.85203963e-03, 0., 3.25139873e-02, 4.16201390e-02,
          3.16695087e-02, 0., 0., 0., 0., 0., 0., 0., 0., 0., 0., 0., 0.,
          0., 0., 0. ]
      - [ 6.87316209e-02, 3.68314274e-02, 0., 0., 9.14059058e-02, 0., 0.,
          3.45183343e-01, 2.56890148e-01, 2.16012672e-01, 1.12514459e-01,
          1.52903259e-01, 2.19990522e-01, 8.29287693e-02, 1.88464135e-01,
          2.86744535e-01, 2.42555380e-01, 1.04049928e-01, 9.69676077e-02,
          1.83797374e-01, 4.60333638e-02, 8.78502131e-02, 1.78849965e-01,
          4.33845133e-01, 1.50832608e-01, 0., 2.39799507e-02,
          2.82812826e-02, 4.60855216e-02, 5.09255268e-02, 5.63209914e-02,
          2.29121834e-01, 3.31710838e-02, 0., 0., 0., 0., 0., 0., 0., 0.,
          0., 0., 0., 1.16236471e-01, 6.91891164e-02, 8.17756951e-02,
          2.28950009e-01, 7.02063218e-02, 4.96605858e-02, 0., 0.,
          7.67166018e-02, 2.81133465e-02, 7.73852468e-02, 1.11335255e-01,
          6.45831525e-02, 0., 0., 0., 4.66374606e-02, 0., 0., 0. ]
      - [ 1.02711812e-01, 1.39101073e-01, 3.72580700e-02, 8.13262835e-02,
          8.40761811e-02, 9.11758766e-02, 8.43966901e-02, 7.82596394e-02,
          3.77034873e-01, 2.25000665e-01, 4.97435816e-02, 1.57175303e-01,
          1.71578959e-01, 1.03125520e-01, 9.61069688e-02, 3.24682236e-01,
          1.54386774e-01, 9.78131145e-02, 1.59764171e-01, 1.79631308e-01,
          2.45392978e-01, 1.73092261e-01, 1.12324812e-01, 1.78945512e-01,
          3.27973157e-01, 1.32606760e-01, 9.37893987e-02, 1.06103383e-01,
          1.19619079e-01, 9.69120488e-02, 8.80178064e-02, 1.26816422e-01,
          8.49235058e-02, 0., 0., 0., 5.41262366e-02, 0., 0., 0.,
          4.01922166e-02, 0., 4.30799797e-02, 0., 6.98113367e-02, 0.,
          4.12294902e-02, 1.91465810e-01, 1.76726222e-01, 0.,
          9.23693776e-02, 0., 8.59800801e-02, 0., 0., 0., 0., 0., 0., 0.,
          7.23157078e-02, 0., 0., 1.75504997e-01 ]
      - [ 1.90715224e-01, 1.10139102e-01, 1.22028589e-01, 1.55629143e-01,
          1.13564044e-01, 1.17314674e-01, 1.25152797e-01, 5.97319715e-02,
          4.04952437e-01, 1.62601978e-01, 1.82142243e-01, 2.02536270e-01,
          3.13023597e-01, 1.40215635e-01, 1.05848871e-01, 1.12103954e-01,
          3.11587632e-01, 1.58663645e-01, 1.91946402e-01, 2.13677272e-01,
          1.71802491e-01, 4.90731336e-02, 9.30468664e-02, 9.94297490e-02,
          2.91784525e-01, 0., 0., 2.95363087e-02, 7.91275203e-02,
          2.29373686e-02, 5.42320162e-02, 0., 9.68336388e-02,
          9.72194821e-02, 1.02815062e-01, 0., 1.13076121e-01, 0., 0., 0.,
          0., 0., 0., 0., 1.18159540e-01, 0., 1.57146543e-01,
          1.14262648e-01, 0., 8.00770298e-02, 0., 0., 6.49792179e-02, 0.,
          0., 2.68639233e-02, 4.41709124e-02, 3.28943804e-02, 0., 0.,
          3.46331745e-02, 0., 0., 0. ]
      - [ 1.87547449e-02, 5.93130775e-02, 9.71712992e-02, 3.45674939e-02,
          6.58088475e-02, 8.43425393e-02, 0., 3.81587625e-01,
          2.30612129e-01, 1.77175328e-01, 7.92376548e-02, 1.27743378e-01,
          1.74522907e-01, 2.14419469e-01, 3.03453982e-01, 3.78013998e-02,
          2.41216242e-01, 0., 0., 5.31118736e-02, 1.55506134e-02,
          1.29096374e-01, 3.35477173e-01, 3.43788147e-01, 1.36627287e-01,
          0., 5.71354702e-02, 6.26388639e-02, 6.63080392e-03, 0., 0.,
          2.65107930e-01, 3.07457726e-02, 0., 0., 0., 0., 0., 0., 0., 0.,
          0., 0., 0., 1.14369355e-01, 7.17154145e-02, 8.93937796e-02,
          2.43557304e-01, 7.35440329e-02, 5.57142310e-02, 0., 0.,
          1.41049668e-01, 1.14362635e-01, 0., 0., 3.95075753e-02, 0., 0.,
          0., 5.32532409e-02, 0., 0., 1.18861824e-01 ]
      - [ 5.08036949e-02, 0., 9.97219607e-02, 1.43802717e-01,
          1.20755509e-01, 9.00629312e-02, 8.27327743e-02, 2.04880252e-01,
          1.25960559e-01, 2.86899179e-01, 2.52977431e-01, 1.93200275e-01,
          2.07445711e-01, 2.67550617e-01, 1.91001952e-01, 4.18973528e-02,
          2.79693812e-01, 3.36607248e-02, 1.82090759e-01, 2.03002989e-01,
          1.61307663e-01, 2.09249422e-01, 1.94688872e-01, 2.25120723e-01,
