%YAML:1.0
---
opencv_ml_svm:
   format: 3
   svmType: C_SVC
   kernel:
      type: RBF
      gamma: 5.3830000000000000e+00
   C: 2.6699999999999999e+00
   term_criteria: { epsilon:1.1920928955078125e-07, iterations:1000 }
   var_count: 64
   class_count: 10
   class_labels: !!opencv-matrix
      rows: 10
      cols: 1
      dt: i
      data: [ 0, 1, 2, 3, 4, 5, 6, 7, 8, 9 ]
   sv_total: 566
   support_vectors:
      - [ 3.56482089e-01, 7.41614178e-02, 4.30888310e-02, 1.45593181e-01,
          2.06012323e-01, 1.43754840e-01, 1.56429127e-01, 1.98122159e-01,
          3.08557004e-01, 8.58656764e-02, 1.77670300e-01, 2.14597061e-01,
          1.57116577e-01, 9.75965410e-02, 9.22280103e-02, 0.,
          4.38926995e-01, 1.26311779e-01, 4.10688743e-02, 4.14847881e-02,
          5.73938861e-02, 0., 0., 1.46658570e-01, 4.17248577e-01,
          4.84019853e-02, 0., 3.19086872e-02, 5.18441610e-02,
          3.68620232e-02, 2.68153232e-02, 6.28616512e-02, 1.54323295e-01,
          1.14109583e-01, 0., 0., 7.67306909e-02, 0., 0., 0., 0., 0., 0.,
          0., 5.82388937e-02, 0., 8.39660689e-02, 9.42464098e-02, 0., 0.,
          2.09040232e-02, 2.91840229e-02, 5.48433699e-02, 3.95837873e-02,
          0., 4.23966423e-02, 0., 0., 0., 0., 4.37672660e-02, 0., 0., 0. ]
      - [ 1.79733351e-01, 1.27722159e-01, 6.87513575e-02, 9.47259814e-02,
          1.30793780e-01, 6.45562932e-02, 1.29051715e-01, 4.00614470e-01,
          1.76833063e-01, 1.90508500e-01, 1.23319618e-01, 1.02750860e-01,
          1.96666345e-01, 1.43968269e-01, 1.54103667e-01, 2.51421988e-01,
          1.19099461e-01, 0., 8.54736939e-02, 5.33121824e-02,
          6.42594174e-02, 1.54918283e-01, 1.94622949e-01, 3.37176025e-01,
          2.08724767e-01, 1.34777680e-01, 6.50795102e-02, 9.84725356e-02,
          1.03677861e-01, 6.73744828e-02, 1.35344416e-01, 2.34406561e-01,
          0., 0., 0., 0., 1.53106432e-02, 0., 0., 0., 4.96456474e-02, 0.,
          0., 0., 1.14880845e-01, 4.01818193e-02, 1.16816670e-01,
          2.21800163e-01, 1.20241843e-01, 1.42037630e-01, 0., 0.,
          1.14982828e-01, 0., 0., 0., 0., 0., 0., 0., 5.58366366e-02, 0.,
          0., 0. ]
      - [ 1.47145391e-01, 1.45828590e-01, 1.09438606e-01, 1.37545571e-01,
          1.71152636e-01, 1.23941973e-01, 2.36887559e-01, 1.56970248e-01,
          1.46284536e-01, 2.46400356e-01, 2.19368935e-01, 2.35900089e-01,
          2.41346717e-01, 2.47403726e-01, 1.16012290e-01, 0.,
          1.27013460e-01, 1.81938991e-01, 1.92193553e-01, 1.42662391e-01,
          2.13540658e-01, 1.51870981e-01, 2.02288330e-01, 1.49893194e-01,
          1.40986279e-01, 1.50433451e-01, 2.28611112e-01, 1.01225980e-01,
          4.97018769e-02, 2.79210005e-02, 0., 5.32573946e-02, 0., 0., 0.,
          0., 1.42005365e-02, 0., 0., 0., 2.24530194e-02, 0., 0., 0.,
          1.14959046e-01, 7.25267231e-02, 8.99147317e-02, 2.15606108e-01,
          1.35201916e-01, 1.64254487e-01, 0., 0., 1.13382190e-01, 0., 0.,
          0., 0., 0., 0., 0., 2.07006615e-02, 0., 0., 0. ]
      - [ 2.16676429e-01, 2.90290475e-01, 6.64217770e-02, 0.,
          2.34971512e-02, 0., 0., 0., 2.67469555e-01, 3.45077783e-01,
          1.98559612e-01, 1.16156906e-01, 1.63215294e-01, 1.12967223e-01,
          1.07371397e-01, 1.45468116e-01, 2.00899318e-01, 1.15897916e-01,
          1.70383435e-02, 7.63382539e-02, 2.92481333e-01, 1.99911788e-01,
          1.76806629e-01, 2.08644867e-01, 2.65475273e-01, 8.28279704e-02,
          1.20919138e-01, 1.58852160e-01, 1.17142595e-01, 1.08800672e-01,
          1.24431990e-01, 4.54026163e-02, 4.03794013e-02, 0., 0., 0.,
          3.60204503e-02, 2.49990597e-02, 0., 0., 2.67908741e-02, 0.,
          3.64351571e-02, 0., 8.77611488e-02, 6.67142272e-02,
          1.01533078e-01, 1.09035842e-01, 1.48164958e-01, 1.34211972e-01,
          0., 0., 1.04291357e-01, 0., 0., 0., 0., 0., 0., 0.,
          7.54108429e-02, 0., 0., 1.76639467e-01 ]
      - [ 2.37147078e-01, 0., 0., 0., 0., 0., 0., 2.39511609e-01,
          4.37215835e-01, 1.03621088e-01, 5.14760613e-02, 1.34829715e-01,
          0., 0., 1.79633841e-01, 4.17126745e-01, 3.62730414e-01,
          1.15933180e-01, 0., 0., 8.81835967e-02, 6.91850930e-02, 0.,
          3.72705489e-01, 2.84292281e-01, 0., 0., 0., 0., 0., 0.,
          2.80171096e-01, 2.34564338e-02, 0., 0., 0., 0., 0., 0., 0., 0.,
          0., 0., 0., 6.26899535e-03, 0., 1.19773606e-02, 0.,
          2.51425356e-02, 0., 0., 0., 0., 0., 0., 0., 0., 0., 0., 0., 0.,
          0., 0., 1.54642835e-02 ]
      - [ 1.25098303e-01, 1.17592424e-01, 1.63398385e-01, 2.29769751e-01,
          9.08216909e-02, 6.87372386e-02, 0., 2.78177448e-02,
          2.19581634e-01, 2.53934592e-01, 2.15932816e-01, 2.62432069e-01,
          2.49364734e-01, 2.29786366e-01, 4.30117473e-02, 5.58039434e-02,
          1.50336385e-01, 6.49005622e-02, 1.99647084e-01, 1.57409877e-01,
          1.92206740e-01, 1.94900841e-01, 2.42478341e-01, 2.02333838e-01,
          1.52450353e-01, 1.18879117e-01, 7.68274963e-02, 1.35676011e-01,
          1.67854205e-01, 1.17474958e-01, 1.09420963e-01, 1.38677165e-01,
          3.32403965e-02, 8.40162337e-02, 9.39109772e-02, 0.,
          9.15214121e-02, 0., 0., 0., 0., 0., 0., 0., 1.54864103e-01,
          7.58238286e-02, 1.20204166e-01, 0., 7.11217001e-02,
          7.36136287e-02, 1.15737945e-01, 0., 1.16890237e-01, 0., 0., 0.,
          0., 0., 0., 0., 8.43482763e-02, 0., 8.53576511e-02,
          8.17443505e-02 ]
      - [ 1.49662778e-01, 1.14547573e-01, 6.34233356e-02, 1.31537870e-01,
          1.41555518e-01, 9.29422155e-02, 1.04961745e-01, 2.51627982e-01,
          2.43758932e-01, 1.72558248e-01, 2.30090410e-01, 1.95447892e-01,
          1.97561413e-01, 1.89703181e-01, 1.25835121e-01, 9.26005989e-02,
          1.58493534e-01, 1.66193590e-01, 1.82716548e-01, 1.23784691e-01,
          1.60919040e-01, 1.92486554e-01, 2.04678357e-01, 1.84468880e-01,
          2.51018256e-01, 1.21929072e-01, 1.06334180e-01, 1.50116861e-01,
          1.26252726e-01, 0., 1.38184726e-01, 8.87819529e-02,
          1.60439491e-01, 0., 0., 0., 8.81526247e-02, 0., 0., 0., 0., 0.,
          0., 0., 1.11465283e-01, 6.15573116e-02, 1.25703588e-01,
          1.56316653e-01, 1.73215643e-01, 1.16328351e-01, 0., 0.,
          9.33062881e-02, 0., 0., 0., 0., 0., 0., 0., 6.63980171e-02, 0.,
          0., 1.37174442e-01 ]
      - [ 2.66594917e-01, 8.28821361e-02, 4.73472476e-02, 2.51800921e-02,
          3.38614821e-01, 1.86687142e-01, 7.55376667e-02, 1.56921715e-01,
          2.69378483e-01, 2.16520458e-01, 6.30293190e-02, 3.04478914e-01,
          2.85020262e-01, 4.37693745e-02, 0., 0., 3.35350066e-01,
          1.88405499e-01, 0., 5.54158017e-02, 8.37566778e-02, 0.,
          6.12003431e-02, 1.11058131e-01, 3.41971725e-01, 1.58610716e-01,
          3.54717672e-02, 0., 4.39627692e-02, 2.87870392e-02,
          4.43192720e-02, 7.77302906e-02, 1.52558655e-01, 1.53101757e-01,
          0., 0., 1.25685960e-01, 0., 0., 0., 0., 0., 0., 0.,
          1.54965207e-01, 0., 8.83020014e-02, 5.80990016e-02,
          1.89088453e-02, 3.69743556e-02, 6.27514422e-02, 0.,
          6.42496124e-02, 0., 0., 0., 0., 0., 0., 0., 5.83751090e-02,
          3.02495193e-02, 0., 0. ]
      - [ 2.80050397e-01, 2.59411037e-01, 5.46908341e-02, 4.10603657e-02,
          7.32720271e-02, 3.81418578e-02, 0., 9.42701921e-02,
          3.32713366e-01, 2.85841137e-01, 9.55169201e-02, 1.53292075e-01,
          1.67226464e-01, 1.32466927e-01, 1.11751713e-01, 9.35142413e-02,
          1.13281511e-01, 5.72199300e-02, 9.08928439e-02, 6.48804083e-02,
          3.38938147e-01, 1.17810935e-01, 1.69990644e-01, 2.08794385e-01,
          2.13260889e-01, 2.00370073e-01, 8.80955830e-02, 1.64698392e-01,
          1.35706410e-01, 1.24252766e-01, 1.18417412e-01, 1.12805851e-01,
          7.41652912e-03, 0., 0., 0., 1.81667116e-02, 1.28901778e-02,
          2.52797902e-02, 0., 0., 0., 0., 3.48582566e-02, 9.99761373e-02,
          7.88026750e-02, 1.02370568e-01, 1.07633851e-01, 1.63541064e-01,
          9.83024165e-02, 0., 0., 9.71253887e-02, 0., 0., 0., 0., 0., 0.,
          0., 8.09047818e-02, 0., 0., 1.95218295e-01 ]
      - [ 6.11872077e-02, 1.14549495e-01, 1.16359919e-01, 1.40031159e-01,
          1.42888784e-01, 1.32955611e-01, 2.15407982e-01, 8.08967501e-02,
          2.35266805e-01, 1.79923221e-01, 2.57472306e-01, 1.86231300e-01,
          3.28261495e-01, 1.46311983e-01, 1.06895246e-01, 1.62585422e-01,
          1.45639360e-01, 1.99255452e-01, 1.78919256e-01, 1.41273677e-01,
          2.30888367e-01, 2.45430574e-01, 1.12386040e-01, 1.23208694e-01,
          1.90539315e-01, 1.42200023e-01, 2.58005470e-01, 4.88792695e-02,
          3.50618288e-02, 0., 0., 0., 1.22482665e-01, 0., 0., 0.,
          5.25927432e-02, 0., 0., 0., 2.04716977e-02, 0., 0., 0.,
          1.54450342e-01, 0., 1.35352373e-01, 6.55479506e-02,
          1.47542909e-01, 1.42913297e-01, 0., 0., 1.24187469e-01, 0., 0.,
          0., 0., 0., 0., 0., 0., 0., 0., 0. ]
      - [ 1.79497316e-01, 1.52881205e-01, 1.46513417e-01, 2.50018269e-01,
          1.39823794e-01, 9.08865854e-02, 1.42695248e-01, 1.25107139e-01,
          3.32577348e-01, 1.17664859e-01, 1.43053889e-01, 2.08876729e-01,
          2.17006236e-01, 1.96921214e-01, 1.81142524e-01, 8.89908597e-02,
          9.42789614e-02, 0., 8.12667832e-02, 1.92224339e-01,
          1.56117707e-01, 1.87967733e-01, 2.15112329e-01, 1.76315293e-01,
          2.20571429e-01, 1.83288530e-01, 1.15593463e-01, 1.06213450e-01,
          1.80160806e-01, 1.80536509e-01, 1.14545815e-01, 0.,
          5.22664636e-02, 5.81385233e-02, 0., 0., 4.64975499e-02, 0., 0.,
          0., 1.94888338e-02, 0., 0., 0., 1.31069869e-01, 1.39736921e-01,
          9.17172134e-02, 4.94641066e-02, 7.02853054e-02, 1.17121406e-01,
          8.08011666e-02, 0., 1.26302078e-01, 0., 2.31590997e-02, 0.,
          3.29743810e-02, 0., 0., 0., 6.77273422e-02, 0., 5.76408803e-02,
          0. ]
      - [ 3.65852803e-01, 6.87302351e-02, 4.44045328e-02, 5.28764874e-02,
          8.65834132e-02, 3.46189700e-02, 6.92388192e-02, 1.61381736e-01,
          3.98711920e-01, 1.80257306e-01, 1.14586182e-01, 1.45366624e-01,
          1.79755107e-01, 8.88886526e-02, 1.02304086e-01, 1.11710273e-01,
          1.30654037e-01, 0., 6.31909817e-02, 2.25011498e-01,
          2.43337408e-01, 2.23409399e-01, 1.76132515e-01, 1.18710570e-01,
          2.86715657e-01, 1.99038535e-01, 1.17921993e-01, 7.88271725e-02,
          1.39470384e-01, 6.44239113e-02, 1.41019732e-01, 0., 0., 0., 0.,
          0., 5.11681624e-02, 0., 4.70010079e-02, 0., 2.76764855e-02, 0.,
          0., 0., 9.94016677e-02, 6.13690242e-02, 9.03682560e-02,
          1.51637062e-01, 5.52614778e-02, 4.90611158e-02, 0., 0.,
          1.52734280e-01, 0., 0., 0., 3.59518081e-02, 0., 0., 0.,
          1.14319459e-01, 0., 8.86278600e-02, 1.24393553e-01 ]
      - [ 1.24303967e-01, 1.89723521e-01, 5.74854799e-02, 0.,
          3.30456167e-01, 1.69554502e-01, 1.38917476e-01, 1.19886354e-01,
          1.69850320e-01, 2.18774244e-01, 1.17186643e-01, 2.55536497e-01,
          2.22794771e-01, 1.76659986e-01, 1.16572201e-01, 1.62600756e-01,
          1.09037310e-01, 8.33579153e-02, 1.35300428e-01, 1.33233234e-01,
          1.78892314e-01, 2.54748732e-01, 1.49768576e-01, 1.34109318e-01,
          1.86302811e-01, 1.19328678e-01, 1.45964742e-01, 2.10763916e-01,
          2.19442412e-01, 1.78002357e-01, 0., 3.81019749e-02,
          1.09285377e-01, 8.42949748e-02, 0., 0., 6.41596243e-02, 0., 0.,
          0., 0., 0., 0., 0., 1.23302259e-01, 1.31140620e-01,
          8.92696157e-02, 0., 8.52311701e-02, 0., 1.23834252e-01, 0.,
          1.21282615e-01, 0., 0., 0., 0., 0., 0., 0., 6.24252558e-02, 0.,
          6.39699325e-02, 0. ]
      - [ 2.12869838e-01, 8.87983665e-02, 1.20574996e-01, 1.19573243e-01,
          1.46935880e-01, 1.10284515e-01, 3.14866155e-02, 2.40538254e-01,
          3.50228161e-01, 1.47914186e-01, 1.23402335e-01, 2.17099696e-01,
          1.29857257e-01, 1.91656783e-01, 0., 1.86410397e-01,
          1.85987711e-01, 9.81697738e-02, 8.78456384e-02, 1.11914173e-01,
          1.09142058e-01, 1.53121531e-01, 2.24000975e-01, 2.74765909e-01,
          2.31693506e-01, 1.52599543e-01, 1.21070087e-01, 7.85158500e-02,
          1.02640793e-01, 1.06608383e-01, 1.08068086e-01, 1.82884932e-01,
          1.77769840e-01, 0., 0., 0., 4.32670936e-02, 0., 0., 0.,
          1.50429634e-02, 0., 0., 2.59073768e-02, 1.28196627e-01, 0.,
          1.23830177e-01, 8.67087767e-02, 1.33433700e-01, 8.55921581e-02,
          7.43515715e-02, 0., 9.66417938e-02, 0., 0., 0., 0., 0., 0., 0.,
          4.10718210e-02, 0., 0., 1.56387463e-01 ]
      - [ 1.47294596e-01, 1.65501058e-01, 1.15604915e-01, 7.14459941e-02,
          1.63238183e-01, 1.21478185e-01, 1.94104150e-01, 2.43125394e-01,
          1.95996314e-01, 1.70066059e-01, 2.80644625e-01, 2.37967417e-01,
          1.93302602e-01, 2.12483123e-01, 8.10078755e-02, 1.34728834e-01,
          1.20439142e-01, 1.92482829e-01, 2.07999036e-01, 1.22778915e-01,
          1.71632677e-01, 2.01256782e-01, 1.39673203e-01, 1.42922148e-01,
          1.76938623e-01, 2.04884753e-01, 1.10858776e-01, 1.63193747e-01,
          6.26410916e-02, 3.20393741e-02, 3.80281024e-02, 0.,
          1.20652877e-01, 0., 0., 0., 1.81078222e-02, 0., 0., 0., 0., 0.,
          0., 0., 1.24329492e-01, 0., 1.52638897e-01, 1.55407846e-01,
          1.76049307e-01, 1.27120778e-01, 0., 0., 1.24329492e-01, 0., 0.,
          0., 2.73764525e-02, 0., 0., 0., 6.89248592e-02, 0., 0., 0. ]
      - [ 1.26866370e-01, 7.64989331e-02, 5.13236150e-02, 2.18142480e-01,
          2.61654884e-01, 1.30123988e-01, 1.68339968e-01, 1.22983664e-01,
          1.36294678e-01, 2.87165046e-01, 9.87944007e-02, 1.39761567e-01,
          2.37755090e-01, 2.60988623e-01, 1.34857699e-01, 0.,
          1.02955788e-01, 1.05075076e-01, 1.45986170e-01, 1.44381836e-01,
          1.67559057e-01, 1.09252714e-01, 2.41066471e-01, 1.61778018e-01,
          1.75752848e-01, 1.81529760e-01, 1.45578042e-01, 1.40126571e-01,
          1.88362688e-01, 1.17741942e-01, 1.91962600e-01, 5.25602214e-02,
          1.83440614e-02, 5.85647896e-02, 4.26373258e-02, 1.01396300e-01,
          1.07746966e-01, 0., 0., 0., 0., 0., 0., 0., 1.49716645e-01,
          8.01100656e-02, 1.36329517e-01, 0., 8.86074901e-02,
          1.28646508e-01, 7.10724071e-02, 0., 1.17459305e-01, 0., 0., 0.,
          0., 0., 0., 0., 8.85197669e-02, 0., 9.18328762e-02,
          9.83701274e-02 ]
      - [ 1.39910921e-01, 1.70017838e-01, 2.54118621e-01, 0.,
          1.34855509e-01, 0., 0., 1.32996887e-01, 2.14905754e-01,
          2.92523950e-01, 2.17251778e-01, 1.41402245e-01, 2.06947044e-01,
          2.48619303e-01, 1.24755964e-01, 1.17665417e-01, 2.08748981e-01,
          1.16069064e-01, 1.38422161e-01, 1.33199990e-01, 1.88006029e-01,
          1.79325268e-01, 2.45368674e-01, 2.74597883e-01, 2.02077523e-01,
          8.98079053e-02, 1.09728269e-01, 1.02541439e-01, 1.51784569e-01,
          1.27848625e-01, 8.72879699e-02, 8.09336752e-02, 5.85988350e-02,
          2.55618151e-02, 4.72003296e-02, 0., 3.63224261e-02, 0., 0., 0.,
          0., 0., 0., 2.03818306e-02, 1.19766913e-01, 1.36021838e-01,
          4.60623205e-02, 0., 7.36920536e-02, 0., 1.40996009e-01, 0.,
          1.29625008e-01, 0., 0., 0., 0., 0., 0., 3.34731638e-02,
          7.48390332e-02, 0., 6.43965229e-02, 0. ]
      - [ 1.53645590e-01, 1.70165449e-01, 1.68147162e-01, 1.40386268e-01,
          1.34540558e-01, 1.70060232e-01, 1.72736108e-01, 1.01397902e-01,
          2.45213866e-01, 1.74091309e-01, 3.21346432e-01, 1.63937226e-01,
          1.53008848e-01, 1.69506580e-01, 0., 6.70623258e-02,
          1.58295915e-01, 1.54460996e-01, 2.23702580e-01, 5.69758937e-02,
          1.97552606e-01, 1.02116734e-01, 8.65692124e-02, 8.05585980e-02,
          1.95842534e-01, 2.66777933e-01, 1.69679776e-01, 3.81917730e-02,
          2.30831265e-01, 1.50431469e-01, 1.06314816e-01, 4.98712063e-02,
          9.40293819e-02, 1.32937446e-01, 0., 0., 1.15699306e-01, 0., 0.,
          0., 0., 0., 0., 0., 1.26761481e-01, 8.11869204e-02,
          1.38068885e-01, 6.56402409e-02, 1.23504281e-01, 5.48900552e-02,
          8.30586627e-02, 0., 6.64329976e-02, 0., 0., 0., 0., 0., 0., 0.,
          9.45970565e-02, 1.24564089e-01, 0., 0. ]
      - [ 1.54137254e-01, 8.74535069e-02, 1.66123390e-01, 1.28640607e-01,
          1.46484718e-01, 1.54390186e-01, 1.68357253e-01, 2.04495311e-01,
          1.26962751e-01, 2.72602201e-01, 1.34422362e-01, 2.40734890e-01,
          2.55246311e-01, 1.87931225e-01, 2.11403891e-01, 1.05142355e-01,
          1.16669931e-01, 1.98604643e-01, 1.59288913e-01, 1.23694435e-01,
          2.41433933e-01, 2.11870715e-01, 1.25772938e-01, 1.19880028e-01,
          1.63739890e-01, 1.91062137e-01, 2.34831721e-01, 4.89504263e-02,
          7.68844709e-02, 3.86599600e-02, 0., 2.96713039e-02, 0., 0., 0.,
          0., 4.18496467e-02, 0., 0., 0., 5.09189349e-03, 0., 0., 0.,
          1.12137318e-01, 7.68400133e-02, 9.58027318e-02, 2.01951981e-01,
          1.58578381e-01, 1.44816145e-01, 0., 0., 1.14426069e-01, 0., 0.,
          0., 8.81941803e-03, 0., 0., 0., 2.38830969e-02, 0., 0., 0. ]
      - [ 2.27217406e-01, 2.04664230e-01, 1.14267379e-01, 1.27801105e-01,
          1.66575521e-01, 1.62356347e-01, 1.89820006e-01, 2.08818719e-01,
          2.07843333e-01, 2.89542049e-01, 1.40515789e-01, 1.34994954e-01,
          2.07991719e-01, 1.81171969e-01, 1.46003887e-01, 0.,
          1.72802031e-01, 2.34515607e-01, 4.77192178e-02, 8.21969584e-02,
          6.44464195e-02, 4.83079106e-02, 7.65024498e-02, 1.41829416e-01,
          3.09997231e-01, 2.10065052e-01, 4.23411354e-02, 1.76414087e-01,
          1.23017982e-01, 5.69902956e-02, 1.37407154e-01, 8.16414207e-02,
          9.33056027e-02, 1.62320912e-01, 0., 0., 1.06628902e-01, 0., 0.,
          0., 8.07765946e-02, 0., 0., 4.75812703e-02, 9.13930833e-02,
          7.20446482e-02, 9.07325894e-02, 9.47379470e-02, 6.05410151e-02,
          6.20338768e-02, 6.31852373e-02, 0., 6.45165145e-02, 0., 0., 0.,
          0., 0., 0., 0., 1.81754172e-01, 5.35465144e-02, 0., 0. ]
      - [ 1.93872496e-01, 2.03092247e-01, 2.00319931e-01, 0.,
          1.42038628e-01, 1.76359922e-01, 1.83053717e-01, 1.78878382e-01,
          2.37523556e-01, 3.28684300e-01, 1.52107537e-01, 1.61781549e-01,
          1.53464243e-01, 1.55722573e-01, 1.34343520e-01, 0.,
          1.23168789e-01, 1.62044570e-01, 1.67535186e-01, 8.98615643e-02,
          6.60767257e-02, 8.05422291e-02, 5.43874763e-02, 1.55997321e-01,
          2.47542992e-01, 2.63065547e-01, 7.94176161e-02, 1.67274773e-01,
          1.34812564e-01, 0., 1.06235385e-01, 1.69996724e-01,
          1.37400612e-01, 1.39215395e-01, 0., 0., 1.07817031e-01, 0., 0.,
          0., 4.47685830e-02, 0., 3.76791619e-02, 0., 1.05941810e-01,
          6.62136301e-02, 1.33091509e-01, 9.66750532e-02, 7.11595044e-02,
          9.40810144e-02, 0., 0., 5.73317632e-02, 0., 0., 0., 0., 0., 0.,
          0., 1.62737682e-01, 7.83404335e-02, 0., 0. ]
      - [ 1.15132645e-01, 1.37340605e-01, 2.53902674e-01, 1.03205845e-01,
          1.27156392e-01, 2.33417805e-02, 4.24760953e-02, 1.73478648e-01,
          1.91887721e-01, 2.31900886e-01, 2.73365110e-01, 1.16630882e-01,
          2.36479789e-01, 2.11843416e-01, 1.36291012e-01, 1.31365344e-01,
          1.54286563e-01, 1.44841030e-01, 1.77946478e-01, 1.30434901e-01,
          1.13800161e-01, 2.43738845e-01, 2.16535732e-01, 2.44881526e-01,
          1.80566058e-01, 9.62938592e-02, 1.25197813e-01, 1.33417487e-01,
          1.28029644e-01, 1.58929244e-01, 9.16765332e-02, 1.27658620e-01,
          1.16522610e-01, 2.73533780e-02, 0., 0., 2.77514383e-02, 0., 0.,
          0., 0., 0., 0., 0., 1.04375958e-01, 9.61542130e-02,
          9.25422236e-02, 6.09339476e-02, 8.09211358e-02, 1.55274183e-01,
          0., 0., 1.27362177e-01, 0., 0., 0., 0., 0., 0., 0.,
          8.13536122e-02, 0., 0., 1.14890844e-01 ]
      - [ 1.54559776e-01, 9.70324054e-02, 1.19042218e-01, 1.16909206e-01,
          1.60280392e-01, 8.61580521e-02, 2.00014994e-01, 2.27654070e-01,
          1.85963199e-01, 2.03660131e-01, 1.81000635e-01, 2.01579630e-01,
          1.83379322e-01, 2.02165082e-01, 2.10552052e-01, 1.85879186e-01,
          7.57362545e-02, 1.23209119e-01, 1.65922299e-01, 1.80219293e-01,
          1.53953016e-01, 1.62762284e-01, 2.37184390e-01, 2.12159872e-01,
          2.49625996e-01, 1.09294973e-01, 0., 1.16196431e-01,
          1.18947655e-01, 1.59079075e-01, 1.19713791e-01, 1.35523438e-01,
          1.27600133e-01, 0., 0., 0., 5.62554784e-02, 0., 0., 0.,
          4.17480357e-02, 0., 0., 0., 1.11036301e-01, 0., 1.70976296e-01,
          8.47029313e-02, 6.37339354e-02, 9.89473015e-02, 7.92856216e-02,
          0., 1.16352022e-01, 0., 0., 4.16231677e-02, 3.79455760e-02, 0.,
          0., 0., 7.77409598e-02, 0., 0., 7.71749467e-02 ]
      - [ 1.18132614e-01, 1.06020108e-01, 9.30823982e-02, 2.01609999e-01,
          2.79507786e-01, 1.17968023e-01, 8.89449343e-02, 1.52446970e-01,
          2.20230311e-01, 2.09880546e-01, 1.52762160e-01, 1.23144440e-01,
          2.44509026e-01, 2.45350540e-01, 1.50917187e-01, 3.92464325e-02,
          9.93804857e-02, 1.22720882e-01, 1.44686371e-01, 1.27109542e-01,
          1.80326074e-01, 2.01906160e-01, 2.27289677e-01, 1.06257588e-01,
          1.72546864e-01, 1.48117587e-01, 1.43543601e-01, 1.07733339e-01,
          1.97019100e-01, 2.26139322e-01, 1.23375103e-01, 3.19444239e-02,
          7.86744878e-02, 0., 9.01227966e-02, 7.02765882e-02,
          1.01062983e-01, 0., 0., 0., 0., 0., 0., 0., 1.27703711e-01,
          1.44270331e-01, 9.14115086e-02, 0., 1.15518488e-01,
          1.25841543e-01, 6.20524622e-02, 0., 1.08088642e-01, 0., 0., 0.,
          0., 0., 0., 0., 7.58766457e-02, 0., 8.80879834e-02,
          7.34498650e-02 ]
      - [ 1.30709752e-01, 8.47497135e-02, 7.80521035e-02, 1.38259485e-01,
          1.87282994e-01, 1.09859601e-01, 6.96561709e-02, 2.20385000e-01,
          2.23617911e-01, 2.56448269e-01, 1.97889522e-01, 1.82298258e-01,
          2.92437971e-01, 1.63827181e-01, 9.34638157e-02, 1.10929430e-01,
          1.28420651e-01, 1.43078074e-01, 1.91351444e-01, 1.22437693e-01,
          1.63626552e-01, 1.69780001e-01, 2.63833463e-01, 1.39691919e-01,
          2.46392012e-01, 7.07793310e-02, 1.10815138e-01, 1.50978580e-01,
          9.04250443e-02, 8.76216069e-02, 1.03011183e-01, 1.75249517e-01,
          1.06505901e-01, 7.63359666e-02, 0., 0., 8.91543627e-02, 0., 0.,
          0., 0., 0., 0., 0., 1.13605499e-01, 6.72134906e-02,
          9.07271951e-02, 1.56480849e-01, 7.47457072e-02, 1.05885506e-01,
          1.01767421e-01, 0., 1.12173438e-01, 0., 0., 0., 0., 0., 0., 0.,
          8.71678144e-02, 0., 1.20567106e-01, 0. ]
      - [ 1.84890985e-01, 0., 1.27099723e-01, 7.94881284e-02,
          1.40218243e-01, 6.44442067e-02, 1.14912428e-01, 2.76920706e-01,
          2.61300176e-01, 2.09868923e-01, 1.94612160e-01, 1.57441646e-01,
          1.55736342e-01, 1.84451565e-01, 1.70912996e-01, 2.01166362e-01,
          1.83067605e-01, 1.12162866e-01, 1.43096775e-01, 1.20608032e-01,
          1.42447874e-01, 1.41724318e-01, 2.13472307e-01, 2.39675760e-01,
          2.89001554e-01, 8.49268734e-02, 9.08274129e-02, 1.20224535e-01,
          9.08364803e-02, 1.24555051e-01, 8.99244323e-02, 1.10286526e-01,
          1.40312836e-01, 0., 0., 0., 4.54597212e-02, 0., 0., 0.,
          3.15857939e-02, 0., 0., 2.99316179e-02, 9.62497070e-02,
          5.39126545e-02, 7.69658610e-02, 1.96958691e-01, 1.05286554e-01,
          1.37987733e-01, 0., 0., 1.11459725e-01, 0., 0., 0., 0., 0., 0.,
          0., 8.29977170e-02, 0., 0., 1.21505752e-01 ]
      - [ 1.42378271e-01, 1.24075167e-01, 1.27656937e-01, 1.48021564e-01,
          1.38377249e-01, 1.15201257e-01, 2.20953301e-01, 2.08817989e-01,
          1.33113205e-01, 2.31085598e-01, 2.44254544e-01, 2.31831238e-01,
          2.45408848e-01, 2.21577212e-01, 1.32947192e-01, 0.,
          1.15636662e-01, 1.47501364e-01, 2.42036998e-01, 2.06532061e-01,
          1.00813679e-01, 2.87511468e-01, 1.37045503e-01, 0.,
          2.02543065e-01, 8.04451704e-02, 2.05850676e-01, 1.92535564e-01,
          6.21255264e-02, 0., 0., 0., 8.42325613e-02, 0., 0., 0.,
          2.83766855e-02, 0., 0., 0., 0., 0., 0., 0., 1.30145028e-01,
          9.41817835e-02, 1.33252054e-01, 8.39562118e-02, 7.93517008e-02,
          1.47293091e-01, 8.68517607e-02, 2.35802699e-02, 1.26575768e-01,
          0., 0., 0., 1.89991575e-02, 0., 0., 0., 0., 0., 0., 0. ]
      - [ 1.78454950e-01, 1.22995354e-01, 8.70210081e-02, 1.14927933e-01,
          1.27604514e-01, 1.56477392e-01, 2.17221916e-01, 1.94722354e-01,
          1.50152817e-01, 2.72496253e-01, 1.90243140e-01, 1.76944911e-01,
          2.59113371e-01, 2.05580518e-01, 1.89135373e-01, 1.24492899e-01,
          1.26688853e-01, 1.87945127e-01, 1.97670907e-01, 0.,
          1.83213949e-01, 2.19076231e-01, 1.76465705e-01, 1.66961536e-01,
          1.69051081e-01, 2.00728372e-01, 1.64221913e-01, 0.,
          3.44803371e-02, 0., 0., 6.39993548e-02, 0., 0., 0., 0.,
          1.06408633e-02, 0., 0., 0., 3.60849239e-02, 2.96652038e-02, 0.,
          0., 1.11855671e-01, 4.71625552e-02, 1.16668984e-01,
          2.20884159e-01, 1.80966660e-01, 1.51561648e-01, 0., 0.,
          1.16928510e-01, 0., 0., 0., 0., 0., 0., 0., 2.06059422e-02, 0.,
          0., 0. ]
      - [ 1.61218837e-01, 1.74577877e-01, 2.95188800e-02, 6.32970259e-02,
          2.02883318e-01, 2.09711432e-01, 1.53126419e-01, 1.99499041e-01,
          2.34575868e-01, 2.20564812e-01, 8.15157220e-02, 1.66213244e-01,
          2.16242120e-01, 9.08737332e-02, 8.84353667e-02, 1.65110648e-01,
          1.30392119e-01, 7.03633800e-02, 1.97398335e-01, 5.34164198e-02,
          1.54173151e-01, 1.65098459e-01, 2.13137984e-01, 1.97048217e-01,
          1.89766958e-01, 1.77281812e-01, 1.61816925e-01, 1.44581839e-01,
          1.89901382e-01, 1.74239844e-01, 1.50911018e-01, 5.08925654e-02,
          1.15567692e-01, 1.25405177e-01, 0., 0., 9.70109105e-02, 0., 0.,
          0., 0., 0., 0., 0., 1.16506331e-01, 7.34824017e-02,
          1.69927523e-01, 0., 1.25421762e-01, 1.23262882e-01, 0.,
          6.35054260e-02, 1.08183026e-01, 0., 0., 0., 2.33012661e-02, 0.,
          0., 0., 7.40933046e-02, 0., 9.85326245e-02, 9.00144354e-02 ]
      - [ 3.18363607e-01, 2.12083429e-01, 0., 2.90304907e-02,
          3.55619900e-02, 4.19686362e-02, 6.82811961e-02, 4.91326936e-02,
          3.77177358e-01, 2.39271015e-01, 1.27476066e-01, 1.91712484e-01,
          1.14473194e-01, 0., 1.51757121e-01, 8.08821991e-02,
          1.39700934e-01, 0., 6.86492175e-02, 2.25698754e-01,
          2.37175658e-01, 1.84796333e-01, 1.87278748e-01, 1.65782660e-01,
          2.25069880e-01, 2.30279312e-01, 1.39381111e-01, 1.60340726e-01,
          1.13349147e-01, 1.08670540e-01, 1.07350923e-01, 4.03480232e-02,
          4.58559729e-02, 0., 0., 2.72044130e-02, 2.54122280e-02, 0., 0.,
          0., 0., 0., 0., 4.62669544e-02, 1.01383857e-01, 7.83700198e-02,
          9.78553519e-02, 1.02834582e-01, 1.62415296e-01, 1.00261725e-01,
          0., 0., 1.00316629e-01, 0., 0., 0., 0., 0., 0., 0.,
          8.57074261e-02, 0., 0., 1.91642225e-01 ]
      - [ 4.66942549e-01, 0., 0., 0., 0., 0., 0., 0., 4.92186368e-01,
          6.33691326e-02, 1.44356310e-01, 1.18532516e-01, 0.,
          1.15112163e-01, 1.52605891e-01, 1.22016318e-01, 4.32340622e-01,
          1.64969817e-01, 0., 1.18705757e-01, 0., 1.76938791e-02,
          1.57202363e-01, 1.38575941e-01, 4.16755587e-01, 5.29170409e-03,
          0., 0., 0., 0., 0., 0., 4.28256541e-02, 0., 0., 0., 0., 0., 0.,
          0., 0., 0., 0., 0., 8.89954995e-03, 0., 1.59238856e-02,
          2.03333851e-02, 2.26894896e-02, 9.16550029e-03, 0., 0.,
          6.29293220e-03, 0., 0., 0., 0., 0., 0., 0., 0., 0., 0., 0. ]
      - [ 2.11980462e-01, 3.06800194e-02, 9.58674699e-02, 5.92514202e-02,
          7.75216445e-02, 0., 8.86853263e-02, 2.97199994e-01,
          3.50320697e-01, 1.25025079e-01, 1.44465789e-01, 5.63714169e-02,
          1.16548926e-01, 1.05263628e-01, 1.69964060e-01, 3.80313307e-01,
          2.08203107e-01, 1.15596630e-01, 3.52384597e-02, 1.31651148e-01,
          6.15193248e-02, 1.22189246e-01, 1.26394719e-01, 3.47051799e-01,
          2.30452821e-01, 5.74710220e-02, 3.03631239e-02, 5.35323806e-02,
          9.58469734e-02, 0., 0., 3.75131130e-01, 0., 0., 3.78651842e-02,
          4.15609889e-02, 5.80243692e-02, 2.97290143e-02, 0., 0.,
          6.28196225e-02, 5.41505702e-02, 0., 0., 6.48034215e-02,
          3.19392011e-02, 4.09260318e-02, 0., 5.51529787e-02,
          3.27056311e-02, 0., 0., 6.28177226e-02, 0., 5.44645973e-02,
          4.69091833e-02, 3.85780819e-02, 0., 3.64578813e-02, 0.,
          2.94764079e-02, 0., 0., 0. ]
      - [ 1.24541230e-01, 1.74823627e-01, 4.33527865e-02, 4.78112772e-02,
          2.23118782e-01, 2.24297091e-01, 1.86513171e-01, 1.39745981e-01,
          1.92474410e-01, 2.50189096e-01, 0., 1.49080321e-01,
          2.81913728e-01, 0., 1.61233589e-01, 1.49543926e-01,
          1.25685126e-01, 1.08860910e-01, 1.58027515e-01, 0.,
          1.94994137e-01, 2.13817120e-01, 1.72554195e-01, 1.92401364e-01,
          1.57596543e-01, 1.26181558e-01, 1.23602383e-01, 1.93525523e-01,
          2.06000507e-01, 1.20775647e-01, 1.85322151e-01, 0.,
          8.76003280e-02, 1.47300825e-01, 0., 0., 1.10215396e-01, 0., 0.,
          0., 0., 0., 0., 0., 1.48902074e-01, 8.58099908e-02,
          1.28508493e-01, 5.39172180e-02, 1.20929986e-01, 1.18892394e-01,
          6.40203133e-02, 0., 1.01469964e-01, 0., 0., 0., 0., 0., 0., 0.,
          7.29766861e-02, 0., 0., 1.36703506e-01 ]
      - [ 3.50783467e-01, 1.36889473e-01, 0., 2.87707727e-02,
          6.33698329e-02, 0., 7.22578242e-02, 9.81302559e-02,
          4.05269116e-01, 1.51167884e-01, 1.57160342e-01, 2.09410578e-01,
          1.31602481e-01, 1.23986386e-01, 5.88228032e-02, 1.23441614e-01,
          5.33626452e-02, 4.83300127e-02, 0., 2.69036978e-01,
          2.19692171e-01, 1.66451201e-01, 2.20522612e-01, 1.64684728e-01,
          2.98256338e-01, 1.57401457e-01, 9.19559598e-02, 9.43249315e-02,
          1.08165160e-01, 1.69137672e-01, 0., 1.21208578e-01, 0., 0., 0.,
          0., 4.33520190e-02, 4.30515856e-02, 3.55984457e-02, 0.,
          3.77330892e-02, 5.68808019e-02, 2.95670293e-02, 0.,
          1.07655086e-01, 6.73936158e-02, 9.14281979e-02, 1.41437829e-01,
          3.65835875e-02, 8.02971274e-02, 5.09722047e-02, 8.23053420e-02,
          1.02367304e-01, 0., 0., 0., 0., 0., 0., 0., 1.06991768e-01, 0.,
          8.90873522e-02, 1.18578851e-01 ]
      - [ 1.79921329e-01, 1.89246044e-01, 1.43491939e-01, 2.64285266e-01,
          1.22349396e-01, 1.40621871e-01, 9.77877825e-02, 7.67331868e-02,
          2.96553612e-01, 1.52858675e-01, 1.24693133e-01, 2.38976359e-01,
          3.05755615e-01, 1.36819154e-01, 1.37714803e-01, 0.,
          1.01006322e-01, 2.11586412e-02, 9.36615765e-02, 2.22298533e-01,
          2.09054142e-01, 1.70237437e-01, 1.98158294e-01, 1.50631711e-01,
          1.92042738e-01, 1.52806848e-01, 1.43633261e-01, 1.72310710e-01,
          1.99541315e-01, 1.37170628e-01, 0., 0., 5.12532368e-02, 0.,
          3.13000083e-02, 0., 1.74327493e-02, 0., 0., 0., 0., 0.,
          1.34152295e-02, 3.80200818e-02, 1.28104016e-01, 1.32433683e-01,
          7.23744482e-02, 0., 6.38540164e-02, 6.25319257e-02,
          1.31408766e-01, 0., 1.35314524e-01, 0., 0., 0., 9.76151377e-02,
          3.91756035e-02, 0., 0., 6.34561628e-02, 0., 0., 0. ]
      - [ 1.89119011e-01, 1.49167746e-01, 6.76629245e-02, 3.92486341e-02,
          2.75300175e-01, 1.93237603e-01, 1.65946797e-01, 8.40955153e-02,
          2.14354977e-01, 3.06381017e-01, 1.58939913e-01, 8.57375115e-02,
          3.19419205e-01, 0., 2.63050962e-02, 0., 2.22350046e-01,
          3.58113170e-01, 1.42839223e-01, 4.59142923e-02, 8.86158571e-02,
          3.04402970e-02, 1.07909776e-01, 8.73921812e-02, 2.99453199e-01,
          2.58612007e-01, 3.56953144e-02, 4.30886298e-02, 6.84960186e-02,
          0., 5.55568486e-02, 0., 0., 2.12080434e-01, 0., 0.,
          1.50772780e-01, 0., 0., 0., 1.08810887e-02, 0., 0., 0.,
          1.93348601e-01, 6.80144206e-02, 0., 0., 2.52692122e-02,
          1.76393632e-02, 2.59364136e-02, 0., 4.39146459e-02, 0., 0., 0.,
          4.52929363e-02, 0., 0., 0., 3.52587551e-02, 0., 0.,
          2.38612276e-02 ]
      - [ 1.70805037e-01, 1.45749599e-01, 2.96738688e-02, 3.52747403e-02,
          2.93009490e-01, 1.96408480e-01, 1.69496000e-01, 9.86113250e-02,
          2.99983919e-01, 2.55682707e-01, 9.91622210e-02, 1.41737148e-01,
          3.18346322e-01, 4.02440168e-02, 3.27500887e-02, 0.,
          1.77372411e-01, 3.47841233e-01, 1.14910066e-01, 1.23466887e-01,
          5.57061844e-02, 9.70111191e-02, 8.86433572e-02, 7.01349527e-02,
          2.06543013e-01, 3.26774299e-01, 4.41374630e-02, 1.44363167e-02,
          6.02818765e-02, 3.80999856e-02, 4.16418575e-02, 5.16262315e-02,
          2.41340622e-02, 2.23526508e-01, 0., 0., 1.52524933e-01, 0., 0.,
          0., 0., 0., 0., 0., 1.95541278e-01, 0., 7.55525455e-02, 0.,
          5.71524687e-02, 0., 4.40261215e-02, 0., 3.75278033e-02, 0., 0.,
          0., 0., 0., 1.91472899e-02, 3.08938045e-02, 4.63001318e-02, 0.,
          0., 1.18855201e-02 ]
      - [ 1.56649023e-01, 6.80248961e-02, 1.24070756e-01, 1.42744094e-01,
          1.36785001e-01, 1.13976844e-01, 6.95352107e-02, 2.34044388e-01,
          2.20211625e-01, 2.41699502e-01, 2.30522811e-01, 1.69243217e-01,
          2.07936227e-01, 1.55501902e-01, 1.45973980e-01, 1.05099037e-01,
          1.57043874e-01, 1.51866302e-01, 1.62465408e-01, 1.62393302e-01,
          1.65772557e-01, 1.69713914e-01, 2.12519795e-01, 2.23384559e-01,
          1.62563279e-01, 1.98353425e-01, 1.00923240e-01, 1.35328904e-01,
          1.29351094e-01, 8.76078978e-02, 5.63165471e-02, 1.27372369e-01,
          1.63161308e-01, 0., 0., 0., 9.25673023e-02, 0., 0., 0., 0., 0.,
          0., 0., 1.05490237e-01, 0., 1.37946442e-01, 1.53817639e-01,
          1.67684987e-01, 8.85601640e-02, 7.78489634e-02, 0.,
          9.91832614e-02, 0., 0., 0., 0., 0., 0., 0., 8.30630958e-02, 0.,
          9.80982408e-02, 8.93296599e-02 ]
      - [ 1.77503958e-01, 1.62089318e-01, 1.95291594e-01, 1.38721809e-01,
          1.56085834e-01, 1.47216409e-01, 1.49934158e-01, 1.82057202e-01,
          2.20108926e-01, 2.83742636e-01, 1.83098987e-01, 2.20435113e-01,
          1.91371381e-01, 1.21843003e-01, 1.40471429e-01, 0.,
          1.28137961e-01, 2.11551294e-01, 1.35374948e-01, 1.61280215e-01,
          9.77305695e-02, 9.24166590e-02, 1.00872494e-01, 1.42216846e-01,
          2.33059362e-01, 2.53694206e-01, 6.27622381e-02, 1.49021670e-01,
          1.90420836e-01, 1.02909863e-01, 7.31173754e-02, 5.78123070e-02,
          1.36797190e-01, 1.31529897e-01, 0., 0., 1.03594266e-01, 0., 0.,
          0., 0., 0., 0., 0., 1.02765024e-01, 0., 1.44738778e-01,
          9.80167240e-02, 5.25584631e-02, 7.72216842e-02, 0.,
          8.33661780e-02, 9.80166197e-02, 0., 0., 0., 0., 0., 0., 0.,
          1.73803791e-01, 4.52128164e-02, 0., 3.37086990e-02 ]
      - [ 9.25464556e-02, 1.40459731e-01, 2.41378292e-01, 8.90598819e-02,
          9.02173668e-02, 5.91620319e-02, 0., 1.50371417e-01,
          1.80181429e-01, 2.72216201e-01, 2.46897399e-01, 1.87134311e-01,
          2.29087785e-01, 2.01994315e-01, 1.63464665e-01, 1.11064442e-01,
          1.63042337e-01, 7.74694532e-02, 1.94038764e-01, 1.12914182e-01,
          1.73499003e-01, 2.03357965e-01, 2.47778669e-01, 1.48562148e-01,
          2.52960235e-01, 1.12111479e-01, 1.27820835e-01, 1.36504903e-01,
          6.66595101e-02, 1.39325768e-01, 1.19043782e-01, 1.33960739e-01,
          4.57197912e-02, 1.17479987e-01, 0., 0., 6.99868873e-02, 0., 0.,
          0., 0., 0., 0., 0., 1.21092089e-01, 1.23619333e-01,
          9.48127806e-02, 7.41802603e-02, 5.52942380e-02, 5.56661412e-02,
          1.46004125e-01, 0., 1.35212123e-01, 0., 0., 0., 0., 0., 0., 0.,
          9.29622725e-02, 0., 9.75589305e-02, 4.27299105e-02 ]
      - [ 2.08226100e-01, 3.19800377e-01, 5.79147115e-02, 3.16184945e-02,
          7.31810629e-02, 4.98769581e-02, 0., 6.18638881e-02,
          2.34128579e-01, 3.82101953e-01, 1.35391250e-01, 1.53842017e-01,
          1.73231602e-01, 1.20815858e-01, 1.00715995e-01, 0.,
          1.36338651e-01, 1.60468414e-01, 0., 7.82217756e-02,
          3.05217206e-01, 1.78813696e-01, 1.34001508e-01, 1.76686689e-01,
          2.17375696e-01, 2.15617657e-01, 1.26251295e-01, 6.94685131e-02,
          1.84474498e-01, 1.07857749e-01, 9.25889537e-02, 1.56386793e-01,
          7.41703808e-03, 5.02243713e-02, 3.18493247e-02, 0.,
          2.51524001e-02, 0., 2.89235078e-02, 0., 0., 0., 3.82931903e-02,
          0., 9.81181934e-02, 7.64797032e-02, 8.96322355e-02,
          1.11117631e-01, 1.87576577e-01, 1.24177106e-01, 0., 0.,
          9.52735841e-02, 0., 0., 0., 0., 0., 0., 0., 3.27527523e-02, 0.,
          0., 1.40265763e-01 ]
      - [ 1.25998706e-01, 1.88245565e-01, 2.30198532e-01, 1.27942756e-01,
          9.69814211e-02, 2.71211807e-02, 5.82406186e-02, 1.22328669e-01,
          2.40110636e-01, 2.52654135e-01, 1.78788841e-01, 1.86575383e-01,
          2.59927690e-01, 1.88542843e-01, 1.24853171e-01, 1.48252338e-01,
          1.66851535e-01, 1.10041484e-01, 1.48526892e-01, 1.53458714e-01,
          1.63864344e-01, 1.67502850e-01, 2.48567417e-01, 3.05312634e-01,
          1.12918504e-01, 1.40012160e-01, 1.14907175e-01, 1.03867069e-01,
          1.45245522e-01, 1.21896885e-01, 1.44345105e-01, 1.34823784e-01,
          0., 0., 0., 0., 3.97838727e-02, 3.52340601e-02, 0., 0.,
          2.96074916e-02, 0., 2.11894698e-02, 0., 1.24445423e-01,
          1.15015730e-01, 1.01134054e-01, 3.12867686e-02, 6.36144057e-02,
          7.10661709e-02, 1.26224712e-01, 0., 1.27059504e-01, 0., 0., 0.,
          2.46283785e-02, 0., 0., 0., 6.28069788e-02, 0., 2.59177051e-02,
          6.80961087e-02 ]
      - [ 1.42848462e-01, 1.56646997e-01, 9.18730721e-02, 1.30930230e-01,
          6.34878427e-02, 1.21202834e-01, 1.88538045e-01, 2.65177876e-01,
          2.61872351e-01, 2.06376210e-01, 1.96616352e-01, 1.99563950e-01,
          2.41253391e-01, 1.64351091e-01, 1.39349326e-01, 8.85371938e-02,
          1.12514012e-01, 1.59794539e-01, 2.95946479e-01, 1.32423237e-01,
          6.41893893e-02, 2.57835329e-01, 1.07134447e-01, 9.81797650e-02,
          2.10430726e-01, 1.46748841e-01, 1.85077593e-01, 1.15340836e-01,
          1.37316108e-01, 1.71481241e-02, 0., 0., 1.14862651e-01, 0., 0.,
          0., 4.66858335e-02, 0., 0., 0., 0., 0., 0., 0., 1.32948831e-01,
          0., 1.70018643e-01, 1.18298493e-01, 1.34756818e-01,
          1.22099668e-01, 0., 6.52778894e-02, 1.23519100e-01,
          4.84101549e-02, 0., 0., 6.41935393e-02, 0., 0., 0.,
          1.44568179e-02, 0., 0., 0. ]
      - [ 1.74801067e-01, 1.66152775e-01, 9.24503058e-02, 1.29781380e-01,
          7.61132166e-02, 1.36014044e-01, 2.30247051e-01, 2.39325777e-01,
          1.96782306e-01, 2.66290963e-01, 2.17660740e-01, 1.24176688e-01,
          2.25730538e-01, 2.28160739e-01, 1.13485016e-01, 9.53946114e-02,
          1.48192406e-01, 2.17786804e-01, 1.76809609e-01, 1.90324768e-01,
          7.09517002e-02, 2.10218266e-01, 1.11530140e-01, 1.66986033e-01,
          2.21432343e-01, 1.11023709e-01, 1.83762714e-01, 1.72764719e-01,
          4.60357182e-02, 0., 0., 0., 1.57633066e-01, 0., 0., 0.,
          5.59551790e-02, 0., 0., 0., 1.31887626e-02, 0., 0., 0.,
          1.29559040e-01, 1.29481122e-01, 8.80219489e-02, 7.38029331e-02,
          1.33039638e-01, 1.49350375e-01, 3.92452329e-02, 0.,
          1.12556130e-01, 0., 0., 0., 2.63775252e-02, 2.37254128e-02, 0.,
          0., 2.34695747e-02, 0., 0., 0. ]
      - [ 1.37245506e-01, 2.21074834e-01, 0., 1.18694410e-01,
          1.96544051e-01, 1.83671504e-01, 1.48798794e-01, 1.97229162e-01,
          2.63597786e-01, 1.61192566e-01, 8.09655860e-02, 2.31265381e-01,
          1.86342672e-01, 1.67712644e-01, 1.38648361e-01, 1.59973249e-01,
          1.23200580e-01, 0., 1.54471233e-01, 1.21592879e-01,
          1.19965613e-01, 2.34452292e-01, 1.67283744e-01, 1.83847651e-01,
          2.13062420e-01, 1.91916928e-01, 1.47367686e-01, 1.46303058e-01,
          1.60449773e-01, 1.79498732e-01, 7.92271495e-02, 0.,
          5.57148121e-02, 1.12952150e-01, 0., 0., 6.75021186e-02, 0., 0.,
          0., 0., 0., 0., 0., 1.11812323e-01, 0., 1.78038523e-01,
          7.45053738e-02, 9.53165665e-02, 1.59620136e-01, 0., 0.,
          1.26510203e-01, 0., 0., 0., 0., 0., 0., 0., 7.84303769e-02, 0.,
          0., 1.42042026e-01 ]
      - [ 1.63535371e-01, 1.08241133e-01, 1.43184647e-01, 3.03812802e-01,
          1.30781531e-01, 1.01978809e-01, 1.47156253e-01, 1.39294833e-01,
          2.59766877e-01, 1.14910521e-01, 1.82147667e-01, 2.31008351e-01,
          2.93509513e-01, 1.64616600e-01, 1.29903167e-01, 8.84164721e-02,
          9.75512341e-02, 4.12765369e-02, 1.18883453e-01, 2.04210803e-01,
          1.89124420e-01, 8.98870751e-02, 2.25309685e-01, 1.72848523e-01,
          1.98733270e-01, 1.52335659e-01, 1.50536180e-01, 1.48122594e-01,
          1.82047904e-01, 1.90791890e-01, 0., 2.49559861e-02,
          3.25170793e-02, 3.36977802e-02, 0., 0., 4.01399545e-02, 0., 0.,
          0., 0., 0., 0., 0., 1.35193303e-01, 1.27166331e-01,
          7.76258856e-02, 1.02668010e-01, 8.46550539e-02, 7.01886266e-02,
          1.30747333e-01, 0., 1.35193303e-01, 2.90165562e-02, 0.,
          3.75624448e-02, 0., 0., 0., 0., 3.82120982e-02, 0., 0., 0. ]
      - [ 1.46811828e-01, 1.67636693e-01, 1.39429361e-01, 2.71132886e-01,
          6.61498457e-02, 1.25306353e-01, 1.50103107e-01, 1.04346089e-01,
          2.84595311e-01, 2.23854989e-01, 8.58063549e-02, 1.86390609e-01,
          2.77832866e-01, 1.92994133e-01, 8.17743689e-02, 1.33506134e-01,
          9.10381377e-02, 4.93491814e-02, 1.11335263e-01, 1.84124708e-01,
          1.30890146e-01, 1.79256186e-01, 1.92194447e-01, 2.04088807e-01,
          2.28745490e-01, 1.45916730e-01, 1.38693079e-01, 1.11779369e-01,
          1.85213074e-01, 1.90998912e-01, 6.30790964e-02, 4.01761457e-02,
          7.97670037e-02, 5.41573912e-02, 0., 0., 3.95582654e-02, 0., 0.,
          0., 0., 0., 0., 0., 1.25556678e-01, 9.21709165e-02,
          1.44191086e-01, 7.59210512e-02, 7.14161918e-02, 1.62564024e-01,
          0., 0., 1.35331497e-01, 0., 0., 0., 0., 0., 0., 0.,
          7.18208179e-02, 0., 7.21483901e-02, 5.70377372e-02 ]
      - [ 7.62683749e-02, 2.11933911e-01, 1.61136225e-01, 1.61054164e-01,
          1.36266664e-01, 1.39223516e-01, 1.46332547e-01, 1.69142887e-01,
          2.25728840e-01, 2.19647586e-01, 3.12760174e-01, 1.86964855e-01,
          1.77256554e-01, 1.41647682e-01, 0., 3.11235357e-02,
          1.69603422e-01, 0., 2.90636808e-01, 3.64871994e-02,
          1.81891277e-01, 8.78088549e-02, 1.17003039e-01, 9.84243974e-02,
          1.77651614e-01, 2.66477168e-01, 1.68071210e-01, 0.,
          2.42611393e-01, 1.09658271e-01, 9.60182175e-02, 7.66374171e-02,
          6.73111305e-02, 1.37962699e-01, 0., 0., 1.20418757e-01, 0., 0.,
          0., 0., 0., 0., 0., 1.31641552e-01, 8.69098976e-02,
          1.38574123e-01, 7.43236020e-02, 1.16301507e-01, 0.,
          9.31843296e-02, 0., 5.74826300e-02, 0., 0., 1.55135142e-02, 0.,
          0., 0., 3.13643925e-02, 7.08223656e-02, 6.10267147e-02,
          7.92216063e-02, 0. ]
      - [ 3.53948250e-02, 3.57844569e-02, 2.98400998e-01, 1.38629705e-01,
          8.64907950e-02, 0., 2.64552776e-02, 7.90187195e-02,
          2.46513799e-01, 2.21523106e-01, 2.82028437e-01, 1.36383697e-01,
          2.63113379e-01, 2.34903902e-01, 1.01119228e-01, 1.38185263e-01,
          1.97396755e-01, 7.34626204e-02, 1.88112095e-01, 1.30178586e-01,
          2.16773584e-01, 1.82169542e-01, 2.20209956e-01, 2.26792946e-01,
          1.59603760e-01, 1.14212722e-01, 1.54172674e-01, 1.55956060e-01,
          1.01844855e-01, 8.12025964e-02, 7.98749104e-02, 1.03195950e-01,
          3.09257600e-02, 7.24519864e-02, 6.03492036e-02, 2.07860209e-02,
          6.89542443e-02, 0., 0., 0., 0., 0., 0., 0., 1.21248811e-01,
          1.45456523e-01, 5.56798242e-02, 6.77083805e-02, 6.05116151e-02,
          1.28240675e-01, 9.01792869e-02, 0., 1.37412220e-01, 0., 0.,
          2.36997101e-02, 0., 0., 0., 0., 7.66831189e-02, 0.,
          5.93643561e-02, 0. ]
      - [ 1.25219837e-01, 2.36382276e-01, 3.05510052e-02, 1.14766724e-01,
          2.37250179e-01, 1.91323295e-01, 1.13002859e-01, 1.88707307e-01,
          2.96495825e-01, 2.32015640e-01, 1.14599295e-01, 2.14251846e-01,
          2.25167617e-01, 1.23528861e-01, 0., 5.93316182e-02,
          1.82834774e-01, 3.58829379e-01, 1.36436820e-01, 3.57363820e-02,
          4.44541015e-02, 5.42490222e-02, 9.60895196e-02, 1.16592661e-01,
          2.98131377e-01, 2.41253674e-01, 0., 5.33663593e-02,
          6.81740865e-02, 0., 7.69835785e-02, 3.56321298e-02,
          2.81152427e-02, 2.21126005e-01, 0., 0., 1.52306154e-01, 0., 0.,
          0., 0., 0., 0., 0., 2.05704391e-01, 7.15189278e-02, 0., 0.,
          2.40343269e-02, 0., 2.06964239e-02, 3.41096707e-02,
          5.28972708e-02, 0., 0., 0., 0., 0., 0., 0., 3.85969691e-02,
          2.91626025e-02, 0., 5.98665513e-02 ]
      - [ 1.48906559e-01, 9.09164101e-02, 1.25865445e-01, 7.80575722e-02,
          1.51953682e-01, 8.63230079e-02, 1.60080388e-01, 3.01032990e-01,
          1.85296938e-01, 2.41270006e-01, 1.68803960e-01, 1.53766707e-01,
          1.56016156e-01, 1.10098504e-01, 2.33833224e-01, 2.25682035e-01,
          1.55985042e-01, 1.40284061e-01, 1.10260598e-01, 1.09597154e-01,
          1.23513751e-01, 1.74768835e-01, 2.27357000e-01, 2.05667853e-01,
          2.91979134e-01, 1.19939588e-01, 9.33584794e-02, 1.05297089e-01,
          1.30573645e-01, 6.90136999e-02, 1.24352343e-01, 1.29525959e-01,
          1.32115066e-01, 0., 0., 0., 3.44634168e-02, 0., 0., 0.,
          6.03117943e-02, 0., 0., 0., 9.62180644e-02, 0., 6.82640299e-02,
          1.91599801e-01, 8.12947303e-02, 1.36233345e-01, 0., 0.,
          1.09906495e-01, 0., 0., 0., 0., 0., 0., 0., 8.99258181e-02, 0.,
          0., 1.19888619e-01 ]
      - [ 2.40489021e-01, 1.42425463e-01, 1.14434235e-01, 7.07726181e-02,
          1.44547716e-01, 1.40618384e-01, 0., 3.05704296e-01,
          2.83733547e-01, 1.69088468e-01, 1.68022469e-01, 1.47135690e-01,
          1.76141411e-01, 1.76640168e-01, 7.74702057e-02, 1.24393739e-01,
          2.08212391e-01, 7.58592486e-02, 1.21596791e-01, 0.,
          1.35314688e-01, 1.86693355e-01, 8.47564116e-02, 2.36179873e-01,
          3.25584173e-01, 1.18520007e-01, 1.24697663e-01, 0.,
          1.22924492e-01, 1.32791728e-01, 1.34234115e-01, 1.41188055e-01,
          0., 0., 0., 0., 6.26817765e-03, 0., 0., 0., 2.65936255e-02, 0.,
          0., 2.35610697e-02, 1.03756800e-01, 6.27320558e-02,
          8.81456956e-02, 2.23986045e-01, 1.63867295e-01, 1.21779077e-01,
          0., 0., 1.01362459e-01, 0., 0., 0., 0., 0., 0., 0.,
          1.65840387e-02, 0., 0., 1.20332465e-01 ]
      - [ 1.72911063e-01, 1.23675145e-01, 1.15945719e-01, 1.20861560e-01,
          1.31934762e-01, 1.19671255e-01, 1.41055688e-01, 3.55522335e-01,
          1.72206104e-01, 1.68208048e-01, 1.85729191e-01, 1.64196074e-01,
          2.06086203e-01, 1.39414936e-01, 1.34293079e-01, 2.19223112e-01,
          1.42277285e-01, 7.72874206e-02, 1.01682536e-01, 1.03992961e-01,
          1.32673934e-01, 2.03843057e-01, 1.20037273e-01, 3.32494408e-01,
          1.80577710e-01, 1.21034607e-01, 1.42803252e-01, 1.36755034e-01,
          1.10256568e-01, 1.17165886e-01, 1.26102671e-01, 1.98926434e-01,
          0., 0., 0., 0., 0., 0., 0., 0., 7.57175591e-03, 0., 0., 0.,
          1.29164487e-01, 6.30102456e-02, 1.40062794e-01, 1.23880915e-01,
          1.03327453e-01, 9.85289887e-02, 1.01236507e-01, 0.,
          1.25791460e-01, 0., 0., 0., 0., 0., 0., 0., 0., 0., 0., 0. ]
      - [ 1.95295408e-01, 1.31685495e-01, 7.15295449e-02, 1.09165721e-01,
          9.31034088e-02, 1.15522854e-01, 1.05631687e-01, 2.49204159e-01,
          3.01354468e-01, 2.29020968e-01, 1.81517154e-01, 1.34338140e-01,
          1.45311221e-01, 1.92721829e-01, 1.48554355e-01, 7.44473115e-02,
          1.91935346e-01, 9.38417912e-02, 2.11235628e-01, 4.90816757e-02,
          1.33758917e-01, 1.73098341e-01, 2.15786025e-01, 2.24612430e-01,
          2.32703567e-01, 1.77189007e-01, 8.31966549e-02, 8.12790245e-02,
          1.20894052e-01, 1.29957378e-01, 7.61112720e-02, 1.11422867e-01,
          1.72415599e-01, 0., 0., 0., 8.64644349e-02, 0., 0., 0., 0., 0.,
          0., 0., 1.00630455e-01, 5.29199690e-02, 1.21335320e-01,
          1.66125000e-01, 1.68428525e-01, 8.61262530e-02, 6.63716048e-02,
          0., 8.64644349e-02, 0., 0., 0., 0., 0., 0., 0., 7.21163228e-02,
          0., 0., 1.42944664e-01 ]
      - [ 2.75258541e-01, 2.47127518e-01, 0., 3.07655819e-02,
          7.43956268e-02, 3.28108743e-02, 0., 3.42368484e-02,
          1.35468960e-01, 4.04162169e-01, 1.61175236e-01, 1.40264601e-01,
          2.08026081e-01, 6.43743500e-02, 1.04981050e-01, 9.11610499e-02,
          7.64896050e-02, 0., 1.30194902e-01, 0., 3.31160426e-01,
          2.24376604e-01, 2.14129880e-01, 1.22888982e-01, 2.01889813e-01,
          1.81842163e-01, 1.11685708e-01, 1.45745829e-01, 1.65248707e-01,
          1.19421795e-01, 1.35429859e-01, 1.39787659e-01, 9.96858627e-02,
          0., 0., 0., 4.97018956e-02, 0., 0., 0., 0., 1.66073088e-02, 0.,
          0., 1.18222572e-01, 1.06820010e-01, 9.17600021e-02,
          7.37101361e-02, 7.45528415e-02, 1.61606699e-01, 0., 0.,
          1.08771935e-01, 0., 0., 0., 0., 0., 0., 0., 6.76979795e-02, 0.,
          0., 1.71924919e-01 ]
      - [ 1.19399004e-01, 8.44221190e-02, 1.61615774e-01, 2.40342557e-01,
          8.09191316e-02, 2.26446446e-02, 5.62097169e-02, 6.21569715e-02,
          2.24116057e-01, 1.94942191e-01, 2.72520453e-01, 2.12172046e-01,
          2.43322849e-01, 2.23514497e-01, 9.05016735e-02, 7.94838294e-02,
          1.63205892e-01, 9.47798342e-02, 1.55826688e-01, 1.82925358e-01,
          1.66572526e-01, 2.16396928e-01, 2.33937293e-01, 2.01657444e-01,
          1.59307197e-01, 1.62540779e-01, 1.15494594e-01, 1.48505196e-01,
          1.09838098e-01, 0., 1.77359372e-01, 1.20865948e-01,
          8.46192688e-02, 0., 1.05915345e-01, 3.94082703e-02,
          8.86465162e-02, 0., 0., 0., 0., 0., 0., 0., 1.17277049e-01,
          9.94310305e-02, 1.26438349e-01, 0., 1.62672445e-01,
          9.28796232e-02, 7.68004358e-02, 0., 9.74439830e-02, 0., 0., 0.,
          0., 0., 0., 0., 7.13279992e-02, 0., 9.71055925e-02,
          9.16211531e-02 ]
      - [ 2.28805557e-01, 1.38677806e-01, 7.15760514e-02, 1.14431798e-01,
          2.60706931e-01, 1.88832670e-01, 1.41254500e-01, 1.37324840e-01,
          2.87359327e-01, 2.44120792e-01, 4.78462540e-02, 1.89258441e-01,
          2.95142770e-01, 5.56661673e-02, 3.91497761e-02, 5.32083996e-02,
          2.88811028e-01, 2.86591053e-01, 9.39934105e-02, 5.78097142e-02,
          7.27844164e-02, 1.01016611e-01, 4.45684046e-03, 1.22452550e-01,
          3.13766718e-01, 2.25688487e-01, 5.50950393e-02, 8.40950385e-02,
          4.63844016e-02, 6.27155900e-02, 5.08349352e-02, 4.25309464e-02,
          1.75853163e-01, 1.12037763e-01, 0., 5.29970899e-02,
          1.19575858e-01, 0., 0., 0., 2.18528993e-02, 0., 0., 0.,
          1.45763651e-01, 8.94329697e-02, 0., 8.83309618e-02, 0., 0., 0.,
          0., 8.72911364e-02, 0., 0., 4.87061404e-02, 1.67604089e-02, 0.,
          0., 5.43051735e-02, 5.80597594e-02, 0., 0., 0. ]
      - [ 3.15672934e-01, 2.61295252e-02, 3.74577232e-02, 1.78833827e-01,
          2.29431093e-01, 9.33872014e-02, 1.91326797e-01, 1.43415511e-01,
          3.06261182e-01, 1.71900451e-01, 1.39885530e-01, 2.71225274e-01,
          2.21567750e-01, 2.94369198e-02, 5.68674989e-02, 5.04511595e-02,
          3.84014934e-01, 1.05547987e-01, 4.80221100e-02, 1.00123502e-01,
          7.45159611e-02, 7.41705373e-02, 1.09038226e-01, 1.13181286e-01,
          3.46985251e-01, 1.51978225e-01, 4.58674133e-02, 8.53255317e-02,
          6.47153258e-02, 3.25759873e-02, 5.54792397e-02, 4.05858681e-02,
          2.16338590e-01, 8.57824087e-02, 0., 0., 9.69685540e-02, 0., 0.,
          0., 0., 0., 0., 0., 8.01917613e-02, 9.24504697e-02,
          1.04109436e-01, 0., 2.98605822e-02, 0., 0., 3.67723629e-02,
          7.48745352e-02, 0., 0., 0., 0., 0., 0., 1.42512647e-02,
          6.75747767e-02, 4.33915518e-02, 4.58788276e-02, 0. ]
      - [ 9.65535417e-02, 1.20161690e-01, 6.76619411e-02, 1.70654252e-01,
          1.41104013e-01, 7.69945458e-02, 2.67634124e-01, 1.91317946e-01,
          1.41752332e-01, 2.35702395e-01, 2.66913563e-01, 1.66771218e-01,
          2.58140236e-01, 1.69212744e-01, 1.43209651e-01, 1.19515724e-01,
          1.40744954e-01, 2.08334818e-01, 2.71113515e-01, 9.32358205e-02,
          8.56760815e-02, 1.95653364e-01, 2.08394170e-01, 1.05198473e-01,
          2.15672806e-01, 1.22906372e-01, 2.46964246e-01, 1.24866247e-01,
          8.10850263e-02, 0., 0., 0., 7.32922330e-02, 0., 0., 0.,
          3.73726562e-02, 0., 0., 0., 0., 0., 0., 0., 1.25724822e-01,
          9.26452652e-02, 1.20021097e-01, 1.07148908e-01, 8.13576579e-02,
          1.52567983e-01, 7.19478801e-02, 3.35979350e-02, 1.29199266e-01,
          0., 0., 0., 3.24969701e-02, 3.67281064e-02, 0., 0.,
          3.24969701e-02, 0., 0., 0. ]
      - [ 2.74106503e-01, 2.77583718e-01, 4.29170839e-02, 0.,
          4.44856919e-02, 0., 3.06987427e-02, 3.19505259e-02,
          2.79964566e-01, 3.51092875e-01, 1.75912887e-01, 0.,
          1.75905347e-01, 1.25614449e-01, 1.25519603e-01, 2.81134192e-02,
          1.09301932e-01, 1.35952473e-01, 0., 0., 3.42246145e-01,
          1.33544534e-01, 1.70275763e-01, 1.70621380e-01, 1.90863490e-01,
          2.25785419e-01, 1.50637969e-01, 4.26775366e-02, 1.63872138e-01,
          1.30923659e-01, 1.08019210e-01, 1.41603500e-01, 5.55141233e-02,
          4.82292473e-02, 0., 0., 4.74349000e-02, 0., 0., 0., 0., 0., 0.,
          0., 1.05555251e-01, 8.66559073e-02, 1.01214975e-01,
          1.10494047e-01, 1.55164748e-01, 9.65332687e-02, 0., 0.,
          9.81009305e-02, 0., 0., 0., 0., 0., 0., 0., 6.52392209e-02, 0.,
          0., 1.97470292e-01 ]
      - [ 2.93876648e-01, 9.80133563e-02, 8.49408209e-02, 1.11258633e-01,
          1.02504082e-01, 1.34395123e-01, 1.04533635e-01, 1.50305048e-01,
          4.13875878e-01, 1.55894622e-01, 2.01318905e-01, 1.02163896e-01,
          1.13214955e-01, 1.57112107e-01, 7.37432986e-02, 9.05544534e-02,
          2.30562970e-01, 1.47433937e-01, 8.00022706e-02, 6.60017505e-02,
          5.76502904e-02, 3.99397388e-02, 1.83916077e-01, 2.45336846e-01,
          3.23776484e-01, 1.10808790e-01, 1.11351937e-01, 1.25859216e-01,
          8.32970664e-02, 1.03769667e-01, 1.31038353e-01, 1.41799092e-01,
          9.73648801e-02, 0., 0., 0., 4.63580228e-02, 0., 0., 0., 0., 0.,
          0., 0., 1.23160101e-01, 0., 1.61936089e-01, 1.31881714e-01,
          1.91589236e-01, 1.27953202e-01, 6.19490482e-02, 0.,
          1.11331105e-01, 0., 0., 0., 0., 0., 0., 0., 0., 0., 0., 0. ]
      - [ 4.66853052e-01, 0., 0., 0., 0., 0., 0., 0., 4.91986930e-01,
          6.24852441e-02, 1.44173697e-01, 1.18102230e-01, 0.,
          1.46509141e-01, 1.23228520e-01, 1.23661175e-01, 4.32782084e-01,
          1.61648318e-01, 0., 1.18651845e-01, 0., 1.25423640e-01,
          9.85268578e-02, 1.34820908e-01, 4.17989850e-01, 5.29452506e-03,
          0., 0., 0., 0., 0., 0., 4.57849577e-02, 0., 0., 0., 0., 0., 0.,
          0., 0., 0., 0., 0., 8.90429411e-03, 0., 1.67844594e-02,
          2.12603472e-02, 2.27015857e-02, 9.17038601e-03, 0., 0.,
          6.29628683e-03, 0., 0., 0., 0., 0., 0., 0., 0., 0., 0., 0. ]
      - [ 2.18782023e-01, 2.33195424e-01, 1.06460713e-01, 1.13747142e-01,
          1.65916979e-01, 1.66032001e-01, 2.06668541e-01, 1.83265969e-01,
          2.26218134e-01, 2.01655880e-01, 2.40109488e-01, 2.28133217e-01,
          1.64385691e-01, 1.43135086e-01, 1.57956138e-01, 3.10491901e-02,
          1.15740538e-01, 2.42562145e-01, 4.28823456e-02, 1.59797400e-01,
          8.60808641e-02, 9.54909325e-02, 3.79835330e-02, 8.81913528e-02,
          3.03372413e-01, 2.07218349e-01, 4.46729250e-02, 1.34857982e-01,
          1.37451962e-01, 1.10869668e-01, 1.19251862e-01, 8.33893567e-02,
          1.66502178e-01, 8.17927569e-02, 0., 0., 9.32957977e-02, 0., 0.,
          0., 4.11313027e-02, 3.17035243e-02, 0., 0., 7.81353563e-02, 0.,
          1.30841479e-01, 9.39122513e-02, 4.63437475e-02, 5.72552755e-02,
          0., 8.32600966e-02, 9.10345539e-02, 0., 0., 0., 0.,
          3.43356170e-02, 0., 1.22249752e-01, 1.33785591e-01,
          4.15806808e-02, 0., 0. ]
      - [ 1.56472012e-01, 1.28961399e-01, 1.00449950e-01, 1.45145014e-01,
          4.91851456e-02, 1.19222246e-01, 9.90951359e-02, 3.51620764e-01,
          2.91125298e-01, 1.44679502e-01, 1.57382175e-01, 6.24799542e-02,
          2.06047654e-01, 1.20243102e-01, 8.51913393e-02, 2.44755805e-01,
          2.27008551e-01, 8.61998498e-02, 7.03600943e-02, 6.05409443e-02,
          8.10998529e-02, 1.00768782e-01, 2.12540299e-01, 2.51059353e-01,
          2.89513767e-01, 1.46942541e-01, 1.22518852e-01, 1.19022422e-01,
          3.60216536e-02, 1.27906203e-01, 1.29523978e-01, 1.01268813e-01,
          1.04863085e-02, 0., 0., 0., 0., 0., 0., 0., 0., 0., 0., 0.,
          1.02100246e-01, 3.61541510e-02, 1.39858976e-01, 2.07030818e-01,
          1.45419806e-01, 1.28106639e-01, 0., 0., 1.07042558e-01, 0., 0.,
          0., 0., 0., 0., 0., 3.18065472e-02, 0., 0., 1.52047232e-01 ]
      - [ 2.63992339e-01, 0., 4.20839787e-02, 9.57419127e-02,
          9.81544331e-02, 4.62743901e-02, 8.97930264e-02, 2.93256074e-01,
          3.34102213e-01, 9.94958431e-02, 1.79195508e-01, 4.05595079e-02,
          1.64000496e-01, 1.00265399e-01, 1.51368633e-01, 3.52014303e-01,
          3.34396690e-01, 1.16673581e-01, 1.15526028e-01, 3.24403495e-02,
          1.56503484e-01, 1.15215674e-01, 1.14141822e-01, 2.73669481e-01,
          2.87633777e-01, 5.82872555e-02, 7.02429786e-02, 5.96345179e-02,
          1.07942559e-01, 3.05773579e-02, 0., 2.34665841e-01, 0., 0., 0.,
          0., 9.99278054e-02, 6.74653426e-02, 3.44442539e-02, 0.,
          5.64769693e-02, 0., 0., 5.09455614e-02, 8.63717273e-02, 0., 0.,
          0., 2.86086481e-02, 0., 0., 4.30579297e-02, 9.11144465e-02,
          2.67554764e-02, 0., 0., 0., 0., 0., 0., 6.18225150e-02,
          4.08112779e-02, 0., 2.30479501e-02 ]
      - [ 1.75031781e-01, 1.69651255e-01, 1.65159971e-01, 1.54658973e-01,
          5.32078966e-02, 1.23588264e-01, 2.17520505e-01, 2.12743014e-01,
          1.90855056e-01, 2.46789515e-01, 2.44153097e-01, 1.69527233e-01,
          2.04421267e-01, 1.10913567e-01, 1.06659226e-01, 5.83909713e-02,
          1.34224489e-01, 1.32654205e-01, 2.16115192e-01, 1.74249560e-01,
          1.58374861e-01, 4.71818782e-02, 1.02234967e-01, 8.47072154e-02,
          2.20812231e-01, 2.73947030e-01, 1.02225326e-01, 1.69265658e-01,
          1.92713425e-01, 1.14090875e-01, 1.01851627e-01, 0.,
          9.55245569e-02, 1.33905381e-01, 0., 0., 1.13216087e-01, 0., 0.,
          0., 0., 0., 0., 0., 1.15843713e-01, 0., 1.65530398e-01,
          1.14776216e-01, 1.05001323e-01, 7.58446306e-02, 4.68537956e-02,
          0., 5.04111536e-02, 0., 0., 0., 0., 2.30950061e-02, 0., 0.,
          1.03656784e-01, 1.24011889e-01, 3.25140879e-02, 0. ]
      - [ 1.54742703e-01, 1.55227676e-01, 2.60439128e-01, 1.45123556e-01,
          9.79162827e-02, 0., 4.48549986e-02, 1.31591514e-01,
          2.51086354e-01, 2.49180093e-01, 1.93113446e-01, 1.81434125e-01,
          2.41135761e-01, 2.25498378e-01, 1.10539846e-01, 1.11961044e-01,
          1.43393189e-01, 9.80418548e-02, 1.11744970e-01, 2.09408164e-01,
          1.60249248e-01, 1.51815236e-01, 1.98127151e-01, 3.30859810e-01,
          1.16191640e-01, 1.19016990e-01, 1.29825130e-01, 1.30720869e-01,
          1.30635291e-01, 9.49869901e-02, 1.11134738e-01, 1.61175102e-01,
          6.55345395e-02, 4.98894490e-02, 0., 0., 5.21358289e-02, 0., 0.,
          0., 3.62789743e-02, 0., 3.68714705e-02, 0., 1.09760724e-01,
          9.99587402e-02, 9.40485895e-02, 4.65997718e-02, 1.03999585e-01,
          9.02911872e-02, 8.77677575e-02, 0., 1.12071730e-01, 0., 0., 0.,
          0., 0., 0., 0., 6.99704587e-02, 0., 7.55568668e-02, 0. ]
      - [ 9.47543681e-02, 1.29326448e-01, 1.16056152e-01, 1.65543512e-01,
          2.80185699e-01, 1.39946461e-01, 1.16037339e-01, 1.31725922e-01,
          2.40809694e-01, 2.06357688e-01, 9.51702297e-02, 1.98072582e-01,
          2.51880586e-01, 2.32187510e-01, 7.95181394e-02, 1.15249477e-01,
          1.17488123e-01, 4.69192266e-02, 1.68037921e-01, 1.34643331e-01,
          1.49716079e-01, 1.79545313e-01, 2.26882070e-01, 1.48854882e-01,
          1.90572441e-01, 1.37358561e-01, 1.69103712e-01, 1.44559100e-01,
          1.85539111e-01, 1.50984243e-01, 1.68905377e-01, 2.27095410e-02,
          8.86792094e-02, 0., 8.10152739e-02, 5.62562458e-02,
          9.14095566e-02, 0., 0., 0., 0., 0., 0., 0., 1.28715813e-01,
          1.34513572e-01, 1.22211441e-01, 1.69793423e-02, 1.12490699e-01,
          1.25834092e-01, 7.08515719e-02, 0., 1.12327002e-01, 0., 0., 0.,
          0., 0., 0., 0., 5.89200184e-02, 0., 0., 1.07996851e-01 ]
      - [ 1.50201246e-01, 2.09867269e-01, 1.60825476e-01, 1.19396679e-01,
          1.70315012e-01, 1.55056447e-01, 1.48666367e-01, 2.01028943e-01,
          2.16912434e-01, 2.86999911e-01, 1.97896078e-01, 1.75277129e-01,
          1.90614671e-01, 2.14375317e-01, 0., 4.56396714e-02,
          6.12083338e-02, 2.61256516e-01, 0., 1.22085527e-01,
          7.84202106e-03, 8.05273131e-02, 1.01972431e-01, 1.43074602e-01,
          2.51432776e-01, 2.81293690e-01, 3.03551294e-02, 1.11675672e-01,
          1.91872984e-01, 1.80793423e-02, 1.28409281e-01, 1.26114026e-01,
          7.33191371e-02, 1.55453175e-01, 0., 0., 1.23247035e-01, 0., 0.,
          0., 4.70521264e-02, 0., 4.85751554e-02, 0., 1.41294718e-01,
          8.43701884e-02, 8.46879706e-02, 7.64147118e-02, 4.60614450e-02,
          8.48526135e-02, 5.94155453e-02, 0., 7.33553916e-02, 0., 0., 0.,
          0., 0., 0., 0., 1.82098016e-01, 6.03876263e-02, 0., 0. ]
      - [ 1.22642010e-01, 6.41984046e-02, 1.47366628e-01, 2.31445715e-01,
          2.63677984e-01, 7.57073313e-02, 1.07213810e-01, 1.59168988e-01,
          2.60262609e-01, 1.60486326e-01, 1.26460195e-01, 1.30982652e-01,
          3.04034352e-01, 2.11307168e-01, 1.26450434e-01, 3.70046906e-02,
          1.01648711e-01, 8.53857920e-02, 1.46535113e-01, 1.14250340e-01,
          2.02738121e-01, 1.66409850e-01, 2.15198502e-01, 1.80408686e-01,
          1.77514166e-01, 1.36363372e-01, 1.77951649e-01, 7.05480203e-02,
          1.88171417e-01, 1.85799763e-01, 1.64139628e-01, 5.03139235e-02,
          0., 7.20165372e-02, 8.17306489e-02, 0., 7.47473389e-02, 0., 0.,
          0., 1.60695445e-02, 0., 0., 4.72573526e-02, 1.36412844e-01,
          7.28914663e-02, 1.41892821e-01, 0., 1.29647166e-01,
          1.43548802e-01, 0., 0., 1.15065940e-01, 0., 0., 0., 0., 0., 0.,
          0., 6.71363696e-02, 0., 0., 8.52116346e-02 ]
      - [ 1.06970012e-01, 1.68570563e-01, 1.53711781e-01, 1.84413210e-01,
          1.51488155e-01, 1.51475057e-01, 1.51658371e-01, 1.46736234e-01,
          2.38267690e-01, 2.29124263e-01, 3.26828659e-01, 1.29510269e-01,
          1.61132395e-01, 1.61613300e-01, 5.19963913e-02, 3.90447229e-02,
          1.47791132e-01, 1.04535714e-01, 2.48369902e-01, 1.64359748e-01,
          1.42592028e-01, 1.12210572e-01, 1.17705062e-01, 9.64827761e-02,
          1.78424150e-01, 2.71083921e-01, 1.50733650e-01, 1.35754153e-01,
          2.06356570e-01, 1.13607317e-01, 9.96286198e-02, 1.27398044e-01,
          6.65599480e-02, 8.53412375e-02, 1.01076066e-01, 0.,
          1.20337851e-01, 0., 0., 0., 1.00107901e-02, 0., 0., 0.,
          1.28882840e-01, 1.31256446e-01, 6.78806826e-02, 3.05846855e-02,
          7.86659569e-02, 0., 9.56991762e-02, 0., 6.95371702e-02, 0., 0.,
          0., 0., 0., 0., 0., 8.54631066e-02, 5.39961830e-02,
          7.02737421e-02, 7.74667338e-02 ]
      - [ 2.23074764e-01, 3.99856791e-02, 0., 8.92551020e-02,
          1.16408698e-01, 5.94807379e-02, 7.47570395e-02, 3.77398729e-01,
          2.22582266e-01, 1.48553759e-01, 1.20356254e-01, 1.47471577e-01,
          9.71405283e-02, 1.16869986e-01, 1.64994597e-01, 3.75128061e-01,
          1.55253887e-01, 9.43514705e-02, 1.19673193e-01, 1.16503842e-01,
          6.40915856e-02, 1.05892032e-01, 1.38888940e-01, 3.35954398e-01,
          2.51427382e-01, 7.84599334e-02, 3.81511077e-02, 7.40712881e-02,
          7.20181093e-02, 4.58737947e-02, 8.51249173e-02, 3.56878877e-01,
          3.87248471e-02, 4.52808477e-02, 5.20865545e-02, 0.,
          6.97367564e-02, 0., 0., 0., 0., 0., 0., 0., 4.24209423e-02, 0.,
          5.38234822e-02, 4.59607504e-02, 1.17529221e-01, 0., 0., 0.,
          5.35788126e-02, 0., 0., 0., 0., 0., 0., 0., 5.11235036e-02, 0.,
          0., 1.13392413e-01 ]
      - [ 1.58565447e-01, 5.79277948e-02, 9.66748893e-02, 1.55141070e-01,
          1.29198790e-01, 9.06209424e-02, 1.06038317e-01, 2.43994296e-01,
          2.68022150e-01, 1.59431264e-01, 2.21107185e-01, 2.00229451e-01,
          1.99415818e-01, 1.95827663e-01, 1.35644555e-01, 1.05077602e-01,
          1.64642021e-01, 1.04817726e-01, 1.88196972e-01, 2.00871423e-01,
          1.94169879e-01, 1.85986534e-01, 1.99343577e-01, 1.73375040e-01,
          2.08365455e-01, 1.79442108e-01, 1.18263856e-01, 1.19734839e-01,
          1.86121196e-01, 1.14803255e-01, 8.97939056e-02, 4.95635085e-02,
          1.44530699e-01, 0., 0., 0., 8.49992856e-02, 0., 0., 0., 0., 0.,
          0., 0., 1.25934467e-01, 5.15009016e-02, 1.42630517e-01,
          1.11998364e-01, 6.89320713e-02, 3.89194265e-02, 8.37369859e-02,
          8.46053213e-02, 1.13529645e-01, 0., 0., 0., 0., 0., 0., 0.,
          7.57603049e-02, 0., 8.11598897e-02, 7.22484291e-02 ]
      - [ 1.92235932e-01, 2.95515686e-01, 5.93556799e-02, 3.07317730e-02,
          5.55651486e-02, 3.70293148e-02, 0., 3.45592499e-02,
          2.97867268e-01, 3.07908654e-01, 1.99836180e-01, 1.80786133e-01,
          1.12779588e-01, 1.25983834e-01, 1.35579050e-01, 1.32071868e-01,
          5.61469980e-02, 7.20298886e-02, 6.02865294e-02, 2.28730008e-01,
          2.18567476e-01, 2.51037568e-01, 1.51953831e-01, 2.24684566e-01,
          2.51187056e-01, 1.08795226e-01, 1.78983912e-01, 8.07510763e-02,
          1.30037963e-01, 1.46753266e-01, 9.96413156e-02, 1.16995782e-01,
          4.60807942e-02, 4.95208129e-02, 0., 0., 3.56018841e-02, 0., 0.,
          0., 0., 0., 0., 0., 1.92852378e-01, 4.42945361e-02,
          4.98962589e-02, 7.06052408e-02, 1.58614710e-01, 1.21418931e-01,
          0., 0., 1.06653400e-01, 0., 0., 0., 0., 0., 0., 0.,
          6.27095029e-02, 0., 0., 1.14631385e-01 ]
      - [ 2.49527290e-01, 9.94907245e-02, 4.83166277e-02, 1.87520698e-01,
          2.26340711e-01, 1.69176027e-01, 1.40036583e-01, 1.67597026e-01,
          2.64852852e-01, 1.20093420e-01, 9.14381295e-02, 2.33652055e-01,
          1.89720064e-01, 1.85411215e-01, 1.67320788e-01, 1.73877403e-01,
          9.57447663e-02, 4.65333387e-02, 1.01369642e-01, 1.60345405e-01,
          1.44755468e-01, 1.77087709e-01, 2.23028883e-01, 1.93985686e-01,
          2.15627104e-01, 1.59970507e-01, 1.63216636e-01, 1.25249088e-01,
          1.79105163e-01, 2.07155570e-01, 0., 3.97942998e-02, 0., 0., 0.,
          0., 5.07277697e-02, 1.80320330e-02, 1.63121819e-02, 0.,
          3.42843495e-02, 2.99859829e-02, 0., 0., 1.18111551e-01, 0.,
          1.76875189e-01, 1.39868241e-02, 8.68623480e-02, 1.46334305e-01,
          0., 0., 1.24858864e-01, 0., 0., 0., 0., 0., 0., 0.,
          7.29404315e-02, 3.26587521e-02, 0., 8.40595663e-02 ]
      - [ 3.63996148e-01, 9.74581912e-02, 0., 3.53761278e-02,
          8.20587501e-02, 5.49182296e-02, 4.57028672e-02, 7.83256367e-02,
          3.38032573e-01, 2.99284011e-01, 1.11172885e-01, 1.71431467e-01,
          1.60748884e-01, 8.51332620e-02, 1.25040978e-01, 7.32235163e-02,
          8.49438533e-02, 0., 0., 2.36081898e-01, 2.77426541e-01,
          2.07065612e-01, 2.24010035e-01, 0., 3.04986417e-01,
          9.26577076e-02, 1.23446792e-01, 1.26596972e-01, 1.50291592e-01,
          9.34171230e-02, 1.26780108e-01, 9.82059166e-02, 2.33153179e-02,
          0., 0., 3.09654586e-02, 3.36952992e-02, 0., 0., 0.,
          1.52889928e-02, 0., 0., 4.09869552e-02, 1.55438915e-01,
          9.65828970e-02, 0., 8.25702325e-02, 1.21092804e-01,
          7.62303323e-02, 1.15644075e-01, 0., 1.24610990e-01, 0., 0., 0.,
          0., 0., 0., 0., 9.58288386e-02, 0., 1.13240980e-01, 0. ]
      - [ 1.84434995e-01, 1.63583159e-01, 2.19271034e-01, 0.,
          1.19337514e-01, 0., 4.33267541e-02, 1.02268219e-01,
          2.95143366e-01, 1.90829873e-01, 2.57889926e-01, 1.52588084e-01,
          2.08675042e-01, 2.03139246e-01, 1.49254024e-01, 1.69625610e-01,
          1.35143325e-01, 1.42872334e-01, 1.38791874e-01, 1.58336177e-01,
          1.19459689e-01, 2.43924156e-01, 1.87956825e-01, 3.11037958e-01,
          1.74207896e-01, 8.75699818e-02, 1.11975491e-01, 1.01120107e-01,
          1.31279975e-01, 9.21528786e-02, 9.72456485e-02, 1.67712390e-01,
          0., 0., 0., 0., 4.09069546e-02, 0., 4.43696156e-02,
          4.26238179e-02, 3.41377929e-02, 0., 2.25581042e-02, 0.,
          1.17877141e-01, 4.12689894e-02, 1.55815676e-01, 0.,
          6.20866120e-02, 1.18955620e-01, 7.81508684e-02, 0.,
          1.25965133e-01, 0., 0., 0., 0., 0., 0., 1.92096997e-02,
          8.62586796e-02, 0., 7.59366006e-02, 4.33774404e-02 ]
      - [ 1.65105641e-01, 1.89682066e-01, 3.85070220e-02, 5.07292375e-02,
          2.28060469e-01, 2.07609206e-01, 1.62627518e-01, 1.76171273e-01,
          2.69138157e-01, 1.54822528e-01, 1.27794698e-01, 2.24372759e-01,
          1.52323946e-01, 7.96617642e-02, 2.09583551e-01, 1.14757985e-01,
          1.08404972e-01, 0., 1.58794969e-01, 1.28927276e-01,
          1.28013775e-01, 1.79949328e-01, 2.22900435e-01, 1.57247573e-01,
          2.23133191e-01, 1.67484343e-01, 1.61951199e-01, 1.67875051e-01,
          1.38446316e-01, 2.20962793e-01, 5.15968762e-02, 3.34227867e-02,
          1.37665689e-01, 5.89206330e-02, 0., 0., 5.19430488e-02, 0., 0.,
          0., 0., 0., 0., 0., 9.11267847e-02, 0., 1.59165442e-01,
          1.10006839e-01, 1.31454051e-01, 1.54270142e-01, 0., 0.,
          1.14327163e-01, 0., 0., 0., 0., 0., 0., 0., 8.23114812e-02, 0.,
          0., 1.33441210e-01 ]
      - [ 1.21049128e-01, 5.53717762e-02, 1.56149000e-01, 2.11651489e-01,
          2.96170682e-01, 9.61422846e-02, 1.15465946e-01, 0.,
          2.48597488e-01, 1.89592913e-01, 1.43300772e-01, 2.09968343e-01,
          2.97774136e-01, 2.12154895e-01, 1.00281201e-01, 0.,
          7.82869980e-02, 4.47736308e-02, 1.15290627e-01, 1.66763306e-01,
          2.25927383e-01, 1.99955478e-01, 1.90792531e-01, 1.29461393e-01,
          1.85964391e-01, 1.09790459e-01, 1.53302878e-01, 2.07636267e-01,
          2.05066845e-01, 1.58253044e-01, 6.12875037e-02, 3.37062627e-02,
          2.78593451e-02, 0., 1.09536558e-01, 0., 8.94555897e-02, 0., 0.,
          0., 0., 0., 0., 0., 1.43163741e-01, 1.26913205e-01,
          1.09680526e-01, 1.75519697e-02, 7.98249096e-02, 7.14389980e-02,
          1.14731796e-01, 0., 1.18197188e-01, 0., 0., 0., 0., 0., 0., 0.,
          6.35711923e-02, 0., 7.53303468e-02, 0. ]
      - [ 1.12843737e-01, 2.31247231e-01, 1.99694127e-01, 7.74891153e-02,
          9.07412171e-02, 5.29320166e-02, 0., 2.86814477e-02,
          2.78793126e-01, 2.67327249e-01, 2.30297759e-01, 1.29302636e-01,
          2.62248814e-01, 2.05223322e-01, 1.54622450e-01, 1.36891454e-01,
          9.15229470e-02, 1.65279105e-01, 1.70149133e-01, 1.27882168e-01,
          1.55543685e-01, 2.12018520e-01, 2.70245880e-01, 2.11704209e-01,
          1.85131878e-01, 1.33338705e-01, 1.21128365e-01, 1.07794799e-01,
          1.06270142e-01, 1.25397578e-01, 1.20946683e-01, 1.33508682e-01,
          0., 3.38985994e-02, 0., 3.95896658e-02, 5.25362380e-02,
          3.65360230e-02, 0., 2.87250038e-02, 8.01170059e-03, 0., 0., 0.,
          1.38919353e-01, 1.46057412e-01, 0., 0., 6.77450821e-02,
          1.40808895e-01, 0., 0., 1.26041144e-01, 0., 0., 5.66512495e-02,
          0., 0., 0., 0., 6.12777285e-02, 0., 4.64316420e-02, 0. ]
      - [ 1.24312997e-01, 1.95610061e-01, 4.54677753e-02, 5.18653691e-02,
          1.61404341e-01, 2.45085716e-01, 1.52644143e-01, 1.80242896e-01,
          2.16231808e-01, 2.39063337e-01, 1.04027420e-01, 6.99688718e-02,
          2.68206686e-01, 2.33003106e-02, 1.66029900e-01, 1.47049457e-01,
          1.18309498e-01, 1.19813301e-01, 1.63887516e-01, 6.28201216e-02,
          1.37550399e-01, 1.72384292e-01, 2.13995457e-01, 1.79167405e-01,
          1.88152745e-01, 1.49180010e-01, 1.77571714e-01, 1.47906765e-01,
          2.03015149e-01, 1.50688663e-01, 1.53716773e-01, 7.51352906e-02,
          2.36356538e-02, 1.59006178e-01, 0., 0., 1.14306889e-01, 0., 0.,
          0., 0., 0., 0., 0., 1.38989374e-01, 8.02883729e-02,
          1.34417579e-01, 1.09997071e-01, 9.50238779e-02, 1.27869189e-01,
          6.36897013e-02, 0., 9.87179577e-02, 0., 0., 0., 0., 0., 0., 0.,
          8.14963654e-02, 0., 0., 1.66477159e-01 ]
      - [ 3.61070544e-01, 3.79152596e-02, 0., 3.78514826e-02,
          5.83013669e-02, 4.88453992e-02, 0., 8.63014981e-02,
          4.15795028e-01, 1.83437213e-01, 1.42122179e-01, 1.65676594e-01,
          1.34906784e-01, 1.06362514e-01, 1.28975004e-01, 1.67395130e-01,
          1.59473106e-01, 0., 7.76821971e-02, 2.68485844e-01,
          1.80244505e-01, 1.69697627e-01, 2.19705641e-01, 1.54116169e-01,
          2.97865421e-01, 1.44346461e-01, 1.22254312e-01, 1.23364702e-01,
          1.07462548e-01, 7.71229863e-02, 1.06283136e-01, 8.62373114e-02,
          2.87639573e-02, 0., 3.77552100e-02, 0., 5.82782030e-02, 0., 0.,
          3.11903134e-02, 0., 0., 4.86790165e-02, 0., 1.19762406e-01, 0.,
          7.97761455e-02, 1.45254105e-01, 0., 3.92197445e-02, 0., 0.,
          1.72081858e-01, 0., 0., 0., 1.41401580e-02, 0., 0., 0.,
          1.10308774e-01, 0., 1.22481242e-01, 5.51723093e-02 ]
      - [ 1.13519490e-01, 1.56272069e-01, 9.78432968e-02, 2.54614413e-01,
          2.36119896e-01, 8.60266015e-02, 1.12722993e-01, 1.19766481e-01,
          2.66471684e-01, 1.70896932e-01, 7.82730579e-02, 2.22326875e-01,
          2.89239734e-01, 1.66682720e-01, 1.23833515e-01, 7.78630823e-02,
          9.25676227e-02, 7.46710226e-02, 9.39128473e-02, 1.74600959e-01,
          2.23655134e-01, 2.18581498e-01, 1.69692054e-01, 1.31090090e-01,
          1.95086777e-01, 2.04007387e-01, 0., 1.61184087e-01,
          1.83601663e-01, 2.30654463e-01, 3.61951329e-02, 0.,
          7.79760778e-02, 6.17176518e-02, 4.85446043e-02, 2.88408622e-02,
          5.89541867e-02, 0., 0., 0., 0., 0., 0., 0., 1.19839162e-01,
          1.35867313e-01, 9.22089964e-02, 7.69714266e-02, 6.83484226e-02,
          1.60293773e-01, 0., 0., 1.23787016e-01, 0., 0., 0., 0., 0., 0.,
          0., 5.61044514e-02, 0., 0., 7.57030919e-02 ]
      - [ 1.47929162e-01, 1.54787466e-01, 8.63626227e-02, 1.43900618e-01,
          2.24041700e-01, 1.75688833e-01, 1.92553580e-01, 1.46542042e-01,
          1.85835764e-01, 2.37645283e-01, 1.42600819e-01, 1.83308959e-01,
          2.41493061e-01, 1.00684121e-01, 1.62989050e-01, 1.28574744e-01,
          1.19304292e-01, 0., 1.92259908e-01, 7.55567253e-02,
          1.49070665e-01, 1.52100131e-01, 2.79980600e-01, 1.18552208e-01,
          1.71364874e-01, 1.65673971e-01, 1.51496500e-01, 9.65770632e-02,
          2.25270674e-01, 1.77771211e-01, 1.53825104e-01, 0.,
          9.30036008e-02, 1.30308419e-01, 0., 0., 7.67068118e-02, 0., 0.,
          0., 1.45286918e-02, 0., 0., 0., 1.07625149e-01, 7.18498603e-02,
          1.59343272e-01, 0., 9.00556296e-02, 1.24116190e-01,
          6.50455505e-02, 0., 1.05144978e-01, 0., 0., 0., 0., 0., 0., 0.,
          7.30057731e-02, 0., 0., 1.48581341e-01 ]
      - [ 1.37190729e-01, 5.62285967e-02, 1.35026455e-01, 2.23713189e-01,
          2.69542933e-01, 1.50401950e-01, 1.09085418e-01, 1.51024431e-01,
          2.28662372e-01, 2.16901347e-01, 8.51827413e-02, 1.95281282e-01,
          2.87284523e-01, 1.57155663e-01, 1.90139890e-01, 4.85797115e-02,
          7.89227784e-02, 4.05434668e-02, 1.10594645e-01, 1.78777352e-01,
          1.72162339e-01, 1.97715372e-01, 2.22610444e-01, 1.41381100e-01,
          1.80620864e-01, 1.43029585e-01, 1.08832262e-01, 1.40667200e-01,
          1.89962134e-01, 2.11987808e-01, 1.05694756e-01, 1.08862501e-02,
          1.52452653e-02, 7.85626546e-02, 8.80314410e-02, 0.,
          8.19565952e-02, 0., 0., 0., 0., 0., 0., 0., 1.20813318e-01,
          1.16182655e-01, 1.12052187e-01, 7.74427429e-02, 4.62819152e-02,
          1.47006989e-01, 0., 0., 1.19361766e-01, 0., 0., 0., 0., 0., 0.,
          0., 8.43326375e-02, 0., 8.13714117e-02, 5.16556650e-02 ]
      - [ 1.40627742e-01, 1.23001993e-01, 1.35057032e-01, 2.83766147e-02,
          1.66990459e-01, 2.62980044e-01, 1.88461497e-01, 1.69883654e-01,
          1.70674086e-01, 2.09207773e-01, 1.39275476e-01, 1.04516089e-01,
          2.90597349e-01, 4.23118025e-02, 2.03605548e-01, 5.49080782e-02,
          1.11691587e-01, 1.26928061e-01, 1.62948355e-01, 8.26351643e-02,
          1.58343315e-01, 2.27237865e-01, 2.00089782e-01, 1.55467689e-01,
          1.60097286e-01, 1.52810752e-01, 1.40021563e-01, 1.49687022e-01,
          2.19056413e-01, 2.36186042e-01, 2.66884416e-02, 0.,
          2.79228967e-02, 1.16205342e-01, 9.26963612e-02, 0.,
          1.02288373e-01, 0., 0., 0., 0., 0., 0., 0., 1.28840253e-01,
          1.34536728e-01, 8.57033432e-02, 1.27424896e-01, 1.16139255e-01,
          1.31739184e-01, 0., 0., 1.03267230e-01, 0., 0., 0., 0., 0., 0.,
          0., 6.89462274e-02, 0., 0., 1.20246179e-01 ]
      - [ 1.59286007e-01, 1.43556818e-01, 1.15886420e-01, 1.10923201e-01,
          1.36005268e-01, 1.83889747e-01, 1.47071928e-01, 2.28603929e-01,
          1.89874575e-01, 2.14375183e-01, 1.89044982e-01, 2.94628859e-01,
          1.94648832e-01, 2.38671720e-01, 8.73230100e-02, 1.30865350e-01,
          1.10141300e-01, 1.85920969e-01, 2.20496312e-01, 1.06294215e-01,
          2.07712024e-01, 1.96654037e-01, 1.73648492e-01, 1.10769376e-01,
          1.55346960e-01, 1.45217478e-01, 2.28692591e-01, 1.16425790e-01,
          5.44071086e-02, 1.87617987e-02, 0., 4.26738560e-02,
          8.80096480e-02, 0., 0., 1.49290096e-02, 4.25319932e-02, 0., 0.,
          0., 2.42348537e-02, 0., 0., 0., 1.09888427e-01, 6.34056553e-02,
          9.47172567e-02, 1.99872896e-01, 9.55003127e-02, 1.61078244e-01,
          0., 0., 1.07182726e-01, 0., 0., 0., 0., 0., 0., 0.,
          2.56477576e-02, 0., 2.64142044e-02, 8.70059580e-02 ]
      - [ 1.00997500e-01, 1.94479033e-01, 2.36009866e-01, 1.20034806e-01,
          1.07876241e-01, 0., 0., 8.43957886e-02, 2.33909324e-01,
          2.53835589e-01, 2.30240121e-01, 1.33556649e-01, 3.22731942e-01,
          1.86044842e-01, 8.41116086e-02, 1.37165338e-01, 1.35050997e-01,
          1.32721230e-01, 1.74587533e-01, 1.79725349e-01, 2.12377161e-01,
          2.00148299e-01, 1.94525972e-01, 2.34590784e-01, 1.71290576e-01,
          1.18707888e-01, 1.36241660e-01, 1.17638193e-01, 1.38377190e-01,
          1.49741679e-01, 8.51590708e-02, 7.73402750e-02, 6.28250092e-02,
          0., 0., 3.45462039e-02, 5.08975871e-02, 0., 0., 0., 0., 0., 0.,
          0., 1.38741821e-01, 1.44701779e-01, 4.15330194e-02, 0.,
          6.32061437e-02, 1.14236899e-01, 9.07193571e-02, 0.,
          1.33928880e-01, 0., 0., 6.53764382e-02, 0., 0., 0., 0.,
          5.62380813e-02, 2.92344280e-02, 0., 0. ]
      - [ 1.70626447e-01, 1.10846765e-01, 9.67481062e-02, 1.40723348e-01,
          1.77528951e-02, 1.36636674e-01, 6.80354163e-02, 2.63565093e-01,
          2.51083940e-01, 1.80063456e-01, 2.24690974e-01, 1.72605172e-01,
          1.78058103e-01, 1.91180527e-01, 1.87284455e-01, 1.22244775e-01,
          1.79300755e-01, 1.73293278e-01, 1.45745248e-01, 1.29566103e-01,
          6.53380230e-02, 1.96070746e-01, 2.35820949e-01, 1.78958088e-01,
          2.81146914e-01, 9.20326337e-02, 1.10756740e-01, 1.10568665e-01,
          1.46929711e-01, 1.07061021e-01, 1.47824481e-01, 2.99869217e-02,
          1.53374135e-01, 0., 0., 0., 8.20553228e-02, 0., 0., 0., 0., 0.,
          0., 0., 1.31113812e-01, 9.40161198e-02, 1.23397805e-01,
          1.21410862e-01, 6.67823702e-02, 1.41514987e-01, 0., 0.,
          1.18366078e-01, 0., 0., 0., 0., 0., 0., 0., 9.03639644e-02, 0.,
          1.05139628e-01, 0. ]
      - [ 2.24661246e-01, 2.25721747e-01, 1.02004007e-01, 1.00223951e-01,
          1.45384908e-01, 1.61113203e-01, 1.64139926e-01, 2.40641430e-01,
          2.09595546e-01, 2.95581996e-01, 1.43078730e-01, 1.71347991e-01,
          1.64864674e-01, 1.58629775e-01, 1.63959965e-01, 7.09319860e-02,
          1.58100784e-01, 2.33248219e-01, 5.81118837e-02, 1.10475309e-01,
          0., 4.71850522e-02, 9.60264131e-02, 1.93622634e-01,
          2.90526927e-01, 2.03574598e-01, 0., 1.57524735e-01,
          1.03309765e-01, 9.80064794e-02, 1.03933915e-01, 1.42230332e-01,
          1.43616110e-01, 1.30448699e-01, 0., 0., 9.76265594e-02, 0., 0.,
          0., 7.12558553e-02, 0., 0., 0., 9.39998701e-02, 0.,
          1.21328324e-01, 9.91903916e-02, 4.59169224e-02, 6.17235526e-02,
          0., 6.24115206e-02, 7.22838417e-02, 0., 0., 0., 0., 0., 0.,
          1.19685717e-01, 1.41042352e-01, 0., 0., 0. ]
      - [ 3.64125997e-01, 4.02074270e-02, 5.27810045e-02, 2.45594010e-01,
          1.63690314e-01, 1.49570167e-01, 1.39505923e-01, 1.74062848e-01,
          3.23253781e-01, 0., 8.79123285e-02, 3.35968047e-01,
          1.60746723e-01, 3.72257233e-02, 9.93520394e-02, 1.05144933e-01,
          3.54977727e-01, 2.00298935e-01, 9.48040858e-02, 4.07026187e-02,
          5.29805347e-02, 0., 9.11647305e-02, 1.67726666e-01,
          3.51629823e-01, 5.31262755e-02, 6.48113117e-02, 2.95432992e-02,
          6.20589852e-02, 3.33937593e-02, 5.94525076e-02, 6.97909594e-02,
          1.63839117e-01, 0., 0., 0., 5.48727959e-02, 0., 0.,
          1.88222937e-02, 0., 0., 0., 0., 6.18635267e-02, 2.01456398e-02,
          0., 1.52200505e-01, 2.34290063e-02, 0., 5.56733757e-02, 0.,
          5.58890477e-02, 0., 0., 4.53418344e-02, 4.26128805e-02, 0., 0.,
          0., 3.00082173e-02, 0., 2.08467003e-02, 0. ]
      - [ 3.58013988e-01, 7.11030364e-02, 0., 0., 4.55171838e-02,
          4.36436422e-02, 0., 1.58283204e-01, 3.73070210e-01,
          1.93392560e-01, 1.67292014e-01, 1.28044948e-01, 1.74994648e-01,
          1.29498348e-01, 9.21820402e-02, 1.36912361e-01, 1.33401513e-01,
          0., 5.72211109e-02, 1.87531352e-01, 2.85303771e-01,
          2.06252858e-01, 1.80054903e-01, 1.43654808e-01, 3.01895857e-01,
          1.15964405e-01, 1.59824014e-01, 4.13335413e-02, 1.48026064e-01,
          7.73695111e-02, 1.36635929e-01, 7.08675608e-02, 0., 0.,
          2.53480226e-02, 2.09512580e-02, 3.44650559e-02, 0., 0., 0.,
          1.17524872e-02, 0., 0., 0., 1.15472965e-01, 3.92968059e-02,
          1.41572922e-01, 1.13736667e-01, 1.87803283e-01, 8.60789940e-02,
          0., 0., 9.76234898e-02, 0., 0., 0., 0., 0., 0., 0.,
          8.40939507e-02, 0., 8.47948939e-02, 9.34889615e-02 ]
      - [ 1.78549454e-01, 1.86803579e-01, 2.03395367e-01, 5.26066236e-02,
          1.37414068e-01, 1.57607555e-01, 1.73930630e-01, 1.10241935e-01,
          2.77606666e-01, 2.48497799e-01, 2.34727174e-01, 1.55693129e-01,
          2.23017111e-01, 1.19500734e-01, 9.06971097e-02, 5.57649881e-02,
          1.30748719e-01, 2.24507615e-01, 1.43620074e-01, 1.81187689e-01,
          1.03508905e-01, 8.86176899e-02, 1.14998691e-01, 6.55273050e-02,
          2.37355605e-01, 2.54339725e-01, 9.63614583e-02, 1.54260069e-01,
          1.90137550e-01, 1.16545439e-01, 8.75077248e-02, 0.,
          9.07894894e-02, 1.33559972e-01, 0., 0., 1.09656520e-01, 0., 0.,
          0., 3.25321481e-02, 0., 0., 3.63481492e-02, 1.11084662e-01,
          6.86471388e-02, 1.29897252e-01, 1.22043781e-01, 6.31321296e-02,
          0., 1.02259859e-01, 0., 7.69558623e-02, 0., 0., 0., 0., 0.,
          2.18861047e-02, 3.01908571e-02, 1.45634532e-01, 4.89825606e-02,
          7.90072605e-02, 0. ]
      - [ 1.12389401e-01, 1.97151378e-01, 3.52940522e-02, 6.81116059e-02,
          1.84302926e-01, 2.27071553e-01, 1.32872373e-01, 2.07875341e-01,
          2.06734598e-01, 2.63842285e-01, 0., 1.54889867e-01,
          2.22499534e-01, 0., 1.70070648e-01, 1.49078488e-01,
          1.32579118e-01, 1.31353632e-01, 1.50997460e-01, 1.34809345e-01,
          1.26810387e-01, 1.34195670e-01, 2.45748639e-01, 1.76183179e-01,
          1.79168850e-01, 1.72705486e-01, 1.35492370e-01, 1.51542470e-01,
          2.11348787e-01, 1.62410915e-01, 1.52897894e-01, 6.41673729e-02,
          2.08720937e-02, 1.61688209e-01, 0., 0., 1.08884104e-01, 0., 0.,
          0., 0., 0., 0., 0., 1.33169532e-01, 8.28368589e-02,
          1.26644999e-01, 1.10770389e-01, 1.26665458e-01, 1.17158718e-01,
          5.40897623e-02, 0., 9.02926996e-02, 0., 0., 0., 2.16046702e-02,
          0., 0., 0., 7.07807168e-02, 0., 0., 1.35780916e-01 ]
      - [ 1.50458977e-01, 1.55165300e-01, 0., 2.86343247e-02,
          1.85146317e-01, 2.77916640e-01, 1.75992489e-01, 1.42535910e-01,
          1.96523458e-01, 2.00530201e-01, 1.50626615e-01, 8.76318663e-02,
          2.86655098e-01, 2.69182175e-02, 1.63528875e-01, 1.29063532e-01,
          1.21111833e-01, 1.20388873e-01, 1.51036501e-01, 1.15645938e-01,
          1.68000385e-01, 2.43906483e-01, 1.49658903e-01, 1.63931087e-01,
          1.77508339e-01, 1.57841340e-01, 1.68174565e-01, 1.27066657e-01,
          2.13031575e-01, 1.31073520e-01, 1.81638554e-01, 0.,
          8.58916566e-02, 1.51572034e-01, 0., 0., 1.15067124e-01, 0., 0.,
          0., 0., 0., 0., 0., 1.52350247e-01, 8.62172022e-02,
          1.23836808e-01, 6.15390502e-02, 0., 1.44193098e-01, 0.,
          5.51421642e-02, 1.00959577e-01, 0., 0., 0., 1.89352036e-02, 0.,
          0., 0., 6.61765337e-02, 0., 0., 1.52646258e-01 ]
      - [ 1.29729882e-01, 9.16766673e-02, 6.59839287e-02, 1.59839138e-01,
          1.12316504e-01, 9.99348760e-02, 1.20568581e-01, 2.21834302e-01,
          2.41322070e-01, 2.02517673e-01, 2.00797454e-01, 1.96065485e-01,
          2.33453780e-01, 1.35844097e-01, 9.46797282e-02, 1.74452871e-01,
          1.75076351e-01, 1.17539495e-01, 1.68637544e-01, 1.83476120e-01,
          1.64403751e-01, 1.25294790e-01, 2.09702238e-01, 2.42159083e-01,
          2.52356112e-01, 1.30553365e-01, 0., 1.26182616e-01,
          1.45805538e-01, 1.42947495e-01, 1.20722607e-01, 7.41510317e-02,
          1.61361173e-01, 0., 0., 0., 7.60205463e-02, 0., 0., 0., 0., 0.,
          0., 0., 9.71265584e-02, 0., 9.55318734e-02, 1.82169631e-01,
          1.66855484e-01, 1.16277151e-01, 0., 0., 9.60265622e-02, 0., 0.,
          0., 0., 0., 0., 0., 7.20014796e-02, 0., 0., 1.35990530e-01 ]
      - [ 2.82581031e-01, 1.51523754e-01, 1.41864464e-01, 1.15566276e-01,
          9.73743051e-02, 1.09216340e-01, 8.79554003e-02, 1.49356797e-01,
          4.16752458e-01, 1.86037630e-01, 1.38688073e-01, 1.47853017e-01,
          1.48495078e-01, 1.80087432e-01, 2.40008328e-02, 4.28680703e-02,
          2.22069174e-01, 0., 1.51153460e-01, 8.72671679e-02,
          8.29942450e-02, 5.63779362e-02, 2.43012533e-01, 1.65110916e-01,
          3.20435792e-01, 1.60877943e-01, 1.10585026e-01, 1.39368594e-01,
          1.26807913e-01, 1.11914374e-01, 1.24161795e-01, 1.31189674e-01,
          4.88920771e-02, 0., 0., 0., 3.83606143e-02, 0., 0., 0., 0., 0.,
          4.02501374e-02, 0., 1.39326096e-01, 9.61693674e-02,
          1.30574107e-01, 0., 1.73411056e-01, 8.64326134e-02,
          7.81300738e-02, 0., 1.16299674e-01, 0., 0., 0., 0., 0., 0., 0.,
          0., 0., 0., 0. ]
      - [ 1.06735826e-01, 9.63449255e-02, 2.52156407e-01, 1.00320518e-01,
          1.09955505e-01, 7.88098648e-02, 0., 1.23167254e-01,
          2.15024367e-01, 2.60000795e-01, 1.69870540e-01, 2.51198530e-01,
          1.81127146e-01, 2.03880295e-01, 1.47085533e-01, 1.01746164e-01,
          1.41432941e-01, 1.54735953e-01, 1.86268657e-01, 8.65439102e-02,
          2.07708910e-01, 2.01931402e-01, 2.12225810e-01, 1.88796028e-01,
          2.37957731e-01, 1.64629459e-01, 9.51568186e-02, 1.20965518e-01,
          1.56526461e-01, 1.14540733e-01, 1.23728782e-01, 1.12256348e-01,
          7.65993744e-02, 1.07537322e-01, 0., 0., 7.13426173e-02, 0., 0.,
          0., 0., 0., 0., 0., 1.08764179e-01, 9.46110263e-02,
          1.14624299e-01, 8.19597468e-02, 1.06314078e-01, 1.53898969e-01,
          0., 0., 1.22625031e-01, 0., 0., 0., 0., 0., 0., 0.,
          9.93851423e-02, 0., 1.15381226e-01, 0. ]
      - [ 2.61061549e-01, 5.85827157e-02, 3.60398404e-02, 1.29519418e-01,
          2.82304704e-01, 1.54563114e-01, 1.70512021e-01, 5.53828068e-02,
          3.10159236e-01, 2.44489208e-01, 1.07986785e-01, 8.00927356e-02,
          3.42269242e-01, 1.36754503e-02, 1.91083495e-02, 3.78619134e-02,
          2.04407379e-01, 3.61230582e-01, 9.25001577e-02, 9.02026594e-02,
          4.98625152e-02, 1.71858445e-02, 9.84913707e-02, 8.45671147e-02,
          3.04563344e-01, 2.43587211e-01, 8.33541676e-02, 0.,
          6.76471218e-02, 1.63342226e-02, 0., 1.66103914e-02,
          1.33188769e-01, 1.58768937e-01, 4.45547774e-02, 0.,
          1.27536923e-01, 0., 0., 0., 3.55280004e-02, 0., 0., 0.,
          1.81860194e-01, 0., 0., 7.91732818e-02, 4.51824293e-02,
          4.07122187e-02, 2.24013794e-02, 2.12975387e-02, 3.97215113e-02,
          0., 0., 0., 0., 0., 0., 0., 1.60681419e-02, 0., 0.,
          1.95222814e-02 ]
      - [ 1.82355925e-01, 1.74836412e-01, 5.04703484e-02, 1.17585443e-01,
          2.69256979e-01, 9.45802554e-02, 2.04616114e-01, 2.09319323e-01,
          1.05185762e-01, 2.08041653e-01, 1.36578083e-01, 2.20720440e-01,
          2.41244689e-01, 1.53974682e-01, 1.48759246e-01, 1.23082899e-01,
          1.05455205e-01, 5.30116260e-02, 1.54754475e-01, 1.10868797e-01,
          1.73127919e-01, 2.32394472e-01, 1.81862131e-01, 1.79729402e-01,
          1.76429167e-01, 1.37526482e-01, 1.63016766e-01, 2.07708016e-01,
          1.65541649e-01, 1.54221267e-01, 1.22942239e-01, 2.64200214e-02,
          5.98722845e-02, 1.03764206e-01, 0., 0., 5.71210086e-02, 0., 0.,
          0., 0., 0., 0., 0., 1.13081098e-01, 7.47664720e-02,
          1.48060977e-01, 7.85025209e-02, 1.48628458e-01, 9.17283520e-02,
          8.28222483e-02, 0., 1.17757976e-01, 0., 0., 0., 0., 0., 0., 0.,
          6.31074235e-02, 0., 0., 7.87239149e-02 ]
      - [ 4.10990953e-01, 4.54932898e-02, 4.21821512e-02, 6.62604347e-02,
          8.97128209e-02, 6.57168254e-02, 4.93463427e-02, 2.10804597e-01,
          3.95853132e-01, 1.81814522e-01, 1.17279187e-01, 1.06757067e-01,
          1.61519617e-01, 1.50612056e-01, 1.74031779e-01, 1.12424277e-01,
          4.07306731e-01, 1.30181134e-01, 0., 4.38841805e-02,
          1.18101291e-01, 0., 1.51241913e-01, 1.36804432e-01,
          3.91705930e-01, 4.51642089e-02, 0., 3.93903218e-02,
          7.66027048e-02, 0., 2.02474799e-02, 8.90738145e-02,
          9.36806649e-02, 6.49691671e-02, 3.11245527e-02, 0.,
          6.12458773e-02, 0., 0., 0., 0., 0., 0., 0., 7.66964182e-02,
          5.11147007e-02, 6.95966110e-02, 7.28949979e-02, 2.06459817e-02,
          0., 2.09489372e-02, 3.19984891e-02, 3.63510028e-02, 0., 0., 0.,
          0., 0., 0., 2.12629568e-02, 5.91522306e-02, 3.18869948e-02,
          2.49273013e-02, 1.68626383e-02 ]
      - [ 1.37141392e-01, 0., 1.12615407e-01, 1.16920061e-01,
          1.50248289e-01, 1.43573418e-01, 1.11962453e-01, 2.94741184e-01,
          2.95426935e-01, 1.42259598e-01, 1.32632479e-01, 1.81117937e-01,
          2.01153725e-01, 1.65487617e-01, 8.33764672e-02, 2.61245579e-01,
          7.89142549e-02, 0., 1.04776099e-01, 1.00446522e-01,
          7.92278573e-02, 1.66339159e-01, 1.89107120e-01, 3.11180681e-01,
          2.08424091e-01, 1.53196722e-01, 6.93063065e-02, 1.14957005e-01,
          1.26452789e-01, 1.06773987e-01, 8.79588723e-02, 2.56122410e-01,
          8.80710855e-02, 0., 0., 0., 2.01164726e-02, 0., 0., 0.,
          1.49939340e-02, 0., 0., 0., 1.07287854e-01, 0., 1.29585609e-01,
          1.94750845e-01, 1.42988876e-01, 8.88420343e-02, 8.16145465e-02,
          0., 1.03120774e-01, 0., 0., 0., 0., 0., 0., 0., 4.21433598e-02,
          0., 0., 9.88271460e-02 ]
      - [ 1.01246595e-01, 2.14800239e-01, 3.92800346e-02, 7.27195665e-02,
          2.72760600e-01, 1.06045917e-01, 1.87176585e-01, 1.80828080e-01,
          2.06690267e-01, 3.02783459e-01, 1.20113134e-01, 9.24375355e-02,
          2.86009252e-01, 7.46037960e-02, 5.23140952e-02, 4.10968475e-02,
          1.72654927e-01, 3.93900514e-01, 1.39580429e-01, 0.,
          6.85453638e-02, 0., 1.14550315e-01, 1.40875503e-01,
          1.98440209e-01, 3.43458086e-01, 5.98210953e-02, 4.00125645e-02,
          4.99968231e-02, 0., 0., 2.98643634e-02, 4.03274000e-02,
          1.95127770e-01, 8.18892345e-02, 0., 1.58863947e-01, 0., 0., 0.,
          0., 0., 0., 6.40542358e-02, 1.99359208e-01, 0., 0., 0., 0., 0.,
          2.68440004e-02, 0., 2.85157785e-02, 0., 0., 3.70015614e-02,
          2.26270445e-02, 6.57654777e-02, 1.32517451e-02, 0.,
          5.29230461e-02, 0., 0., 0. ]
      - [ 1.70449644e-01, 1.34767175e-01, 0., 1.26553744e-01,
          1.24678805e-01, 1.50877059e-01, 2.35196382e-01, 1.96537256e-01,
          2.40703896e-01, 2.12099582e-01, 2.39189342e-01, 1.83931589e-01,
          2.25590825e-01, 2.01064810e-01, 1.54409528e-01, 1.49453759e-01,
          1.46692708e-01, 1.44792274e-01, 2.38614738e-01, 3.89653668e-02,
          1.61013857e-01, 1.88289016e-01, 1.62422478e-01, 1.82899877e-01,
          1.92226321e-01, 1.63581863e-01, 1.53584450e-01, 1.35542840e-01,
          2.06866674e-02, 0., 0., 0., 8.86155367e-02, 0., 0., 0.,
          3.22970487e-02, 0., 0., 0., 8.95758998e-03, 0., 0., 0.,
          1.20401025e-01, 8.25375617e-02, 1.29110575e-01, 1.87564760e-01,
          1.67917952e-01, 1.20182842e-01, 7.43746236e-02, 0.,
          1.20401025e-01, 0., 0., 0., 0., 0., 0., 0., 0., 0., 0., 0. ]
      - [ 1.40835762e-01, 1.00964673e-01, 1.15211383e-01, 1.12151504e-01,
          1.32944733e-01, 1.08656265e-01, 1.31682128e-01, 3.70614469e-01,
          1.30488470e-01, 2.08230346e-01, 1.44363731e-01, 1.70906916e-01,
          1.77104548e-01, 1.68152750e-01, 1.29071742e-01, 2.55714267e-01,
          8.99862498e-02, 2.33494025e-02, 9.53802317e-02, 9.89515409e-02,
          1.63559198e-01, 1.00118555e-01, 2.11282164e-01, 3.04560125e-01,
          2.14456081e-01, 1.21085472e-01, 1.06408872e-01, 1.17446564e-01,
          1.22529343e-01, 9.44023430e-02, 9.44975391e-02, 2.37778500e-01,
          1.93346478e-02, 0., 0., 0., 1.67442970e-02, 0., 0., 0., 0., 0.,
          0., 0., 1.09586701e-01, 0., 1.23227201e-01, 2.21667603e-01,
          9.85282883e-02, 5.87031022e-02, 1.27758160e-01, 0.,
          1.27795294e-01, 0., 0., 0., 0., 0., 0., 0., 7.50751123e-02, 0.,
          0., 5.01994789e-02 ]
      - [ 1.70559615e-01, 9.15931240e-02, 9.28150415e-02, 1.11349240e-01,
          1.26918390e-01, 1.07086360e-01, 1.10252254e-01, 2.22083554e-01,
          2.55287647e-01, 2.41114154e-01, 1.50788069e-01, 2.13478237e-01,
          2.25200251e-01, 1.68231934e-01, 3.42128724e-02, 1.38599351e-01,
          1.63427934e-01, 1.53920069e-01, 1.53497174e-01, 1.92734450e-01,
          1.65293917e-01, 1.37566537e-01, 2.47881323e-01, 1.75968379e-01,
          2.30326176e-01, 1.54743239e-01, 1.01188406e-01, 1.23484068e-01,
          6.67693242e-02, 1.19433261e-01, 1.68432489e-01, 1.16523109e-01,
          1.32204622e-01, 9.23926085e-02, 0., 0., 9.84764397e-02, 0., 0.,
          0., 0., 0., 0., 0., 1.12321347e-01, 1.04401186e-01,
          9.55627933e-02, 1.22393459e-01, 1.63887218e-01, 8.21027160e-02,
          5.13893403e-02, 0., 7.94954821e-02, 0., 0., 0., 2.14383379e-02,
          0., 0., 0., 5.98740205e-02, 0., 0., 1.36296466e-01 ]
      - [ 1.94985464e-01, 2.43743807e-01, 1.52756438e-01, 7.21933171e-02,
          1.13647506e-01, 1.70034453e-01, 1.18846633e-01, 2.22014114e-01,
          2.50376612e-01, 2.80230999e-01, 2.00941414e-01, 1.56461090e-01,
          2.07028091e-01, 1.57140598e-01, 9.32280496e-02, 0.,
          1.47667423e-01, 2.52742320e-01, 8.23952779e-02, 5.98175637e-02,
          1.00346945e-01, 7.63253942e-02, 4.70437258e-02, 1.63003370e-01,
          2.64174759e-01, 2.54155159e-01, 7.34383687e-02, 1.05677307e-01,
          1.84938282e-01, 5.33555560e-02, 7.16148093e-02, 9.98979583e-02,
          1.34421781e-01, 9.51278508e-02, 8.79146308e-02, 0.,
          1.07758403e-01, 0., 0., 0., 1.50523474e-02, 0., 0., 0.,
          1.07758403e-01, 7.13794678e-02, 1.33395061e-01, 9.71334800e-02,
          5.58155961e-02, 6.46377802e-02, 6.39508292e-02, 0.,
          6.97948635e-02, 0., 0., 0., 0., 0., 0., 0., 1.75497606e-01, 0.,
          6.05193526e-02, 3.59246247e-02 ]
      - [ 1.29974067e-01, 9.73663256e-02, 1.63545534e-01, 0.,
          2.18872547e-01, 2.21682832e-01, 1.62636682e-01, 1.57718450e-01,
          1.97733343e-01, 2.29886919e-01, 1.19234920e-01, 1.25992790e-01,
          2.65814006e-01, 9.85860676e-02, 2.05393627e-01, 0.,
          1.22604847e-01, 0., 1.28388807e-01, 1.72581196e-01,
          1.47867486e-01, 2.47692347e-01, 2.12932393e-01, 9.95544270e-02,
          1.67561159e-01, 1.24250486e-01, 1.69981256e-01, 1.54634088e-01,
          1.31376386e-01, 2.47285187e-01, 1.51557818e-01, 5.84468208e-02,
          7.65087381e-02, 1.06575184e-01, 8.38459507e-02, 0.,
          1.07008331e-01, 0., 0., 0., 1.95587035e-02, 0., 0., 0.,
          1.39073670e-01, 1.01481192e-01, 7.87205994e-02, 9.59788263e-02,
          1.58505887e-01, 8.99160057e-02, 6.39811382e-02, 0.,
          1.00874379e-01, 0., 0., 0., 0., 0., 0., 0., 8.03257301e-02, 0.,
          0., 1.34039715e-01 ]
      - [ 2.39877552e-01, 1.25491858e-01, 1.22660547e-01, 1.32489517e-01,
          1.19781800e-01, 7.49545097e-02, 1.24823667e-01, 2.57634878e-01,
          3.49090725e-01, 1.43880010e-01, 1.43130854e-01, 1.56653315e-01,
          1.94061339e-01, 1.46653384e-01, 1.06418900e-01, 1.29228696e-01,
          2.21244216e-01, 1.11322731e-01, 1.22376628e-01, 8.96982774e-02,
          9.79919732e-02, 1.44867674e-01, 1.58299506e-01, 2.87150919e-01,
          2.57366300e-01, 8.36487263e-02, 1.39084056e-01, 1.25112653e-01,
          7.87087604e-02, 1.40870050e-01, 9.32774991e-02, 1.05127431e-01,
          1.23136833e-01, 0., 0., 0., 4.98448536e-02, 0., 0., 0.,
          9.41979233e-03, 0., 0., 0., 1.09953627e-01, 0., 1.49530992e-01,
          1.44131973e-01, 1.68120578e-01, 1.43252864e-01, 0., 0.,
          9.89078134e-02, 0., 0., 0., 0., 0., 0., 0., 2.15834547e-02, 0.,
          0., 9.44424644e-02 ]
      - [ 1.10900104e-01, 2.36965716e-01, 0., 1.50140096e-02,
          2.74925053e-01, 1.74481079e-01, 1.58059433e-01, 9.99505743e-02,
          2.36405522e-01, 3.11770588e-01, 1.27030045e-01, 7.74895847e-02,
          3.09848338e-01, 0., 0., 0., 1.17707886e-01, 4.25851256e-01, 0.,
          9.43805501e-02, 5.47626661e-03, 0., 1.14941552e-01,
          8.64265710e-02, 2.23092332e-01, 3.49178165e-01, 0., 0.,
          1.97449606e-02, 0., 0., 0., 2.19050664e-02, 2.31920257e-01, 0.,
          0., 1.47452995e-01, 0., 0., 0., 0., 0., 0., 0., 1.95041835e-01,
          0., 7.46911764e-02, 0., 0., 2.21263040e-02, 0., 0., 0., 0., 0.,
          1.23873502e-02, 4.00728509e-02, 0., 0., 0., 1.73174758e-02, 0.,
          0., 0. ]
      - [ 2.15061277e-01, 1.09956309e-01, 4.75168675e-02, 1.68793082e-01,
          2.68942028e-01, 1.80231974e-01, 1.41464040e-01, 1.18813246e-01,
          2.68867821e-01, 6.13091104e-02, 1.16101757e-01, 2.53209561e-01,
          2.26467028e-01, 1.72417596e-01, 1.80951580e-01, 1.56347468e-01,
          1.00937091e-01, 0., 1.51652321e-01, 1.35033190e-01,
          2.00901166e-01, 1.72568187e-01, 1.79651722e-01, 1.92064345e-01,
          2.05881655e-01, 1.34273335e-01, 1.42216921e-01, 1.91324711e-01,
          1.75189048e-01, 1.81824267e-01, 5.89658953e-02, 0.,
          6.72166944e-02, 0., 0., 0., 4.94337380e-02, 0., 0.,
