%YAML:1.0
---
opencv_ml_svm:
   format: 3
   svmType: C_SVC
   kernel:
      type: RBF
      gamma: 5.3830000000000000e+00
   C: 2.6699999999999999e+00
   term_criteria: { epsilon:1.1920928955078125e-07, iterations:1000 }
   var_count: 64
   class_count: 24
   class_labels: !!opencv-matrix
      rows: 24
      cols: 1
      dt: i
      data: [ 0, 1, 2, 3, 4, 5, 6, 7, 8, 9, 10, 11, 12, 13, 14, 15, 16,
          17, 18, 19, 20, 21, 22, 23 ]
   sv_total: 1958
   support_vectors:
      - [ 2.60001481e-01, 5.01214527e-02, 0., 0., 8.12470689e-02,
          3.90974134e-02, 1.09307274e-01, 3.09563458e-01, 2.79265046e-01,
          2.34424680e-01, 1.58819094e-01, 1.68435156e-01, 1.82346597e-01,
          1.55848294e-01, 2.42955148e-01, 1.71009764e-01, 3.47112238e-01,
          1.69986680e-01, 3.60932536e-02, 1.08950302e-01, 1.12721957e-01,
          1.06625505e-01, 1.19390674e-01, 3.71784598e-01, 1.00301094e-01,
          7.02685490e-02, 0., 4.75454926e-02, 5.71734831e-02,
          5.08703962e-02, 0., 1.40552551e-01, 1.88343182e-01,
          8.84424597e-02, 0., 0., 9.11856890e-02, 0., 0., 0.,
          9.75745730e-03, 0., 0., 0., 1.29427060e-01, 8.86611193e-02, 0.,
          8.75635743e-02, 0., 0., 7.02807307e-02, 0., 5.49082793e-02, 0.,
          0., 0., 2.45557297e-02, 0., 2.28146669e-02, 2.77054366e-02,
          6.23491667e-02, 3.23134251e-02, 0., 2.98474748e-02 ]
      - [ 4.63779986e-01, 3.42919081e-02, 0., 0., 0., 0., 0., 0.,
          4.76838619e-01, 1.58775598e-01, 1.10234894e-01, 1.55608535e-01,
          0., 1.12655103e-01, 1.47624791e-01, 9.57962498e-02,
          4.35512513e-01, 9.10412446e-02, 1.19903266e-01, 0.,
          1.44601300e-01, 1.19076021e-01, 7.99673349e-02, 1.62703887e-01,
          4.01266277e-01, 5.63854128e-02, 0., 0., 0., 0., 0., 0.,
          5.70675172e-02, 1.09874085e-02, 0., 0., 9.10029653e-03, 0., 0.,
          0., 0., 0., 0., 0., 1.11455414e-02, 0., 3.31990384e-02,
          3.72466445e-02, 1.99181549e-02, 1.10394787e-02, 0., 0.,
          6.43488159e-03, 0., 0., 0., 0., 0., 0., 0., 0., 0., 0., 0. ]
      - [ 2.74520487e-01, 8.90048221e-02, 1.16357557e-01, 1.09698519e-01,
          1.52625278e-01, 1.28710225e-01, 1.67164430e-01, 1.80308655e-01,
          3.68634671e-01, 1.13139249e-01, 1.15519419e-01, 1.44607395e-01,
          2.57696152e-01, 1.74037680e-01, 0., 1.33429363e-01,
          1.92823961e-01, 8.84899125e-02, 2.20939308e-01, 2.15941355e-01,
          2.00929657e-01, 8.81279856e-02, 9.12427381e-02, 8.86807218e-02,
          2.73134142e-01, 1.08221084e-01, 1.48419425e-01, 1.59358010e-01,
          1.37066126e-01, 1.01839215e-01, 1.08710095e-01, 1.25899687e-01,
          2.10179072e-02, 0., 3.00952643e-02, 0., 3.60761434e-02, 0., 0.,
          3.41345593e-02, 1.08773671e-02, 3.83342616e-02, 0., 0.,
          1.30437717e-01, 1.20849781e-01, 8.47321525e-02, 5.81454150e-02,
          1.31399587e-01, 1.24791287e-01, 0., 0., 1.24021061e-01,
          3.34227309e-02, 0., 0., 2.99868304e-02, 0., 0., 0.,
          1.45935183e-02, 0., 0., 0. ]
      - [ 2.45222658e-01, 8.62229019e-02, 8.65746737e-02, 1.29422545e-01,
          1.71469495e-01, 1.27456114e-01, 1.50156260e-01, 2.74379581e-01,
          2.66840577e-01, 6.19766451e-02, 1.11594893e-01, 1.91123605e-01,
          2.34029189e-01, 1.84759706e-01, 8.58998299e-02, 1.69329822e-01,
          1.63702846e-01, 1.52510524e-01, 1.21049635e-01, 2.64482737e-01,
          7.09927306e-02, 8.70640725e-02, 8.36334750e-02, 2.51538992e-01,
          2.40989298e-01, 1.44371495e-01, 1.50328249e-01, 1.32182404e-01,
          1.34610370e-01, 1.03040613e-01, 1.02715880e-01, 1.98979422e-01,
          5.35424575e-02, 0., 0., 0., 5.86356074e-02, 0., 0., 0.,
          3.08096018e-02, 0., 0., 0., 1.22687005e-01, 8.84193555e-02,
          1.07886933e-01, 1.14505932e-01, 1.01328120e-01, 1.36200592e-01,
          3.16359475e-02, 0., 1.14984520e-01, 0., 0., 0., 1.34464130e-02,
          0., 0., 0., 0., 0., 0., 4.69943061e-02 ]
      - [ 1.21641286e-01, 0., 8.80075842e-02, 9.25743580e-02,
          1.21438876e-01, 7.06812143e-02, 8.64171833e-02, 1.78957760e-01,
          3.87735128e-01, 1.45308182e-01, 1.55967936e-01, 4.51909676e-02,
          1.51634455e-01, 1.09666541e-01, 2.60491312e-01, 2.72799373e-01,
          9.84108821e-02, 1.53859138e-01, 1.62944153e-01, 2.07956478e-01,
          1.66109577e-01, 1.87763229e-01, 1.17825843e-01, 1.82429522e-01,
          3.48606348e-01, 6.25269711e-02, 1.07334472e-01, 1.28710166e-01,
          1.38585567e-01, 7.26127625e-02, 1.02882989e-01, 5.18191904e-02,
          8.68161023e-02, 0., 0., 0., 4.12922874e-02, 0., 0., 0.,
          1.16792228e-02, 0., 0., 0., 1.03593506e-01, 5.47246188e-02,
          1.14175439e-01, 1.16792709e-01, 6.68617338e-02, 0., 0.,
          7.15719387e-02, 1.83507785e-01, 0., 0., 0., 2.40773354e-02, 0.,
          0., 0., 1.11106187e-01, 0., 1.55319244e-01, 0. ]
      - [ 2.35363275e-01, 9.76782292e-02, 1.28512174e-01, 1.98139891e-01,
          1.33280709e-01, 1.46778613e-01, 1.88384935e-01, 3.00729424e-01,
          2.23713264e-01, 1.26792490e-01, 1.36170432e-01, 2.13923141e-01,
          2.78173596e-01, 0., 5.33402115e-02, 2.15516970e-01,
          2.92585641e-01, 1.47417292e-01, 5.19458465e-02, 7.88271651e-02,
          1.33812726e-01, 3.54682952e-02, 1.21943824e-01, 2.99275398e-01,
          2.15661749e-01, 0., 3.23204026e-02, 4.07966487e-02,
          7.80731440e-02, 4.45141792e-02, 7.43146464e-02, 2.37543687e-01,
          8.23783726e-02, 1.04674220e-01, 8.53370354e-02, 4.00005355e-02,
          1.07465431e-01, 0., 0., 0., 0., 0., 0., 0., 1.00650601e-01,
          1.09058425e-01, 0., 1.26176506e-01, 3.67385671e-02,
          3.73784527e-02, 0., 0., 7.19795078e-02, 3.87562215e-02,
          4.41739075e-02, 0., 4.66051027e-02, 4.65787090e-02, 0.,
          2.93397773e-02, 7.17781633e-02, 0., 0., 0. ]
      - [ 2.96406746e-01, 1.59516796e-01, 7.66055658e-02, 9.35920328e-02,
          1.59032613e-01, 1.23742566e-01, 1.75820947e-01, 1.78511769e-01,
          3.63815427e-01, 1.57762200e-01, 9.41464603e-02, 9.35537145e-02,
          2.24005640e-01, 2.00063869e-01, 3.32290754e-02, 0.,
          2.05212191e-01, 7.78831691e-02, 2.10461959e-01, 2.25002661e-01,
          2.39136457e-01, 9.05024633e-02, 0., 0., 2.29068503e-01,
          1.87154830e-01, 1.29389554e-01, 1.98517829e-01, 1.33190215e-01,
          9.72417668e-02, 1.10995978e-01, 1.04094043e-01, 0., 0., 0., 0.,
          4.12218161e-02, 0., 3.87708470e-02, 4.92306501e-02,
          4.72903699e-02, 0., 0., 0., 1.35538846e-01, 7.67376125e-02,
          1.31087169e-01, 5.36625050e-02, 1.15920566e-01, 9.00251195e-02,
          9.92186442e-02, 0., 1.25128999e-01, 0., 0., 0., 1.70674548e-02,
          1.49379950e-02, 0., 0., 1.70674548e-02, 0., 0., 0. ]
      - [ 8.42903629e-02, 4.39544320e-02, 2.07455754e-02, 0.,
          7.55925402e-02, 1.94353443e-02, 2.29826309e-02, 3.45815599e-01,
          2.11604893e-01, 2.09892184e-01, 1.46582916e-01, 1.68005288e-01,
          2.40341127e-01, 1.70029595e-01, 1.76254034e-01, 2.32562631e-01,
          2.43247330e-01, 1.10065058e-01, 1.25090912e-01, 1.98353171e-01,
          1.33687690e-01, 1.32755697e-01, 1.84543699e-01, 3.87136728e-01,
          1.75000191e-01, 0., 0., 2.79776156e-02, 3.06316428e-02, 0.,
          1.41110923e-02, 2.24148467e-01, 1.69913787e-02, 0., 0., 0., 0.,
          0., 0., 0., 0., 0., 0., 0., 1.15865752e-01, 7.61339292e-02,
          8.59914273e-02, 2.30801433e-01, 6.81244358e-02, 4.59182523e-02,
          0., 0., 1.01569213e-01, 8.90785754e-02, 8.36811066e-02,
          6.53892681e-02, 7.71780834e-02, 0., 0., 0., 5.52764125e-02, 0.,
          0., 0. ]
      - [ 1.93343475e-01, 1.41202912e-01, 7.83252940e-02, 1.15587912e-01,
          7.30645284e-02, 1.34681538e-01, 1.23764679e-01, 1.74263477e-01,
          3.30176175e-01, 1.72398031e-01, 1.53661907e-01, 1.83435187e-01,
          2.23698527e-01, 1.27866045e-01, 1.38110802e-01, 1.55015215e-01,
          2.15615675e-01, 1.70370743e-01, 1.22420758e-01, 1.78678676e-01,
          1.05802126e-01, 1.09247901e-01, 1.33878529e-01, 1.95388228e-01,
          3.24501187e-01, 1.26187161e-01, 8.35422203e-02, 1.13302425e-01,
          1.27025187e-01, 8.50223750e-02, 9.62435007e-02, 1.59820452e-01,
          1.68577343e-01, 0., 0., 0., 7.60465115e-02, 0., 0., 0.,
          1.35495225e-02, 0., 0., 0., 8.47522393e-02, 0., 1.16925411e-01,
          1.63441479e-01, 1.00927837e-01, 1.17040768e-01, 5.07340059e-02,
          0., 8.36621299e-02, 0., 0., 0., 0., 0., 0., 0., 6.53334334e-02,
          0., 0., 1.67272940e-01 ]
      - [ 3.92857701e-01, 8.88118148e-03, 0., 0., 0., 0., 0., 0.,
          3.88902158e-01, 1.20712437e-01, 1.19438514e-01, 9.86327007e-02,
          6.95166066e-02, 9.74051431e-02, 1.32622257e-01, 1.57643676e-01,
          2.44901627e-01, 1.01891104e-02, 0., 1.70357868e-01,
          3.35841507e-01, 9.98602882e-02, 1.46232188e-01, 0.,
          3.10111105e-01, 7.37881288e-02, 0., 0., 3.94787252e-01,
          6.87440783e-02, 1.67272732e-01, 1.25554711e-01, 0., 0., 0., 0.,
          0., 0., 0., 0., 0., 0., 0., 0., 0., 0., 0., 0., 6.87512606e-02,
          0., 1.01620138e-01, 0., 7.58266822e-02, 0., 0., 0., 0., 0., 0.,
          0., 1.37687370e-01, 1.05235495e-01, 9.48110893e-02, 0. ]
      - [ 1.44351929e-01, 2.08961666e-01, 0., 2.26186112e-01,
          2.50272244e-01, 1.61661148e-01, 1.19475640e-01, 3.88227403e-02,
          1.96398765e-01, 2.60362297e-01, 1.13747306e-01, 3.18892330e-01,
          2.61011362e-01, 2.66574323e-02, 4.46574055e-02, 0.,
          8.94596726e-02, 2.51385719e-01, 6.04180247e-02, 1.42203346e-01,
          1.43194020e-01, 0., 1.18680120e-01, 2.18157042e-02,
          1.73490062e-01, 3.15936953e-01, 0., 0., 2.56220728e-01,
          1.36984602e-01, 5.70809841e-02, 8.86737108e-02, 6.39802590e-02,
          1.68655425e-01, 0., 0., 1.25737190e-01, 0., 0., 0.,
          8.57520476e-03, 0., 0., 0., 1.86108544e-01, 0., 2.40030792e-02,
          0., 5.07315993e-02, 2.31977385e-02, 7.84182921e-02, 0.,
          7.22559616e-02, 0., 0., 0., 0., 0., 0., 0., 1.83636025e-01, 0.,
          2.31856983e-02, 0. ]
      - [ 2.74656504e-01, 7.62600452e-02, 0., 5.44299670e-02,
          5.86120188e-02, 0., 2.06551496e-02, 1.49358377e-01,
          3.99049222e-01, 1.94649175e-01, 1.60216272e-01, 5.10430299e-02,
          2.29016408e-01, 1.36079580e-01, 1.34423941e-01, 1.56199902e-01,
          2.93786556e-01, 1.88632280e-01, 1.28404438e-01, 7.83336163e-02,
          2.06156865e-01, 1.23801656e-01, 1.66054308e-01, 1.60522670e-01,
          3.63847971e-01, 3.05404458e-02, 0., 3.27342041e-02,
          9.15436372e-02, 0., 0., 8.17419589e-02, 6.13936000e-02, 0., 0.,
          0., 7.40715936e-02, 0., 0., 0., 1.37954235e-01, 1.05267897e-01,
          7.88359717e-02, 0., 1.36985749e-01, 2.18449421e-02, 0.,
          7.66740367e-02, 2.54135996e-01, 0., 0., 0., 1.01738743e-01, 0.,
          0., 0., 0., 0., 0., 0., 0., 0., 0., 0. ]
      - [ 5.63087724e-02, 0., 6.94534108e-02, 0., 1.06855445e-01,
          3.08321249e-02, 6.24583997e-02, 3.44286680e-01, 1.98874965e-01,
          1.79377094e-01, 1.83824360e-01, 1.90979391e-01, 1.81587577e-01,
          3.43855441e-01, 9.58314016e-02, 9.37674120e-02, 2.20767736e-01,
          1.09986752e-01, 8.84501263e-02, 8.03163350e-02, 1.31188497e-01,
          2.96114534e-01, 1.76884413e-01, 2.76616871e-01, 2.41702765e-01,
          4.57923524e-02, 0., 0., 4.40940298e-02, 5.37843183e-02,
          6.26592189e-02, 2.36440197e-01, 4.57585379e-02, 0., 0., 0., 0.,
          0., 0., 0., 0., 0., 0., 0., 1.29309088e-01, 8.80601034e-02,
          1.28327072e-01, 1.83861017e-01, 6.73717409e-02, 5.84090203e-02,
          0., 0., 1.48655444e-01, 1.39724329e-01, 0., 0., 3.28151472e-02,
          0., 0., 0., 2.94524971e-02, 0., 0., 6.83550462e-02 ]
      - [ 7.76669458e-02, 0., 0., 0., 0., 0., 1.55949080e-02,
          4.62149054e-01, 1.79446384e-01, 7.15823472e-02, 1.12852670e-01,
          1.53305203e-01, 8.08248296e-03, 1.15753271e-01, 1.60470724e-01,
          4.72424895e-01, 1.80308267e-01, 1.57900408e-01, 0.,
          1.20465972e-01, 0., 1.21210769e-01, 1.11384697e-01,
          4.25443649e-01, 9.93707925e-02, 0., 0., 0., 0., 0., 0.,
          3.89053911e-01, 2.03263685e-02, 0., 0., 0., 0., 0., 0., 0., 0.,
          0., 0., 0., 9.09022801e-03, 0., 1.46282688e-02, 8.08248296e-03,
          2.24691834e-02, 1.64118297e-02, 0., 0., 9.09022801e-03, 0., 0.,
          0., 0., 0., 0., 0., 0., 0., 0., 3.53998654e-02 ]
      - [ 1.08790562e-01, 1.29288241e-01, 1.26447201e-01, 1.07883349e-01,
          1.03070207e-01, 1.41659304e-01, 1.32391542e-01, 2.68235803e-01,
          1.60519406e-01, 1.77845195e-01, 1.76885173e-01, 2.11081937e-01,
          2.43477300e-01, 1.58103079e-01, 1.96818292e-01, 2.35769957e-01,
          1.60171822e-01, 1.42678037e-01, 1.54337138e-01, 1.80116162e-01,
          1.55838221e-01, 8.52400959e-02, 1.61519453e-01, 3.27411085e-01,
          1.61973372e-01, 8.27260315e-02, 1.11972786e-01, 1.65514499e-01,
          4.92518283e-02, 1.07028536e-01, 1.18666530e-01, 1.42496407e-01,
          1.20582372e-01, 0., 0., 0., 4.55983318e-02, 2.99225673e-02, 0.,
          0., 2.08126958e-02, 0., 0., 0., 9.70148519e-02, 0.,
          1.15679651e-01, 1.44652367e-01, 1.09499879e-01, 1.36540785e-01,
          0., 0., 1.08745091e-01, 0., 0., 0., 0., 0., 0., 0.,
          7.56162778e-02, 0., 0., 1.16516739e-01 ]
      - [ 2.08951667e-01, 9.22418162e-02, 8.25967416e-02, 1.20907567e-01,
          1.36830971e-01, 8.04889873e-02, 1.16559632e-01, 2.98531502e-01,
          2.32137606e-01, 1.62147999e-01, 1.35643139e-01, 1.98496863e-01,
          1.56293973e-01, 2.04130143e-01, 1.18523411e-01, 2.00171635e-01,
          1.47645608e-01, 7.65276104e-02, 9.84940678e-02, 1.30721509e-01,
          8.37272108e-02, 1.30439937e-01, 1.99279219e-01, 3.26082766e-01,
          2.18144104e-01, 8.63263234e-02, 1.04328603e-01, 1.60166234e-01,
          8.89203101e-02, 1.00373633e-01, 8.65453407e-02, 2.45683685e-01,
          1.40226334e-01, 0., 0., 0., 3.20834778e-02, 0., 0., 0.,
          1.23817353e-02, 0., 1.46867409e-02, 0., 8.80509689e-02,
          6.55775368e-02, 8.68442059e-02, 1.68033659e-01, 1.33787125e-01,
          9.03212577e-02, 7.76722282e-02, 0., 8.80509689e-02, 0., 0., 0.,
          0., 0., 0., 0., 5.27392998e-02, 0., 0., 1.63860589e-01 ]
      - [ 8.52535814e-02, 8.76175985e-02, 7.38509968e-02, 8.23527649e-02,
          1.10802591e-01, 8.51750374e-02, 1.13380909e-01, 8.16666335e-02,
          3.65543902e-01, 1.44501224e-01, 2.91362375e-01, 5.06565981e-02,
          1.93859681e-01, 1.64410353e-01, 2.35065714e-01, 1.92066327e-01,
          2.82265723e-01, 1.78249285e-01, 1.10023029e-01, 1.92023784e-01,
          1.93543226e-01, 1.27919078e-01, 1.79023400e-01, 2.26767644e-01,
          2.94877917e-01, 4.48173918e-02, 0., 0., 8.16970170e-02,
          3.22205350e-02, 0., 3.27480882e-02, 9.86947194e-02, 0., 0., 0.,
          4.68139760e-02, 0., 0., 3.44323702e-02, 3.53320017e-02,
          5.26573248e-02, 1.23789594e-01, 6.55785352e-02, 1.35003388e-01,
          0., 0., 8.73546302e-02, 2.31265292e-01, 9.21558589e-02, 0., 0.,
          1.22393645e-01, 0., 0., 0., 0., 0., 0., 0., 0., 0., 0., 0. ]
      - [ 1.55691430e-01, 9.26945806e-02, 7.22983927e-02, 1.21456131e-01,
          8.12508315e-02, 1.26090199e-01, 1.35435969e-01, 3.42468947e-01,
          1.67502657e-01, 2.04171523e-01, 1.23000078e-01, 1.44897997e-01,
          1.58311710e-01, 1.94028556e-01, 1.47371754e-01, 2.85349816e-01,
          1.09841943e-01, 1.08294375e-01, 5.74879982e-02, 0.,
          3.12966295e-02, 1.26177490e-01, 1.86315775e-01, 3.53836060e-01,
          1.96187884e-01, 1.29774287e-01, 1.18145220e-01, 0.,
          1.32359922e-01, 5.60939461e-02, 1.27053887e-01, 2.72492945e-01,
          0., 0., 0., 0., 3.39894556e-02, 0., 0., 0., 6.89933524e-02, 0.,
          0., 0., 7.89207369e-02, 0., 7.28723928e-02, 2.11718380e-01,
          1.34801865e-01, 1.20900989e-01, 0., 0., 9.53497514e-02, 0., 0.,
          0., 0., 0., 0., 0., 7.36532956e-02, 0., 0., 1.53280526e-01 ]
      - [ 7.39030614e-02, 0., 1.16107464e-01, 6.18406311e-02,
          1.43952921e-01, 7.75942504e-02, 1.07023254e-01, 2.00474039e-01,
          1.76010609e-01, 2.99559861e-01, 1.85520723e-01, 1.56153932e-01,
          1.20705225e-01, 3.04995924e-01, 1.76968291e-01, 9.07200426e-02,
          2.88401961e-01, 1.45283729e-01, 1.22734837e-01, 1.97024852e-01,
          6.85961545e-02, 1.87829629e-01, 2.16254056e-01, 3.48583847e-01,
          2.01657683e-01, 4.51451950e-02, 3.58984210e-02, 0.,
          3.55018824e-02, 0., 0., 1.59519553e-01, 9.81621742e-02, 0., 0.,
          0., 0., 0., 0., 0., 0., 0., 0., 0., 1.22640043e-01, 0.,
          1.37780130e-01, 2.06232697e-01, 0., 7.88229108e-02, 0., 0.,
          1.19634263e-01, 1.16730340e-01, 6.11294024e-02, 0.,
          7.31588081e-02, 0., 3.58793288e-02, 0., 6.58887103e-02, 0., 0.,
          0. ]
      - [ 1.93791434e-01, 1.56786531e-01, 5.96001334e-02, 1.06498308e-01,
          1.36651963e-01, 1.26289994e-01, 1.34686872e-01, 3.17386091e-01,
          1.05317108e-01, 1.58598289e-01, 1.39091775e-01, 2.36951232e-01,
          2.34545812e-01, 2.19718918e-01, 1.28207162e-01, 1.63180977e-01,
          2.48824656e-01, 1.25967354e-01, 2.81326901e-02, 1.13210954e-01,
          2.22665388e-02, 1.20295867e-01, 2.94904292e-01, 3.22967857e-01,
          1.39750347e-01, 0., 0., 0., 4.25528288e-02, 0., 6.37222081e-02,
          2.32063055e-01, 1.35634378e-01, 1.24638438e-01, 0., 0.,
          8.25338885e-02, 0., 0., 0., 3.65581848e-02, 0., 3.49215269e-02,
          0., 8.26643780e-02, 6.12593964e-02, 8.03234130e-02,
          1.29119992e-01, 0., 6.12869188e-02, 0., 7.09669441e-02,
          6.64761290e-02, 0., 0., 0., 1.13727218e-02, 0., 0., 0.,
          1.06179245e-01, 0., 9.81396958e-02, 1.52436674e-01 ]
      - [ 7.83635527e-02, 0., 1.18955940e-01, 6.27253875e-02,
          1.24638543e-01, 3.65821123e-02, 1.03552014e-01, 1.47944912e-01,
          3.14083576e-01, 1.59950122e-01, 2.96700269e-01, 1.21046528e-01,
          1.69545218e-01, 1.91208303e-01, 2.66267508e-01, 1.12287745e-01,
          2.75939584e-01, 1.63542375e-01, 1.48586050e-01, 1.66186154e-01,
          1.78186268e-01, 1.86184481e-01, 1.13011666e-01, 2.77106822e-01,
          2.97903568e-01, 0., 0., 0., 8.23937729e-02, 3.58025134e-02, 0.,
          8.25879723e-02, 1.08294420e-01, 0., 0., 0., 5.36026135e-02, 0.,
          0., 0., 7.50586716e-03, 0., 8.70436504e-02, 1.19787455e-01,
          1.46508679e-01, 0., 5.43598756e-02, 9.93024781e-02,
          1.97579160e-01, 9.43370089e-02, 0., 0., 1.07598640e-01, 0., 0.,
          0., 0., 0., 0., 0., 0., 0., 0., 8.93645883e-02 ]
      - [ 2.60356516e-01, 0., 0., 0., 0., 0., 5.39371045e-03,
          4.07317013e-01, 2.57517517e-01, 1.54524624e-01, 1.18111372e-01,
          0., 1.55225351e-01, 1.14463896e-01, 7.30147213e-02,
          4.21005160e-01, 1.98831975e-01, 9.09528211e-02, 1.22453615e-01,
          0., 1.44305542e-01, 0., 1.47291526e-01, 4.18449610e-01,
          1.09418713e-01, 2.47729439e-02, 0., 0., 0., 0., 0.,
          3.84536982e-01, 2.02836040e-02, 0., 0., 0., 0., 0., 0., 0., 0.,
          0., 0., 0., 9.07110330e-03, 0., 1.45974923e-02, 8.06547794e-03,
          2.12736223e-02, 1.33893117e-02, 0., 0., 9.07110330e-03, 0., 0.,
          0., 0., 0., 0., 0., 0., 0., 0., 0. ]
      - [ 1.27925172e-01, 1.19836502e-01, 1.76915690e-01, 2.50625908e-01,
          1.05809391e-01, 0., 6.07927255e-02, 2.86630809e-01,
          1.57651544e-01, 0., 1.20924808e-01, 3.61488223e-01,
          1.35801494e-01, 1.73170954e-01, 1.71426833e-01, 2.06022978e-01,
          1.69959754e-01, 1.38696149e-01, 1.28637090e-01, 2.71392226e-01,
          5.89979030e-02, 2.84789484e-02, 9.35041383e-02, 3.02712172e-01,
          1.98336974e-01, 0., 0., 2.39882961e-01, 1.68249622e-01,
          7.16792271e-02, 1.16502464e-01, 9.42360684e-02, 9.98641700e-02,
          9.84352604e-02, 0., 2.44780239e-02, 7.26624206e-02,
          4.09569703e-02, 0., 0., 0., 0., 0., 0., 4.86330278e-02,
          3.82669643e-02, 7.66637772e-02, 1.34006487e-02, 4.47974540e-02,
          6.25105873e-02, 0., 8.73656869e-02, 9.73887891e-02, 0., 0., 0.,
          0., 0., 0., 7.98684806e-02, 1.50229201e-01, 3.85415480e-02,
          3.68137620e-02, 0. ]
      - [ 4.66669053e-01, 0., 0., 0., 0., 0., 0., 0., 4.88889992e-01,
          5.90563007e-02, 1.44159332e-01, 1.21661402e-01, 1.17532760e-01,
          0., 1.54390782e-01, 1.31900236e-01, 4.30423677e-01,
          1.57214150e-01, 0., 1.19326383e-01, 0., 1.19588166e-01,
          1.57350495e-01, 1.36232510e-01, 4.06049848e-01, 9.66112223e-03,
          0., 0., 0., 0., 0., 0., 2.82620750e-02, 9.66112223e-03, 0., 0.,
          6.46078167e-03, 0., 0., 0., 0., 0., 0., 0., 9.13692545e-03, 0.,
          1.10316323e-02, 2.18790043e-02, 2.29163282e-02, 9.66112223e-03,
          0., 0., 6.46078167e-03, 0., 0., 0., 0., 0., 0., 0., 0., 0., 0.,
          0. ]
      - [ 3.19123983e-01, 1.50849223e-02, 0., 3.07385176e-02,
          1.02312930e-01, 0., 2.71159142e-01, 1.91621587e-01,
          3.39022130e-01, 1.63021147e-01, 1.52358353e-01, 1.18492737e-01,
          1.46161392e-01, 1.84795514e-01, 3.10824305e-01, 1.48048088e-01,
          3.81979138e-01, 9.84875783e-02, 8.04731697e-02, 0.,
          3.55630778e-02, 2.41570640e-02, 3.03665757e-01, 2.66609073e-01,
          1.16240911e-01, 4.59473506e-02, 3.09892017e-02, 5.39958403e-02,
          6.32655621e-02, 3.78845446e-02, 3.46753448e-02, 1.10369846e-01,
          1.62044346e-01, 0., 0., 0., 4.66051586e-02, 0., 0., 0., 0., 0.,
          0., 0., 5.52435927e-02, 0., 5.76305650e-02, 1.20752320e-01,
          4.02760096e-02, 0., 0., 2.65417229e-02, 3.18949036e-02,
          2.79255640e-02, 0., 3.22246626e-02, 2.84487102e-02, 0., 0., 0.,
          2.67366581e-02, 2.59078871e-02, 3.43068950e-02, 0. ]
      - [ 3.18935812e-02, 8.34400728e-02, 8.08873624e-02, 6.68400899e-02,
          9.10467356e-02, 9.90357995e-02, 1.15946256e-01, 2.03200117e-01,
          3.38226497e-01, 1.86986774e-01, 8.83071721e-02, 1.36901140e-01,
          1.09736703e-01, 1.20201699e-01, 1.65834293e-01, 3.35002750e-01,
          9.88758132e-02, 1.89913332e-01, 1.76919371e-01, 1.35183871e-01,
          1.59171551e-01, 2.49229535e-01, 1.51368454e-01, 7.33282268e-02,
          3.58781993e-01, 1.68870062e-01, 1.15176536e-01, 9.35040638e-02,
          9.90031585e-02, 9.33243334e-02, 1.18679315e-01, 1.11205533e-01,
          9.01954323e-02, 2.83403285e-02, 0., 0., 5.89528196e-02, 0., 0.,
          0., 0., 0., 0., 0., 7.90220276e-02, 3.12368069e-02,
          1.19795680e-01, 9.93486568e-02, 1.98891424e-02, 0., 0.,
          1.22715749e-01, 1.14747964e-01, 0., 0., 0., 0., 0., 0., 0.,
          1.04299538e-01, 0., 0., 2.17558309e-01 ]
      - [ 1.57135054e-01, 1.03613406e-01, 1.34760782e-01, 1.17313780e-01,
          1.26527831e-01, 1.64593041e-01, 5.23813739e-02, 2.01778546e-01,
          2.38830283e-01, 1.98790371e-01, 1.64139688e-01, 2.58574992e-01,
          1.74622923e-01, 1.77846581e-01, 8.59707221e-02, 2.29995668e-01,
          1.54395565e-01, 7.51307383e-02, 9.98679623e-02, 1.32890850e-01,
          1.41152322e-01, 2.13778645e-01, 1.98683232e-01, 3.19690496e-01,
          1.59878418e-01, 0., 1.22896515e-01, 1.39555827e-01,
          1.48148790e-01, 1.10134579e-01, 1.06962681e-01, 2.19422743e-01,
          8.13387558e-02, 0., 6.67795092e-02, 0., 5.04064299e-02, 0., 0.,
          0., 0., 0., 0., 0., 1.06289804e-01, 1.14332370e-01,
          1.26877591e-01, 0., 1.29772991e-01, 9.27516297e-02,
          8.32821578e-02, 0., 1.05969168e-01, 0., 0., 0., 0., 0., 0., 0.,
          6.54798746e-02, 0., 0., 1.14518866e-01 ]
      - [ 6.53236806e-02, 4.94765304e-02, 4.69852760e-02, 6.79623261e-02,
          7.27266222e-02, 1.03785381e-01, 1.48474544e-01, 3.03709805e-01,
          3.51744831e-01, 1.08638518e-01, 1.08412303e-01, 1.57250434e-01,
          9.22901630e-02, 4.84280661e-02, 0., 3.19549143e-02,
          1.22788176e-01, 1.07380822e-01, 1.55039966e-01, 1.02852613e-01,
          1.74633086e-01, 2.75711179e-01, 4.20156829e-02, 2.44520605e-01,
          2.47726768e-01, 1.95500687e-01, 1.92722633e-01, 1.43921092e-01,
          2.57821172e-01, 2.31295437e-01, 5.71295917e-02, 5.85723892e-02,
          1.78301319e-01, 0., 0., 0., 5.51759116e-02, 0., 0., 0., 0., 0.,
          0., 0., 1.73158467e-01, 8.91340002e-02, 0., 1.11038134e-01,
          1.53374001e-01, 1.30584240e-01, 8.37090835e-02, 0.,
          1.32580832e-01, 0., 0., 0., 0., 0., 0., 0., 4.34121750e-02, 0.,
          0., 8.17412511e-02 ]
      - [ 1.82448834e-01, 2.46386379e-01, 6.92455098e-02, 1.81746989e-01,
          2.52999723e-01, 1.40879750e-01, 9.53837708e-02, 1.33364215e-01,
          2.65390426e-01, 1.68583721e-01, 1.40913665e-01, 3.08671325e-01,
          2.03854978e-01, 8.70079100e-02, 0., 7.37982616e-02,
          2.07274288e-01, 2.07210675e-01, 8.61644149e-02, 1.19205527e-01,
          9.95527804e-02, 0., 8.97740349e-02, 1.07194483e-01,
          2.78713673e-01, 2.40886107e-01, 4.63539921e-02, 1.88841015e-01,
          2.03224555e-01, 1.14503972e-01, 3.26778889e-02, 9.19299200e-02,
          9.40819085e-02, 1.33602589e-01, 0., 0., 9.22590867e-02, 0.,
          2.57669520e-02, 0., 0., 0., 0., 0., 7.64162838e-02,
          6.91636875e-02, 8.43726024e-02, 8.90528709e-02, 4.81832996e-02,
          0., 0., 7.11093247e-02, 8.30867961e-02, 0., 4.43781875e-02, 0.,
          0., 0., 0., 0., 1.91408262e-01, 0., 0., 0. ]
      - [ 2.14070663e-01, 1.27690539e-01, 1.70472816e-01, 1.63567647e-01,
          1.69598728e-01, 1.80595994e-01, 1.29822925e-01, 3.41003060e-01,
          9.72057283e-02, 0., 1.27382219e-01, 3.07665914e-01,
          1.73820332e-01, 5.71107939e-02, 9.92826372e-02, 3.09397757e-01,
          1.90358952e-01, 1.31410018e-01, 3.61536555e-02, 4.80579920e-02,
          1.25804693e-01, 4.22174856e-02, 1.03678368e-01, 3.65740478e-01,
          1.60249680e-01, 4.38870862e-02, 0., 4.73832935e-02,
          9.10838544e-02, 3.68927941e-02, 7.63595477e-02, 3.32872182e-01,
          1.31590948e-01, 4.21271473e-02, 0., 2.52751466e-02,
          7.73038864e-02, 0., 0., 0., 0., 0., 0., 0., 3.52367312e-02, 0.,
          3.83497626e-02, 8.14966932e-02, 4.57630269e-02, 0., 0.,
          5.41868731e-02, 5.63895144e-02, 0., 0., 0., 0., 0., 0., 0.,
          7.00770691e-02, 5.80852516e-02, 0., 3.46538387e-02 ]
      - [ 5.68174124e-02, 7.94667304e-02, 1.08586878e-01, 6.65245354e-02,
          7.94929191e-02, 8.86271819e-02, 3.37433405e-02, 2.84890682e-01,
          3.91714662e-01, 7.26552531e-02, 1.55366182e-01, 1.01384938e-01,
          7.86540806e-02, 1.75292626e-01, 3.07880372e-01, 9.83609408e-02,
          3.06017965e-01, 1.08684354e-01, 5.77042997e-02, 4.69373465e-02,
          4.25087065e-02, 1.28732607e-01, 3.22429329e-01, 2.13460654e-01,
          2.93487936e-01, 7.19313696e-02, 3.32057886e-02, 7.90662691e-02,
          5.59169240e-02, 0., 4.95582819e-02, 1.45835683e-01,
          1.47689521e-01, 0., 0., 0., 4.85301800e-02, 0., 0., 0., 0., 0.,
          0., 0., 1.23152494e-01, 1.24036379e-01, 0., 1.59628406e-01,
          1.72359601e-01, 7.18253925e-02, 0., 0., 1.17327541e-01, 0., 0.,
          0., 3.74289341e-02, 0., 0., 0., 2.29757428e-02, 0., 0.,
          8.98660868e-02 ]
      - [ 4.44270745e-02, 3.28250602e-02, 2.91797090e-02, 3.97607274e-02,
          9.07787904e-02, 4.27517667e-02, 5.71618378e-02, 3.25299203e-01,
          1.93777382e-01, 2.06220850e-01, 1.69674322e-01, 2.39677221e-01,
          2.02730626e-01, 2.02963710e-01, 1.57135502e-01, 2.45504111e-01,
          2.33865649e-01, 1.21955834e-01, 1.56975433e-01, 1.42550826e-01,
          2.15003878e-01, 1.13691896e-01, 1.50502220e-01, 3.67367655e-01,
          1.99769288e-01, 4.20528315e-02, 0., 0., 4.31005917e-02,
          8.05630255e-03, 3.41694392e-02, 2.27132306e-01, 5.66970035e-02,
          0., 0., 0., 1.86631046e-02, 0., 0., 0., 0., 0., 0., 0.,
          1.52034223e-01, 8.90295729e-02, 6.39102459e-02, 1.64289922e-01,
          0., 0., 5.36268689e-02, 0., 1.05023153e-01, 5.02037443e-02,
          7.95434415e-02, 1.50838211e-01, 5.41444495e-02, 0., 0., 0.,
          5.38757397e-03, 0., 0., 0. ]
      - [ 3.24654549e-01, 7.11282343e-02, 3.00470069e-02, 0.,
          8.42110068e-02, 0., 0., 2.53631651e-01, 2.23252147e-01,
          2.42112771e-01, 1.53317362e-01, 1.47802189e-01, 2.04177380e-01,
          1.48178473e-01, 1.94903851e-01, 2.28582621e-01, 1.94852903e-01,
          1.18589476e-01, 1.19337402e-01, 1.14272401e-01, 1.77615836e-01,
          2.02025518e-01, 2.22677335e-01, 3.25006425e-01, 1.42280906e-01,
          0., 0., 0., 0., 0., 2.52755523e-01, 1.62373587e-01,
          9.00681540e-02, 8.71443152e-02, 0., 0., 4.79337461e-02, 0., 0.,
          0., 0., 0., 0., 0., 2.44066697e-02, 0., 1.68541912e-02,
          6.66773096e-02, 3.05953790e-02, 0., 8.22225064e-02,
          9.37319100e-02, 1.03822306e-01, 0., 0., 0., 0., 0., 0., 0.,
          1.15954615e-01, 0., 1.67584002e-01, 0. ]
      - [ 1.68956175e-01, 1.28432900e-01, 1.74763918e-01, 3.57051402e-01,
          6.14128634e-02, 0., 4.87958230e-02, 3.15443844e-01,
          1.54306501e-01, 1.14166602e-01, 1.89047456e-01, 2.88095027e-01,
          3.09910506e-01, 1.97293565e-01, 1.02379367e-01, 1.53480902e-01,
          2.08322391e-01, 1.36084974e-01, 1.53315753e-01, 1.98373154e-01,
          3.91431712e-02, 8.74387771e-02, 1.21735826e-01, 3.24863851e-01,
          9.24386010e-02, 0., 0., 0., 0., 0., 0., 2.39896074e-01,
          9.57889929e-02, 5.76435253e-02, 9.27796215e-02, 0.,
          7.69577548e-02, 0., 0., 0., 0., 0., 0., 0., 5.89651428e-02,
          2.99680363e-02, 9.46310312e-02, 6.14829548e-02, 5.42818150e-03,
          1.11807901e-02, 3.96716073e-02, 0., 2.03103945e-02, 0., 0., 0.,
          0., 0., 0., 0., 0., 0., 0., 0. ]
      - [ 3.21873993e-01, 9.45141092e-02, 1.74185246e-01, 1.41279072e-01,
          2.05080360e-01, 9.68159363e-02, 1.92330107e-01, 2.66759753e-01,
          2.87244081e-01, 1.08113915e-01, 1.09184593e-01, 2.20404789e-01,
          2.73442507e-01, 5.21444753e-02, 4.27271836e-02, 8.89145136e-02,
          2.30475917e-01, 1.19368210e-01, 6.56255335e-02, 9.59200338e-02,
          6.42496645e-02, 8.11575204e-02, 1.29548848e-01, 2.62236774e-01,
          2.54753828e-01, 3.74938026e-02, 4.06703837e-02, 6.09884523e-02,
          8.34750086e-02, 5.70461005e-02, 3.22693363e-02, 2.82921493e-01,
          4.41423468e-02, 1.04596674e-01, 1.00982875e-01, 4.01505046e-02,
          1.28752440e-01, 4.40906323e-02, 0., 0., 0., 0., 3.21459211e-02,
          0., 1.58999607e-01, 0., 1.02531023e-01, 0., 5.48506491e-02,
          5.32184727e-02, 0., 0., 4.28043902e-02, 0., 0., 0., 0., 0., 0.,
          0., 4.51197885e-02, 3.32494900e-02, 4.59756516e-02,
          5.05910143e-02 ]
      - [ 2.09245458e-01, 1.55302197e-01, 8.85214061e-02, 3.37210596e-02,
          1.92000896e-01, 1.55832678e-01, 8.50444511e-02, 9.16691422e-02,
          2.90157735e-01, 1.78470924e-01, 2.07195386e-01, 1.65897295e-01,
          2.49048099e-01, 1.61090180e-01, 6.29440993e-02, 1.48623288e-01,
          2.58304715e-01, 1.12243995e-01, 1.31987542e-01, 1.25718534e-01,
          1.38209105e-01, 1.21220350e-01, 2.30755970e-01, 2.52038568e-01,
          2.37438127e-01, 8.38006884e-02, 9.43573192e-02, 1.20133080e-01,
          1.37349069e-01, 1.36686355e-01, 1.28629923e-01, 8.83981809e-02,
          0., 0., 8.34516734e-02, 7.07840547e-02, 8.72816294e-02, 0., 0.,
          0., 3.25479172e-02, 0., 0., 0., 1.15462735e-01, 1.19754627e-01,
          1.24541380e-01, 8.41711164e-02, 1.64887056e-01, 1.35896638e-01,
          0., 0., 9.17244628e-02, 0., 0., 0., 0., 0., 0., 0.,
          3.13632488e-02, 0., 0., 8.99448171e-02 ]
      - [ 2.12681964e-01, 1.72306776e-01, 9.26396921e-02, 1.50415599e-01,
          1.16817094e-01, 2.12016076e-01, 4.90073971e-02, 2.15156570e-01,
          2.72032678e-01, 1.40804723e-01, 1.94544345e-01, 2.07607523e-01,
          1.14690870e-01, 1.42983437e-01, 1.50807649e-01, 2.09742248e-01,
          2.19976097e-01, 1.21952347e-01, 1.86456904e-01, 1.03492871e-01,
          1.33697450e-01, 1.68576106e-01, 1.72944114e-01, 2.64856964e-01,
          1.89480394e-01, 3.56631242e-02, 1.20357409e-01, 1.78547397e-01,
          1.47848293e-01, 1.50050297e-01, 1.21114314e-01, 1.79584667e-01,
          1.90270320e-02, 1.34967789e-01, 0., 0., 7.33631253e-02, 0., 0.,
          0., 0., 0., 0., 0., 1.00157395e-01, 7.22283199e-02,
          8.37438330e-02, 9.37595963e-02, 8.50914698e-03, 7.16522858e-02,
          5.76579757e-02, 2.40779426e-02, 7.45870396e-02, 0., 0., 0., 0.,
          0., 0., 0., 4.19746265e-02, 0., 6.81829453e-02, 7.38102719e-02 ]
      - [ 2.54686445e-01, 2.44661078e-01, 6.30147532e-02, 0.,
          5.24544902e-02, 0., 4.58655693e-02, 1.12649642e-01,
          3.49465996e-01, 2.36552045e-01, 2.02969387e-01, 1.54044673e-01,
          1.77720487e-01, 1.51615635e-01, 1.10663146e-01, 1.37994081e-01,
          2.11591631e-01, 1.61198243e-01, 1.76539540e-01, 1.51063874e-01,
          1.44656867e-01, 1.29311532e-01, 2.62594968e-01, 1.52876511e-01,
          2.28591785e-01, 0., 0., 0., 8.84849206e-02, 0., 8.07572976e-02,
          3.19968134e-01, 0., 1.54528603e-01, 5.51766865e-02, 0.,
          1.24652483e-01, 0., 0., 0., 9.52313654e-03, 0., 0., 0.,
          1.82216316e-01, 0., 0., 6.31570965e-02, 5.41508459e-02, 0., 0.,
          0., 6.36627823e-02, 0., 0., 0., 0., 0., 0., 0., 5.49818538e-02,
          3.81441042e-02, 8.01666752e-02, 5.96104190e-02 ]
      - [ 1.75431803e-01, 1.00678422e-01, 6.20881096e-02, 1.00701630e-01,
          1.00193523e-01, 1.35282859e-01, 9.15844589e-02, 2.49569252e-01,
          3.19585443e-01, 1.20576218e-01, 1.34629846e-01, 1.96078405e-01,
          1.88716680e-01, 1.77166000e-01, 1.75820217e-01, 1.92788824e-01,
          1.89556092e-01, 1.70930102e-01, 1.25835016e-01, 1.63878933e-01,
          9.06236470e-02, 1.41588166e-01, 1.83810905e-01, 3.22667331e-01,
          1.80097878e-01, 9.02760550e-02, 1.42085984e-01, 1.12511940e-01,
          9.40181762e-02, 9.00295228e-02, 8.70854706e-02, 1.60276577e-01,
          1.39297426e-01, 0., 0., 0., 5.36218286e-02, 0., 0., 0.,
          2.87832674e-02, 0., 2.88731046e-02, 0., 8.20078030e-02,
          4.90218587e-02, 1.12295955e-01, 1.67172700e-01, 1.34985581e-01,
          1.29680887e-01, 0., 0., 8.54990408e-02, 0., 0., 0., 0., 0., 0.,
          0., 6.28287122e-02, 0., 0., 1.42054439e-01 ]
      - [ 2.82239854e-01, 8.28336030e-02, 1.16503753e-01, 1.84392184e-01,
          1.59587428e-01, 2.16213882e-01, 1.56986132e-01, 2.58338809e-01,
          2.50972211e-01, 1.26122206e-01, 9.26944613e-02, 3.15715015e-01,
          1.48063377e-01, 5.98416626e-02, 4.35072705e-02, 2.09793746e-01,
          3.03223848e-01, 1.14163555e-01, 7.58599117e-02, 2.42101997e-02,
          1.21499926e-01, 3.36629786e-02, 1.15662180e-01, 2.97201306e-01,
          2.45412007e-01, 0., 7.92852342e-02, 2.55490728e-02,
          7.39766285e-02, 2.89864410e-02, 1.00424916e-01, 2.27673873e-01,
          6.80836886e-02, 1.16338283e-01, 8.60058963e-02, 0.,
          1.03770494e-01, 0., 3.52016799e-02, 0., 0., 0., 4.09152508e-02,
          0., 8.03442597e-02, 9.15341154e-02, 0., 9.73026156e-02,
          3.20294760e-02, 0., 4.37606871e-02, 4.21559550e-02,
          5.56537323e-02, 0., 0., 0., 1.31788664e-02, 0., 3.32575776e-02,
          4.75000292e-02, 6.71697557e-02, 0., 0., 0. ]
      - [ 3.15056622e-01, 5.42667694e-02, 4.70976010e-02, 0.,
          5.83899654e-02, 3.65591757e-02, 4.84511368e-02, 1.88839212e-01,
          4.31400806e-01, 1.69507191e-01, 9.47188959e-02, 1.14134125e-01,
          1.52980164e-01, 8.89323577e-02, 8.27808306e-02, 1.55527875e-01,
          2.40011185e-01, 1.47425666e-01, 1.62584886e-01, 9.72571820e-02,
          1.01730026e-01, 1.57740876e-01, 1.86852291e-01, 1.47718683e-01,
          3.08076262e-01, 1.16700560e-01, 1.10763691e-01, 1.37811288e-01,
          1.65729642e-01, 9.38687995e-02, 1.00781918e-01, 1.72075883e-01,
          2.06776768e-01, 0., 0., 0., 7.37967268e-02, 0., 0., 0.,
          1.28186457e-02, 0., 0., 0., 1.03783071e-01, 8.18572566e-02,
          7.71405101e-02, 7.90532008e-02, 1.78142264e-01, 0.,
          7.41069987e-02, 0., 7.16993436e-02, 0., 0., 0., 0., 0., 0., 0.,
          2.37355195e-02, 0., 0., 9.81246233e-02 ]
      - [ 3.31396461e-01, 8.82887840e-02, 0., 5.55539913e-02,
          5.21520562e-02, 5.84448464e-02, 5.85061759e-02, 3.38552266e-01,
          3.16636264e-01, 1.85616866e-01, 8.25439245e-02, 0.,
          1.51063487e-01, 6.64015487e-02, 1.12275206e-01, 3.62812668e-01,
          3.20548743e-01, 1.32010549e-01, 5.48547320e-02, 3.11792754e-02,
          1.30040437e-01, 4.27386202e-02, 1.10321507e-01, 3.14645886e-01,
          2.69367278e-01, 7.80148357e-02, 6.40651658e-02, 3.57047431e-02,
          2.92370655e-02, 0., 3.45970429e-02, 2.60654241e-01,
          2.71517634e-02, 7.36314133e-02, 3.05899959e-02, 1.82201993e-02,
          6.07553087e-02, 0., 0., 0., 1.52685596e-02, 0., 0., 0.,
          4.82834242e-02, 5.57535477e-02, 0., 6.36135936e-02, 0., 0., 0.,
          0., 4.45151180e-02, 4.62014861e-02, 2.16303933e-02, 0.,
          1.52685596e-02, 0., 0., 0., 7.74912462e-02, 2.94536240e-02,
          3.88856828e-02, 0. ]
      - [ 2.69757360e-01, 1.39537469e-01, 1.45655185e-01, 1.18919350e-01,
          1.56475648e-01, 1.79165676e-01, 1.23519301e-01, 4.98358384e-02,
          3.22579861e-01, 1.56407490e-01, 1.92578986e-01, 1.48515671e-01,
          2.62384266e-01, 1.49059609e-01, 3.68864834e-02, 7.43298903e-02,
          2.38456875e-01, 1.26269057e-01, 1.08255684e-01, 1.52225122e-01,
          1.86809167e-01, 1.73987329e-01, 1.42478451e-01, 2.23143011e-01,
          1.65406689e-01, 4.03896868e-02, 0., 9.57344994e-02,
          2.68279374e-01, 1.32417798e-01, 1.60776541e-01, 1.33510724e-01,
          2.94076204e-02, 6.92928508e-02, 0., 1.23157062e-01,
          1.37239128e-01, 0., 0., 0., 0., 0., 0., 0., 1.24122508e-01,
          1.01497665e-01, 1.31803736e-01, 0., 7.63013661e-02, 0., 0.,
          1.46173285e-02, 1.69784967e-02, 0., 4.75905277e-03, 0., 0., 0.,
          0., 0., 6.09496161e-02, 5.09965196e-02, 5.24787158e-02, 0. ]
      - [ 9.66541246e-02, 1.60355151e-01, 1.69203371e-01, 2.41350874e-01,
          2.10227743e-01, 4.32771742e-02, 6.74761012e-02, 3.03910762e-01,
          2.47180954e-01, 1.13833897e-01, 1.22444339e-01, 2.02150479e-01,
          3.46515059e-01, 1.73913494e-01, 1.39670283e-01, 1.54698476e-01,
          2.66994685e-01, 1.18413739e-01, 1.52406305e-01, 1.53632149e-01,
          1.69951648e-01, 9.97209772e-02, 8.32933933e-02, 1.93426877e-01,
          2.80919373e-01, 3.36508453e-02, 0., 2.88435891e-02,
          7.72008970e-02, 2.48743575e-02, 5.04397564e-02, 1.58594936e-01,
          3.85115147e-02, 1.09360419e-01, 1.02050051e-01, 0.,
          1.06553584e-01, 0., 0., 0., 0., 0., 0., 0., 9.32429582e-02,
          8.93763006e-02, 8.64149481e-02, 7.75919631e-02, 5.34314476e-02,
          5.28229475e-02, 4.49689217e-02, 1.17348107e-02, 5.72112687e-02,
          0., 0., 0., 0., 0., 0., 0., 4.04544771e-02, 0., 3.23480330e-02,
          4.23427969e-02 ]
      - [ 1.86660439e-01, 1.27572209e-01, 1.30348593e-01, 1.94464073e-01,
          1.65481195e-01, 1.70485556e-01, 1.36518732e-01, 2.02259436e-01,
          2.34517157e-01, 1.43742099e-01, 2.09289476e-01, 1.22865796e-01,
          2.27109313e-01, 2.69574314e-01, 1.65648833e-01, 1.17584400e-01,
          1.42235234e-01, 1.74778551e-01, 1.10264003e-01, 7.28043318e-02,
          1.51721090e-01, 1.38347745e-01, 1.94822565e-01, 2.27552384e-01,
          2.08686486e-01, 1.78725749e-01, 1.40428528e-01, 1.29963905e-01,
          1.28434837e-01, 1.32672399e-01, 9.91973132e-02, 9.68162939e-02,
          7.86549002e-02, 4.22318019e-02, 0., 0., 2.50577815e-02, 0., 0.,
          2.72169840e-02, 0., 0., 2.87331417e-02, 0., 6.18702434e-02,
          4.94538881e-02, 1.01368435e-01, 6.79271892e-02, 1.54747784e-01,
          8.86343047e-02, 6.12836033e-02, 0., 8.16692933e-02, 0., 0., 0.,
          0., 0., 0., 0., 6.79036975e-02, 0., 0., 1.85185194e-01 ]
      - [ 1.90878272e-01, 4.99888808e-02, 1.46170273e-01, 1.28179282e-01,
          1.78112343e-01, 8.68839547e-02, 1.35673121e-01, 1.82748809e-01,
          3.18594009e-01, 1.65612012e-01, 1.56334564e-01, 2.92639703e-01,
          3.17022949e-01, 1.74869418e-01, 2.69782040e-02, 9.49092507e-02,
          2.45126054e-01, 1.15158059e-01, 2.11560994e-01, 2.88498342e-01,
          8.56557265e-02, 9.11605880e-02, 8.80389586e-02, 2.41318822e-01,
          1.87459812e-01, 1.72405187e-02, 2.56945807e-02, 0.,
          3.92862894e-02, 0., 6.40330315e-02, 1.68203413e-01,
          3.20771188e-02, 8.37742090e-02, 1.05400026e-01, 0.,
          1.24451920e-01, 0., 0., 0., 0., 0., 0., 0., 1.28308475e-01,
          1.27657339e-01, 8.05647373e-02, 1.03387162e-01, 2.95786746e-02,
          7.00632557e-02, 0., 2.85328850e-02, 4.90906276e-02,
          3.06584593e-02, 0., 0., 3.50288972e-02, 0., 4.03393283e-02, 0.,
          4.44595441e-02, 0., 0., 0. ]
      - [ 3.03398669e-01, 6.29421324e-02, 0., 0., 8.50745216e-02, 0., 0.,
          2.42975786e-01, 4.00726169e-01, 1.35495827e-01, 1.48788616e-01,
          7.61830732e-02, 1.21043868e-01, 7.11161122e-02, 1.20914973e-01,
          1.82368875e-01, 2.75126696e-01, 9.45632011e-02, 1.82302788e-01,
          8.35482627e-02, 9.93519872e-02, 1.62359759e-01, 1.45944983e-01,
          2.29711503e-01, 2.88126796e-01, 1.42723024e-01, 1.00509219e-01,
          1.34504169e-01, 1.53846934e-01, 1.10694610e-01, 9.89972502e-02,
          1.28332391e-01, 2.26733625e-01, 0., 0., 0., 7.75071159e-02, 0.,
          0., 0., 1.89027693e-02, 0., 0., 0., 1.01766407e-01,
          7.95859024e-02, 7.19826072e-02, 0., 1.56284779e-01,
          6.15070015e-02, 0., 3.73748131e-02, 5.42940684e-02, 0., 0., 0.,
          3.17009054e-02, 0., 0., 0., 2.79575717e-02, 0., 0.,
          1.42602503e-01 ]
      - [ 1.95044681e-01, 2.41106227e-01, 2.85283010e-02, 2.32699811e-02,
          3.73531580e-02, 4.89270426e-02, 1.13257401e-01, 3.94565821e-01,
          2.08346114e-01, 1.38288006e-01, 2.64182627e-01, 1.47425294e-01,
          1.03668340e-01, 1.50146276e-01, 1.53101042e-01, 1.96237177e-01,
          3.53878528e-01, 1.26135066e-01, 1.21979140e-01, 0.,
          8.16681683e-02, 1.22687049e-01, 6.41866252e-02, 2.86178023e-01,
          2.76563168e-01, 0., 3.73968929e-02, 6.82480559e-02,
          4.34896611e-02, 4.57185693e-02, 0., 1.48022413e-01,
          1.16126284e-01, 1.75221100e-01, 0., 0., 1.20202653e-01, 0., 0.,
          0., 3.60865816e-02, 0., 0., 8.24425146e-02, 1.38381928e-01, 0.,
          0., 8.46717432e-02, 0., 4.13227454e-02, 0., 3.90245505e-02,
          4.98042144e-02, 3.14874090e-02, 0., 3.74679156e-02,
          3.97654735e-02, 0., 0., 0., 6.99611902e-02, 0., 3.22842486e-02,
          0. ]
      - [ 2.36036822e-01, 1.89586625e-01, 3.85394916e-02, 0.,
          6.83011413e-02, 1.79124866e-02, 1.09908469e-01, 3.25572014e-01,
          2.40036145e-01, 1.42724603e-01, 1.82052106e-01, 1.59173578e-01,
          1.73138946e-01, 1.57129884e-01, 1.32072866e-01, 2.20115811e-01,
          1.44857869e-01, 2.34939724e-01, 1.05066791e-01, 0.,
          1.18899338e-01, 1.00716166e-01, 1.85081020e-01, 1.78681076e-01,
          3.22087616e-01, 1.97916523e-01, 0., 0., 5.65245152e-02,
          2.10516024e-02, 1.17779575e-01, 2.90929466e-01, 1.60467640e-01,
          6.22690022e-02, 0., 0., 9.15165469e-02, 0., 0., 0.,
          3.39292511e-02, 4.45310771e-02, 0., 0., 8.02206993e-02,
          6.89980164e-02, 9.07373279e-02, 0., 8.72598365e-02,
          3.25900316e-02, 0., 0., 4.33676951e-02, 0., 0., 0., 0., 0., 0.,
          0., 8.05026740e-02, 0., 7.60822296e-02, 1.43634632e-01 ]
      - [ 1.99308604e-01, 1.07308611e-01, 6.34595007e-02, 1.15967542e-01,
          1.77792042e-01, 1.46755874e-01, 1.11941658e-01, 2.74644077e-01,
          2.74214417e-01, 1.01120092e-01, 1.18386462e-01, 1.56902209e-01,
          2.94903219e-01, 1.52998462e-01, 4.88252528e-02, 2.36796185e-01,
          2.01756790e-01, 1.06282808e-01, 1.87090531e-01, 2.27525085e-01,
          8.18412080e-02, 9.03022662e-02, 1.06285937e-01, 2.55861074e-01,
          2.25585476e-01, 1.58792406e-01, 1.19763054e-01, 1.62846819e-01,
          1.22791640e-01, 0., 1.29193291e-01, 1.51444465e-01,
          2.52151620e-02, 1.79418847e-02, 0., 0., 1.25915520e-02, 0., 0.,
          0., 1.78071428e-02, 0., 0., 0., 1.29812554e-01, 3.39839272e-02,
          1.73792899e-01, 3.49620357e-02, 1.78071428e-02, 1.59223095e-01,
          0., 4.75021042e-02, 1.26632988e-01, 0., 0., 0., 0., 0., 0., 0.,
          0., 0., 0., 2.02069636e-02 ]
      - [ 2.04224318e-01, 2.20319167e-01, 4.21200432e-02, 0.,
          6.12660870e-02, 5.60240559e-02, 4.46319915e-02, 3.76900107e-01,
          2.34643623e-01, 2.69404441e-01, 1.26936734e-01, 1.54789209e-01,
          1.18952960e-01, 8.41592103e-02, 2.18143106e-01, 1.77077100e-01,
          3.70595127e-01, 1.80552781e-01, 5.25281802e-02, 0.,
          9.95317698e-02, 4.56792749e-02, 5.05903065e-02, 2.81772882e-01,
          3.04634809e-01, 3.00616361e-02, 3.87093313e-02, 0.,
          7.00161159e-02, 4.09040377e-02, 5.20032831e-02, 4.44194265e-02,
          1.45815641e-01, 1.65825576e-01, 0., 0., 1.34700879e-01, 0., 0.,
          0., 0., 0., 0., 0., 1.88496068e-01, 0., 5.56974150e-02, 0.,
          2.32672226e-02, 2.42808275e-02, 3.40703353e-02, 0.,
          7.16634616e-02, 0., 0., 2.34425720e-02, 2.18693595e-02, 0., 0.,
          0., 3.09279449e-02, 0., 3.31803523e-02, 0. ]
      - [ 1.77775145e-01, 1.21253349e-01, 1.22052558e-01, 1.21171169e-01,
          8.99942592e-02, 8.12115967e-02, 1.29306197e-01, 1.43989876e-01,
          4.04123366e-01, 1.94172710e-01, 1.44334763e-01, 1.72894120e-01,
          2.87579298e-01, 1.72620103e-01, 1.69131264e-01, 1.02737464e-01,
          3.10333163e-01, 1.91792056e-01, 1.44006103e-01, 2.75875717e-01,
          6.03599772e-02, 0., 0., 1.47269145e-01, 3.07575732e-01, 0., 0.,
          0., 7.82414377e-02, 0., 0., 0., 9.25270766e-02, 1.46674901e-01,
          0., 0., 1.12576574e-01, 0., 0., 0., 0., 0., 0., 0.,
          1.25133753e-01, 8.97485316e-02, 1.33050159e-01, 1.15092777e-01,
          0., 8.30212682e-02, 4.95451950e-02, 1.85490679e-02,
          5.55531979e-02, 0., 0., 1.63068362e-02, 4.28851284e-02, 0., 0.,
          0., 1.66811310e-02, 0., 0., 0. ]
      - [ 2.76444286e-01, 1.84901252e-01, 0., 0., 5.50896674e-02,
          7.49431327e-02, 2.07388341e-01, 3.37251931e-01, 2.47493476e-01,
          2.20438674e-01, 1.51844203e-01, 1.60982594e-01, 1.60142079e-01,
          1.15212135e-01, 2.56861955e-01, 1.19890764e-01, 3.75315756e-01,
          9.00347233e-02, 1.02394395e-01, 3.34441215e-02, 1.12608269e-01,
          4.33263071e-02, 1.39803752e-01, 3.17189962e-01, 2.10044235e-01,
          3.34649421e-02, 0., 3.44877653e-02, 4.86025997e-02,
          3.89525443e-02, 0., 1.38653994e-01, 2.12771654e-01,
          4.99474630e-02, 0., 2.45134085e-02, 7.60488957e-02, 0., 0., 0.,
          0., 0., 0., 0., 4.87479419e-02, 0., 8.00514296e-02,
          9.42190513e-02, 4.09482941e-02, 0., 2.29512788e-02,
          3.93990353e-02, 5.91113903e-02, 0., 0., 0., 0., 0., 0., 0.,
          3.38413157e-02, 0., 2.96041183e-02, 0. ]
      - [ 4.19799447e-01, 2.63215378e-02, 0., 0., 0., 0., 0., 0.,
          4.48842824e-01, 1.42025560e-01, 0., 0., 1.12013280e-01, 0.,
          1.42389476e-01, 1.53812319e-01, 2.65741020e-01, 1.02903455e-01,
          0., 0., 3.44313741e-01, 9.87540260e-02, 1.13793075e-01,
          1.16691560e-01, 2.88512439e-01, 0., 0., 0., 3.51368874e-01,
          1.55972376e-01, 1.76752746e-01, 8.93961489e-02, 0., 0., 0., 0.,
          0., 0., 0., 0., 0., 0., 0., 0., 0., 0., 0., 0., 1.35381132e-01,
          0., 0., 0., 2.62071844e-02, 0., 0., 0., 0., 0., 0., 0.,
          4.45894450e-02, 4.05263789e-02, 7.81818256e-02, 9.93419066e-02 ]
      - [ 8.56689438e-02, 9.48432237e-02, 7.53505528e-02, 1.04538620e-01,
          7.29113296e-02, 1.19155489e-01, 8.41958672e-02, 1.06733747e-01,
          3.23766291e-01, 2.98455626e-01, 1.77432269e-01, 7.31279999e-02,
          1.81435511e-01, 2.06057817e-01, 2.72354841e-01, 5.38252741e-02,
          3.37602228e-01, 7.57811517e-02, 1.71308905e-01, 1.44528255e-01,
          8.02237839e-02, 1.90087214e-01, 1.74030095e-01, 2.72189319e-01,
          3.11597228e-01, 4.00172360e-02, 3.11915595e-02, 3.23440619e-02,
          5.06735779e-02, 0., 0., 8.75088796e-02, 1.40642509e-01, 0., 0.,
          0., 4.29826975e-02, 0., 0., 0., 3.74237001e-02, 0.,
          1.26935437e-01, 0., 1.50743067e-01, 0., 6.78375065e-02,
          7.81879723e-02, 1.16532937e-01, 7.78170601e-02, 7.87737221e-02,
          0., 9.34397355e-02, 0., 0., 0., 0., 0., 0., 0., 5.45880804e-03,
          0., 0., 1.04236156e-01 ]
      - [ 1.29335985e-01, 1.33022577e-01, 8.63795727e-02, 1.24726065e-01,
          9.08014253e-02, 1.41131729e-01, 1.00025721e-01, 3.29974771e-01,
          1.49183050e-01, 1.54006213e-01, 2.06003755e-01, 1.89705849e-01,
          1.47600591e-01, 1.89382076e-01, 1.71628848e-01, 2.51266271e-01,
          1.20225057e-01, 6.70179352e-02, 9.91762578e-02, 9.17526186e-02,
          1.67065620e-01, 1.49348810e-01, 1.54322594e-01, 3.51572841e-01,
          1.65272743e-01, 1.20695971e-01, 6.78457469e-02, 1.31298617e-01,
          1.37382030e-01, 1.14354983e-01, 1.14167906e-01, 2.24659368e-01,
          0., 0., 0., 0., 3.68788801e-02, 0., 2.50185467e-02,
          2.70501096e-02, 2.65083648e-02, 0., 0., 0., 9.77520421e-02,
          7.00722784e-02, 7.76964501e-02, 1.91407502e-01, 1.04680590e-01,
          1.24408230e-01, 0., 0., 9.45040062e-02, 0., 0., 0., 0., 0., 0.,
          0., 6.13417476e-02, 0., 0., 1.64802045e-01 ]
      - [ 3.05344284e-01, 1.48084477e-01, 7.85670727e-02, 2.78588664e-02,
          5.56330644e-02, 3.44135500e-02, 8.31926763e-02, 3.94633561e-02,
          4.14445788e-01, 1.52281612e-01, 1.19846523e-01, 6.10833280e-02,
          8.26362371e-02, 1.04871683e-01, 1.40813544e-01, 2.47995928e-01,
          2.22051904e-01, 0., 1.11488409e-01, 4.91425283e-02,
          3.14452320e-01, 1.32897034e-01, 1.14894331e-01, 1.32378176e-01,
          2.90821612e-01, 6.89794496e-02, 4.30948213e-02, 2.08255332e-02,
          3.39197248e-01, 4.52023856e-02, 1.75850302e-01, 1.87639132e-01,
          6.99235126e-02, 0., 0., 0., 7.56486952e-02, 0., 2.87235416e-02,
          0., 6.31984398e-02, 0., 0., 0., 4.22505178e-02, 3.42191532e-02,
          4.06302921e-02, 0., 8.27218667e-02, 9.85958278e-02, 0., 0.,
          5.14578223e-02, 0., 2.30788104e-02, 0., 1.59162562e-02, 0., 0.,
          0., 7.29764774e-02, 5.15153818e-02, 8.64583105e-02,
          1.05630398e-01 ]
      - [ 1.39956817e-01, 1.87660277e-01, 1.41673252e-01, 1.76922187e-01,
          1.65971220e-01, 1.94264308e-01, 1.63572416e-01, 1.51477665e-01,
          2.19848350e-01, 1.51167542e-01, 1.56535491e-01, 1.70017779e-01,
          2.55962193e-01, 2.79616714e-01, 1.53665513e-01, 1.19471498e-01,
          1.49051234e-01, 0., 1.87635720e-01, 7.12831095e-02,
          2.04498753e-01, 1.90372050e-01, 2.23865405e-01, 1.32462874e-01,
          1.75327286e-01, 1.34285986e-01, 1.38957813e-01, 1.95672125e-01,
          1.53388500e-01, 1.07933365e-01, 9.56703871e-02, 8.15588087e-02,
          0., 7.18529299e-02, 3.53835523e-02, 0., 5.75651675e-02, 0., 0.,
          0., 4.86852191e-02, 0., 0., 2.83539090e-02, 8.60004425e-02, 0.,
          7.58790895e-02, 6.18654639e-02, 1.80421993e-01, 1.07014358e-01,
          0., 0., 9.02568474e-02, 0., 0., 0., 0., 0., 0., 0.,
          7.92610496e-02, 0., 9.39959511e-02, 9.96079445e-02 ]
      - [ 1.61606506e-01, 9.10133645e-02, 1.60008848e-01, 2.26036012e-01,
          1.29390016e-01, 0., 4.76091988e-02, 4.23664376e-02,
          3.37894887e-01, 1.09827101e-01, 1.25315472e-01, 1.62486404e-01,
          3.63907486e-01, 1.59390152e-01, 1.22001082e-01, 1.23869859e-01,
          1.41278267e-01, 1.38810575e-01, 1.61251888e-01, 2.94708878e-01,
          1.34904161e-01, 9.25490037e-02, 8.40139911e-02, 1.65978462e-01,
          2.58137286e-01, 0., 0., 0., 2.98958272e-01, 1.60616890e-01, 0.,
          1.13775797e-01, 5.12899421e-02, 0., 6.72560856e-02,
          1.08289905e-01, 1.19133063e-01, 0., 0., 0., 0., 0., 0., 0.,
          1.59313202e-01, 0., 4.98869829e-02, 0., 5.43385148e-02,
          4.08668183e-02, 8.07072446e-02, 0., 6.08033389e-02, 0., 0.,
          1.05991922e-02, 0., 0., 0., 0., 1.48329630e-01, 0.,
          7.48305246e-02, 0. ]
      - [ 2.02892840e-01, 4.14189734e-02, 9.55053493e-02, 6.68767914e-02,
          7.61038437e-02, 6.27333373e-02, 1.14309408e-01, 4.15862501e-01,
          1.45866901e-01, 1.61292017e-01, 1.04867928e-01, 6.72679618e-02,
          1.62138999e-01, 1.03936821e-01, 1.47864118e-01, 4.08644557e-01,
          2.35486403e-01, 8.99839327e-02, 1.36119619e-01, 1.33761019e-01,
          7.82095715e-02, 1.46831095e-01, 6.68791756e-02, 3.44875664e-01,
          2.17697576e-01, 7.77516812e-02, 7.95982331e-02, 0.,
          7.02343807e-02, 5.15139513e-02, 1.24301925e-01, 2.99169123e-01,
          0., 2.85642464e-02, 0., 3.49354930e-02, 8.02790523e-02, 0., 0.,
          0., 1.75171364e-02, 0., 2.23630145e-02, 0., 9.22501236e-02, 0.,
          3.61787044e-02, 0., 3.81777138e-02, 4.96254489e-02,
          3.34257446e-02, 0., 5.36350608e-02, 0., 0., 0., 0., 0.,
          6.32687062e-02, 0., 6.56927377e-02, 0., 0., 1.77846514e-02 ]
      - [ 2.54616261e-01, 1.47757575e-01, 8.85549858e-02, 1.18878111e-01,
          1.31514579e-01, 1.79838479e-01, 5.97475618e-02, 3.65128480e-02,
          2.83078045e-01, 1.59153670e-01, 2.43098333e-01, 2.32428387e-01,
          2.24612668e-01, 1.28461525e-01, 1.19092263e-01, 0.,
          2.10819870e-01, 1.99523196e-01, 7.88777843e-02, 7.03590885e-02,
          1.00142486e-01, 7.13176802e-02, 2.73492843e-01, 1.93478867e-01,
          2.43435591e-01, 1.14733458e-01, 1.30078763e-01, 1.26297012e-01,
          1.36203751e-01, 1.37176350e-01, 1.01850338e-01, 1.78130433e-01,
          4.45631631e-02, 0., 6.83674514e-02, 6.76632971e-02,
          9.16233361e-02, 0., 0., 0., 0., 0., 0., 0., 1.30534798e-01,
          8.32909793e-02, 1.44896716e-01, 8.29227045e-02, 1.12175994e-01,
          8.19565803e-02, 9.51731876e-02, 0., 1.09470114e-01, 0., 0., 0.,
          0., 0., 0., 0., 6.81903809e-02, 0., 8.48114938e-02,
          7.67824650e-02 ]
      - [ 1.42635033e-01, 1.56081170e-01, 1.25804558e-01, 1.55322418e-01,
          1.13877535e-01, 1.27667964e-01, 1.40045419e-01, 1.72226489e-01,
          3.49790931e-01, 2.06950501e-01, 1.47241414e-01, 2.05548599e-01,
          3.13430130e-01, 2.02366382e-01, 1.41215503e-01, 9.72502083e-02,
          2.11773977e-01, 1.96323648e-01, 1.93289518e-01, 2.84827292e-01,
          6.80732206e-02, 0., 9.75616351e-02, 1.33873820e-01,
          2.49098316e-01, 2.33831778e-02, 4.80128825e-02, 4.11600582e-02,
          9.30916965e-02, 6.00338988e-02, 6.05716296e-02, 1.28200486e-01,
          7.68971071e-02, 1.39357820e-01, 0., 0., 1.15355469e-01, 0., 0.,
          0., 0., 0., 0., 0., 1.27261117e-01, 0., 1.58544689e-01,
          1.00357100e-01, 0., 0., 8.40896741e-02, 0., 6.04469851e-02,
          3.88448685e-02, 2.17178594e-02, 2.40894482e-02, 2.53355578e-02,
          0., 3.41367833e-02, 0., 3.22009325e-02, 0., 0., 0. ]
      - [ 1.98048845e-01, 1.54300630e-01, 6.29480109e-02, 1.39423624e-01,
          2.14719802e-01, 0., 0., 0., 3.80103081e-01, 1.33548364e-01,
          9.81699973e-02, 1.28064007e-01, 3.30698222e-01, 1.35461941e-01,
          1.38681382e-01, 1.63927168e-01, 2.00102225e-01, 1.60050094e-01,
          1.54828846e-01, 1.66787714e-01, 2.74871945e-01, 8.96501690e-02,
          9.62761194e-02, 0., 2.72378534e-01, 0., 2.64511704e-02, 0.,
          2.92136520e-01, 1.20205835e-01, 1.58096537e-01, 9.57290456e-02,
          3.10717300e-02, 0., 0., 0., 1.76737234e-01, 0., 0., 0., 0., 0.,
          0., 0., 1.66096270e-01, 0., 1.94876548e-02, 2.73587704e-02,
          1.07268222e-01, 1.77760124e-02, 0., 0., 1.18875364e-02, 0., 0.,
          0., 2.67406516e-02, 0., 0., 2.95281317e-02, 5.33837304e-02,
          5.66334389e-02, 7.49639496e-02, 0. ]
      - [ 3.35683435e-01, 0., 0., 0., 1.59440693e-02, 4.68965471e-02,
          8.22192878e-02, 4.05156672e-01, 2.14642316e-01, 2.55062491e-01,
          1.47726327e-01, 1.61871120e-01, 1.10262774e-01, 1.66929722e-01,
          2.18534082e-01, 1.63660929e-01, 4.01070684e-01, 1.03911743e-01,
          0., 0., 9.75037292e-02, 4.44681533e-02, 1.19332783e-01,
          3.77729684e-01, 1.14605226e-01, 0., 0., 0., 0., 0., 0., 0.,
          2.19283059e-01, 5.68964109e-02, 0., 0., 9.74198729e-02, 0., 0.,
          0., 0., 0., 0., 0., 8.38643909e-02, 9.36557278e-02,
          9.79964510e-02, 0., 2.37663351e-02, 1.29412506e-02, 0., 0.,
          9.20531340e-03, 0., 0., 0., 0., 0., 0., 0., 0., 0., 0., 0. ]
      - [ 1.92979172e-01, 1.03829585e-01, 9.19251516e-02, 0.,
          5.47647737e-02, 8.25621337e-02, 1.05284438e-01, 7.80254528e-02,
          3.59561265e-01, 2.38183945e-01, 7.56930336e-02, 1.73532277e-01,
          1.23359650e-01, 1.28349751e-01, 9.92855802e-02, 2.76490241e-01,
          1.71669975e-01, 1.54191479e-01, 1.98162481e-01, 1.67800754e-01,
          1.72968745e-01, 1.71743467e-01, 2.04101726e-01, 1.33563936e-01,
          3.04100424e-01, 1.57840207e-01, 1.50282755e-01, 0.,
          1.33658096e-01, 6.83652982e-02, 8.42568204e-02, 1.57227039e-01,
          1.18385449e-01, 0., 0., 0., 3.83538231e-02, 0., 0., 0., 0., 0.,
          0., 0., 7.31202886e-02, 0., 8.50269273e-02, 1.81013390e-01,
          1.63940653e-01, 9.20870602e-02, 0., 0., 5.87471649e-02, 0., 0.,
          0., 0., 0., 0., 0., 5.39790951e-02, 0., 0., 2.00549513e-01 ]
      - [ 3.11297029e-01, 1.14503257e-01, 8.95034596e-02, 1.26796275e-01,
          1.36942789e-01, 1.38117552e-01, 1.75601676e-01, 0.,
          3.73212993e-01, 1.77507102e-01, 1.69121787e-01, 1.89408243e-01,
          1.51817515e-01, 1.17678061e-01, 8.88884515e-02, 1.49921596e-01,
          2.34280542e-01, 1.09270066e-01, 1.31874889e-01, 7.72511214e-02,
          1.04589760e-01, 1.62920147e-01, 1.77780509e-01, 2.46894389e-01,
          2.23151103e-01, 0., 0., 1.87619567e-01, 1.41448855e-01,
          1.06187776e-01, 1.77808419e-01, 2.21998543e-01, 9.75904614e-02,
          0., 1.10107549e-01, 1.06574763e-02, 9.04524550e-02, 0., 0., 0.,
          0., 0., 0., 0., 8.87616053e-02, 0., 1.36358082e-01,
          9.88252163e-02, 5.50175868e-02, 3.71519998e-02, 0., 0.,
          5.24858385e-03, 0., 0., 0., 6.59974478e-03, 0., 0., 0.,
          2.25048382e-02, 0., 5.51333725e-02, 5.53482436e-02 ]
      - [ 7.62527660e-02, 8.01515281e-02, 9.95749161e-02, 6.34046942e-02,
          1.18209206e-01, 1.09747887e-01, 8.93140808e-02, 4.97342236e-02,
          3.33623260e-01, 3.01083744e-01, 1.77821696e-01, 9.15190801e-02,
          1.53455541e-01, 2.04413861e-01, 2.43714809e-01, 1.81452602e-01,
          2.74894208e-01, 1.45960003e-01, 1.47444338e-01, 2.26960689e-01,
          1.53165579e-01, 1.20196164e-01, 1.72359705e-01, 1.78966239e-01,
          3.33390087e-01, 3.55015509e-02, 0., 0., 8.35597068e-02, 0., 0.,
          7.03140125e-02, 1.26361907e-01, 0., 0., 0., 5.07789105e-02, 0.,
          0., 0., 0., 0., 1.47457421e-01, 6.18696511e-02, 1.45627677e-01,
          0., 5.05854897e-02, 0., 2.31076762e-01, 9.59933400e-02, 0., 0.,
          1.14687555e-01, 0., 0., 0., 0., 0., 0., 0., 0., 0., 0., 0. ]
      - [ 1.92974284e-01, 7.76250437e-02, 1.45003676e-01, 1.08908802e-01,
          1.28900215e-01, 1.16621874e-01, 1.42136306e-01, 1.53145730e-01,
          3.75184149e-01, 1.93935961e-01, 1.52012125e-01, 1.80458963e-01,
          3.25394571e-01, 1.62286282e-01, 1.21080793e-01, 1.35518536e-01,
          2.65767545e-01, 1.71617404e-01, 1.98743463e-01, 2.84149379e-01,
          1.30378187e-01, 9.66101512e-02, 1.11247614e-01, 0.,
          2.50455707e-01, 0., 1.78682338e-02, 3.28472704e-02,
          9.82440487e-02, 2.95638703e-02, 0., 7.43925795e-02,
          1.08621672e-01, 1.07003354e-01, 3.59752625e-02, 0.,
          1.21895500e-01, 0., 0., 0., 0., 0., 0., 0., 1.37248516e-01,
          1.33098930e-01, 9.73638669e-02, 4.74077873e-02, 0.,
          1.06267534e-01, 0., 0., 7.07823634e-02, 3.68285775e-02,
          3.83295752e-02, 0., 4.33715843e-02, 0., 0., 0., 4.23420034e-02,
          3.13282534e-02, 0., 0. ]
      - [ 1.34662256e-01, 7.40746856e-02, 1.50295541e-01, 1.22297652e-01,
          1.35207117e-01, 1.27971292e-01, 1.26760542e-01, 2.21484378e-01,
          3.30955982e-01, 1.36858806e-01, 1.63631171e-01, 2.16505274e-01,
          3.01679522e-01, 1.73611134e-01, 1.43258423e-01, 1.76977724e-01,
          2.96632975e-01, 1.39713630e-01, 2.19919488e-01, 1.85559303e-01,
          1.26426578e-01, 5.39514013e-02, 1.36037469e-01, 2.65495449e-01,
          2.18952224e-01, 0., 0., 3.24912705e-02, 6.44939244e-02, 0.,
          3.12512144e-02, 8.83599520e-02, 1.66925058e-01, 0.,
          9.32182521e-02, 0., 9.30484757e-02, 0., 0., 0., 9.50910989e-03,
          0., 0., 1.78125631e-02, 9.98456553e-02, 1.08108461e-01,
          9.74382758e-02, 9.42138508e-02, 1.06315082e-02, 2.38249023e-02,
          8.61627162e-02, 0., 6.97154626e-02, 0., 0., 0., 0., 0., 0., 0.,
          6.34230971e-02, 3.01639792e-02, 2.15750262e-02, 0. ]
      - [ 1.75093532e-01, 1.85845762e-01, 2.16397882e-01, 0.,
          2.38849193e-01, 2.00165644e-01, 1.51623636e-01, 3.15023661e-01,
          1.02726944e-01, 0., 1.37727708e-01, 3.48774821e-01,
          1.71767741e-01, 9.35110152e-02, 6.93294480e-02, 3.01326722e-01,
          1.85461968e-01, 9.63246301e-02, 4.94814739e-02, 8.81817788e-02,
          0., 0., 1.38129219e-01, 3.69957596e-01, 1.09394461e-01, 0., 0.,
          0., 2.29101479e-02, 0., 8.84554908e-03, 3.31756860e-01,
          1.14747539e-01, 0., 9.85881016e-02, 2.18012482e-02,
          7.89209455e-02, 0., 8.84554908e-03, 0., 0., 0., 0., 0.,
          4.50501554e-02, 0., 8.84138867e-02, 1.66322980e-02,
          6.95145205e-02, 0., 0., 0., 0., 0., 0., 0., 0., 0., 0., 0.,
          1.96190793e-02, 0., 0., 7.82486200e-02 ]
      - [ 3.86295408e-01, 9.83404666e-02, 0., 4.36697900e-02,
          6.84902519e-02, 0., 8.00475255e-02, 3.14010739e-01,
          3.33073676e-01, 1.70564726e-01, 1.17620274e-01, 8.24689642e-02,
          1.34789348e-01, 1.47842124e-01, 1.03932127e-01, 2.73865759e-01,
          3.57670456e-01, 1.06324434e-01, 1.19112857e-01, 5.65848984e-02,
          1.39866903e-01, 9.85847935e-02, 1.40559614e-01, 1.47763416e-01,
          3.72743547e-01, 7.23479763e-02, 6.54593036e-02, 3.92949916e-02,
          6.90140799e-02, 4.16447148e-02, 5.59006110e-02, 1.63103506e-01,
          7.09288716e-02, 3.51146907e-02, 0., 2.09272765e-02,
          4.76050340e-02, 0., 0., 0., 3.96843068e-02, 3.40070389e-02, 0.,
          0., 5.24573326e-02, 3.61225419e-02, 0., 0., 5.68564124e-02, 0.,
          0., 0., 2.90695429e-02, 0., 0., 0., 0., 0., 0., 0.,
          6.55897334e-02, 4.96303923e-02, 5.17716892e-02, 0. ]
      - [ 3.67936850e-01, 3.65735888e-02, 0., 0., 7.65913129e-02,
          7.36249611e-02, 3.55974644e-01, 1.70794189e-01, 2.41296783e-01,
          2.19083458e-01, 1.26203790e-01, 1.77850395e-01, 1.07117742e-01,
          2.29805902e-01, 1.53230488e-01, 1.81797072e-01, 2.76179135e-01,
          1.18318319e-01, 0., 3.09257284e-02, 1.08717620e-01,
          3.05022523e-02, 2.08091334e-01, 3.00994635e-01, 1.95408806e-01,
          4.75443080e-02, 4.70300764e-02, 0., 4.23448607e-02, 0.,
          5.97999096e-02, 2.67089993e-01, 1.35601938e-01, 8.69929045e-02,
          0., 2.34697629e-02, 5.93717657e-02, 0., 0., 0., 0., 0., 0., 0.,
          5.49287423e-02, 2.49322206e-02, 8.25061351e-02, 8.88936669e-02,
          6.78589717e-02, 4.47317511e-02, 0., 0., 4.50706109e-02, 0., 0.,
          0., 0., 0., 0., 0., 5.49287423e-02, 4.44550104e-02,
          4.75516804e-02, 0. ]
      - [ 3.54370683e-01, 0., 3.79188545e-02, 0., 8.02788734e-02,
          8.44958127e-02, 2.39886552e-01, 2.93659627e-01, 2.58428454e-01,
          1.87892079e-01, 1.20196566e-01, 1.07262433e-01, 1.76632643e-01,
          1.60249844e-01, 2.26964071e-01, 1.74667820e-01, 2.79619724e-01,
          0., 2.82233581e-02, 0., 9.05704424e-02, 5.78102805e-02,
          1.50417939e-01, 3.76663774e-01, 1.40455827e-01, 0., 0.,
          1.55629534e-02, 4.70810421e-02, 3.82412933e-02, 4.15850095e-02,
          3.16477776e-01, 1.66480541e-01, 0., 0., 0., 6.71089888e-02, 0.,
          0., 0., 0., 0., 0., 0., 2.34832540e-02, 0., 0., 1.16092563e-01,
          7.87889659e-02, 0., 0., 0., 2.65451949e-02, 0., 0., 0., 0., 0.,
          0., 0., 6.35929480e-02, 4.70117405e-02, 5.04560135e-02,
          7.84133077e-02 ]
      - [ 1.80773377e-01, 1.15618937e-01, 1.76199153e-01, 2.79446423e-01,
          1.38299659e-01, 4.38248105e-02, 4.32633981e-02, 2.16228455e-01,
          3.30068171e-01, 1.57944009e-01, 1.46868795e-01, 1.07987486e-01,
          3.67779613e-01, 1.80279970e-01, 1.28923520e-01, 1.22519732e-01,
          2.97985673e-01, 1.75577253e-01, 1.23586170e-01, 2.16239572e-01,
          1.25088990e-01, 1.09063476e-01, 8.96345899e-02, 9.71422940e-02,
          3.07807028e-01, 3.54288667e-02, 4.98023704e-02, 5.71116768e-02,
          7.32650980e-02, 2.70879865e-02, 0., 2.23908182e-02,
          5.09312041e-02, 0., 8.94081667e-02, 9.09825414e-02,
          1.16456829e-01, 0., 0., 0., 0., 0., 1.15878871e-02, 0.,
          1.40148267e-01, 0., 8.13737735e-02, 5.30945435e-02,
          7.17025027e-02, 0., 0., 3.46320160e-02, 2.88536064e-02, 0., 0.,
          0., 0., 1.89817995e-02, 0., 2.68675908e-02, 4.60609421e-02,
          3.98627557e-02, 0., 0. ]
      - [ 3.47656786e-01, 9.62864086e-02, 0., 0., 6.23127446e-02, 0.,
          3.20059508e-01, 2.15147555e-01, 2.79492706e-01, 2.06861258e-01,
          1.64227486e-01, 1.54589832e-01, 1.38914213e-01, 1.56026483e-01,
          1.92275077e-01, 2.18830109e-01, 2.60611922e-01, 1.21398166e-01,
          0., 7.77288303e-02, 1.01761296e-01, 0., 2.15257734e-01,
          3.23275149e-01, 1.49797350e-01, 3.19644995e-02, 2.85886899e-02,
          0., 5.00082858e-02, 0., 4.89017069e-02, 2.82558262e-01,
          1.51023924e-01, 6.74762875e-02, 0., 0., 5.63639998e-02, 0., 0.,
          0., 0., 0., 0., 0., 3.29906419e-02, 0., 0., 1.33773789e-01,
          7.67016876e-03, 0., 3.40253636e-02, 0., 2.10056230e-02, 0., 0.,
          0., 7.67016876e-03, 0., 0., 2.12125983e-02, 4.75921445e-02,
          2.60292273e-02, 5.86783439e-02, 0. ]
      - [ 3.19686309e-02, 2.17366554e-02, 7.33213499e-02, 1.03524096e-01,
          0., 8.28794912e-02, 5.62123619e-02, 6.69973716e-03,
          4.32323009e-01, 2.13953629e-01, 1.51879728e-01, 1.19707584e-01,
          9.37387496e-02, 1.92127094e-01, 3.53616416e-01, 0.,
          2.82873243e-01, 2.02292457e-01, 0., 1.15871049e-01,
          1.39524192e-01, 1.59225136e-01, 3.59081805e-01, 8.50632191e-02,
          2.59787709e-01, 3.04447263e-02, 0., 8.91638547e-02,
          1.05312884e-01, 0., 1.78155918e-02, 7.16102496e-02, 0., 0., 0.,
          0., 3.69141921e-02, 0., 0., 0., 1.18238851e-01, 0.,
          8.77956077e-02, 9.92966294e-02, 1.44897103e-01, 0., 0.,
          4.48004827e-02, 2.05596521e-01, 8.50119367e-02, 0., 0.,
          1.15878627e-01, 0., 0., 0., 0., 0., 0., 0., 0., 0., 0.,
          6.64496869e-02 ]
      - [ 1.35118261e-01, 1.33151636e-01, 1.24266550e-01, 1.26305327e-01,
          1.39035776e-01, 1.45731434e-01, 9.64021087e-02, 2.63913989e-01,
          2.20803872e-01, 2.03852177e-01, 1.44438222e-01, 2.49839932e-01,
          2.67457545e-01, 2.19957590e-01, 1.36658922e-01, 1.88319311e-01,
          2.37349704e-01, 1.42822832e-01, 1.40910953e-01, 2.41946936e-01,
          5.50644323e-02, 1.13539144e-01, 7.16664195e-02, 3.41998726e-01,
          1.22844309e-01, 0., 3.75265144e-02, 4.91526015e-02,
          2.16832794e-02, 7.84049779e-02, 0., 2.01583803e-01,
          9.83274505e-02, 1.40253916e-01, 0., 0., 1.00774780e-01, 0., 0.,
          0., 3.21615003e-02, 0., 0., 0., 9.48875770e-02, 5.55012226e-02,
          1.30134717e-01, 1.34512663e-01, 6.80698007e-02, 3.16598192e-02,
          5.59851676e-02, 0., 5.39909303e-02, 0., 0., 0., 0., 0., 0., 0.,
          4.84852865e-02, 0., 0., 6.67988062e-02 ]
      - [ 4.15096700e-01, 1.30310118e-01, 2.66259499e-02, 0.,
          8.19393098e-02, 9.91941541e-02, 9.48750600e-02, 1.92128956e-01,
          3.91417682e-01, 1.62871018e-01, 1.34225622e-01, 1.67829528e-01,
          7.76032433e-02, 1.24162100e-01, 1.45157918e-01, 1.71846539e-01,
          3.65156054e-01, 1.82285517e-01, 1.27983391e-01, 0.,
          1.29056126e-01, 1.37747645e-01, 9.02577341e-02, 2.39478871e-01,
          3.16067249e-01, 6.99756518e-02, 2.80128922e-02, 3.64888646e-02,
          4.90409844e-02, 1.55438073e-02, 4.19951789e-02, 1.21578917e-01,
          0., 0., 3.37613374e-02, 3.25971581e-02, 9.02192593e-02,
          3.99050079e-02, 0., 0., 5.24006039e-02, 5.44807799e-02,
          2.21806187e-02, 0., 6.41319826e-02, 0., 0., 0., 0., 0., 0., 0.,
          4.38678674e-02, 4.13660072e-02, 0., 4.93676960e-02,
          4.37329933e-02, 0., 6.89098313e-02, 0., 6.64437860e-02, 0., 0.,
          0. ]
      - [ 1.60052553e-01, 3.88650447e-02, 0., 5.17776310e-02,
          9.29464549e-02, 0., 4.12982590e-02, 4.10629481e-01,
          1.84807718e-01, 1.49483547e-01, 1.30488262e-01, 1.51735052e-01,
          1.05812810e-01, 1.36689439e-01, 1.25879154e-01, 4.43139255e-01,
          2.24199235e-01, 1.26623005e-01, 0., 9.44849774e-02,
          7.82959163e-02, 3.13753337e-02, 1.48272410e-01, 3.84027123e-01,
          1.63986236e-01, 6.10456690e-02, 4.42599133e-02, 3.99594679e-02,
          5.40973060e-02, 0., 5.31275868e-02, 3.53198826e-01,
          2.65021585e-02, 3.22277471e-02, 4.60282601e-02, 0.,
          5.18883131e-02, 0., 0., 0., 0., 0., 0., 0., 8.68849754e-02, 0.,
          5.92323989e-02, 3.60151753e-02, 3.94699946e-02, 0.,
          3.41187008e-02, 5.25748059e-02, 6.49167672e-02, 1.93722658e-02,
          0., 0., 1.08194612e-02, 0., 0., 0., 3.95070836e-02, 0.,
          5.14788814e-02, 5.28924689e-02 ]
      - [ 1.64608166e-01, 7.80217946e-02, 1.40869319e-01, 7.04895407e-02,
          1.71976477e-01, 9.68695208e-02, 6.62129521e-02, 8.06933865e-02,
          3.57462883e-01, 1.99527293e-01, 1.50377735e-01, 1.61757067e-01,
          2.63194084e-01, 1.68309569e-01, 1.20975539e-01, 1.24171630e-01,
          1.78434223e-01, 1.81875855e-01, 1.66272998e-01, 2.13395402e-01,
          2.14783981e-01, 1.39599591e-01, 1.66296124e-01, 9.42927301e-02,
          2.71446437e-01, 1.20272011e-01, 1.17525108e-01, 9.55751091e-02,
          1.49145767e-01, 8.30524638e-02, 1.09030500e-01, 1.49342015e-01,
          1.24243587e-01, 9.30798948e-02, 0., 0., 8.62457678e-02, 0., 0.,
          0., 0., 0., 0., 0., 1.06894121e-01, 4.75480072e-02,
          1.19306237e-01, 1.48023471e-01, 1.52022943e-01, 0.,
          6.07629977e-02, 3.01515181e-02, 7.19407126e-02, 0., 0., 0.,
          1.56987496e-02, 0., 0., 0., 4.41497602e-02, 0., 0.,
          1.30291909e-01 ]
      - [ 1.41170427e-01, 1.34072855e-01, 1.29842922e-01, 1.22481726e-01,
          7.56365359e-02, 1.43910304e-01, 1.13793865e-01, 2.07413137e-01,
          3.08305442e-01, 1.89776152e-01, 1.60268724e-01, 1.26138389e-01,
          3.18852633e-01, 1.93322465e-01, 1.47531137e-01, 9.46806744e-02,
          2.73938388e-01, 1.62373856e-01, 1.33516744e-01, 1.43058762e-01,
          1.96884140e-01, 1.23088963e-01, 1.20230481e-01, 2.67706245e-01,
          2.09941924e-01, 0., 0., 0., 8.53862986e-02, 0., 0.,
          2.28999823e-01, 6.31987602e-02, 8.52519795e-02, 9.20088738e-02,
          0., 1.15805939e-01, 0., 0., 0., 0., 0., 0., 0., 1.26773417e-01,
          0., 1.51826352e-01, 7.27093965e-02, 8.72616321e-02,
          7.96699822e-02, 0., 0., 5.70765845e-02, 0., 0., 0., 0., 0., 0.,
          0., 6.85315281e-02, 0., 6.52882159e-02, 1.34643331e-01 ]
      - [ 2.87356466e-01, 1.36506096e-01, 1.30391404e-01, 1.88544273e-01,
          2.01100141e-01, 1.77571073e-01, 1.84485048e-01, 2.51437485e-01,
          2.49923244e-01, 1.03709914e-01, 8.94962028e-02, 2.48503044e-01,
          2.73277372e-01, 8.19661543e-02, 2.48380117e-02, 1.74863175e-01,
          2.19606683e-01, 9.26410183e-02, 9.53571126e-02, 3.58501561e-02,
          1.12202138e-01, 0., 1.25215024e-01, 2.64370024e-01,
          2.46810436e-01, 2.39990391e-02, 4.77309339e-02, 6.02643229e-02,
          9.38831270e-02, 3.35526131e-02, 5.67821153e-02, 3.06595683e-01,
          6.95966408e-02, 1.13846190e-01, 8.91033262e-02, 2.61735450e-02,
          1.14627481e-01, 0., 0., 0., 4.50247452e-02, 5.16025610e-02, 0.,
          0., 7.91055635e-02, 0., 9.74265859e-02, 1.07401289e-01,
          4.46705669e-02, 0., 0., 1.77227855e-02, 1.64549518e-02, 0., 0.,
          0., 0., 1.52972788e-02, 0., 0., 5.92036732e-02, 3.26659679e-02,
          3.36228125e-02, 3.82804386e-02 ]
      - [ 1.23174936e-01, 0., 0., 2.40174290e-02, 6.28589317e-02, 0.,
          2.71816682e-02, 3.03054303e-01, 2.54305512e-01, 2.36297742e-01,
          1.80412665e-01, 2.54306465e-01, 1.82964399e-01, 1.54895812e-01,
          1.65202409e-01, 2.40025744e-01, 2.56183982e-01, 9.67212766e-02,
          1.31757319e-01, 1.92208290e-01, 2.10451677e-01, 1.29937336e-01,
          1.37387812e-01, 3.80438954e-01, 2.11737975e-01, 0., 0., 0.,
          3.81539240e-02, 0., 3.92261893e-02, 1.84145957e-01,
          7.80577511e-02, 0., 0., 0., 2.18022428e-02, 0., 0., 0.,
          2.31247712e-02, 0., 0., 0., 1.76672652e-01, 0., 1.16280727e-01,
          5.93142658e-02, 0., 5.50062507e-02, 0., 0., 1.11571230e-01,
          7.99059942e-02, 6.06128015e-02, 8.91576186e-02, 5.34043685e-02,
          0., 0., 0., 1.09011214e-02, 0., 0., 0. ]
      - [ 2.10504159e-01, 3.11709642e-02, 1.09548457e-01, 8.08183402e-02,
          1.16254181e-01, 1.22287750e-01, 1.31020576e-01, 3.05998594e-01,
          1.64553553e-01, 1.85905278e-01, 1.36684433e-01, 2.26318300e-01,
          1.67751759e-01, 2.11600423e-01, 1.67051435e-01, 1.93384990e-01,
          1.53567746e-01, 1.34226024e-01, 1.81232601e-01, 1.19272090e-01,
          1.10880733e-01, 8.95785615e-02, 1.83574364e-01, 3.60133916e-01,
          1.73780352e-01, 1.04946099e-01, 1.16362132e-01, 1.10954240e-01,
          6.29391447e-02, 8.80953297e-02, 1.30923733e-01, 1.59947917e-01,
          1.21460848e-01, 0., 0., 0., 3.18032764e-02, 0., 0., 0.,
          3.05874124e-02, 0., 2.12764349e-02, 0., 8.23207423e-02, 0.,
          8.31701607e-02, 1.85092032e-01, 1.25490263e-01, 1.42924726e-01,
          0., 0., 1.01695918e-01, 0., 0., 0., 0., 0., 0., 0.,
          6.80248216e-02, 0., 0., 1.30405843e-01 ]
      - [ 2.17416227e-01, 2.01054245e-01, 1.72883555e-01, 2.53875166e-01,
          6.69457540e-02, 0., 0., 3.58897328e-01, 1.83253244e-01,
          1.18283220e-01, 1.29018873e-01, 2.54687428e-01, 2.24552333e-01,
          1.70707777e-01, 1.94108546e-01, 1.72155336e-01, 2.58840144e-01,
          1.65822446e-01, 1.12433158e-01, 1.77496210e-01, 2.21865699e-02,
          0., 1.06402881e-01, 3.81307304e-01, 1.12867959e-01, 0., 0.,
          2.53954511e-02, 2.71426495e-02, 0., 0., 2.63497084e-01,
          9.63116661e-02, 5.92881627e-02, 4.15352508e-02, 0.,
          4.89321090e-02, 2.05293149e-02, 0., 0., 0., 0., 0., 0.,
          1.99764501e-02, 1.94699168e-02, 0., 8.83802697e-02, 0.,
          3.65112908e-02, 1.97815336e-02, 0., 1.23888683e-02, 0., 0., 0.,
          1.35713248e-02, 0., 0., 2.49159504e-02, 2.65711620e-02, 0., 0.,
          0. ]
      - [ 1.67457774e-01, 1.10008843e-01, 1.71188176e-01, 8.68510529e-02,
          2.13794500e-01, 2.17029095e-01, 1.20024763e-01, 1.90920711e-01,
          1.78162038e-01, 1.43802315e-01, 1.48690239e-01, 2.04500780e-01,
          2.88457900e-01, 2.22432598e-01, 1.74578398e-01, 1.66040942e-01,
          1.04976423e-01, 1.43591046e-01, 1.51993752e-01, 1.29044265e-01,
          2.00479820e-01, 1.82301909e-01, 1.79914191e-01, 1.31182954e-01,
          1.88940689e-01, 1.93885908e-01, 1.41460329e-01, 1.49554074e-01,
          1.76712513e-01, 9.94060114e-02, 9.19108167e-02, 9.97749567e-02,
          3.77676412e-02, 2.82334890e-02, 3.89590822e-02, 2.30465438e-02,
          3.58936824e-02, 0., 0., 0., 0., 0., 0., 0., 8.50799754e-02,
          4.28002514e-02, 1.00540087e-01, 4.38417494e-02, 9.53504443e-02,
          1.42924607e-01, 0., 0., 9.33777988e-02, 0., 0., 0.,
          2.09074374e-02, 0., 0., 0., 8.39044005e-02, 0., 0.,
          1.74084589e-01 ]
      - [ 2.08289742e-01, 1.52637362e-01, 4.07646038e-02, 1.71465710e-01,
          1.60474822e-01, 1.64036453e-01, 2.27180850e-02, 0.,
          2.92563707e-01, 1.73699483e-01, 2.15017959e-01, 2.21610248e-01,
          2.52897143e-01, 1.83144510e-01, 8.88618082e-02, 1.06153667e-01,
          1.89574555e-01, 1.09488949e-01, 1.44545376e-01, 1.39312655e-01,
          1.20989613e-01, 1.95104852e-01, 2.13958785e-01, 2.31683373e-01,
          1.93436012e-01, 1.29575670e-01, 1.32501200e-01, 1.53866231e-01,
          8.30565766e-02, 1.27705112e-01, 1.11150816e-01, 1.59665897e-01,
          6.84132427e-02, 0., 0., 8.45737308e-02, 1.11528605e-01, 0., 0.,
          0., 7.04505201e-03, 0., 0., 0., 1.49766877e-01, 1.19327158e-01,
          1.01671681e-01, 0., 1.10569552e-01, 0., 1.12499595e-01, 0.,
          9.98808518e-02, 0., 0., 0., 0., 0., 0., 0., 4.82984446e-02, 0.,
          0., 1.26120657e-01 ]
      - [ 3.44817251e-01, 1.43247470e-01, 1.20504312e-01, 1.56864524e-01,
          1.51677787e-01, 1.31207362e-01, 1.52081087e-01, 2.82927394e-01,
          3.03862602e-01, 1.05796397e-01, 1.17526717e-01, 0.,
          3.20873171e-01, 4.44515049e-02, 0., 7.02652186e-02,
          2.76612639e-01, 1.87925279e-01, 1.19686976e-01, 3.44975628e-02,
          6.74578696e-02, 1.08430810e-01, 3.19804959e-02, 2.47187033e-01,
          2.99533635e-01, 5.11790849e-02, 0., 2.16219407e-02,
          5.46039343e-02, 5.81255928e-02, 2.98689678e-02, 2.24347964e-01,
          4.90439646e-02, 1.90483518e-02, 8.74239728e-02, 9.73407775e-02,
          1.61196843e-01, 3.01603545e-02, 0., 0., 0., 0., 0., 0.,
          1.63177088e-01, 9.28528383e-02, 0., 0., 1.75626632e-02, 0., 0.,
          3.76927070e-02, 5.75856008e-02, 0., 0., 0., 3.84048969e-02, 0.,
          0., 0., 5.91288321e-02, 5.12860678e-02, 0., 0. ]
      - [ 1.74115852e-01, 1.27139136e-01, 1.60745919e-01, 2.50091255e-01,
          8.50518718e-02, 4.22241800e-02, 0., 3.03518385e-01,
          7.57013112e-02, 9.75953639e-02, 9.98989642e-02, 3.44367892e-01,
          1.78978428e-01, 1.67303130e-01, 1.72381654e-01, 1.77593157e-01,
          1.61611542e-01, 1.36439443e-01, 1.48498610e-01, 2.60651201e-01,
          5.66078909e-02, 0., 1.12318136e-01, 3.38677853e-01,
          1.60037622e-01, 0., 1.77511554e-02, 2.36456126e-01,
          1.24009758e-01, 1.19663179e-01, 1.24711119e-01, 1.46871954e-01,
          9.11526009e-02, 6.94423839e-02, 4.84585576e-02, 0.,
          6.07237145e-02, 2.67085359e-02, 0., 2.18867771e-02,
          1.13889435e-02, 0., 0., 0., 2.90776789e-02, 0., 6.79615512e-02,
          1.77016407e-02, 4.60062996e-02, 1.54201807e-02, 0.,
          1.01328082e-01, 1.05622225e-01, 0., 0., 0., 0., 0., 0.,
          1.31799653e-01, 1.32543758e-01, 0., 0., 0. ]
      - [ 2.05282986e-01, 0., 3.32449153e-02, 2.40127128e-02,
          6.90552294e-02, 0., 7.97852650e-02, 3.61513168e-01,
          2.38228336e-01, 1.25824302e-01, 1.26913086e-01, 1.37297586e-01,
          2.13147730e-01, 8.16834643e-02, 1.55386135e-01, 2.64013708e-01,
          1.59007654e-01, 9.03409198e-02, 1.48594186e-01, 9.95717049e-02,
          1.11449942e-01, 1.72617525e-01, 1.73733756e-01, 2.96914101e-01,
          2.31197059e-01, 1.19696602e-01, 8.42614248e-02, 1.78993508e-01,
          1.63066059e-01, 7.34432265e-02, 1.19656004e-01, 2.21785426e-01,
          1.65367573e-01, 0., 0., 0., 5.78801297e-02, 0., 0., 0., 0., 0.,
          0., 0., 1.26942202e-01, 8.22908804e-02, 0., 1.37567431e-01,
          9.83966440e-02, 8.97848010e-02, 7.79091120e-02, 0.,
          9.30698365e-02, 0., 0., 0., 0., 0., 0., 0., 3.68531197e-02, 0.,
          0., 1.61580026e-01 ]
      - [ 1.07863016e-01, 6.20984882e-02, 0., 0., 9.35472995e-02,
          3.56757715e-02, 7.83601254e-02, 3.68828654e-01, 1.73680454e-01,
          1.33484274e-01, 1.31492317e-01, 1.21659212e-01, 1.69506297e-01,
          1.77610800e-01, 1.05627246e-01, 3.36672634e-01, 1.66932479e-01,
          8.87759253e-02, 1.51706785e-01, 1.02563426e-01, 1.23479493e-01,
          1.67391375e-01, 2.23327503e-01, 2.81289876e-01, 2.38846034e-01,
          1.01967633e-01, 9.43078622e-02, 1.81225851e-01, 1.33925810e-01,
          1.16356313e-01, 1.40515789e-01, 1.95281997e-01, 0., 0., 0., 0.,
          0., 0., 0., 0., 1.82823222e-02, 0., 0., 0., 1.27651587e-01, 0.,
          7.73218125e-02, 2.11675182e-01, 8.41697305e-02, 1.35521740e-01,
          7.90600926e-02, 0., 1.14704102e-01, 0., 0., 0., 0., 0., 0., 0.,
          4.93037552e-02, 0., 0., 1.12539321e-01 ]
      - [ 2.50096917e-01, 0., 0., 0., 2.26140860e-02, 0., 3.07677556e-02,
          3.42771918e-01, 2.54871517e-01, 3.08029681e-01, 1.86352789e-01,
          1.29429609e-01, 0., 1.01474889e-01, 2.25643665e-01,
          2.74534911e-01, 3.21317375e-01, 2.82312900e-01, 0.,
          9.55590755e-02, 9.08664428e-03, 5.57736233e-02, 7.12310299e-02,
          3.94324839e-01, 1.11970603e-01, 0., 0., 5.95930144e-02,
          4.86274473e-02, 0., 0., 0., 1.74747854e-01, 1.37715146e-01, 0.,
          0., 1.18242808e-01, 0., 0., 0., 1.28504550e-02, 0., 0., 0.,
          1.53843045e-01, 7.87196383e-02, 0., 0., 0., 2.73621883e-02, 0.,
          6.59671752e-03, 0., 0., 0., 1.06525877e-02, 3.94862592e-02, 0.,
          0., 0., 1.81732886e-02, 0., 0., 0. ]
      - [ 2.92469919e-01, 0., 4.29982468e-02, 0., 6.80204034e-02, 0.,
          7.52627403e-02, 3.34250718e-01, 3.04106325e-01, 1.83757797e-01,
          1.88065916e-01, 1.70198038e-01, 1.60357416e-01, 1.15035824e-01,
          1.59300402e-01, 2.70947069e-01, 3.68440092e-01, 1.53539360e-01,
          9.22894999e-02, 5.58015518e-02, 3.02571934e-02, 0.,
          1.13997921e-01, 3.72765392e-01, 1.45598754e-01, 6.01472296e-02,
          3.97090018e-02, 0., 5.26425317e-02, 0., 3.03971171e-02,
          6.99268132e-02, 1.91960126e-01, 0., 5.82356937e-02, 0.,
          8.64432827e-02, 0., 0., 0., 3.75547782e-02, 0., 0., 0.,
          1.05717115e-01, 1.00650221e-01, 0., 1.03969790e-01,
          1.57299656e-02, 0., 3.74138355e-02, 0., 8.71013552e-02, 0.,
          4.24039960e-02, 0., 0., 4.35148329e-02, 0., 0., 8.46560746e-02,
          0., 3.60867456e-02, 2.90920436e-02 ]
      - [ 3.37249368e-01, 0., 0., 0., 1.97049845e-02, 8.17234907e-03,
          9.13111791e-02, 4.06204671e-01, 2.03254119e-01, 2.89435476e-01,
          1.15175374e-01, 1.15520000e-01, 1.17180943e-01, 1.84015766e-01,
          1.96928635e-01, 1.50227293e-01, 4.21391487e-01, 0., 0.,
          8.61562788e-02, 3.09232678e-02, 6.88750967e-02, 1.06646456e-02,
          3.97744000e-01, 1.30937576e-01, 1.02761853e-02, 0., 0.,
          1.63955372e-02, 0., 0., 0., 2.21960127e-01, 6.54066354e-02, 0.,
          0., 9.85249206e-02, 0., 0., 0., 0., 0., 0., 0., 7.35264644e-02,
          8.20887908e-02, 9.37551558e-02, 0., 1.19028250e-02,
          2.00180858e-02, 0., 0., 5.46517922e-03, 0., 0., 0.,
          1.93437189e-02, 4.59564943e-03, 0., 0., 1.22205121e-02, 0., 0.,
          0. ]
      - [ 2.36560658e-01, 1.07287668e-01, 1.23585217e-01, 1.00531816e-01,
          1.68854415e-01, 9.90165472e-02, 7.51638636e-02, 2.20806196e-01,
          2.77569264e-01, 1.76432058e-01, 1.33930087e-01, 2.20847338e-01,
          2.24396870e-01, 1.65721446e-01, 1.27563491e-01, 1.48447916e-01,
          2.20591262e-01, 8.80318508e-02, 1.35186672e-01, 9.91261825e-02,
          1.34171844e-01, 1.60501689e-01, 1.65578008e-01, 3.15744102e-01,
          1.94137976e-01, 4.71544266e-02, 1.66796610e-01, 1.40071809e-01,
          9.70908105e-02, 1.38274193e-01, 9.39595997e-02, 1.58552095e-01,
          8.13667849e-02, 0., 0., 0., 5.70127927e-02, 0., 0., 0., 0., 0.,
          0., 0., 1.32146657e-01, 0., 1.26745179e-01, 1.44584909e-01,
          1.38460472e-01, 1.08272627e-01, 0., 0., 1.00432768e-01, 0., 0.,
          0., 0., 0., 0., 0., 4.18833569e-02, 0., 0., 1.05478972e-01 ]
      - [ 1.17036127e-01, 8.42387974e-02, 3.49043086e-02, 3.49348746e-02,
          1.24689735e-01, 5.41926771e-02, 3.99712436e-02, 3.03721160e-01,
          1.37808353e-01, 1.47700161e-01, 9.47263688e-02, 2.18762830e-02,
          1.71385840e-01, 1.19583063e-01, 1.46060854e-01, 3.75090092e-01,
          1.41856760e-01, 4.02962118e-02, 7.26554915e-02, 2.52546251e-01,
          1.19582690e-01, 0., 1.35685027e-01, 3.56651783e-01,
          2.01636776e-01, 3.80697586e-02, 6.17053173e-02, 2.57354617e-01,
          1.98497683e-01, 3.83680016e-02, 1.74271598e-01, 2.43136942e-01,
          3.36807705e-02, 6.12916462e-02, 0., 0., 5.09623997e-02, 0.,
          3.54941040e-02, 0., 4.78299111e-02, 0., 6.02632165e-02, 0.,
          7.59332106e-02, 0., 0., 0., 4.30215523e-02, 0., 0.,
          1.45040661e-01, 1.60283625e-01, 0., 0., 0., 0., 0., 0.,
          1.33679733e-01, 1.68455720e-01, 0., 0., 0. ]
      - [ 1.48230195e-01, 1.71558753e-01, 7.99862742e-02, 7.07559958e-02,
          1.37195319e-01, 1.08918250e-01, 1.11545697e-01, 3.05246651e-01,
          2.27329120e-01, 8.46174359e-02, 1.48675472e-01, 2.28990495e-01,
          2.35771850e-01, 1.81217849e-01, 1.32936001e-01, 1.74070790e-01,
          2.57589221e-01, 8.88100341e-02, 1.10719725e-01, 1.17563553e-01,
          1.05181225e-01, 1.27693832e-01, 2.01021627e-01, 3.23437631e-01,
          2.44358927e-01, 0., 0., 0., 5.93964495e-02, 0., 0.,
          2.62987196e-01, 9.64906439e-02, 1.19301058e-01, 0., 0.,
          7.35469535e-02, 0., 0., 0., 2.58190054e-02, 0., 0., 0.,
          8.22365731e-02, 0., 9.64044482e-02, 1.62636355e-01,
          8.41692463e-02, 7.95475170e-02, 0., 0., 4.63921726e-02, 0., 0.,
          0., 0., 0., 0., 0., 7.98781291e-02, 0., 5.68238907e-02,
          1.69396475e-01 ]
      - [ 2.72308469e-01, 1.76640108e-01, 0., 2.67089028e-02,
          5.90374395e-02, 3.56832817e-02, 8.02256837e-02, 4.01965320e-01,
          1.82470575e-01, 2.60039806e-01, 2.01969936e-01, 7.58699924e-02,
          1.56420201e-01, 9.23653319e-02, 1.66242003e-01, 2.21236244e-01,
          3.30394626e-01, 1.44087225e-01, 5.05361669e-02, 1.02838606e-01,
          5.60892448e-02, 9.97454971e-02, 8.20419118e-02, 3.14825684e-01,
          2.40768716e-01, 1.91038363e-02, 0., 0., 4.70101163e-02, 0.,
          5.46546578e-02, 1.72958285e-01, 1.32095084e-01, 1.69695050e-01,
          0., 0., 1.16003230e-01, 0., 0., 0., 0., 0., 0., 0.,
          1.29921377e-01, 9.05619264e-02, 0., 9.49908495e-02,
          4.45843637e-02, 3.10700256e-02, 4.19719927e-02, 0.,
          4.89319079e-02, 0., 0., 0., 0., 0., 0., 0., 5.25169261e-02,
          4.29280289e-02, 2.93923579e-02, 4.79344018e-02 ]
      - [ 2.37481534e-01, 0., 7.54533410e-02, 5.18068671e-02,
          5.98520190e-02, 0., 3.12470179e-02, 3.08086038e-01,
          3.37127805e-01, 1.54627189e-01, 1.49833947e-01, 1.37170970e-01,
          7.01260641e-02, 1.12763368e-01, 1.28743410e-01, 2.39458278e-01,
          1.38987377e-01, 9.44720134e-02, 1.00724816e-01, 1.51696265e-01,
          9.37423185e-02, 1.38615593e-01, 1.95325315e-01, 2.24012375e-01,
          2.76718736e-01, 1.76196888e-01, 6.78341389e-02, 1.31339177e-01,
          9.87136960e-02, 1.22497886e-01, 9.07963291e-02, 2.68795431e-01,
          1.77725941e-01, 0., 0., 0., 2.80050486e-02, 0., 0., 0., 0., 0.,
          0., 0., 7.23575652e-02, 6.99588582e-02, 9.05794576e-02,
          1.99914083e-01, 1.84044093e-01, 5.61406873e-02, 0., 0.,
          7.14733228e-02, 0., 0., 0., 0., 0., 0., 0., 3.50630321e-02, 0.,
          0., 1.37431040e-01 ]
      - [ 3.66390944e-02, 6.94710687e-02, 8.53594393e-02, 7.31606334e-02,
          5.00954129e-02, 9.11260098e-02, 0., 2.83253714e-02,
          4.65282768e-01, 1.83845758e-01, 6.93722144e-02, 1.34648517e-01,
          6.75595850e-02, 1.32067725e-02, 3.84529442e-01, 0.,
          3.17538530e-01, 1.62267759e-01, 1.03468485e-01, 2.65771039e-02,
          1.18717171e-01, 5.07337563e-02, 3.71244937e-01, 9.73052159e-02,
          2.86398202e-01, 6.27891943e-02, 3.30678448e-02, 7.58693591e-02,
          8.04008245e-02, 5.68431914e-02, 0., 4.32482995e-02,
          8.50288197e-02, 0., 0., 0., 6.67578578e-02, 0., 0., 0.,
          3.91717292e-02, 5.79693839e-02, 7.97857568e-02, 9.87160131e-02,
          1.31265983e-01, 0., 0., 9.51067954e-02, 2.46102884e-01,
          8.38863105e-02, 0., 0., 1.01286873e-01, 0., 0., 0., 0., 0., 0.,
          0., 0., 0., 0., 0. ]
      - [ 1.21287547e-01, 3.93321179e-02, 6.06013387e-02, 5.36706597e-02,
          9.50482637e-02, 8.85824114e-02, 1.03643835e-01, 3.90177846e-01,
          2.22644776e-01, 1.59451276e-01, 1.26445174e-01, 0.,
          1.69242814e-01, 0., 1.96912199e-01, 4.37475055e-01,
          2.19581082e-01, 1.35536626e-01, 5.85780106e-02, 8.74870792e-02,
          1.31077409e-01, 6.65861368e-02, 2.00461358e-01, 3.57339412e-01,
          1.11159556e-01, 3.97215225e-02, 0., 6.35501966e-02,
          8.81403238e-02, 4.93016988e-02, 8.37713555e-02, 3.28538656e-01,
          1.05269011e-02, 0., 0., 5.15162721e-02, 8.96418244e-02,
          4.67890278e-02, 3.40096243e-02, 0., 2.86313277e-02,
          4.02836911e-02, 0., 5.78898303e-02, 7.66937062e-02, 0., 0., 0.,
          6.29730895e-02, 0., 0., 0., 3.84388082e-02, 0., 0., 0.,
          4.08708118e-02, 3.59194651e-02, 0., 0., 3.79552804e-02, 0.,
          2.26531830e-02, 3.27391922e-02 ]
      - [ 4.53492343e-01, 3.88289541e-02, 0., 0., 3.58656608e-02, 0., 0.,
          0., 4.78020668e-01, 1.84933931e-01, 0., 1.36315361e-01,
          5.10629639e-02, 9.70609710e-02, 1.15750737e-01, 1.78076118e-01,
          4.42237526e-01, 1.24925405e-01, 0., 1.26799643e-01, 0., 0.,
          1.04121298e-01, 1.80360302e-01, 4.08485264e-01, 1.75413359e-02,
          0., 0., 3.75610255e-02, 0., 0., 0., 8.83300975e-02,
          9.63253248e-03, 0., 0., 2.41024960e-02, 0., 0., 0., 0., 0., 0.,
          0., 0., 0., 0., 0., 0., 0., 0., 0., 0., 0., 0., 0.,
          6.44098222e-02, 1.46599039e-02, 0., 0., 3.28461640e-02, 0., 0.,
          0. ]
      - [ 4.86214049e-02, 3.62005346e-02, 0., 1.05833158e-01,
          9.53489542e-02, 0., 5.04064485e-02, 2.13015169e-01,
          4.00870889e-01, 1.37159437e-01, 1.70993283e-01, 1.44217342e-01,
          1.72030091e-01, 2.02421442e-01, 3.16337645e-01, 5.12539409e-02,
          2.63984382e-01, 1.39019251e-01, 9.44454074e-02, 7.94173554e-02,
          1.45444527e-01, 1.59981415e-01, 3.50411743e-01, 1.35382861e-01,
          2.88494110e-01, 4.78376187e-02, 0., 6.68812990e-02,
          8.67308900e-02, 0., 1.98712628e-02, 1.77490786e-01,
          4.25049029e-02, 0., 0., 0., 3.98028865e-02, 0., 0., 0.,
          1.81331374e-02, 3.87409106e-02, 6.59518540e-02, 1.25626534e-01,
          1.42151013e-01, 0., 2.70196199e-02, 5.82812950e-02,
          1.34047523e-01, 7.21133053e-02, 6.99173957e-02, 8.09110329e-02,
          1.13899410e-01, 0., 0., 0., 2.31959876e-02, 0., 0., 0.,
          3.37029882e-02, 0., 0., 6.96442425e-02 ]
      - [ 2.55584955e-01, 1.26732290e-01, 1.18222773e-01, 1.05843604e-01,
          1.06321894e-01, 1.83434814e-01, 1.20638944e-01, 8.87414142e-02,
          2.94743180e-01, 1.72122821e-01, 2.06613839e-01, 2.41886109e-01,
          2.21282974e-01, 1.32851169e-01, 6.43806309e-02, 4.63385060e-02,
          2.29021206e-01, 1.28995657e-01, 1.38338417e-01, 1.27704486e-01,
          1.43054143e-01, 1.61554068e-01, 1.84262827e-01, 2.40478992e-01,
          2.05033720e-01, 1.28468305e-01, 1.24009922e-01, 1.31505474e-01,
          1.47913650e-01, 1.32769614e-01, 7.26057664e-02, 1.74492911e-01,
          7.67958835e-02, 0., 7.66243041e-02, 7.10615069e-02,
          9.31958258e-02, 0., 0., 0., 1.04986476e-02, 0., 0., 0.,
          1.14700571e-01, 1.02674671e-01, 1.18689016e-01, 4.11640108e-02,
          1.87869012e-01, 8.10302794e-02, 0., 0., 8.10506493e-02, 0., 0.,
          0., 0., 0., 0., 0., 5.47542460e-02, 0., 9.79896858e-02, 0. ]
      - [ 2.94341832e-01, 0., 0., 0., 5.72786890e-02, 0., 1.17407493e-01,
          3.22901696e-01, 3.51987839e-01, 1.76767081e-01, 1.82854220e-01,
          9.03953314e-02, 1.35996446e-01, 1.34602085e-01, 2.15917647e-01,
          2.74294019e-01, 3.61965328e-01, 1.06521353e-01, 6.80866688e-02,
          8.28024670e-02, 5.97281046e-02, 9.22267884e-02, 1.59662008e-01,
          3.20937365e-01, 1.57330111e-01, 6.78645149e-02, 5.05762026e-02,
          6.19902611e-02, 7.52469227e-02, 0., 2.09268741e-02,
          5.24723008e-02, 2.22161010e-01, 0., 0., 0., 8.22505876e-02, 0.,
          0., 0., 0., 0., 0., 0., 9.90813375e-02, 8.80780816e-02,
          9.24457759e-02, 0., 5.69905080e-02, 2.74830759e-02,
          4.24348451e-02, 0., 5.63836545e-02, 0., 0., 0., 0., 0., 0., 0.,
          5.11819497e-02, 4.37443033e-02, 0., 4.49248664e-02 ]
      - [ 5.49477488e-02, 9.16263908e-02, 8.06940868e-02, 6.41270056e-02,
          6.38486892e-02, 6.03904091e-02, 9.36853811e-02, 8.40064734e-02,
          4.36789453e-01, 1.71468645e-01, 1.29128829e-01, 1.08988218e-01,
          6.12912551e-02, 8.56516659e-02, 3.36303145e-01, 1.80362061e-01,
          3.21347177e-01, 1.70948341e-01, 1.15517497e-01, 4.62093391e-02,
          1.06293917e-01, 9.06592458e-02, 3.49677771e-01, 1.09662175e-01,
          2.68302590e-01, 0., 6.34493753e-02, 2.05648653e-02,
          1.21999301e-01, 3.71283926e-02, 4.86504436e-02, 7.71296546e-02,
          5.53328991e-02, 0., 2.49641407e-02, 0., 7.72547424e-02, 0., 0.,
          0., 1.19550034e-01, 1.09893680e-01, 9.09980983e-02, 0.,
          1.36664748e-01, 0., 0., 7.32693151e-02, 2.55715311e-01, 0., 0.,
          0., 1.11376353e-01, 0., 0., 0., 0., 0., 0., 0., 0., 0., 0., 0. ]
      - [ 7.09558427e-02, 2.41569709e-02, 8.12215656e-02, 1.13483287e-01,
          6.00827448e-02, 1.20079234e-01, 1.01347938e-01, 4.26568687e-02,
          3.56296420e-01, 2.53317624e-01, 2.60029346e-01, 4.54499237e-02,
          1.53546214e-01, 1.75638840e-01, 2.94990957e-01, 1.32002845e-01,
          2.60861129e-01, 2.17549667e-01, 1.22594886e-01, 1.47180915e-01,
          1.93953872e-01, 1.76654011e-01, 1.30644917e-01, 1.96949452e-01,
          3.03775907e-01, 0., 0., 2.17419341e-02, 8.57814327e-02,
          4.08673882e-02, 3.16122286e-02, 0., 1.26261294e-01, 0., 0., 0.,
          5.64028956e-02, 0., 0., 0., 6.97316304e-02, 1.20429099e-01,
          9.45217833e-02, 6.46731332e-02, 1.37455732e-01, 0.,
          5.34035936e-02, 0., 2.43835092e-01, 0., 0., 0., 1.13050759e-01,
          0., 0., 0., 0., 0., 0., 0., 0., 0., 0., 0. ]
      - [ 4.14758086e-01, 8.51658881e-02, 4.19255942e-02, 4.29573506e-02,
          4.71059345e-02, 0., 8.69129822e-02, 8.24843943e-02,
          4.43764180e-01, 1.51468545e-01, 1.26705065e-01, 6.67133480e-02,
          1.66374430e-01, 1.14318222e-01, 7.82389492e-02, 2.03327894e-01,
          3.40126127e-01, 1.98195085e-01, 2.61492729e-02, 4.90647703e-02,
          1.33189932e-01, 5.15917093e-02, 1.36423081e-01, 1.73633412e-01,
          3.58794272e-01, 1.03517838e-01, 3.53072323e-02, 0.,
          8.40556547e-02, 6.13003261e-02, 7.01185986e-02, 2.10298181e-01,
          3.69201265e-02, 0., 0., 9.69149172e-03, 5.79005927e-02, 0.,
          4.93805148e-02, 7.88815469e-02, 6.97432756e-02, 0., 0., 0.,
          7.86714107e-02, 0., 4.81519103e-02, 4.41225469e-02, 0., 0.,
          5.17703220e-02, 0., 6.16000295e-02, 0., 0., 4.33124676e-02,
          1.35721080e-02, 0., 3.50539796e-02, 5.03878631e-02,
          5.46266809e-02, 0., 0., 0. ]
      - [ 2.53469139e-01, 2.00085193e-01, 0., 3.53656448e-02,
          6.77232295e-02, 7.77288452e-02, 1.55884638e-01, 3.50043178e-01,
          2.71164864e-01, 1.87444136e-01, 1.69035137e-01, 1.49888009e-01,
          1.40860960e-01, 2.17522010e-01, 2.25649238e-01, 6.68907687e-02,
          3.12062353e-01, 1.74294129e-01, 5.53250909e-02, 4.69794720e-02,
          1.20027326e-01, 6.95772991e-02, 1.33280024e-01, 3.33881438e-01,
          1.60795271e-01, 0., 4.07726988e-02, 5.90296574e-02,
          7.00049996e-02, 3.81977595e-02, 7.19729662e-02, 1.73382804e-01,
          1.96440592e-01, 8.11479390e-02, 3.66227962e-02, 0.,
          1.02292053e-01, 0., 0., 0., 0., 0., 0., 0., 9.97088477e-02,
          8.94654915e-02, 1.00066155e-01, 6.28615543e-02, 0.,
          4.62047309e-02, 0., 0., 4.65793014e-02, 4.01469171e-02, 0.,
          2.62967292e-02, 1.81539040e-02, 0., 0., 0., 5.37065826e-02,
          4.38559055e-02, 0., 0. ]
      - [ 7.71941394e-02, 8.11440870e-02, 1.23599194e-01, 1.30855978e-01,
          1.40355602e-01, 1.17337495e-01, 1.18424103e-01, 2.80396104e-01,
          2.38965765e-01, 1.36954725e-01, 1.89585090e-01, 1.60550401e-01,
          1.64847910e-01, 1.39575571e-01, 1.72753185e-01, 2.75993943e-01,
          1.51068553e-01, 7.89699405e-02, 9.93070975e-02, 1.27922565e-01,
          8.31333473e-02, 1.99987471e-01, 1.34570986e-01, 3.22378367e-01,
          2.18342379e-01, 9.19411033e-02, 1.07040323e-01, 1.58393621e-01,
          8.74468684e-02, 9.16662365e-02, 8.26454312e-02, 2.59597570e-01,
          1.36583522e-01, 0., 0., 0., 4.58622016e-02, 1.85990594e-02, 0.,
          0., 9.31320246e-03, 0., 0., 3.00252326e-02, 7.67986327e-02,
          4.88796607e-02, 7.40143433e-02, 1.62707031e-01, 1.32367685e-01,
          9.18620974e-02, 7.37602338e-02, 0., 8.66177902e-02, 0., 0., 0.,
          0., 0., 0., 0., 6.46915734e-02, 0., 0., 1.61552668e-01 ]
      - [ 2.02237189e-01, 9.63124037e-02, 1.14019543e-01, 1.08682469e-01,
          1.35851488e-01, 8.38998780e-02, 1.29973605e-01, 2.34252125e-01,
          3.08682323e-01, 1.78533986e-01, 1.25458419e-01, 1.81590155e-01,
          1.83559582e-01, 1.23165891e-01, 1.54469982e-01, 2.00432584e-01,
          1.85606271e-01, 8.81325752e-02, 1.09777488e-01, 1.29893273e-01,
          1.18254259e-01, 1.40704587e-01, 1.49659857e-01, 2.67275155e-01,
          2.86973596e-01, 8.51484835e-02, 1.30030558e-01, 1.33120075e-01,
          1.36511281e-01, 4.98421229e-02, 1.08032815e-01, 2.27663040e-01,
          1.38378024e-01, 0., 2.82585043e-02, 0., 5.36357574e-02, 0., 0.,
          0., 0., 0., 0., 0., 8.09146911e-02, 3.24386582e-02,
          9.82446894e-02, 1.67137876e-01, 1.69192806e-01, 1.13164648e-01,
          0., 0., 6.62165508e-02, 0., 0., 0., 0., 0., 0., 0.,
          2.04117410e-02, 0., 0., 1.30854428e-01 ]
      - [ 1.26051322e-01, 3.79252397e-02, 3.03603560e-02, 4.86368276e-02,
          7.53327012e-02, 6.69612437e-02, 5.36891632e-02, 4.45302933e-01,
          2.38730505e-01, 1.17781505e-01, 6.52696714e-02, 7.98337385e-02,
          1.19148098e-01, 1.07385822e-01, 1.48456559e-01, 1.97032347e-01,
          1.16978027e-01, 1.26426920e-01, 6.06384538e-02, 4.01415080e-02,
          8.61787573e-02, 1.51622996e-01, 1.51367724e-01, 3.02817434e-01,
          2.71370023e-01, 1.57282636e-01, 1.64490059e-01, 1.04785770e-01,
          1.76176757e-01, 1.94869220e-01, 1.05544530e-01, 0.,
          4.42812517e-02, 0., 0., 0., 1.28907710e-02, 0., 0., 0., 0., 0.,
          0., 0., 1.12969056e-01, 0., 6.98891580e-02, 3.19675505e-01,
          1.32662043e-01, 1.65708438e-01, 0., 0., 1.20375231e-01, 0., 0.,
          0., 0., 0., 0., 0., 6.15525879e-02, 0., 0., 1.34562761e-01 ]
      - [ 2.22728953e-01, 1.36603191e-01, 1.32843673e-01, 1.86053723e-01,
          5.44932485e-02, 1.13030352e-01, 1.90207750e-01, 1.35500848e-01,
          3.49537194e-01, 1.64057136e-01, 1.15253054e-01, 2.13068157e-01,
          1.15404233e-01, 1.85118511e-01, 8.18551406e-02, 2.28558257e-01,
          2.07954869e-01, 1.11249596e-01, 9.85914394e-02, 9.27056298e-02,
          1.23130731e-01, 1.60340697e-01, 1.63419366e-01, 2.35930368e-01,
          2.43565634e-01, 1.08814118e-02, 1.09073505e-01, 1.54206052e-01,
          1.44450352e-01, 1.22327276e-01, 1.28478661e-01, 2.50232488e-01,
          1.38816582e-02, 1.54241800e-01, 0., 0., 8.50883648e-02, 0., 0.,
          2.27665063e-02, 0., 0., 0., 0., 8.88859779e-02, 7.33035430e-02,
          1.04633003e-01, 1.02474168e-01, 9.71348360e-02, 0., 0., 0.,
          4.26249877e-02, 0., 0., 2.51745246e-02, 0., 0., 0.,
